{{-0.16095499694347382,-0.1137690469622612,0.007502465508878231,0.4273403584957123,-0.01000309456139803,0.10228162258863449,0.1828852742910385,0.23293346166610718,-0.19284990429878235,-0.07248648256063461,0.01379157230257988,0.0790635272860527,-0.035281792283058167,0.03577703982591629,0.18460391461849213,0.155196413397789,-0.1481945961713791,0.3634735941886902,-0.165604829788208,-0.3062838613986969,0.30788663029670715,-0.12180127948522568,0.010626131668686867,-0.388523668050766,-0.338445246219635,-0.3710474967956543,0.24486559629440308,0.06179158017039299,-0.2855197489261627,0.02519821934401989,0.09073954075574875,-0.2914988398551941,},{-0.16095499694347382,-0.1137690469622612,0.007502465508878231,0.4273403584957123,-0.01000309456139803,0.10228162258863449,0.1828852742910385,0.23293346166610718,-0.19284990429878235,-0.07248648256063461,0.01379157230257988,0.0790635272860527,-0.035281792283058167,0.03577703982591629,0.18460391461849213,0.155196413397789,-0.1481945961713791,0.3634735941886902,-0.165604829788208,-0.3062838613986969,0.30788663029670715,-0.12180127948522568,0.010626131668686867,-0.388523668050766,-0.338445246219635,-0.3710474967956543,0.24486559629440308,0.06179158017039299,-0.2855197489261627,0.02519821934401989,0.09073954075574875,-0.2914988398551941,},{-0.16095499694347382,-0.1137690469622612,0.007502465508878231,0.4273403584957123,-0.01000309456139803,0.10228162258863449,0.1828852742910385,0.23293346166610718,-0.19284990429878235,-0.07248648256063461,0.01379157230257988,0.0790635272860527,-0.035281792283058167,0.03577703982591629,0.18460391461849213,0.155196413397789,-0.1481945961713791,0.3634735941886902,-0.165604829788208,-0.3062838613986969,0.30788663029670715,-0.12180127948522568,0.010626131668686867,-0.388523668050766,-0.338445246219635,-0.3710474967956543,0.24486559629440308,0.06179158017039299,-0.2855197489261627,0.02519821934401989,0.09073954075574875,-0.2914988398551941,},{-0.16095499694347382,-0.1137690469622612,0.007502465508878231,0.4273403584957123,-0.01000309456139803,0.10228162258863449,0.1828852742910385,0.23293346166610718,-0.19284990429878235,-0.07248648256063461,0.01379157230257988,0.0790635272860527,-0.035281792283058167,0.03577703982591629,0.18460391461849213,0.155196413397789,-0.1481945961713791,0.3634735941886902,-0.165604829788208,-0.3062838613986969,0.30788663029670715,-0.12180127948522568,0.010626131668686867,-0.388523668050766,-0.338445246219635,-0.3710474967956543,0.24486559629440308,0.06179158017039299,-0.2855197489261627,0.02519821934401989,0.09073954075574875,-0.2914988398551941,},{-0.16095499694347382,-0.1137690469622612,0.007502465508878231,0.4273403584957123,-0.01000309456139803,0.10228162258863449,0.1828852742910385,0.23293346166610718,-0.19284990429878235,-0.07248648256063461,0.01379157230257988,0.0790635272860527,-0.035281792283058167,0.03577703982591629,0.18460391461849213,0.155196413397789,-0.1481945961713791,0.3634735941886902,-0.165604829788208,-0.3062838613986969,0.30788663029670715,-0.12180127948522568,0.010626131668686867,-0.388523668050766,-0.338445246219635,-0.3710474967956543,0.24486559629440308,0.06179158017039299,-0.2855197489261627,0.02519821934401989,0.09073954075574875,-0.2914988398551941,},{-0.16095499694347382,-0.1137690469622612,0.007502465508878231,0.4273403584957123,-0.01000309456139803,0.10228162258863449,0.1828852742910385,0.23293346166610718,-0.19284990429878235,-0.07248648256063461,0.01379157230257988,0.0790635272860527,-0.035281792283058167,0.03577703982591629,0.18460391461849213,0.155196413397789,-0.1481945961713791,0.3634735941886902,-0.165604829788208,-0.3062838613986969,0.30788663029670715,-0.12180127948522568,0.010626131668686867,-0.388523668050766,-0.338445246219635,-0.3710474967956543,0.24486559629440308,0.06179158017039299,-0.2855197489261627,0.02519821934401989,0.09073954075574875,-0.2914988398551941,},{-0.16095499694347382,-0.1137690469622612,0.007502465508878231,0.4273403584957123,-0.01000309456139803,0.10228162258863449,0.1828852742910385,0.23293346166610718,-0.19284990429878235,-0.07248648256063461,0.01379157230257988,0.0790635272860527,-0.035281792283058167,0.03577703982591629,0.18460391461849213,0.155196413397789,-0.1481945961713791,0.3634735941886902,-0.165604829788208,-0.3062838613986969,0.30788663029670715,-0.12180127948522568,0.010626131668686867,-0.388523668050766,-0.338445246219635,-0.3710474967956543,0.24486559629440308,0.06179158017039299,-0.2855197489261627,0.02519821934401989,0.09073954075574875,-0.2914988398551941,},{-0.16095499694347382,-0.1137690469622612,0.007502465508878231,0.4273403584957123,-0.01000309456139803,0.10228162258863449,0.1828852742910385,0.23293346166610718,-0.19284990429878235,-0.07248648256063461,0.01379157230257988,0.0790635272860527,-0.035281792283058167,0.03577703982591629,0.18460391461849213,0.155196413397789,-0.1481945961713791,0.3634735941886902,-0.165604829788208,-0.3062838613986969,0.30788663029670715,-0.12180127948522568,0.010626131668686867,-0.388523668050766,-0.338445246219635,-0.3710474967956543,0.24486559629440308,0.06179158017039299,-0.2855197489261627,0.02519821934401989,0.09073954075574875,-0.2914988398551941,},{-0.16095499694347382,-0.1137690469622612,0.007502465508878231,0.4273403584957123,-0.01000309456139803,0.10228162258863449,0.1828852742910385,0.23293346166610718,-0.19284990429878235,-0.07248648256063461,0.01379157230257988,0.0790635272860527,-0.035281792283058167,0.03577703982591629,0.18460391461849213,0.155196413397789,-0.1481945961713791,0.3634735941886902,-0.165604829788208,-0.3062838613986969,0.30788663029670715,-0.12180127948522568,0.010626131668686867,-0.388523668050766,-0.338445246219635,-0.3710474967956543,0.24486559629440308,0.06179158017039299,-0.2855197489261627,0.02519821934401989,0.09073954075574875,-0.2914988398551941,},{-0.16095499694347382,-0.1137690469622612,0.007502465508878231,0.4273403584957123,-0.01000309456139803,0.10228162258863449,0.1828852742910385,0.23293346166610718,-0.19284990429878235,-0.07248648256063461,0.01379157230257988,0.0790635272860527,-0.035281792283058167,0.03577703982591629,0.18460391461849213,0.155196413397789,-0.1481945961713791,0.3634735941886902,-0.165604829788208,-0.3062838613986969,0.30788663029670715,-0.12180127948522568,0.010626131668686867,-0.388523668050766,-0.338445246219635,-0.3710474967956543,0.24486559629440308,0.06179158017039299,-0.2855197489261627,0.02519821934401989,0.09073954075574875,-0.2914988398551941,},{-0.16095499694347382,-0.1137690469622612,0.007502465508878231,0.4273403584957123,-0.01000309456139803,0.10228162258863449,0.1828852742910385,0.23293346166610718,-0.19284990429878235,-0.07248648256063461,0.01379157230257988,0.0790635272860527,-0.035281792283058167,0.03577703982591629,0.18460391461849213,0.155196413397789,-0.1481945961713791,0.3634735941886902,-0.165604829788208,-0.3062838613986969,0.30788663029670715,-0.12180127948522568,0.010626131668686867,-0.388523668050766,-0.338445246219635,-0.3710474967956543,0.24486559629440308,0.06179158017039299,-0.2855197489261627,0.02519821934401989,0.09073954075574875,-0.2914988398551941,},{-0.16095499694347382,-0.1137690469622612,0.007502465508878231,0.4273403584957123,-0.01000309456139803,0.10228162258863449,0.1828852742910385,0.23293346166610718,-0.19284990429878235,-0.07248648256063461,0.01379157230257988,0.0790635272860527,-0.035281792283058167,0.03577703982591629,0.18460391461849213,0.155196413397789,-0.1481945961713791,0.3634735941886902,-0.165604829788208,-0.3062838613986969,0.30788663029670715,-0.12180127948522568,0.010626131668686867,-0.388523668050766,-0.338445246219635,-0.3710474967956543,0.24486559629440308,0.06179158017039299,-0.2855197489261627,0.02519821934401989,0.09073954075574875,-0.2914988398551941,},{-0.16095499694347382,-0.1137690469622612,0.007502465508878231,0.4273403584957123,-0.01000309456139803,0.10228162258863449,0.1828852742910385,0.23293346166610718,-0.19284990429878235,-0.07248648256063461,0.01379157230257988,0.0790635272860527,-0.035281792283058167,0.03577703982591629,0.18460391461849213,0.155196413397789,-0.1481945961713791,0.3634735941886902,-0.165604829788208,-0.3062838613986969,0.30788663029670715,-0.12180127948522568,0.010626131668686867,-0.388523668050766,-0.338445246219635,-0.3710474967956543,0.24486559629440308,0.06179158017039299,-0.2855197489261627,0.02519821934401989,0.09073954075574875,-0.2914988398551941,},{-0.16095499694347382,-0.1137690469622612,0.007502465508878231,0.4273403584957123,-0.01000309456139803,0.10228162258863449,0.1828852742910385,0.23293346166610718,-0.19284990429878235,-0.07248648256063461,0.01379157230257988,0.0790635272860527,-0.035281792283058167,0.03577703982591629,0.18460391461849213,0.155196413397789,-0.1481945961713791,0.3634735941886902,-0.165604829788208,-0.3062838613986969,0.30788663029670715,-0.12180127948522568,0.010626131668686867,-0.388523668050766,-0.338445246219635,-0.3710474967956543,0.24486559629440308,0.06179158017039299,-0.2855197489261627,0.02519821934401989,0.09073954075574875,-0.2914988398551941,},{-0.16095499694347382,-0.1137690469622612,0.007502465508878231,0.4273403584957123,-0.01000309456139803,0.10228162258863449,0.1828852742910385,0.23293346166610718,-0.19284990429878235,-0.07248648256063461,0.01379157230257988,0.0790635272860527,-0.035281792283058167,0.03577703982591629,0.18460391461849213,0.155196413397789,-0.1481945961713791,0.3634735941886902,-0.165604829788208,-0.3062838613986969,0.30788663029670715,-0.12180127948522568,0.010626131668686867,-0.388523668050766,-0.338445246219635,-0.3710474967956543,0.24486559629440308,0.06179158017039299,-0.2855197489261627,0.02519821934401989,0.09073954075574875,-0.2914988398551941,},{-0.16095499694347382,-0.1137690469622612,0.007502465508878231,0.4273403584957123,-0.01000309456139803,0.10228162258863449,0.1828852742910385,0.23293346166610718,-0.19284990429878235,-0.07248648256063461,0.01379157230257988,0.0790635272860527,-0.035281792283058167,0.03577703982591629,0.18460391461849213,0.155196413397789,-0.1481945961713791,0.3634735941886902,-0.165604829788208,-0.3062838613986969,0.30788663029670715,-0.12180127948522568,0.010626131668686867,-0.388523668050766,-0.338445246219635,-0.3710474967956543,0.24486559629440308,0.06179158017039299,-0.2855197489261627,0.02519821934401989,0.09073954075574875,-0.2914988398551941,},{-0.16095499694347382,-0.1137690469622612,0.007502465508878231,0.4273403584957123,-0.01000309456139803,0.10228162258863449,0.1828852742910385,0.23293346166610718,-0.19284990429878235,-0.07248648256063461,0.01379157230257988,0.0790635272860527,-0.035281792283058167,0.03577703982591629,0.18460391461849213,0.155196413397789,-0.1481945961713791,0.3634735941886902,-0.165604829788208,-0.3062838613986969,0.30788663029670715,-0.12180127948522568,0.010626131668686867,-0.388523668050766,-0.338445246219635,-0.3710474967956543,0.24486559629440308,0.06179158017039299,-0.2855197489261627,0.02519821934401989,0.09073954075574875,-0.2914988398551941,},{-0.16095499694347382,-0.1137690469622612,0.007502465508878231,0.4273403584957123,-0.01000309456139803,0.10228162258863449,0.1828852742910385,0.23293346166610718,-0.19284990429878235,-0.07248648256063461,0.01379157230257988,0.0790635272860527,-0.035281792283058167,0.03577703982591629,0.18460391461849213,0.155196413397789,-0.1481945961713791,0.3634735941886902,-0.165604829788208,-0.3062838613986969,0.30788663029670715,-0.12180127948522568,0.010626131668686867,-0.388523668050766,-0.338445246219635,-0.3710474967956543,0.24486559629440308,0.06179158017039299,-0.2855197489261627,0.02519821934401989,0.09073954075574875,-0.2914988398551941,},{-0.16095499694347382,-0.1137690469622612,0.007502465508878231,0.4273403584957123,-0.01000309456139803,0.10228162258863449,0.1828852742910385,0.23293346166610718,-0.19284990429878235,-0.07248648256063461,0.01379157230257988,0.0790635272860527,-0.035281792283058167,0.03577703982591629,0.18460391461849213,0.155196413397789,-0.1481945961713791,0.3634735941886902,-0.165604829788208,-0.3062838613986969,0.30788663029670715,-0.12180127948522568,0.010626131668686867,-0.388523668050766,-0.338445246219635,-0.3710474967956543,0.24486559629440308,0.06179158017039299,-0.2855197489261627,0.02519821934401989,0.09073954075574875,-0.2914988398551941,},{-0.16095499694347382,-0.1137690469622612,0.007502465508878231,0.4273403584957123,-0.01000309456139803,0.10228162258863449,0.1828852742910385,0.23293346166610718,-0.19284990429878235,-0.07248648256063461,0.01379157230257988,0.0790635272860527,-0.035281792283058167,0.03577703982591629,0.18460391461849213,0.155196413397789,-0.1481945961713791,0.3634735941886902,-0.165604829788208,-0.3062838613986969,0.30788663029670715,-0.12180127948522568,0.010626131668686867,-0.388523668050766,-0.338445246219635,-0.3710474967956543,0.24486559629440308,0.06179158017039299,-0.2855197489261627,0.02519821934401989,0.09073954075574875,-0.2914988398551941,},{-0.16095499694347382,-0.1137690469622612,0.007502465508878231,0.4273403584957123,-0.01000309456139803,0.10228162258863449,0.1828852742910385,0.23293346166610718,-0.19284990429878235,-0.07248648256063461,0.01379157230257988,0.0790635272860527,-0.035281792283058167,0.03577703982591629,0.18460391461849213,0.155196413397789,-0.1481945961713791,0.3634735941886902,-0.165604829788208,-0.3062838613986969,0.30788663029670715,-0.12180127948522568,0.010626131668686867,-0.388523668050766,-0.338445246219635,-0.3710474967956543,0.24486559629440308,0.06179158017039299,-0.2855197489261627,0.02519821934401989,0.09073954075574875,-0.2914988398551941,},{-0.16095499694347382,-0.1137690469622612,0.007502465508878231,0.4273403584957123,-0.01000309456139803,0.10228162258863449,0.1828852742910385,0.23293346166610718,-0.19284990429878235,-0.07248648256063461,0.01379157230257988,0.0790635272860527,-0.035281792283058167,0.03577703982591629,0.18460391461849213,0.155196413397789,-0.1481945961713791,0.3634735941886902,-0.165604829788208,-0.3062838613986969,0.30788663029670715,-0.12180127948522568,0.010626131668686867,-0.388523668050766,-0.338445246219635,-0.3710474967956543,0.24486559629440308,0.06179158017039299,-0.2855197489261627,0.02519821934401989,0.09073954075574875,-0.2914988398551941,},{-0.16095499694347382,-0.1137690469622612,0.007502465508878231,0.4273403584957123,-0.01000309456139803,0.10228162258863449,0.1828852742910385,0.23293346166610718,-0.19284990429878235,-0.07248648256063461,0.01379157230257988,0.0790635272860527,-0.035281792283058167,0.03577703982591629,0.18460391461849213,0.155196413397789,-0.1481945961713791,0.3634735941886902,-0.165604829788208,-0.3062838613986969,0.30788663029670715,-0.12180127948522568,0.010626131668686867,-0.388523668050766,-0.338445246219635,-0.3710474967956543,0.24486559629440308,0.06179158017039299,-0.2855197489261627,0.02519821934401989,0.09073954075574875,-0.2914988398551941,},{-0.16095499694347382,-0.1137690469622612,0.007502465508878231,0.4273403584957123,-0.01000309456139803,0.10228162258863449,0.1828852742910385,0.23293346166610718,-0.19284990429878235,-0.07248648256063461,0.01379157230257988,0.0790635272860527,-0.035281792283058167,0.03577703982591629,0.18460391461849213,0.155196413397789,-0.1481945961713791,0.3634735941886902,-0.165604829788208,-0.3062838613986969,0.30788663029670715,-0.12180127948522568,0.010626131668686867,-0.388523668050766,-0.338445246219635,-0.3710474967956543,0.24486559629440308,0.06179158017039299,-0.2855197489261627,0.02519821934401989,0.09073954075574875,-0.2914988398551941,},{-0.16095499694347382,-0.1137690469622612,0.007502465508878231,0.4273403584957123,-0.01000309456139803,0.10228162258863449,0.1828852742910385,0.23293346166610718,-0.19284990429878235,-0.07248648256063461,0.01379157230257988,0.0790635272860527,-0.035281792283058167,0.03577703982591629,0.18460391461849213,0.155196413397789,-0.1481945961713791,0.3634735941886902,-0.165604829788208,-0.3062838613986969,0.30788663029670715,-0.12180127948522568,0.010626131668686867,-0.388523668050766,-0.338445246219635,-0.3710474967956543,0.24486559629440308,0.06179158017039299,-0.2855197489261627,0.02519821934401989,0.09073954075574875,-0.2914988398551941,},{-0.16095499694347382,-0.1137690469622612,0.007502465508878231,0.4273403584957123,-0.01000309456139803,0.10228162258863449,0.1828852742910385,0.23293346166610718,-0.19284990429878235,-0.07248648256063461,0.01379157230257988,0.0790635272860527,-0.035281792283058167,0.03577703982591629,0.18460391461849213,0.155196413397789,-0.1481945961713791,0.3634735941886902,-0.165604829788208,-0.3062838613986969,0.30788663029670715,-0.12180127948522568,0.010626131668686867,-0.388523668050766,-0.338445246219635,-0.3710474967956543,0.24486559629440308,0.06179158017039299,-0.2855197489261627,0.02519821934401989,0.09073954075574875,-0.2914988398551941,},{-0.16095499694347382,-0.1137690469622612,0.007502465508878231,0.4273403584957123,-0.01000309456139803,0.10228162258863449,0.1828852742910385,0.23293346166610718,-0.19284990429878235,-0.07248648256063461,0.01379157230257988,0.0790635272860527,-0.035281792283058167,0.03577703982591629,0.18460391461849213,0.155196413397789,-0.1481945961713791,0.3634735941886902,-0.165604829788208,-0.3062838613986969,0.30788663029670715,-0.12180127948522568,0.010626131668686867,-0.388523668050766,-0.338445246219635,-0.3710474967956543,0.24486559629440308,0.06179158017039299,-0.2855197489261627,0.02519821934401989,0.09073954075574875,-0.2914988398551941,},{-0.16095499694347382,-0.1137690469622612,0.007502465508878231,0.4273403584957123,-0.01000309456139803,0.10228162258863449,0.1828852742910385,0.23293346166610718,-0.19284990429878235,-0.07248648256063461,0.01379157230257988,0.0790635272860527,-0.035281792283058167,0.03577703982591629,0.18460391461849213,0.155196413397789,-0.1481945961713791,0.3634735941886902,-0.165604829788208,-0.3062838613986969,0.30788663029670715,-0.12180127948522568,0.010626131668686867,-0.388523668050766,-0.338445246219635,-0.3710474967956543,0.24486559629440308,0.06179158017039299,-0.2855197489261627,0.02519821934401989,0.09073954075574875,-0.2914988398551941,},{-0.16095499694347382,-0.1137690469622612,0.007502465508878231,0.4273403584957123,-0.01000309456139803,0.10228162258863449,0.1828852742910385,0.23293346166610718,-0.19284990429878235,-0.07248648256063461,0.01379157230257988,0.0790635272860527,-0.035281792283058167,0.03577703982591629,0.18460391461849213,0.155196413397789,-0.1481945961713791,0.3634735941886902,-0.165604829788208,-0.3062838613986969,0.30788663029670715,-0.12180127948522568,0.010626131668686867,-0.388523668050766,-0.338445246219635,-0.3710474967956543,0.24486559629440308,0.06179158017039299,-0.2855197489261627,0.02519821934401989,0.09073954075574875,-0.2914988398551941,},{-0.16095499694347382,-0.1137690469622612,0.007502465508878231,0.4273403584957123,-0.01000309456139803,0.10228162258863449,0.1828852742910385,0.23293346166610718,-0.19284990429878235,-0.07248648256063461,0.01379157230257988,0.0790635272860527,-0.035281792283058167,0.03577703982591629,0.18460391461849213,0.155196413397789,-0.1481945961713791,0.3634735941886902,-0.165604829788208,-0.3062838613986969,0.30788663029670715,-0.12180127948522568,0.010626131668686867,-0.388523668050766,-0.338445246219635,-0.3710474967956543,0.24486559629440308,0.06179158017039299,-0.2855197489261627,0.02519821934401989,0.09073954075574875,-0.2914988398551941,},{-0.16095499694347382,-0.1137690469622612,0.007502465508878231,0.4273403584957123,-0.01000309456139803,0.10228162258863449,0.1828852742910385,0.23293346166610718,-0.19284990429878235,-0.07248648256063461,0.01379157230257988,0.0790635272860527,-0.035281792283058167,0.03577703982591629,0.18460391461849213,0.155196413397789,-0.1481945961713791,0.3634735941886902,-0.165604829788208,-0.3062838613986969,0.30788663029670715,-0.12180127948522568,0.010626131668686867,-0.388523668050766,-0.338445246219635,-0.3710474967956543,0.24486559629440308,0.06179158017039299,-0.2855197489261627,0.02519821934401989,0.09073954075574875,-0.2914988398551941,},{-0.16095499694347382,-0.1137690469622612,0.007502465508878231,0.4273403584957123,-0.01000309456139803,0.10228162258863449,0.1828852742910385,0.23293346166610718,-0.19284990429878235,-0.07248648256063461,0.01379157230257988,0.0790635272860527,-0.035281792283058167,0.03577703982591629,0.18460391461849213,0.155196413397789,-0.1481945961713791,0.3634735941886902,-0.165604829788208,-0.3062838613986969,0.30788663029670715,-0.12180127948522568,0.010626131668686867,-0.388523668050766,-0.338445246219635,-0.3710474967956543,0.24486559629440308,0.06179158017039299,-0.2855197489261627,0.02519821934401989,0.09073954075574875,-0.2914988398551941,},}}{{-0.056716423481702805,0.17228470742702484,-0.45384088158607483,0.32520416378974915,-0.2480885237455368,-0.2541847825050354,-0.08753049373626709,-0.37559807300567627,0.22769860923290253,0.042217567563056946,-0.035032469779253006,-0.24711814522743225,-0.39199575781822205,0.5976006984710693,-0.12231189757585526,-0.0607491135597229,0.023165585473179817,-0.42879796028137207,0.05540565773844719,0.08216559886932373,0.3795720636844635,0.18237367272377014,-0.11925091594457626,-0.048122912645339966,0.22746068239212036,-0.023995626717805862,-0.17654192447662354,-0.06179461255669594,0.1154838427901268,0.14421126246452332,0.35158029198646545,0.21193286776542664,},{-0.056716423481702805,0.17228470742702484,-0.45384088158607483,0.32520416378974915,-0.2480885237455368,-0.2541847825050354,-0.08753049373626709,-0.37559807300567627,0.22769860923290253,0.042217567563056946,-0.035032469779253006,-0.24711814522743225,-0.39199575781822205,0.5976006984710693,-0.12231189757585526,-0.0607491135597229,0.023165585473179817,-0.42879796028137207,0.05540565773844719,0.08216559886932373,0.3795720636844635,0.18237367272377014,-0.11925091594457626,-0.048122912645339966,0.22746068239212036,-0.023995626717805862,-0.17654192447662354,-0.06179461255669594,0.1154838427901268,0.14421126246452332,0.35158029198646545,0.21193286776542664,},{-0.056716423481702805,0.17228470742702484,-0.45384088158607483,0.32520416378974915,-0.2480885237455368,-0.2541847825050354,-0.08753049373626709,-0.37559807300567627,0.22769860923290253,0.042217567563056946,-0.035032469779253006,-0.24711814522743225,-0.39199575781822205,0.5976006984710693,-0.12231189757585526,-0.0607491135597229,0.023165585473179817,-0.42879796028137207,0.05540565773844719,0.08216559886932373,0.3795720636844635,0.18237367272377014,-0.11925091594457626,-0.048122912645339966,0.22746068239212036,-0.023995626717805862,-0.17654192447662354,-0.06179461255669594,0.1154838427901268,0.14421126246452332,0.35158029198646545,0.21193286776542664,},{-0.056716423481702805,0.17228470742702484,-0.45384088158607483,0.32520416378974915,-0.2480885237455368,-0.2541847825050354,-0.08753049373626709,-0.37559807300567627,0.22769860923290253,0.042217567563056946,-0.035032469779253006,-0.24711814522743225,-0.39199575781822205,0.5976006984710693,-0.12231189757585526,-0.0607491135597229,0.023165585473179817,-0.42879796028137207,0.05540565773844719,0.08216559886932373,0.3795720636844635,0.18237367272377014,-0.11925091594457626,-0.048122912645339966,0.22746068239212036,-0.023995626717805862,-0.17654192447662354,-0.06179461255669594,0.1154838427901268,0.14421126246452332,0.35158029198646545,0.21193286776542664,},{-0.056716423481702805,0.17228470742702484,-0.45384088158607483,0.32520416378974915,-0.2480885237455368,-0.2541847825050354,-0.08753049373626709,-0.37559807300567627,0.22769860923290253,0.042217567563056946,-0.035032469779253006,-0.24711814522743225,-0.39199575781822205,0.5976006984710693,-0.12231189757585526,-0.0607491135597229,0.023165585473179817,-0.42879796028137207,0.05540565773844719,0.08216559886932373,0.3795720636844635,0.18237367272377014,-0.11925091594457626,-0.048122912645339966,0.22746068239212036,-0.023995626717805862,-0.17654192447662354,-0.06179461255669594,0.1154838427901268,0.14421126246452332,0.35158029198646545,0.21193286776542664,},{-0.056716423481702805,0.17228470742702484,-0.45384088158607483,0.32520416378974915,-0.2480885237455368,-0.2541847825050354,-0.08753049373626709,-0.37559807300567627,0.22769860923290253,0.042217567563056946,-0.035032469779253006,-0.24711814522743225,-0.39199575781822205,0.5976006984710693,-0.12231189757585526,-0.0607491135597229,0.023165585473179817,-0.42879796028137207,0.05540565773844719,0.08216559886932373,0.3795720636844635,0.18237367272377014,-0.11925091594457626,-0.048122912645339966,0.22746068239212036,-0.023995626717805862,-0.17654192447662354,-0.06179461255669594,0.1154838427901268,0.14421126246452332,0.35158029198646545,0.21193286776542664,},{-0.056716423481702805,0.17228470742702484,-0.45384088158607483,0.32520416378974915,-0.2480885237455368,-0.2541847825050354,-0.08753049373626709,-0.37559807300567627,0.22769860923290253,0.042217567563056946,-0.035032469779253006,-0.24711814522743225,-0.39199575781822205,0.5976006984710693,-0.12231189757585526,-0.0607491135597229,0.023165585473179817,-0.42879796028137207,0.05540565773844719,0.08216559886932373,0.3795720636844635,0.18237367272377014,-0.11925091594457626,-0.048122912645339966,0.22746068239212036,-0.023995626717805862,-0.17654192447662354,-0.06179461255669594,0.1154838427901268,0.14421126246452332,0.35158029198646545,0.21193286776542664,},{-0.056716423481702805,0.17228470742702484,-0.45384088158607483,0.32520416378974915,-0.2480885237455368,-0.2541847825050354,-0.08753049373626709,-0.37559807300567627,0.22769860923290253,0.042217567563056946,-0.035032469779253006,-0.24711814522743225,-0.39199575781822205,0.5976006984710693,-0.12231189757585526,-0.0607491135597229,0.023165585473179817,-0.42879796028137207,0.05540565773844719,0.08216559886932373,0.3795720636844635,0.18237367272377014,-0.11925091594457626,-0.048122912645339966,0.22746068239212036,-0.023995626717805862,-0.17654192447662354,-0.06179461255669594,0.1154838427901268,0.14421126246452332,0.35158029198646545,0.21193286776542664,},{-0.056716423481702805,0.17228470742702484,-0.45384088158607483,0.32520416378974915,-0.2480885237455368,-0.2541847825050354,-0.08753049373626709,-0.37559807300567627,0.22769860923290253,0.042217567563056946,-0.035032469779253006,-0.24711814522743225,-0.39199575781822205,0.5976006984710693,-0.12231189757585526,-0.0607491135597229,0.023165585473179817,-0.42879796028137207,0.05540565773844719,0.08216559886932373,0.3795720636844635,0.18237367272377014,-0.11925091594457626,-0.048122912645339966,0.22746068239212036,-0.023995626717805862,-0.17654192447662354,-0.06179461255669594,0.1154838427901268,0.14421126246452332,0.35158029198646545,0.21193286776542664,},{-0.056716423481702805,0.17228470742702484,-0.45384088158607483,0.32520416378974915,-0.2480885237455368,-0.2541847825050354,-0.08753049373626709,-0.37559807300567627,0.22769860923290253,0.042217567563056946,-0.035032469779253006,-0.24711814522743225,-0.39199575781822205,0.5976006984710693,-0.12231189757585526,-0.0607491135597229,0.023165585473179817,-0.42879796028137207,0.05540565773844719,0.08216559886932373,0.3795720636844635,0.18237367272377014,-0.11925091594457626,-0.048122912645339966,0.22746068239212036,-0.023995626717805862,-0.17654192447662354,-0.06179461255669594,0.1154838427901268,0.14421126246452332,0.35158029198646545,0.21193286776542664,},{-0.056716423481702805,0.17228470742702484,-0.45384088158607483,0.32520416378974915,-0.2480885237455368,-0.2541847825050354,-0.08753049373626709,-0.37559807300567627,0.22769860923290253,0.042217567563056946,-0.035032469779253006,-0.24711814522743225,-0.39199575781822205,0.5976006984710693,-0.12231189757585526,-0.0607491135597229,0.023165585473179817,-0.42879796028137207,0.05540565773844719,0.08216559886932373,0.3795720636844635,0.18237367272377014,-0.11925091594457626,-0.048122912645339966,0.22746068239212036,-0.023995626717805862,-0.17654192447662354,-0.06179461255669594,0.1154838427901268,0.14421126246452332,0.35158029198646545,0.21193286776542664,},{-0.056716423481702805,0.17228470742702484,-0.45384088158607483,0.32520416378974915,-0.2480885237455368,-0.2541847825050354,-0.08753049373626709,-0.37559807300567627,0.22769860923290253,0.042217567563056946,-0.035032469779253006,-0.24711814522743225,-0.39199575781822205,0.5976006984710693,-0.12231189757585526,-0.0607491135597229,0.023165585473179817,-0.42879796028137207,0.05540565773844719,0.08216559886932373,0.3795720636844635,0.18237367272377014,-0.11925091594457626,-0.048122912645339966,0.22746068239212036,-0.023995626717805862,-0.17654192447662354,-0.06179461255669594,0.1154838427901268,0.14421126246452332,0.35158029198646545,0.21193286776542664,},{-0.056716423481702805,0.17228470742702484,-0.45384088158607483,0.32520416378974915,-0.2480885237455368,-0.2541847825050354,-0.08753049373626709,-0.37559807300567627,0.22769860923290253,0.042217567563056946,-0.035032469779253006,-0.24711814522743225,-0.39199575781822205,0.5976006984710693,-0.12231189757585526,-0.0607491135597229,0.023165585473179817,-0.42879796028137207,0.05540565773844719,0.08216559886932373,0.3795720636844635,0.18237367272377014,-0.11925091594457626,-0.048122912645339966,0.22746068239212036,-0.023995626717805862,-0.17654192447662354,-0.06179461255669594,0.1154838427901268,0.14421126246452332,0.35158029198646545,0.21193286776542664,},{-0.056716423481702805,0.17228470742702484,-0.45384088158607483,0.32520416378974915,-0.2480885237455368,-0.2541847825050354,-0.08753049373626709,-0.37559807300567627,0.22769860923290253,0.042217567563056946,-0.035032469779253006,-0.24711814522743225,-0.39199575781822205,0.5976006984710693,-0.12231189757585526,-0.0607491135597229,0.023165585473179817,-0.42879796028137207,0.05540565773844719,0.08216559886932373,0.3795720636844635,0.18237367272377014,-0.11925091594457626,-0.048122912645339966,0.22746068239212036,-0.023995626717805862,-0.17654192447662354,-0.06179461255669594,0.1154838427901268,0.14421126246452332,0.35158029198646545,0.21193286776542664,},{-0.056716423481702805,0.17228470742702484,-0.45384088158607483,0.32520416378974915,-0.2480885237455368,-0.2541847825050354,-0.08753049373626709,-0.37559807300567627,0.22769860923290253,0.042217567563056946,-0.035032469779253006,-0.24711814522743225,-0.39199575781822205,0.5976006984710693,-0.12231189757585526,-0.0607491135597229,0.023165585473179817,-0.42879796028137207,0.05540565773844719,0.08216559886932373,0.3795720636844635,0.18237367272377014,-0.11925091594457626,-0.048122912645339966,0.22746068239212036,-0.023995626717805862,-0.17654192447662354,-0.06179461255669594,0.1154838427901268,0.14421126246452332,0.35158029198646545,0.21193286776542664,},{-0.056716423481702805,0.17228470742702484,-0.45384088158607483,0.32520416378974915,-0.2480885237455368,-0.2541847825050354,-0.08753049373626709,-0.37559807300567627,0.22769860923290253,0.042217567563056946,-0.035032469779253006,-0.24711814522743225,-0.39199575781822205,0.5976006984710693,-0.12231189757585526,-0.0607491135597229,0.023165585473179817,-0.42879796028137207,0.05540565773844719,0.08216559886932373,0.3795720636844635,0.18237367272377014,-0.11925091594457626,-0.048122912645339966,0.22746068239212036,-0.023995626717805862,-0.17654192447662354,-0.06179461255669594,0.1154838427901268,0.14421126246452332,0.35158029198646545,0.21193286776542664,},{-0.056716423481702805,0.17228470742702484,-0.45384088158607483,0.32520416378974915,-0.2480885237455368,-0.2541847825050354,-0.08753049373626709,-0.37559807300567627,0.22769860923290253,0.042217567563056946,-0.035032469779253006,-0.24711814522743225,-0.39199575781822205,0.5976006984710693,-0.12231189757585526,-0.0607491135597229,0.023165585473179817,-0.42879796028137207,0.05540565773844719,0.08216559886932373,0.3795720636844635,0.18237367272377014,-0.11925091594457626,-0.048122912645339966,0.22746068239212036,-0.023995626717805862,-0.17654192447662354,-0.06179461255669594,0.1154838427901268,0.14421126246452332,0.35158029198646545,0.21193286776542664,},{-0.056716423481702805,0.17228470742702484,-0.45384088158607483,0.32520416378974915,-0.2480885237455368,-0.2541847825050354,-0.08753049373626709,-0.37559807300567627,0.22769860923290253,0.042217567563056946,-0.035032469779253006,-0.24711814522743225,-0.39199575781822205,0.5976006984710693,-0.12231189757585526,-0.0607491135597229,0.023165585473179817,-0.42879796028137207,0.05540565773844719,0.08216559886932373,0.3795720636844635,0.18237367272377014,-0.11925091594457626,-0.048122912645339966,0.22746068239212036,-0.023995626717805862,-0.17654192447662354,-0.06179461255669594,0.1154838427901268,0.14421126246452332,0.35158029198646545,0.21193286776542664,},{-0.056716423481702805,0.17228470742702484,-0.45384088158607483,0.32520416378974915,-0.2480885237455368,-0.2541847825050354,-0.08753049373626709,-0.37559807300567627,0.22769860923290253,0.042217567563056946,-0.035032469779253006,-0.24711814522743225,-0.39199575781822205,0.5976006984710693,-0.12231189757585526,-0.0607491135597229,0.023165585473179817,-0.42879796028137207,0.05540565773844719,0.08216559886932373,0.3795720636844635,0.18237367272377014,-0.11925091594457626,-0.048122912645339966,0.22746068239212036,-0.023995626717805862,-0.17654192447662354,-0.06179461255669594,0.1154838427901268,0.14421126246452332,0.35158029198646545,0.21193286776542664,},{-0.056716423481702805,0.17228470742702484,-0.45384088158607483,0.32520416378974915,-0.2480885237455368,-0.2541847825050354,-0.08753049373626709,-0.37559807300567627,0.22769860923290253,0.042217567563056946,-0.035032469779253006,-0.24711814522743225,-0.39199575781822205,0.5976006984710693,-0.12231189757585526,-0.0607491135597229,0.023165585473179817,-0.42879796028137207,0.05540565773844719,0.08216559886932373,0.3795720636844635,0.18237367272377014,-0.11925091594457626,-0.048122912645339966,0.22746068239212036,-0.023995626717805862,-0.17654192447662354,-0.06179461255669594,0.1154838427901268,0.14421126246452332,0.35158029198646545,0.21193286776542664,},{-0.056716423481702805,0.17228470742702484,-0.45384088158607483,0.32520416378974915,-0.2480885237455368,-0.2541847825050354,-0.08753049373626709,-0.37559807300567627,0.22769860923290253,0.042217567563056946,-0.035032469779253006,-0.24711814522743225,-0.39199575781822205,0.5976006984710693,-0.12231189757585526,-0.0607491135597229,0.023165585473179817,-0.42879796028137207,0.05540565773844719,0.08216559886932373,0.3795720636844635,0.18237367272377014,-0.11925091594457626,-0.048122912645339966,0.22746068239212036,-0.023995626717805862,-0.17654192447662354,-0.06179461255669594,0.1154838427901268,0.14421126246452332,0.35158029198646545,0.21193286776542664,},{-0.056716423481702805,0.17228470742702484,-0.45384088158607483,0.32520416378974915,-0.2480885237455368,-0.2541847825050354,-0.08753049373626709,-0.37559807300567627,0.22769860923290253,0.042217567563056946,-0.035032469779253006,-0.24711814522743225,-0.39199575781822205,0.5976006984710693,-0.12231189757585526,-0.0607491135597229,0.023165585473179817,-0.42879796028137207,0.05540565773844719,0.08216559886932373,0.3795720636844635,0.18237367272377014,-0.11925091594457626,-0.048122912645339966,0.22746068239212036,-0.023995626717805862,-0.17654192447662354,-0.06179461255669594,0.1154838427901268,0.14421126246452332,0.35158029198646545,0.21193286776542664,},{-0.056716423481702805,0.17228470742702484,-0.45384088158607483,0.32520416378974915,-0.2480885237455368,-0.2541847825050354,-0.08753049373626709,-0.37559807300567627,0.22769860923290253,0.042217567563056946,-0.035032469779253006,-0.24711814522743225,-0.39199575781822205,0.5976006984710693,-0.12231189757585526,-0.0607491135597229,0.023165585473179817,-0.42879796028137207,0.05540565773844719,0.08216559886932373,0.3795720636844635,0.18237367272377014,-0.11925091594457626,-0.048122912645339966,0.22746068239212036,-0.023995626717805862,-0.17654192447662354,-0.06179461255669594,0.1154838427901268,0.14421126246452332,0.35158029198646545,0.21193286776542664,},{-0.056716423481702805,0.17228470742702484,-0.45384088158607483,0.32520416378974915,-0.2480885237455368,-0.2541847825050354,-0.08753049373626709,-0.37559807300567627,0.22769860923290253,0.042217567563056946,-0.035032469779253006,-0.24711814522743225,-0.39199575781822205,0.5976006984710693,-0.12231189757585526,-0.0607491135597229,0.023165585473179817,-0.42879796028137207,0.05540565773844719,0.08216559886932373,0.3795720636844635,0.18237367272377014,-0.11925091594457626,-0.048122912645339966,0.22746068239212036,-0.023995626717805862,-0.17654192447662354,-0.06179461255669594,0.1154838427901268,0.14421126246452332,0.35158029198646545,0.21193286776542664,},{-0.056716423481702805,0.17228470742702484,-0.45384088158607483,0.32520416378974915,-0.2480885237455368,-0.2541847825050354,-0.08753049373626709,-0.37559807300567627,0.22769860923290253,0.042217567563056946,-0.035032469779253006,-0.24711814522743225,-0.39199575781822205,0.5976006984710693,-0.12231189757585526,-0.0607491135597229,0.023165585473179817,-0.42879796028137207,0.05540565773844719,0.08216559886932373,0.3795720636844635,0.18237367272377014,-0.11925091594457626,-0.048122912645339966,0.22746068239212036,-0.023995626717805862,-0.17654192447662354,-0.06179461255669594,0.1154838427901268,0.14421126246452332,0.35158029198646545,0.21193286776542664,},{-0.056716423481702805,0.17228470742702484,-0.45384088158607483,0.32520416378974915,-0.2480885237455368,-0.2541847825050354,-0.08753049373626709,-0.37559807300567627,0.22769860923290253,0.042217567563056946,-0.035032469779253006,-0.24711814522743225,-0.39199575781822205,0.5976006984710693,-0.12231189757585526,-0.0607491135597229,0.023165585473179817,-0.42879796028137207,0.05540565773844719,0.08216559886932373,0.3795720636844635,0.18237367272377014,-0.11925091594457626,-0.048122912645339966,0.22746068239212036,-0.023995626717805862,-0.17654192447662354,-0.06179461255669594,0.1154838427901268,0.14421126246452332,0.35158029198646545,0.21193286776542664,},{-0.056716423481702805,0.17228470742702484,-0.45384088158607483,0.32520416378974915,-0.2480885237455368,-0.2541847825050354,-0.08753049373626709,-0.37559807300567627,0.22769860923290253,0.042217567563056946,-0.035032469779253006,-0.24711814522743225,-0.39199575781822205,0.5976006984710693,-0.12231189757585526,-0.0607491135597229,0.023165585473179817,-0.42879796028137207,0.05540565773844719,0.08216559886932373,0.3795720636844635,0.18237367272377014,-0.11925091594457626,-0.048122912645339966,0.22746068239212036,-0.023995626717805862,-0.17654192447662354,-0.06179461255669594,0.1154838427901268,0.14421126246452332,0.35158029198646545,0.21193286776542664,},{-0.056716423481702805,0.17228470742702484,-0.45384088158607483,0.32520416378974915,-0.2480885237455368,-0.2541847825050354,-0.08753049373626709,-0.37559807300567627,0.22769860923290253,0.042217567563056946,-0.035032469779253006,-0.24711814522743225,-0.39199575781822205,0.5976006984710693,-0.12231189757585526,-0.0607491135597229,0.023165585473179817,-0.42879796028137207,0.05540565773844719,0.08216559886932373,0.3795720636844635,0.18237367272377014,-0.11925091594457626,-0.048122912645339966,0.22746068239212036,-0.023995626717805862,-0.17654192447662354,-0.06179461255669594,0.1154838427901268,0.14421126246452332,0.35158029198646545,0.21193286776542664,},{-0.056716423481702805,0.17228470742702484,-0.45384088158607483,0.32520416378974915,-0.2480885237455368,-0.2541847825050354,-0.08753049373626709,-0.37559807300567627,0.22769860923290253,0.042217567563056946,-0.035032469779253006,-0.24711814522743225,-0.39199575781822205,0.5976006984710693,-0.12231189757585526,-0.0607491135597229,0.023165585473179817,-0.42879796028137207,0.05540565773844719,0.08216559886932373,0.3795720636844635,0.18237367272377014,-0.11925091594457626,-0.048122912645339966,0.22746068239212036,-0.023995626717805862,-0.17654192447662354,-0.06179461255669594,0.1154838427901268,0.14421126246452332,0.35158029198646545,0.21193286776542664,},{-0.056716423481702805,0.17228470742702484,-0.45384088158607483,0.32520416378974915,-0.2480885237455368,-0.2541847825050354,-0.08753049373626709,-0.37559807300567627,0.22769860923290253,0.042217567563056946,-0.035032469779253006,-0.24711814522743225,-0.39199575781822205,0.5976006984710693,-0.12231189757585526,-0.0607491135597229,0.023165585473179817,-0.42879796028137207,0.05540565773844719,0.08216559886932373,0.3795720636844635,0.18237367272377014,-0.11925091594457626,-0.048122912645339966,0.22746068239212036,-0.023995626717805862,-0.17654192447662354,-0.06179461255669594,0.1154838427901268,0.14421126246452332,0.35158029198646545,0.21193286776542664,},{-0.056716423481702805,0.17228470742702484,-0.45384088158607483,0.32520416378974915,-0.2480885237455368,-0.2541847825050354,-0.08753049373626709,-0.37559807300567627,0.22769860923290253,0.042217567563056946,-0.035032469779253006,-0.24711814522743225,-0.39199575781822205,0.5976006984710693,-0.12231189757585526,-0.0607491135597229,0.023165585473179817,-0.42879796028137207,0.05540565773844719,0.08216559886932373,0.3795720636844635,0.18237367272377014,-0.11925091594457626,-0.048122912645339966,0.22746068239212036,-0.023995626717805862,-0.17654192447662354,-0.06179461255669594,0.1154838427901268,0.14421126246452332,0.35158029198646545,0.21193286776542664,},{-0.056716423481702805,0.17228470742702484,-0.45384088158607483,0.32520416378974915,-0.2480885237455368,-0.2541847825050354,-0.08753049373626709,-0.37559807300567627,0.22769860923290253,0.042217567563056946,-0.035032469779253006,-0.24711814522743225,-0.39199575781822205,0.5976006984710693,-0.12231189757585526,-0.0607491135597229,0.023165585473179817,-0.42879796028137207,0.05540565773844719,0.08216559886932373,0.3795720636844635,0.18237367272377014,-0.11925091594457626,-0.048122912645339966,0.22746068239212036,-0.023995626717805862,-0.17654192447662354,-0.06179461255669594,0.1154838427901268,0.14421126246452332,0.35158029198646545,0.21193286776542664,},}}{{0.22950296103954315,-0.0994490534067154,0.17660397291183472,-0.2169381082057953,-0.1444048136472702,0.011703568510711193,-0.022810140624642372,0.013715273700654507,0.0978422537446022,-0.3748380243778229,0.39436328411102295,0.0888579860329628,0.28055649995803833,0.0660494863986969,0.20324046909809113,0.22512419521808624,-0.1750330626964569,-0.23282091319561005,-0.04133787378668785,0.33650922775268555,-0.22563733160495758,-0.11908291280269623,-0.1265678107738495,0.1820485144853592,-0.20186644792556763,-0.17245855927467346,-0.17150968313217163,0.49793708324432373,0.0680987685918808,0.1527295857667923,0.4577191472053528,-0.4192642569541931,},{0.22950296103954315,-0.0994490534067154,0.17660397291183472,-0.2169381082057953,-0.1444048136472702,0.011703568510711193,-0.022810140624642372,0.013715273700654507,0.0978422537446022,-0.3748380243778229,0.39436328411102295,0.0888579860329628,0.28055649995803833,0.0660494863986969,0.20324046909809113,0.22512419521808624,-0.1750330626964569,-0.23282091319561005,-0.04133787378668785,0.33650922775268555,-0.22563733160495758,-0.11908291280269623,-0.1265678107738495,0.1820485144853592,-0.20186644792556763,-0.17245855927467346,-0.17150968313217163,0.49793708324432373,0.0680987685918808,0.1527295857667923,0.4577191472053528,-0.4192642569541931,},{0.22950296103954315,-0.0994490534067154,0.17660397291183472,-0.2169381082057953,-0.1444048136472702,0.011703568510711193,-0.022810140624642372,0.013715273700654507,0.0978422537446022,-0.3748380243778229,0.39436328411102295,0.0888579860329628,0.28055649995803833,0.0660494863986969,0.20324046909809113,0.22512419521808624,-0.1750330626964569,-0.23282091319561005,-0.04133787378668785,0.33650922775268555,-0.22563733160495758,-0.11908291280269623,-0.1265678107738495,0.1820485144853592,-0.20186644792556763,-0.17245855927467346,-0.17150968313217163,0.49793708324432373,0.0680987685918808,0.1527295857667923,0.4577191472053528,-0.4192642569541931,},{0.22950296103954315,-0.0994490534067154,0.17660397291183472,-0.2169381082057953,-0.1444048136472702,0.011703568510711193,-0.022810140624642372,0.013715273700654507,0.0978422537446022,-0.3748380243778229,0.39436328411102295,0.0888579860329628,0.28055649995803833,0.0660494863986969,0.20324046909809113,0.22512419521808624,-0.1750330626964569,-0.23282091319561005,-0.04133787378668785,0.33650922775268555,-0.22563733160495758,-0.11908291280269623,-0.1265678107738495,0.1820485144853592,-0.20186644792556763,-0.17245855927467346,-0.17150968313217163,0.49793708324432373,0.0680987685918808,0.1527295857667923,0.4577191472053528,-0.4192642569541931,},{0.22950296103954315,-0.0994490534067154,0.17660397291183472,-0.2169381082057953,-0.1444048136472702,0.011703568510711193,-0.022810140624642372,0.013715273700654507,0.0978422537446022,-0.3748380243778229,0.39436328411102295,0.0888579860329628,0.28055649995803833,0.0660494863986969,0.20324046909809113,0.22512419521808624,-0.1750330626964569,-0.23282091319561005,-0.04133787378668785,0.33650922775268555,-0.22563733160495758,-0.11908291280269623,-0.1265678107738495,0.1820485144853592,-0.20186644792556763,-0.17245855927467346,-0.17150968313217163,0.49793708324432373,0.0680987685918808,0.1527295857667923,0.4577191472053528,-0.4192642569541931,},{0.22950296103954315,-0.0994490534067154,0.17660397291183472,-0.2169381082057953,-0.1444048136472702,0.011703568510711193,-0.022810140624642372,0.013715273700654507,0.0978422537446022,-0.3748380243778229,0.39436328411102295,0.0888579860329628,0.28055649995803833,0.0660494863986969,0.20324046909809113,0.22512419521808624,-0.1750330626964569,-0.23282091319561005,-0.04133787378668785,0.33650922775268555,-0.22563733160495758,-0.11908291280269623,-0.1265678107738495,0.1820485144853592,-0.20186644792556763,-0.17245855927467346,-0.17150968313217163,0.49793708324432373,0.0680987685918808,0.1527295857667923,0.4577191472053528,-0.4192642569541931,},{0.22950296103954315,-0.0994490534067154,0.17660397291183472,-0.2169381082057953,-0.1444048136472702,0.011703568510711193,-0.022810140624642372,0.013715273700654507,0.0978422537446022,-0.3748380243778229,0.39436328411102295,0.0888579860329628,0.28055649995803833,0.0660494863986969,0.20324046909809113,0.22512419521808624,-0.1750330626964569,-0.23282091319561005,-0.04133787378668785,0.33650922775268555,-0.22563733160495758,-0.11908291280269623,-0.1265678107738495,0.1820485144853592,-0.20186644792556763,-0.17245855927467346,-0.17150968313217163,0.49793708324432373,0.0680987685918808,0.1527295857667923,0.4577191472053528,-0.4192642569541931,},{0.22950296103954315,-0.0994490534067154,0.17660397291183472,-0.2169381082057953,-0.1444048136472702,0.011703568510711193,-0.022810140624642372,0.013715273700654507,0.0978422537446022,-0.3748380243778229,0.39436328411102295,0.0888579860329628,0.28055649995803833,0.0660494863986969,0.20324046909809113,0.22512419521808624,-0.1750330626964569,-0.23282091319561005,-0.04133787378668785,0.33650922775268555,-0.22563733160495758,-0.11908291280269623,-0.1265678107738495,0.1820485144853592,-0.20186644792556763,-0.17245855927467346,-0.17150968313217163,0.49793708324432373,0.0680987685918808,0.1527295857667923,0.4577191472053528,-0.4192642569541931,},{0.22950296103954315,-0.0994490534067154,0.17660397291183472,-0.2169381082057953,-0.1444048136472702,0.011703568510711193,-0.022810140624642372,0.013715273700654507,0.0978422537446022,-0.3748380243778229,0.39436328411102295,0.0888579860329628,0.28055649995803833,0.0660494863986969,0.20324046909809113,0.22512419521808624,-0.1750330626964569,-0.23282091319561005,-0.04133787378668785,0.33650922775268555,-0.22563733160495758,-0.11908291280269623,-0.1265678107738495,0.1820485144853592,-0.20186644792556763,-0.17245855927467346,-0.17150968313217163,0.49793708324432373,0.0680987685918808,0.1527295857667923,0.4577191472053528,-0.4192642569541931,},{0.22950296103954315,-0.0994490534067154,0.17660397291183472,-0.2169381082057953,-0.1444048136472702,0.011703568510711193,-0.022810140624642372,0.013715273700654507,0.0978422537446022,-0.3748380243778229,0.39436328411102295,0.0888579860329628,0.28055649995803833,0.0660494863986969,0.20324046909809113,0.22512419521808624,-0.1750330626964569,-0.23282091319561005,-0.04133787378668785,0.33650922775268555,-0.22563733160495758,-0.11908291280269623,-0.1265678107738495,0.1820485144853592,-0.20186644792556763,-0.17245855927467346,-0.17150968313217163,0.49793708324432373,0.0680987685918808,0.1527295857667923,0.4577191472053528,-0.4192642569541931,},{0.22950296103954315,-0.0994490534067154,0.17660397291183472,-0.2169381082057953,-0.1444048136472702,0.011703568510711193,-0.022810140624642372,0.013715273700654507,0.0978422537446022,-0.3748380243778229,0.39436328411102295,0.0888579860329628,0.28055649995803833,0.0660494863986969,0.20324046909809113,0.22512419521808624,-0.1750330626964569,-0.23282091319561005,-0.04133787378668785,0.33650922775268555,-0.22563733160495758,-0.11908291280269623,-0.1265678107738495,0.1820485144853592,-0.20186644792556763,-0.17245855927467346,-0.17150968313217163,0.49793708324432373,0.0680987685918808,0.1527295857667923,0.4577191472053528,-0.4192642569541931,},{0.22950296103954315,-0.0994490534067154,0.17660397291183472,-0.2169381082057953,-0.1444048136472702,0.011703568510711193,-0.022810140624642372,0.013715273700654507,0.0978422537446022,-0.3748380243778229,0.39436328411102295,0.0888579860329628,0.28055649995803833,0.0660494863986969,0.20324046909809113,0.22512419521808624,-0.1750330626964569,-0.23282091319561005,-0.04133787378668785,0.33650922775268555,-0.22563733160495758,-0.11908291280269623,-0.1265678107738495,0.1820485144853592,-0.20186644792556763,-0.17245855927467346,-0.17150968313217163,0.49793708324432373,0.0680987685918808,0.1527295857667923,0.4577191472053528,-0.4192642569541931,},{0.22950296103954315,-0.0994490534067154,0.17660397291183472,-0.2169381082057953,-0.1444048136472702,0.011703568510711193,-0.022810140624642372,0.013715273700654507,0.0978422537446022,-0.3748380243778229,0.39436328411102295,0.0888579860329628,0.28055649995803833,0.0660494863986969,0.20324046909809113,0.22512419521808624,-0.1750330626964569,-0.23282091319561005,-0.04133787378668785,0.33650922775268555,-0.22563733160495758,-0.11908291280269623,-0.1265678107738495,0.1820485144853592,-0.20186644792556763,-0.17245855927467346,-0.17150968313217163,0.49793708324432373,0.0680987685918808,0.1527295857667923,0.4577191472053528,-0.4192642569541931,},{0.22950296103954315,-0.0994490534067154,0.17660397291183472,-0.2169381082057953,-0.1444048136472702,0.011703568510711193,-0.022810140624642372,0.013715273700654507,0.0978422537446022,-0.3748380243778229,0.39436328411102295,0.0888579860329628,0.28055649995803833,0.0660494863986969,0.20324046909809113,0.22512419521808624,-0.1750330626964569,-0.23282091319561005,-0.04133787378668785,0.33650922775268555,-0.22563733160495758,-0.11908291280269623,-0.1265678107738495,0.1820485144853592,-0.20186644792556763,-0.17245855927467346,-0.17150968313217163,0.49793708324432373,0.0680987685918808,0.1527295857667923,0.4577191472053528,-0.4192642569541931,},{0.22950296103954315,-0.0994490534067154,0.17660397291183472,-0.2169381082057953,-0.1444048136472702,0.011703568510711193,-0.022810140624642372,0.013715273700654507,0.0978422537446022,-0.3748380243778229,0.39436328411102295,0.0888579860329628,0.28055649995803833,0.0660494863986969,0.20324046909809113,0.22512419521808624,-0.1750330626964569,-0.23282091319561005,-0.04133787378668785,0.33650922775268555,-0.22563733160495758,-0.11908291280269623,-0.1265678107738495,0.1820485144853592,-0.20186644792556763,-0.17245855927467346,-0.17150968313217163,0.49793708324432373,0.0680987685918808,0.1527295857667923,0.4577191472053528,-0.4192642569541931,},{0.22950296103954315,-0.0994490534067154,0.17660397291183472,-0.2169381082057953,-0.1444048136472702,0.011703568510711193,-0.022810140624642372,0.013715273700654507,0.0978422537446022,-0.3748380243778229,0.39436328411102295,0.0888579860329628,0.28055649995803833,0.0660494863986969,0.20324046909809113,0.22512419521808624,-0.1750330626964569,-0.23282091319561005,-0.04133787378668785,0.33650922775268555,-0.22563733160495758,-0.11908291280269623,-0.1265678107738495,0.1820485144853592,-0.20186644792556763,-0.17245855927467346,-0.17150968313217163,0.49793708324432373,0.0680987685918808,0.1527295857667923,0.4577191472053528,-0.4192642569541931,},{0.22950296103954315,-0.0994490534067154,0.17660397291183472,-0.2169381082057953,-0.1444048136472702,0.011703568510711193,-0.022810140624642372,0.013715273700654507,0.0978422537446022,-0.3748380243778229,0.39436328411102295,0.0888579860329628,0.28055649995803833,0.0660494863986969,0.20324046909809113,0.22512419521808624,-0.1750330626964569,-0.23282091319561005,-0.04133787378668785,0.33650922775268555,-0.22563733160495758,-0.11908291280269623,-0.1265678107738495,0.1820485144853592,-0.20186644792556763,-0.17245855927467346,-0.17150968313217163,0.49793708324432373,0.0680987685918808,0.1527295857667923,0.4577191472053528,-0.4192642569541931,},{0.22950296103954315,-0.0994490534067154,0.17660397291183472,-0.2169381082057953,-0.1444048136472702,0.011703568510711193,-0.022810140624642372,0.013715273700654507,0.0978422537446022,-0.3748380243778229,0.39436328411102295,0.0888579860329628,0.28055649995803833,0.0660494863986969,0.20324046909809113,0.22512419521808624,-0.1750330626964569,-0.23282091319561005,-0.04133787378668785,0.33650922775268555,-0.22563733160495758,-0.11908291280269623,-0.1265678107738495,0.1820485144853592,-0.20186644792556763,-0.17245855927467346,-0.17150968313217163,0.49793708324432373,0.0680987685918808,0.1527295857667923,0.4577191472053528,-0.4192642569541931,},{0.22950296103954315,-0.0994490534067154,0.17660397291183472,-0.2169381082057953,-0.1444048136472702,0.011703568510711193,-0.022810140624642372,0.013715273700654507,0.0978422537446022,-0.3748380243778229,0.39436328411102295,0.0888579860329628,0.28055649995803833,0.0660494863986969,0.20324046909809113,0.22512419521808624,-0.1750330626964569,-0.23282091319561005,-0.04133787378668785,0.33650922775268555,-0.22563733160495758,-0.11908291280269623,-0.1265678107738495,0.1820485144853592,-0.20186644792556763,-0.17245855927467346,-0.17150968313217163,0.49793708324432373,0.0680987685918808,0.1527295857667923,0.4577191472053528,-0.4192642569541931,},{0.22950296103954315,-0.0994490534067154,0.17660397291183472,-0.2169381082057953,-0.1444048136472702,0.011703568510711193,-0.022810140624642372,0.013715273700654507,0.0978422537446022,-0.3748380243778229,0.39436328411102295,0.0888579860329628,0.28055649995803833,0.0660494863986969,0.20324046909809113,0.22512419521808624,-0.1750330626964569,-0.23282091319561005,-0.04133787378668785,0.33650922775268555,-0.22563733160495758,-0.11908291280269623,-0.1265678107738495,0.1820485144853592,-0.20186644792556763,-0.17245855927467346,-0.17150968313217163,0.49793708324432373,0.0680987685918808,0.1527295857667923,0.4577191472053528,-0.4192642569541931,},{0.22950296103954315,-0.0994490534067154,0.17660397291183472,-0.2169381082057953,-0.1444048136472702,0.011703568510711193,-0.022810140624642372,0.013715273700654507,0.0978422537446022,-0.3748380243778229,0.39436328411102295,0.0888579860329628,0.28055649995803833,0.0660494863986969,0.20324046909809113,0.22512419521808624,-0.1750330626964569,-0.23282091319561005,-0.04133787378668785,0.33650922775268555,-0.22563733160495758,-0.11908291280269623,-0.1265678107738495,0.1820485144853592,-0.20186644792556763,-0.17245855927467346,-0.17150968313217163,0.49793708324432373,0.0680987685918808,0.1527295857667923,0.4577191472053528,-0.4192642569541931,},{0.22950296103954315,-0.0994490534067154,0.17660397291183472,-0.2169381082057953,-0.1444048136472702,0.011703568510711193,-0.022810140624642372,0.013715273700654507,0.0978422537446022,-0.3748380243778229,0.39436328411102295,0.0888579860329628,0.28055649995803833,0.0660494863986969,0.20324046909809113,0.22512419521808624,-0.1750330626964569,-0.23282091319561005,-0.04133787378668785,0.33650922775268555,-0.22563733160495758,-0.11908291280269623,-0.1265678107738495,0.1820485144853592,-0.20186644792556763,-0.17245855927467346,-0.17150968313217163,0.49793708324432373,0.0680987685918808,0.1527295857667923,0.4577191472053528,-0.4192642569541931,},{0.22950296103954315,-0.0994490534067154,0.17660397291183472,-0.2169381082057953,-0.1444048136472702,0.011703568510711193,-0.022810140624642372,0.013715273700654507,0.0978422537446022,-0.3748380243778229,0.39436328411102295,0.0888579860329628,0.28055649995803833,0.0660494863986969,0.20324046909809113,0.22512419521808624,-0.1750330626964569,-0.23282091319561005,-0.04133787378668785,0.33650922775268555,-0.22563733160495758,-0.11908291280269623,-0.1265678107738495,0.1820485144853592,-0.20186644792556763,-0.17245855927467346,-0.17150968313217163,0.49793708324432373,0.0680987685918808,0.1527295857667923,0.4577191472053528,-0.4192642569541931,},{0.22950296103954315,-0.0994490534067154,0.17660397291183472,-0.2169381082057953,-0.1444048136472702,0.011703568510711193,-0.022810140624642372,0.013715273700654507,0.0978422537446022,-0.3748380243778229,0.39436328411102295,0.0888579860329628,0.28055649995803833,0.0660494863986969,0.20324046909809113,0.22512419521808624,-0.1750330626964569,-0.23282091319561005,-0.04133787378668785,0.33650922775268555,-0.22563733160495758,-0.11908291280269623,-0.1265678107738495,0.1820485144853592,-0.20186644792556763,-0.17245855927467346,-0.17150968313217163,0.49793708324432373,0.0680987685918808,0.1527295857667923,0.4577191472053528,-0.4192642569541931,},{0.22950296103954315,-0.0994490534067154,0.17660397291183472,-0.2169381082057953,-0.1444048136472702,0.011703568510711193,-0.022810140624642372,0.013715273700654507,0.0978422537446022,-0.3748380243778229,0.39436328411102295,0.0888579860329628,0.28055649995803833,0.0660494863986969,0.20324046909809113,0.22512419521808624,-0.1750330626964569,-0.23282091319561005,-0.04133787378668785,0.33650922775268555,-0.22563733160495758,-0.11908291280269623,-0.1265678107738495,0.1820485144853592,-0.20186644792556763,-0.17245855927467346,-0.17150968313217163,0.49793708324432373,0.0680987685918808,0.1527295857667923,0.4577191472053528,-0.4192642569541931,},{0.22950296103954315,-0.0994490534067154,0.17660397291183472,-0.2169381082057953,-0.1444048136472702,0.011703568510711193,-0.022810140624642372,0.013715273700654507,0.0978422537446022,-0.3748380243778229,0.39436328411102295,0.0888579860329628,0.28055649995803833,0.0660494863986969,0.20324046909809113,0.22512419521808624,-0.1750330626964569,-0.23282091319561005,-0.04133787378668785,0.33650922775268555,-0.22563733160495758,-0.11908291280269623,-0.1265678107738495,0.1820485144853592,-0.20186644792556763,-0.17245855927467346,-0.17150968313217163,0.49793708324432373,0.0680987685918808,0.1527295857667923,0.4577191472053528,-0.4192642569541931,},{0.22950296103954315,-0.0994490534067154,0.17660397291183472,-0.2169381082057953,-0.1444048136472702,0.011703568510711193,-0.022810140624642372,0.013715273700654507,0.0978422537446022,-0.3748380243778229,0.39436328411102295,0.0888579860329628,0.28055649995803833,0.0660494863986969,0.20324046909809113,0.22512419521808624,-0.1750330626964569,-0.23282091319561005,-0.04133787378668785,0.33650922775268555,-0.22563733160495758,-0.11908291280269623,-0.1265678107738495,0.1820485144853592,-0.20186644792556763,-0.17245855927467346,-0.17150968313217163,0.49793708324432373,0.0680987685918808,0.1527295857667923,0.4577191472053528,-0.4192642569541931,},{0.22950296103954315,-0.0994490534067154,0.17660397291183472,-0.2169381082057953,-0.1444048136472702,0.011703568510711193,-0.022810140624642372,0.013715273700654507,0.0978422537446022,-0.3748380243778229,0.39436328411102295,0.0888579860329628,0.28055649995803833,0.0660494863986969,0.20324046909809113,0.22512419521808624,-0.1750330626964569,-0.23282091319561005,-0.04133787378668785,0.33650922775268555,-0.22563733160495758,-0.11908291280269623,-0.1265678107738495,0.1820485144853592,-0.20186644792556763,-0.17245855927467346,-0.17150968313217163,0.49793708324432373,0.0680987685918808,0.1527295857667923,0.4577191472053528,-0.4192642569541931,},{0.22950296103954315,-0.0994490534067154,0.17660397291183472,-0.2169381082057953,-0.1444048136472702,0.011703568510711193,-0.022810140624642372,0.013715273700654507,0.0978422537446022,-0.3748380243778229,0.39436328411102295,0.0888579860329628,0.28055649995803833,0.0660494863986969,0.20324046909809113,0.22512419521808624,-0.1750330626964569,-0.23282091319561005,-0.04133787378668785,0.33650922775268555,-0.22563733160495758,-0.11908291280269623,-0.1265678107738495,0.1820485144853592,-0.20186644792556763,-0.17245855927467346,-0.17150968313217163,0.49793708324432373,0.0680987685918808,0.1527295857667923,0.4577191472053528,-0.4192642569541931,},{0.22950296103954315,-0.0994490534067154,0.17660397291183472,-0.2169381082057953,-0.1444048136472702,0.011703568510711193,-0.022810140624642372,0.013715273700654507,0.0978422537446022,-0.3748380243778229,0.39436328411102295,0.0888579860329628,0.28055649995803833,0.0660494863986969,0.20324046909809113,0.22512419521808624,-0.1750330626964569,-0.23282091319561005,-0.04133787378668785,0.33650922775268555,-0.22563733160495758,-0.11908291280269623,-0.1265678107738495,0.1820485144853592,-0.20186644792556763,-0.17245855927467346,-0.17150968313217163,0.49793708324432373,0.0680987685918808,0.1527295857667923,0.4577191472053528,-0.4192642569541931,},{0.22950296103954315,-0.0994490534067154,0.17660397291183472,-0.2169381082057953,-0.1444048136472702,0.011703568510711193,-0.022810140624642372,0.013715273700654507,0.0978422537446022,-0.3748380243778229,0.39436328411102295,0.0888579860329628,0.28055649995803833,0.0660494863986969,0.20324046909809113,0.22512419521808624,-0.1750330626964569,-0.23282091319561005,-0.04133787378668785,0.33650922775268555,-0.22563733160495758,-0.11908291280269623,-0.1265678107738495,0.1820485144853592,-0.20186644792556763,-0.17245855927467346,-0.17150968313217163,0.49793708324432373,0.0680987685918808,0.1527295857667923,0.4577191472053528,-0.4192642569541931,},{0.22950296103954315,-0.0994490534067154,0.17660397291183472,-0.2169381082057953,-0.1444048136472702,0.011703568510711193,-0.022810140624642372,0.013715273700654507,0.0978422537446022,-0.3748380243778229,0.39436328411102295,0.0888579860329628,0.28055649995803833,0.0660494863986969,0.20324046909809113,0.22512419521808624,-0.1750330626964569,-0.23282091319561005,-0.04133787378668785,0.33650922775268555,-0.22563733160495758,-0.11908291280269623,-0.1265678107738495,0.1820485144853592,-0.20186644792556763,-0.17245855927467346,-0.17150968313217163,0.49793708324432373,0.0680987685918808,0.1527295857667923,0.4577191472053528,-0.4192642569541931,},}}{{0.32126450538635254,-0.19221225380897522,0.37895503640174866,-0.334358811378479,0.08949221670627594,-0.15686829388141632,-0.09569040685892105,-0.1483350396156311,-0.04199814423918724,0.011307328939437866,0.01636478677392006,0.5809214115142822,0.29215630888938904,0.14213621616363525,-0.11011867225170135,-0.3123204708099365,0.3110441565513611,-0.23989999294281006,0.09137427806854248,0.13238118588924408,0.11936569213867188,-0.21797719597816467,-0.20684166252613068,0.21914447844028473,-0.3900435268878937,-0.12408099323511124,-0.21389609575271606,0.061676274985075,-0.16526329517364502,-0.026569221168756485,0.1726289838552475,-0.11953054368495941,},{0.32126450538635254,-0.19221225380897522,0.37895503640174866,-0.334358811378479,0.08949221670627594,-0.15686829388141632,-0.09569040685892105,-0.1483350396156311,-0.04199814423918724,0.011307328939437866,0.01636478677392006,0.5809214115142822,0.29215630888938904,0.14213621616363525,-0.11011867225170135,-0.3123204708099365,0.3110441565513611,-0.23989999294281006,0.09137427806854248,0.13238118588924408,0.11936569213867188,-0.21797719597816467,-0.20684166252613068,0.21914447844028473,-0.3900435268878937,-0.12408099323511124,-0.21389609575271606,0.061676274985075,-0.16526329517364502,-0.026569221168756485,0.1726289838552475,-0.11953054368495941,},{0.32126450538635254,-0.19221225380897522,0.37895503640174866,-0.334358811378479,0.08949221670627594,-0.15686829388141632,-0.09569040685892105,-0.1483350396156311,-0.04199814423918724,0.011307328939437866,0.01636478677392006,0.5809214115142822,0.29215630888938904,0.14213621616363525,-0.11011867225170135,-0.3123204708099365,0.3110441565513611,-0.23989999294281006,0.09137427806854248,0.13238118588924408,0.11936569213867188,-0.21797719597816467,-0.20684166252613068,0.21914447844028473,-0.3900435268878937,-0.12408099323511124,-0.21389609575271606,0.061676274985075,-0.16526329517364502,-0.026569221168756485,0.1726289838552475,-0.11953054368495941,},{0.32126450538635254,-0.19221225380897522,0.37895503640174866,-0.334358811378479,0.08949221670627594,-0.15686829388141632,-0.09569040685892105,-0.1483350396156311,-0.04199814423918724,0.011307328939437866,0.01636478677392006,0.5809214115142822,0.29215630888938904,0.14213621616363525,-0.11011867225170135,-0.3123204708099365,0.3110441565513611,-0.23989999294281006,0.09137427806854248,0.13238118588924408,0.11936569213867188,-0.21797719597816467,-0.20684166252613068,0.21914447844028473,-0.3900435268878937,-0.12408099323511124,-0.21389609575271606,0.061676274985075,-0.16526329517364502,-0.026569221168756485,0.1726289838552475,-0.11953054368495941,},{0.32126450538635254,-0.19221225380897522,0.37895503640174866,-0.334358811378479,0.08949221670627594,-0.15686829388141632,-0.09569040685892105,-0.1483350396156311,-0.04199814423918724,0.011307328939437866,0.01636478677392006,0.5809214115142822,0.29215630888938904,0.14213621616363525,-0.11011867225170135,-0.3123204708099365,0.3110441565513611,-0.23989999294281006,0.09137427806854248,0.13238118588924408,0.11936569213867188,-0.21797719597816467,-0.20684166252613068,0.21914447844028473,-0.3900435268878937,-0.12408099323511124,-0.21389609575271606,0.061676274985075,-0.16526329517364502,-0.026569221168756485,0.1726289838552475,-0.11953054368495941,},{0.32126450538635254,-0.19221225380897522,0.37895503640174866,-0.334358811378479,0.08949221670627594,-0.15686829388141632,-0.09569040685892105,-0.1483350396156311,-0.04199814423918724,0.011307328939437866,0.01636478677392006,0.5809214115142822,0.29215630888938904,0.14213621616363525,-0.11011867225170135,-0.3123204708099365,0.3110441565513611,-0.23989999294281006,0.09137427806854248,0.13238118588924408,0.11936569213867188,-0.21797719597816467,-0.20684166252613068,0.21914447844028473,-0.3900435268878937,-0.12408099323511124,-0.21389609575271606,0.061676274985075,-0.16526329517364502,-0.026569221168756485,0.1726289838552475,-0.11953054368495941,},{0.32126450538635254,-0.19221225380897522,0.37895503640174866,-0.334358811378479,0.08949221670627594,-0.15686829388141632,-0.09569040685892105,-0.1483350396156311,-0.04199814423918724,0.011307328939437866,0.01636478677392006,0.5809214115142822,0.29215630888938904,0.14213621616363525,-0.11011867225170135,-0.3123204708099365,0.3110441565513611,-0.23989999294281006,0.09137427806854248,0.13238118588924408,0.11936569213867188,-0.21797719597816467,-0.20684166252613068,0.21914447844028473,-0.3900435268878937,-0.12408099323511124,-0.21389609575271606,0.061676274985075,-0.16526329517364502,-0.026569221168756485,0.1726289838552475,-0.11953054368495941,},{0.32126450538635254,-0.19221225380897522,0.37895503640174866,-0.334358811378479,0.08949221670627594,-0.15686829388141632,-0.09569040685892105,-0.1483350396156311,-0.04199814423918724,0.011307328939437866,0.01636478677392006,0.5809214115142822,0.29215630888938904,0.14213621616363525,-0.11011867225170135,-0.3123204708099365,0.3110441565513611,-0.23989999294281006,0.09137427806854248,0.13238118588924408,0.11936569213867188,-0.21797719597816467,-0.20684166252613068,0.21914447844028473,-0.3900435268878937,-0.12408099323511124,-0.21389609575271606,0.061676274985075,-0.16526329517364502,-0.026569221168756485,0.1726289838552475,-0.11953054368495941,},{0.32126450538635254,-0.19221225380897522,0.37895503640174866,-0.334358811378479,0.08949221670627594,-0.15686829388141632,-0.09569040685892105,-0.1483350396156311,-0.04199814423918724,0.011307328939437866,0.01636478677392006,0.5809214115142822,0.29215630888938904,0.14213621616363525,-0.11011867225170135,-0.3123204708099365,0.3110441565513611,-0.23989999294281006,0.09137427806854248,0.13238118588924408,0.11936569213867188,-0.21797719597816467,-0.20684166252613068,0.21914447844028473,-0.3900435268878937,-0.12408099323511124,-0.21389609575271606,0.061676274985075,-0.16526329517364502,-0.026569221168756485,0.1726289838552475,-0.11953054368495941,},{0.32126450538635254,-0.19221225380897522,0.37895503640174866,-0.334358811378479,0.08949221670627594,-0.15686829388141632,-0.09569040685892105,-0.1483350396156311,-0.04199814423918724,0.011307328939437866,0.01636478677392006,0.5809214115142822,0.29215630888938904,0.14213621616363525,-0.11011867225170135,-0.3123204708099365,0.3110441565513611,-0.23989999294281006,0.09137427806854248,0.13238118588924408,0.11936569213867188,-0.21797719597816467,-0.20684166252613068,0.21914447844028473,-0.3900435268878937,-0.12408099323511124,-0.21389609575271606,0.061676274985075,-0.16526329517364502,-0.026569221168756485,0.1726289838552475,-0.11953054368495941,},{0.32126450538635254,-0.19221225380897522,0.37895503640174866,-0.334358811378479,0.08949221670627594,-0.15686829388141632,-0.09569040685892105,-0.1483350396156311,-0.04199814423918724,0.011307328939437866,0.01636478677392006,0.5809214115142822,0.29215630888938904,0.14213621616363525,-0.11011867225170135,-0.3123204708099365,0.3110441565513611,-0.23989999294281006,0.09137427806854248,0.13238118588924408,0.11936569213867188,-0.21797719597816467,-0.20684166252613068,0.21914447844028473,-0.3900435268878937,-0.12408099323511124,-0.21389609575271606,0.061676274985075,-0.16526329517364502,-0.026569221168756485,0.1726289838552475,-0.11953054368495941,},{0.32126450538635254,-0.19221225380897522,0.37895503640174866,-0.334358811378479,0.08949221670627594,-0.15686829388141632,-0.09569040685892105,-0.1483350396156311,-0.04199814423918724,0.011307328939437866,0.01636478677392006,0.5809214115142822,0.29215630888938904,0.14213621616363525,-0.11011867225170135,-0.3123204708099365,0.3110441565513611,-0.23989999294281006,0.09137427806854248,0.13238118588924408,0.11936569213867188,-0.21797719597816467,-0.20684166252613068,0.21914447844028473,-0.3900435268878937,-0.12408099323511124,-0.21389609575271606,0.061676274985075,-0.16526329517364502,-0.026569221168756485,0.1726289838552475,-0.11953054368495941,},{0.32126450538635254,-0.19221225380897522,0.37895503640174866,-0.334358811378479,0.08949221670627594,-0.15686829388141632,-0.09569040685892105,-0.1483350396156311,-0.04199814423918724,0.011307328939437866,0.01636478677392006,0.5809214115142822,0.29215630888938904,0.14213621616363525,-0.11011867225170135,-0.3123204708099365,0.3110441565513611,-0.23989999294281006,0.09137427806854248,0.13238118588924408,0.11936569213867188,-0.21797719597816467,-0.20684166252613068,0.21914447844028473,-0.3900435268878937,-0.12408099323511124,-0.21389609575271606,0.061676274985075,-0.16526329517364502,-0.026569221168756485,0.1726289838552475,-0.11953054368495941,},{0.32126450538635254,-0.19221225380897522,0.37895503640174866,-0.334358811378479,0.08949221670627594,-0.15686829388141632,-0.09569040685892105,-0.1483350396156311,-0.04199814423918724,0.011307328939437866,0.01636478677392006,0.5809214115142822,0.29215630888938904,0.14213621616363525,-0.11011867225170135,-0.3123204708099365,0.3110441565513611,-0.23989999294281006,0.09137427806854248,0.13238118588924408,0.11936569213867188,-0.21797719597816467,-0.20684166252613068,0.21914447844028473,-0.3900435268878937,-0.12408099323511124,-0.21389609575271606,0.061676274985075,-0.16526329517364502,-0.026569221168756485,0.1726289838552475,-0.11953054368495941,},{0.32126450538635254,-0.19221225380897522,0.37895503640174866,-0.334358811378479,0.08949221670627594,-0.15686829388141632,-0.09569040685892105,-0.1483350396156311,-0.04199814423918724,0.011307328939437866,0.01636478677392006,0.5809214115142822,0.29215630888938904,0.14213621616363525,-0.11011867225170135,-0.3123204708099365,0.3110441565513611,-0.23989999294281006,0.09137427806854248,0.13238118588924408,0.11936569213867188,-0.21797719597816467,-0.20684166252613068,0.21914447844028473,-0.3900435268878937,-0.12408099323511124,-0.21389609575271606,0.061676274985075,-0.16526329517364502,-0.026569221168756485,0.1726289838552475,-0.11953054368495941,},{0.32126450538635254,-0.19221225380897522,0.37895503640174866,-0.334358811378479,0.08949221670627594,-0.15686829388141632,-0.09569040685892105,-0.1483350396156311,-0.04199814423918724,0.011307328939437866,0.01636478677392006,0.5809214115142822,0.29215630888938904,0.14213621616363525,-0.11011867225170135,-0.3123204708099365,0.3110441565513611,-0.23989999294281006,0.09137427806854248,0.13238118588924408,0.11936569213867188,-0.21797719597816467,-0.20684166252613068,0.21914447844028473,-0.3900435268878937,-0.12408099323511124,-0.21389609575271606,0.061676274985075,-0.16526329517364502,-0.026569221168756485,0.1726289838552475,-0.11953054368495941,},{0.32126450538635254,-0.19221225380897522,0.37895503640174866,-0.334358811378479,0.08949221670627594,-0.15686829388141632,-0.09569040685892105,-0.1483350396156311,-0.04199814423918724,0.011307328939437866,0.01636478677392006,0.5809214115142822,0.29215630888938904,0.14213621616363525,-0.11011867225170135,-0.3123204708099365,0.3110441565513611,-0.23989999294281006,0.09137427806854248,0.13238118588924408,0.11936569213867188,-0.21797719597816467,-0.20684166252613068,0.21914447844028473,-0.3900435268878937,-0.12408099323511124,-0.21389609575271606,0.061676274985075,-0.16526329517364502,-0.026569221168756485,0.1726289838552475,-0.11953054368495941,},{0.32126450538635254,-0.19221225380897522,0.37895503640174866,-0.334358811378479,0.08949221670627594,-0.15686829388141632,-0.09569040685892105,-0.1483350396156311,-0.04199814423918724,0.011307328939437866,0.01636478677392006,0.5809214115142822,0.29215630888938904,0.14213621616363525,-0.11011867225170135,-0.3123204708099365,0.3110441565513611,-0.23989999294281006,0.09137427806854248,0.13238118588924408,0.11936569213867188,-0.21797719597816467,-0.20684166252613068,0.21914447844028473,-0.3900435268878937,-0.12408099323511124,-0.21389609575271606,0.061676274985075,-0.16526329517364502,-0.026569221168756485,0.1726289838552475,-0.11953054368495941,},{0.32126450538635254,-0.19221225380897522,0.37895503640174866,-0.334358811378479,0.08949221670627594,-0.15686829388141632,-0.09569040685892105,-0.1483350396156311,-0.04199814423918724,0.011307328939437866,0.01636478677392006,0.5809214115142822,0.29215630888938904,0.14213621616363525,-0.11011867225170135,-0.3123204708099365,0.3110441565513611,-0.23989999294281006,0.09137427806854248,0.13238118588924408,0.11936569213867188,-0.21797719597816467,-0.20684166252613068,0.21914447844028473,-0.3900435268878937,-0.12408099323511124,-0.21389609575271606,0.061676274985075,-0.16526329517364502,-0.026569221168756485,0.1726289838552475,-0.11953054368495941,},{0.32126450538635254,-0.19221225380897522,0.37895503640174866,-0.334358811378479,0.08949221670627594,-0.15686829388141632,-0.09569040685892105,-0.1483350396156311,-0.04199814423918724,0.011307328939437866,0.01636478677392006,0.5809214115142822,0.29215630888938904,0.14213621616363525,-0.11011867225170135,-0.3123204708099365,0.3110441565513611,-0.23989999294281006,0.09137427806854248,0.13238118588924408,0.11936569213867188,-0.21797719597816467,-0.20684166252613068,0.21914447844028473,-0.3900435268878937,-0.12408099323511124,-0.21389609575271606,0.061676274985075,-0.16526329517364502,-0.026569221168756485,0.1726289838552475,-0.11953054368495941,},{0.32126450538635254,-0.19221225380897522,0.37895503640174866,-0.334358811378479,0.08949221670627594,-0.15686829388141632,-0.09569040685892105,-0.1483350396156311,-0.04199814423918724,0.011307328939437866,0.01636478677392006,0.5809214115142822,0.29215630888938904,0.14213621616363525,-0.11011867225170135,-0.3123204708099365,0.3110441565513611,-0.23989999294281006,0.09137427806854248,0.13238118588924408,0.11936569213867188,-0.21797719597816467,-0.20684166252613068,0.21914447844028473,-0.3900435268878937,-0.12408099323511124,-0.21389609575271606,0.061676274985075,-0.16526329517364502,-0.026569221168756485,0.1726289838552475,-0.11953054368495941,},{0.32126450538635254,-0.19221225380897522,0.37895503640174866,-0.334358811378479,0.08949221670627594,-0.15686829388141632,-0.09569040685892105,-0.1483350396156311,-0.04199814423918724,0.011307328939437866,0.01636478677392006,0.5809214115142822,0.29215630888938904,0.14213621616363525,-0.11011867225170135,-0.3123204708099365,0.3110441565513611,-0.23989999294281006,0.09137427806854248,0.13238118588924408,0.11936569213867188,-0.21797719597816467,-0.20684166252613068,0.21914447844028473,-0.3900435268878937,-0.12408099323511124,-0.21389609575271606,0.061676274985075,-0.16526329517364502,-0.026569221168756485,0.1726289838552475,-0.11953054368495941,},{0.32126450538635254,-0.19221225380897522,0.37895503640174866,-0.334358811378479,0.08949221670627594,-0.15686829388141632,-0.09569040685892105,-0.1483350396156311,-0.04199814423918724,0.011307328939437866,0.01636478677392006,0.5809214115142822,0.29215630888938904,0.14213621616363525,-0.11011867225170135,-0.3123204708099365,0.3110441565513611,-0.23989999294281006,0.09137427806854248,0.13238118588924408,0.11936569213867188,-0.21797719597816467,-0.20684166252613068,0.21914447844028473,-0.3900435268878937,-0.12408099323511124,-0.21389609575271606,0.061676274985075,-0.16526329517364502,-0.026569221168756485,0.1726289838552475,-0.11953054368495941,},{0.32126450538635254,-0.19221225380897522,0.37895503640174866,-0.334358811378479,0.08949221670627594,-0.15686829388141632,-0.09569040685892105,-0.1483350396156311,-0.04199814423918724,0.011307328939437866,0.01636478677392006,0.5809214115142822,0.29215630888938904,0.14213621616363525,-0.11011867225170135,-0.3123204708099365,0.3110441565513611,-0.23989999294281006,0.09137427806854248,0.13238118588924408,0.11936569213867188,-0.21797719597816467,-0.20684166252613068,0.21914447844028473,-0.3900435268878937,-0.12408099323511124,-0.21389609575271606,0.061676274985075,-0.16526329517364502,-0.026569221168756485,0.1726289838552475,-0.11953054368495941,},{0.32126450538635254,-0.19221225380897522,0.37895503640174866,-0.334358811378479,0.08949221670627594,-0.15686829388141632,-0.09569040685892105,-0.1483350396156311,-0.04199814423918724,0.011307328939437866,0.01636478677392006,0.5809214115142822,0.29215630888938904,0.14213621616363525,-0.11011867225170135,-0.3123204708099365,0.3110441565513611,-0.23989999294281006,0.09137427806854248,0.13238118588924408,0.11936569213867188,-0.21797719597816467,-0.20684166252613068,0.21914447844028473,-0.3900435268878937,-0.12408099323511124,-0.21389609575271606,0.061676274985075,-0.16526329517364502,-0.026569221168756485,0.1726289838552475,-0.11953054368495941,},{0.32126450538635254,-0.19221225380897522,0.37895503640174866,-0.334358811378479,0.08949221670627594,-0.15686829388141632,-0.09569040685892105,-0.1483350396156311,-0.04199814423918724,0.011307328939437866,0.01636478677392006,0.5809214115142822,0.29215630888938904,0.14213621616363525,-0.11011867225170135,-0.3123204708099365,0.3110441565513611,-0.23989999294281006,0.09137427806854248,0.13238118588924408,0.11936569213867188,-0.21797719597816467,-0.20684166252613068,0.21914447844028473,-0.3900435268878937,-0.12408099323511124,-0.21389609575271606,0.061676274985075,-0.16526329517364502,-0.026569221168756485,0.1726289838552475,-0.11953054368495941,},{0.32126450538635254,-0.19221225380897522,0.37895503640174866,-0.334358811378479,0.08949221670627594,-0.15686829388141632,-0.09569040685892105,-0.1483350396156311,-0.04199814423918724,0.011307328939437866,0.01636478677392006,0.5809214115142822,0.29215630888938904,0.14213621616363525,-0.11011867225170135,-0.3123204708099365,0.3110441565513611,-0.23989999294281006,0.09137427806854248,0.13238118588924408,0.11936569213867188,-0.21797719597816467,-0.20684166252613068,0.21914447844028473,-0.3900435268878937,-0.12408099323511124,-0.21389609575271606,0.061676274985075,-0.16526329517364502,-0.026569221168756485,0.1726289838552475,-0.11953054368495941,},{0.32126450538635254,-0.19221225380897522,0.37895503640174866,-0.334358811378479,0.08949221670627594,-0.15686829388141632,-0.09569040685892105,-0.1483350396156311,-0.04199814423918724,0.011307328939437866,0.01636478677392006,0.5809214115142822,0.29215630888938904,0.14213621616363525,-0.11011867225170135,-0.3123204708099365,0.3110441565513611,-0.23989999294281006,0.09137427806854248,0.13238118588924408,0.11936569213867188,-0.21797719597816467,-0.20684166252613068,0.21914447844028473,-0.3900435268878937,-0.12408099323511124,-0.21389609575271606,0.061676274985075,-0.16526329517364502,-0.026569221168756485,0.1726289838552475,-0.11953054368495941,},{0.32126450538635254,-0.19221225380897522,0.37895503640174866,-0.334358811378479,0.08949221670627594,-0.15686829388141632,-0.09569040685892105,-0.1483350396156311,-0.04199814423918724,0.011307328939437866,0.01636478677392006,0.5809214115142822,0.29215630888938904,0.14213621616363525,-0.11011867225170135,-0.3123204708099365,0.3110441565513611,-0.23989999294281006,0.09137427806854248,0.13238118588924408,0.11936569213867188,-0.21797719597816467,-0.20684166252613068,0.21914447844028473,-0.3900435268878937,-0.12408099323511124,-0.21389609575271606,0.061676274985075,-0.16526329517364502,-0.026569221168756485,0.1726289838552475,-0.11953054368495941,},{0.32126450538635254,-0.19221225380897522,0.37895503640174866,-0.334358811378479,0.08949221670627594,-0.15686829388141632,-0.09569040685892105,-0.1483350396156311,-0.04199814423918724,0.011307328939437866,0.01636478677392006,0.5809214115142822,0.29215630888938904,0.14213621616363525,-0.11011867225170135,-0.3123204708099365,0.3110441565513611,-0.23989999294281006,0.09137427806854248,0.13238118588924408,0.11936569213867188,-0.21797719597816467,-0.20684166252613068,0.21914447844028473,-0.3900435268878937,-0.12408099323511124,-0.21389609575271606,0.061676274985075,-0.16526329517364502,-0.026569221168756485,0.1726289838552475,-0.11953054368495941,},{0.32126450538635254,-0.19221225380897522,0.37895503640174866,-0.334358811378479,0.08949221670627594,-0.15686829388141632,-0.09569040685892105,-0.1483350396156311,-0.04199814423918724,0.011307328939437866,0.01636478677392006,0.5809214115142822,0.29215630888938904,0.14213621616363525,-0.11011867225170135,-0.3123204708099365,0.3110441565513611,-0.23989999294281006,0.09137427806854248,0.13238118588924408,0.11936569213867188,-0.21797719597816467,-0.20684166252613068,0.21914447844028473,-0.3900435268878937,-0.12408099323511124,-0.21389609575271606,0.061676274985075,-0.16526329517364502,-0.026569221168756485,0.1726289838552475,-0.11953054368495941,},{0.32126450538635254,-0.19221225380897522,0.37895503640174866,-0.334358811378479,0.08949221670627594,-0.15686829388141632,-0.09569040685892105,-0.1483350396156311,-0.04199814423918724,0.011307328939437866,0.01636478677392006,0.5809214115142822,0.29215630888938904,0.14213621616363525,-0.11011867225170135,-0.3123204708099365,0.3110441565513611,-0.23989999294281006,0.09137427806854248,0.13238118588924408,0.11936569213867188,-0.21797719597816467,-0.20684166252613068,0.21914447844028473,-0.3900435268878937,-0.12408099323511124,-0.21389609575271606,0.061676274985075,-0.16526329517364502,-0.026569221168756485,0.1726289838552475,-0.11953054368495941,},}}