{{-0.17943835258483887,-0.09659355878829956,-0.1618925929069519,-0.20123128592967987,-0.04473373666405678,-0.1216747984290123,0.07096436619758606,0.3190060257911682,0.11567211896181107,0.2641398012638092,0.11879801005125046,0.25998222827911377,-0.21308620274066925,0.27567169070243835,0.22666090726852417,-0.0938730537891388,0.0417361743748188,0.2565355598926544,-0.06573517620563507,-0.11339384317398071,0.19445595145225525,-0.023878389969468117,-0.014880659990012646,-0.1870139241218567,},{-0.17943835258483887,-0.09659355878829956,-0.1618925929069519,-0.20123128592967987,-0.04473373666405678,-0.1216747984290123,0.07096436619758606,0.3190060257911682,0.11567211896181107,0.2641398012638092,0.11879801005125046,0.25998222827911377,-0.21308620274066925,0.27567169070243835,0.22666090726852417,-0.0938730537891388,0.0417361743748188,0.2565355598926544,-0.06573517620563507,-0.11339384317398071,0.19445595145225525,-0.023878389969468117,-0.014880659990012646,-0.1870139241218567,},{-0.17943835258483887,-0.09659355878829956,-0.1618925929069519,-0.20123128592967987,-0.04473373666405678,-0.1216747984290123,0.07096436619758606,0.3190060257911682,0.11567211896181107,0.2641398012638092,0.11879801005125046,0.25998222827911377,-0.21308620274066925,0.27567169070243835,0.22666090726852417,-0.0938730537891388,0.0417361743748188,0.2565355598926544,-0.06573517620563507,-0.11339384317398071,0.19445595145225525,-0.023878389969468117,-0.014880659990012646,-0.1870139241218567,},{-0.17943835258483887,-0.09659355878829956,-0.1618925929069519,-0.20123128592967987,-0.04473373666405678,-0.1216747984290123,0.07096436619758606,0.3190060257911682,0.11567211896181107,0.2641398012638092,0.11879801005125046,0.25998222827911377,-0.21308620274066925,0.27567169070243835,0.22666090726852417,-0.0938730537891388,0.0417361743748188,0.2565355598926544,-0.06573517620563507,-0.11339384317398071,0.19445595145225525,-0.023878389969468117,-0.014880659990012646,-0.1870139241218567,},{-0.17943835258483887,-0.09659355878829956,-0.1618925929069519,-0.20123128592967987,-0.04473373666405678,-0.1216747984290123,0.07096436619758606,0.3190060257911682,0.11567211896181107,0.2641398012638092,0.11879801005125046,0.25998222827911377,-0.21308620274066925,0.27567169070243835,0.22666090726852417,-0.0938730537891388,0.0417361743748188,0.2565355598926544,-0.06573517620563507,-0.11339384317398071,0.19445595145225525,-0.023878389969468117,-0.014880659990012646,-0.1870139241218567,},{-0.17943835258483887,-0.09659355878829956,-0.1618925929069519,-0.20123128592967987,-0.04473373666405678,-0.1216747984290123,0.07096436619758606,0.3190060257911682,0.11567211896181107,0.2641398012638092,0.11879801005125046,0.25998222827911377,-0.21308620274066925,0.27567169070243835,0.22666090726852417,-0.0938730537891388,0.0417361743748188,0.2565355598926544,-0.06573517620563507,-0.11339384317398071,0.19445595145225525,-0.023878389969468117,-0.014880659990012646,-0.1870139241218567,},{-0.17943835258483887,-0.09659355878829956,-0.1618925929069519,-0.20123128592967987,-0.04473373666405678,-0.1216747984290123,0.07096436619758606,0.3190060257911682,0.11567211896181107,0.2641398012638092,0.11879801005125046,0.25998222827911377,-0.21308620274066925,0.27567169070243835,0.22666090726852417,-0.0938730537891388,0.0417361743748188,0.2565355598926544,-0.06573517620563507,-0.11339384317398071,0.19445595145225525,-0.023878389969468117,-0.014880659990012646,-0.1870139241218567,},{-0.17943835258483887,-0.09659355878829956,-0.1618925929069519,-0.20123128592967987,-0.04473373666405678,-0.1216747984290123,0.07096436619758606,0.3190060257911682,0.11567211896181107,0.2641398012638092,0.11879801005125046,0.25998222827911377,-0.21308620274066925,0.27567169070243835,0.22666090726852417,-0.0938730537891388,0.0417361743748188,0.2565355598926544,-0.06573517620563507,-0.11339384317398071,0.19445595145225525,-0.023878389969468117,-0.014880659990012646,-0.1870139241218567,},{-0.17943835258483887,-0.09659355878829956,-0.1618925929069519,-0.20123128592967987,-0.04473373666405678,-0.1216747984290123,0.07096436619758606,0.3190060257911682,0.11567211896181107,0.2641398012638092,0.11879801005125046,0.25998222827911377,-0.21308620274066925,0.27567169070243835,0.22666090726852417,-0.0938730537891388,0.0417361743748188,0.2565355598926544,-0.06573517620563507,-0.11339384317398071,0.19445595145225525,-0.023878389969468117,-0.014880659990012646,-0.1870139241218567,},{-0.17943835258483887,-0.09659355878829956,-0.1618925929069519,-0.20123128592967987,-0.04473373666405678,-0.1216747984290123,0.07096436619758606,0.3190060257911682,0.11567211896181107,0.2641398012638092,0.11879801005125046,0.25998222827911377,-0.21308620274066925,0.27567169070243835,0.22666090726852417,-0.0938730537891388,0.0417361743748188,0.2565355598926544,-0.06573517620563507,-0.11339384317398071,0.19445595145225525,-0.023878389969468117,-0.014880659990012646,-0.1870139241218567,},{-0.17943835258483887,-0.09659355878829956,-0.1618925929069519,-0.20123128592967987,-0.04473373666405678,-0.1216747984290123,0.07096436619758606,0.3190060257911682,0.11567211896181107,0.2641398012638092,0.11879801005125046,0.25998222827911377,-0.21308620274066925,0.27567169070243835,0.22666090726852417,-0.0938730537891388,0.0417361743748188,0.2565355598926544,-0.06573517620563507,-0.11339384317398071,0.19445595145225525,-0.023878389969468117,-0.014880659990012646,-0.1870139241218567,},{-0.17943835258483887,-0.09659355878829956,-0.1618925929069519,-0.20123128592967987,-0.04473373666405678,-0.1216747984290123,0.07096436619758606,0.3190060257911682,0.11567211896181107,0.2641398012638092,0.11879801005125046,0.25998222827911377,-0.21308620274066925,0.27567169070243835,0.22666090726852417,-0.0938730537891388,0.0417361743748188,0.2565355598926544,-0.06573517620563507,-0.11339384317398071,0.19445595145225525,-0.023878389969468117,-0.014880659990012646,-0.1870139241218567,},{-0.17943835258483887,-0.09659355878829956,-0.1618925929069519,-0.20123128592967987,-0.04473373666405678,-0.1216747984290123,0.07096436619758606,0.3190060257911682,0.11567211896181107,0.2641398012638092,0.11879801005125046,0.25998222827911377,-0.21308620274066925,0.27567169070243835,0.22666090726852417,-0.0938730537891388,0.0417361743748188,0.2565355598926544,-0.06573517620563507,-0.11339384317398071,0.19445595145225525,-0.023878389969468117,-0.014880659990012646,-0.1870139241218567,},{-0.17943835258483887,-0.09659355878829956,-0.1618925929069519,-0.20123128592967987,-0.04473373666405678,-0.1216747984290123,0.07096436619758606,0.3190060257911682,0.11567211896181107,0.2641398012638092,0.11879801005125046,0.25998222827911377,-0.21308620274066925,0.27567169070243835,0.22666090726852417,-0.0938730537891388,0.0417361743748188,0.2565355598926544,-0.06573517620563507,-0.11339384317398071,0.19445595145225525,-0.023878389969468117,-0.014880659990012646,-0.1870139241218567,},{-0.17943835258483887,-0.09659355878829956,-0.1618925929069519,-0.20123128592967987,-0.04473373666405678,-0.1216747984290123,0.07096436619758606,0.3190060257911682,0.11567211896181107,0.2641398012638092,0.11879801005125046,0.25998222827911377,-0.21308620274066925,0.27567169070243835,0.22666090726852417,-0.0938730537891388,0.0417361743748188,0.2565355598926544,-0.06573517620563507,-0.11339384317398071,0.19445595145225525,-0.023878389969468117,-0.014880659990012646,-0.1870139241218567,},{-0.17943835258483887,-0.09659355878829956,-0.1618925929069519,-0.20123128592967987,-0.04473373666405678,-0.1216747984290123,0.07096436619758606,0.3190060257911682,0.11567211896181107,0.2641398012638092,0.11879801005125046,0.25998222827911377,-0.21308620274066925,0.27567169070243835,0.22666090726852417,-0.0938730537891388,0.0417361743748188,0.2565355598926544,-0.06573517620563507,-0.11339384317398071,0.19445595145225525,-0.023878389969468117,-0.014880659990012646,-0.1870139241218567,},{-0.17943835258483887,-0.09659355878829956,-0.1618925929069519,-0.20123128592967987,-0.04473373666405678,-0.1216747984290123,0.07096436619758606,0.3190060257911682,0.11567211896181107,0.2641398012638092,0.11879801005125046,0.25998222827911377,-0.21308620274066925,0.27567169070243835,0.22666090726852417,-0.0938730537891388,0.0417361743748188,0.2565355598926544,-0.06573517620563507,-0.11339384317398071,0.19445595145225525,-0.023878389969468117,-0.014880659990012646,-0.1870139241218567,},{-0.17943835258483887,-0.09659355878829956,-0.1618925929069519,-0.20123128592967987,-0.04473373666405678,-0.1216747984290123,0.07096436619758606,0.3190060257911682,0.11567211896181107,0.2641398012638092,0.11879801005125046,0.25998222827911377,-0.21308620274066925,0.27567169070243835,0.22666090726852417,-0.0938730537891388,0.0417361743748188,0.2565355598926544,-0.06573517620563507,-0.11339384317398071,0.19445595145225525,-0.023878389969468117,-0.014880659990012646,-0.1870139241218567,},{-0.17943835258483887,-0.09659355878829956,-0.1618925929069519,-0.20123128592967987,-0.04473373666405678,-0.1216747984290123,0.07096436619758606,0.3190060257911682,0.11567211896181107,0.2641398012638092,0.11879801005125046,0.25998222827911377,-0.21308620274066925,0.27567169070243835,0.22666090726852417,-0.0938730537891388,0.0417361743748188,0.2565355598926544,-0.06573517620563507,-0.11339384317398071,0.19445595145225525,-0.023878389969468117,-0.014880659990012646,-0.1870139241218567,},{-0.17943835258483887,-0.09659355878829956,-0.1618925929069519,-0.20123128592967987,-0.04473373666405678,-0.1216747984290123,0.07096436619758606,0.3190060257911682,0.11567211896181107,0.2641398012638092,0.11879801005125046,0.25998222827911377,-0.21308620274066925,0.27567169070243835,0.22666090726852417,-0.0938730537891388,0.0417361743748188,0.2565355598926544,-0.06573517620563507,-0.11339384317398071,0.19445595145225525,-0.023878389969468117,-0.014880659990012646,-0.1870139241218567,},{-0.17943835258483887,-0.09659355878829956,-0.1618925929069519,-0.20123128592967987,-0.04473373666405678,-0.1216747984290123,0.07096436619758606,0.3190060257911682,0.11567211896181107,0.2641398012638092,0.11879801005125046,0.25998222827911377,-0.21308620274066925,0.27567169070243835,0.22666090726852417,-0.0938730537891388,0.0417361743748188,0.2565355598926544,-0.06573517620563507,-0.11339384317398071,0.19445595145225525,-0.023878389969468117,-0.014880659990012646,-0.1870139241218567,},{-0.17943835258483887,-0.09659355878829956,-0.1618925929069519,-0.20123128592967987,-0.04473373666405678,-0.1216747984290123,0.07096436619758606,0.3190060257911682,0.11567211896181107,0.2641398012638092,0.11879801005125046,0.25998222827911377,-0.21308620274066925,0.27567169070243835,0.22666090726852417,-0.0938730537891388,0.0417361743748188,0.2565355598926544,-0.06573517620563507,-0.11339384317398071,0.19445595145225525,-0.023878389969468117,-0.014880659990012646,-0.1870139241218567,},{-0.17943835258483887,-0.09659355878829956,-0.1618925929069519,-0.20123128592967987,-0.04473373666405678,-0.1216747984290123,0.07096436619758606,0.3190060257911682,0.11567211896181107,0.2641398012638092,0.11879801005125046,0.25998222827911377,-0.21308620274066925,0.27567169070243835,0.22666090726852417,-0.0938730537891388,0.0417361743748188,0.2565355598926544,-0.06573517620563507,-0.11339384317398071,0.19445595145225525,-0.023878389969468117,-0.014880659990012646,-0.1870139241218567,},{-0.17943835258483887,-0.09659355878829956,-0.1618925929069519,-0.20123128592967987,-0.04473373666405678,-0.1216747984290123,0.07096436619758606,0.3190060257911682,0.11567211896181107,0.2641398012638092,0.11879801005125046,0.25998222827911377,-0.21308620274066925,0.27567169070243835,0.22666090726852417,-0.0938730537891388,0.0417361743748188,0.2565355598926544,-0.06573517620563507,-0.11339384317398071,0.19445595145225525,-0.023878389969468117,-0.014880659990012646,-0.1870139241218567,},}}{{0.04478881508111954,-0.1737242192029953,-0.26724866032600403,0.030682675540447235,-0.09183654934167862,-0.27412280440330505,0.4323427975177765,0.07560022175312042,0.1562274545431137,0.12491107732057571,0.19738344848155975,0.01930278353393078,-0.24775291979312897,0.14476075768470764,-0.3659745454788208,0.4232991337776184,-0.13214491307735443,0.16856899857521057,0.0035946338903158903,0.164634570479393,-0.031354859471321106,0.2992958426475525,0.2283751368522644,0.05252030864357948,},{0.04478881508111954,-0.1737242192029953,-0.26724866032600403,0.030682675540447235,-0.09183654934167862,-0.27412280440330505,0.4323427975177765,0.07560022175312042,0.1562274545431137,0.12491107732057571,0.19738344848155975,0.01930278353393078,-0.24775291979312897,0.14476075768470764,-0.3659745454788208,0.4232991337776184,-0.13214491307735443,0.16856899857521057,0.0035946338903158903,0.164634570479393,-0.031354859471321106,0.2992958426475525,0.2283751368522644,0.05252030864357948,},{0.04478881508111954,-0.1737242192029953,-0.26724866032600403,0.030682675540447235,-0.09183654934167862,-0.27412280440330505,0.4323427975177765,0.07560022175312042,0.1562274545431137,0.12491107732057571,0.19738344848155975,0.01930278353393078,-0.24775291979312897,0.14476075768470764,-0.3659745454788208,0.4232991337776184,-0.13214491307735443,0.16856899857521057,0.0035946338903158903,0.164634570479393,-0.031354859471321106,0.2992958426475525,0.2283751368522644,0.05252030864357948,},{0.04478881508111954,-0.1737242192029953,-0.26724866032600403,0.030682675540447235,-0.09183654934167862,-0.27412280440330505,0.4323427975177765,0.07560022175312042,0.1562274545431137,0.12491107732057571,0.19738344848155975,0.01930278353393078,-0.24775291979312897,0.14476075768470764,-0.3659745454788208,0.4232991337776184,-0.13214491307735443,0.16856899857521057,0.0035946338903158903,0.164634570479393,-0.031354859471321106,0.2992958426475525,0.2283751368522644,0.05252030864357948,},{0.04478881508111954,-0.1737242192029953,-0.26724866032600403,0.030682675540447235,-0.09183654934167862,-0.27412280440330505,0.4323427975177765,0.07560022175312042,0.1562274545431137,0.12491107732057571,0.19738344848155975,0.01930278353393078,-0.24775291979312897,0.14476075768470764,-0.3659745454788208,0.4232991337776184,-0.13214491307735443,0.16856899857521057,0.0035946338903158903,0.164634570479393,-0.031354859471321106,0.2992958426475525,0.2283751368522644,0.05252030864357948,},{0.04478881508111954,-0.1737242192029953,-0.26724866032600403,0.030682675540447235,-0.09183654934167862,-0.27412280440330505,0.4323427975177765,0.07560022175312042,0.1562274545431137,0.12491107732057571,0.19738344848155975,0.01930278353393078,-0.24775291979312897,0.14476075768470764,-0.3659745454788208,0.4232991337776184,-0.13214491307735443,0.16856899857521057,0.0035946338903158903,0.164634570479393,-0.031354859471321106,0.2992958426475525,0.2283751368522644,0.05252030864357948,},{0.04478881508111954,-0.1737242192029953,-0.26724866032600403,0.030682675540447235,-0.09183654934167862,-0.27412280440330505,0.4323427975177765,0.07560022175312042,0.1562274545431137,0.12491107732057571,0.19738344848155975,0.01930278353393078,-0.24775291979312897,0.14476075768470764,-0.3659745454788208,0.4232991337776184,-0.13214491307735443,0.16856899857521057,0.0035946338903158903,0.164634570479393,-0.031354859471321106,0.2992958426475525,0.2283751368522644,0.05252030864357948,},{0.04478881508111954,-0.1737242192029953,-0.26724866032600403,0.030682675540447235,-0.09183654934167862,-0.27412280440330505,0.4323427975177765,0.07560022175312042,0.1562274545431137,0.12491107732057571,0.19738344848155975,0.01930278353393078,-0.24775291979312897,0.14476075768470764,-0.3659745454788208,0.4232991337776184,-0.13214491307735443,0.16856899857521057,0.0035946338903158903,0.164634570479393,-0.031354859471321106,0.2992958426475525,0.2283751368522644,0.05252030864357948,},{0.04478881508111954,-0.1737242192029953,-0.26724866032600403,0.030682675540447235,-0.09183654934167862,-0.27412280440330505,0.4323427975177765,0.07560022175312042,0.1562274545431137,0.12491107732057571,0.19738344848155975,0.01930278353393078,-0.24775291979312897,0.14476075768470764,-0.3659745454788208,0.4232991337776184,-0.13214491307735443,0.16856899857521057,0.0035946338903158903,0.164634570479393,-0.031354859471321106,0.2992958426475525,0.2283751368522644,0.05252030864357948,},{0.04478881508111954,-0.1737242192029953,-0.26724866032600403,0.030682675540447235,-0.09183654934167862,-0.27412280440330505,0.4323427975177765,0.07560022175312042,0.1562274545431137,0.12491107732057571,0.19738344848155975,0.01930278353393078,-0.24775291979312897,0.14476075768470764,-0.3659745454788208,0.4232991337776184,-0.13214491307735443,0.16856899857521057,0.0035946338903158903,0.164634570479393,-0.031354859471321106,0.2992958426475525,0.2283751368522644,0.05252030864357948,},{0.04478881508111954,-0.1737242192029953,-0.26724866032600403,0.030682675540447235,-0.09183654934167862,-0.27412280440330505,0.4323427975177765,0.07560022175312042,0.1562274545431137,0.12491107732057571,0.19738344848155975,0.01930278353393078,-0.24775291979312897,0.14476075768470764,-0.3659745454788208,0.4232991337776184,-0.13214491307735443,0.16856899857521057,0.0035946338903158903,0.164634570479393,-0.031354859471321106,0.2992958426475525,0.2283751368522644,0.05252030864357948,},{0.04478881508111954,-0.1737242192029953,-0.26724866032600403,0.030682675540447235,-0.09183654934167862,-0.27412280440330505,0.4323427975177765,0.07560022175312042,0.1562274545431137,0.12491107732057571,0.19738344848155975,0.01930278353393078,-0.24775291979312897,0.14476075768470764,-0.3659745454788208,0.4232991337776184,-0.13214491307735443,0.16856899857521057,0.0035946338903158903,0.164634570479393,-0.031354859471321106,0.2992958426475525,0.2283751368522644,0.05252030864357948,},{0.04478881508111954,-0.1737242192029953,-0.26724866032600403,0.030682675540447235,-0.09183654934167862,-0.27412280440330505,0.4323427975177765,0.07560022175312042,0.1562274545431137,0.12491107732057571,0.19738344848155975,0.01930278353393078,-0.24775291979312897,0.14476075768470764,-0.3659745454788208,0.4232991337776184,-0.13214491307735443,0.16856899857521057,0.0035946338903158903,0.164634570479393,-0.031354859471321106,0.2992958426475525,0.2283751368522644,0.05252030864357948,},{0.04478881508111954,-0.1737242192029953,-0.26724866032600403,0.030682675540447235,-0.09183654934167862,-0.27412280440330505,0.4323427975177765,0.07560022175312042,0.1562274545431137,0.12491107732057571,0.19738344848155975,0.01930278353393078,-0.24775291979312897,0.14476075768470764,-0.3659745454788208,0.4232991337776184,-0.13214491307735443,0.16856899857521057,0.0035946338903158903,0.164634570479393,-0.031354859471321106,0.2992958426475525,0.2283751368522644,0.05252030864357948,},{0.04478881508111954,-0.1737242192029953,-0.26724866032600403,0.030682675540447235,-0.09183654934167862,-0.27412280440330505,0.4323427975177765,0.07560022175312042,0.1562274545431137,0.12491107732057571,0.19738344848155975,0.01930278353393078,-0.24775291979312897,0.14476075768470764,-0.3659745454788208,0.4232991337776184,-0.13214491307735443,0.16856899857521057,0.0035946338903158903,0.164634570479393,-0.031354859471321106,0.2992958426475525,0.2283751368522644,0.05252030864357948,},{0.04478881508111954,-0.1737242192029953,-0.26724866032600403,0.030682675540447235,-0.09183654934167862,-0.27412280440330505,0.4323427975177765,0.07560022175312042,0.1562274545431137,0.12491107732057571,0.19738344848155975,0.01930278353393078,-0.24775291979312897,0.14476075768470764,-0.3659745454788208,0.4232991337776184,-0.13214491307735443,0.16856899857521057,0.0035946338903158903,0.164634570479393,-0.031354859471321106,0.2992958426475525,0.2283751368522644,0.05252030864357948,},{0.04478881508111954,-0.1737242192029953,-0.26724866032600403,0.030682675540447235,-0.09183654934167862,-0.27412280440330505,0.4323427975177765,0.07560022175312042,0.1562274545431137,0.12491107732057571,0.19738344848155975,0.01930278353393078,-0.24775291979312897,0.14476075768470764,-0.3659745454788208,0.4232991337776184,-0.13214491307735443,0.16856899857521057,0.0035946338903158903,0.164634570479393,-0.031354859471321106,0.2992958426475525,0.2283751368522644,0.05252030864357948,},{0.04478881508111954,-0.1737242192029953,-0.26724866032600403,0.030682675540447235,-0.09183654934167862,-0.27412280440330505,0.4323427975177765,0.07560022175312042,0.1562274545431137,0.12491107732057571,0.19738344848155975,0.01930278353393078,-0.24775291979312897,0.14476075768470764,-0.3659745454788208,0.4232991337776184,-0.13214491307735443,0.16856899857521057,0.0035946338903158903,0.164634570479393,-0.031354859471321106,0.2992958426475525,0.2283751368522644,0.05252030864357948,},{0.04478881508111954,-0.1737242192029953,-0.26724866032600403,0.030682675540447235,-0.09183654934167862,-0.27412280440330505,0.4323427975177765,0.07560022175312042,0.1562274545431137,0.12491107732057571,0.19738344848155975,0.01930278353393078,-0.24775291979312897,0.14476075768470764,-0.3659745454788208,0.4232991337776184,-0.13214491307735443,0.16856899857521057,0.0035946338903158903,0.164634570479393,-0.031354859471321106,0.2992958426475525,0.2283751368522644,0.05252030864357948,},{0.04478881508111954,-0.1737242192029953,-0.26724866032600403,0.030682675540447235,-0.09183654934167862,-0.27412280440330505,0.4323427975177765,0.07560022175312042,0.1562274545431137,0.12491107732057571,0.19738344848155975,0.01930278353393078,-0.24775291979312897,0.14476075768470764,-0.3659745454788208,0.4232991337776184,-0.13214491307735443,0.16856899857521057,0.0035946338903158903,0.164634570479393,-0.031354859471321106,0.2992958426475525,0.2283751368522644,0.05252030864357948,},{0.04478881508111954,-0.1737242192029953,-0.26724866032600403,0.030682675540447235,-0.09183654934167862,-0.27412280440330505,0.4323427975177765,0.07560022175312042,0.1562274545431137,0.12491107732057571,0.19738344848155975,0.01930278353393078,-0.24775291979312897,0.14476075768470764,-0.3659745454788208,0.4232991337776184,-0.13214491307735443,0.16856899857521057,0.0035946338903158903,0.164634570479393,-0.031354859471321106,0.2992958426475525,0.2283751368522644,0.05252030864357948,},{0.04478881508111954,-0.1737242192029953,-0.26724866032600403,0.030682675540447235,-0.09183654934167862,-0.27412280440330505,0.4323427975177765,0.07560022175312042,0.1562274545431137,0.12491107732057571,0.19738344848155975,0.01930278353393078,-0.24775291979312897,0.14476075768470764,-0.3659745454788208,0.4232991337776184,-0.13214491307735443,0.16856899857521057,0.0035946338903158903,0.164634570479393,-0.031354859471321106,0.2992958426475525,0.2283751368522644,0.05252030864357948,},{0.04478881508111954,-0.1737242192029953,-0.26724866032600403,0.030682675540447235,-0.09183654934167862,-0.27412280440330505,0.4323427975177765,0.07560022175312042,0.1562274545431137,0.12491107732057571,0.19738344848155975,0.01930278353393078,-0.24775291979312897,0.14476075768470764,-0.3659745454788208,0.4232991337776184,-0.13214491307735443,0.16856899857521057,0.0035946338903158903,0.164634570479393,-0.031354859471321106,0.2992958426475525,0.2283751368522644,0.05252030864357948,},{0.04478881508111954,-0.1737242192029953,-0.26724866032600403,0.030682675540447235,-0.09183654934167862,-0.27412280440330505,0.4323427975177765,0.07560022175312042,0.1562274545431137,0.12491107732057571,0.19738344848155975,0.01930278353393078,-0.24775291979312897,0.14476075768470764,-0.3659745454788208,0.4232991337776184,-0.13214491307735443,0.16856899857521057,0.0035946338903158903,0.164634570479393,-0.031354859471321106,0.2992958426475525,0.2283751368522644,0.05252030864357948,},}}{{-0.23631912469863892,-0.13291515409946442,0.14771470427513123,0.10531198978424072,0.060002390295267105,-0.08783254772424698,-0.28290727734565735,-0.19372673332691193,-0.2816466987133026,0.2638552486896515,-0.12748543918132782,-0.25320470333099365,-0.15164223313331604,-0.32216838002204895,-0.07919029891490936,0.1316535919904709,-0.09863308072090149,-0.31126323342323303,0.3171277344226837,0.33043885231018066,0.01837751641869545,0.06954745203256607,-0.11888186633586884,0.03201236575841904,},{-0.23631912469863892,-0.13291515409946442,0.14771470427513123,0.10531198978424072,0.060002390295267105,-0.08783254772424698,-0.28290727734565735,-0.19372673332691193,-0.2816466987133026,0.2638552486896515,-0.12748543918132782,-0.25320470333099365,-0.15164223313331604,-0.32216838002204895,-0.07919029891490936,0.1316535919904709,-0.09863308072090149,-0.31126323342323303,0.3171277344226837,0.33043885231018066,0.01837751641869545,0.06954745203256607,-0.11888186633586884,0.03201236575841904,},{-0.23631912469863892,-0.13291515409946442,0.14771470427513123,0.10531198978424072,0.060002390295267105,-0.08783254772424698,-0.28290727734565735,-0.19372673332691193,-0.2816466987133026,0.2638552486896515,-0.12748543918132782,-0.25320470333099365,-0.15164223313331604,-0.32216838002204895,-0.07919029891490936,0.1316535919904709,-0.09863308072090149,-0.31126323342323303,0.3171277344226837,0.33043885231018066,0.01837751641869545,0.06954745203256607,-0.11888186633586884,0.03201236575841904,},{-0.23631912469863892,-0.13291515409946442,0.14771470427513123,0.10531198978424072,0.060002390295267105,-0.08783254772424698,-0.28290727734565735,-0.19372673332691193,-0.2816466987133026,0.2638552486896515,-0.12748543918132782,-0.25320470333099365,-0.15164223313331604,-0.32216838002204895,-0.07919029891490936,0.1316535919904709,-0.09863308072090149,-0.31126323342323303,0.3171277344226837,0.33043885231018066,0.01837751641869545,0.06954745203256607,-0.11888186633586884,0.03201236575841904,},{-0.23631912469863892,-0.13291515409946442,0.14771470427513123,0.10531198978424072,0.060002390295267105,-0.08783254772424698,-0.28290727734565735,-0.19372673332691193,-0.2816466987133026,0.2638552486896515,-0.12748543918132782,-0.25320470333099365,-0.15164223313331604,-0.32216838002204895,-0.07919029891490936,0.1316535919904709,-0.09863308072090149,-0.31126323342323303,0.3171277344226837,0.33043885231018066,0.01837751641869545,0.06954745203256607,-0.11888186633586884,0.03201236575841904,},{-0.23631912469863892,-0.13291515409946442,0.14771470427513123,0.10531198978424072,0.060002390295267105,-0.08783254772424698,-0.28290727734565735,-0.19372673332691193,-0.2816466987133026,0.2638552486896515,-0.12748543918132782,-0.25320470333099365,-0.15164223313331604,-0.32216838002204895,-0.07919029891490936,0.1316535919904709,-0.09863308072090149,-0.31126323342323303,0.3171277344226837,0.33043885231018066,0.01837751641869545,0.06954745203256607,-0.11888186633586884,0.03201236575841904,},{-0.23631912469863892,-0.13291515409946442,0.14771470427513123,0.10531198978424072,0.060002390295267105,-0.08783254772424698,-0.28290727734565735,-0.19372673332691193,-0.2816466987133026,0.2638552486896515,-0.12748543918132782,-0.25320470333099365,-0.15164223313331604,-0.32216838002204895,-0.07919029891490936,0.1316535919904709,-0.09863308072090149,-0.31126323342323303,0.3171277344226837,0.33043885231018066,0.01837751641869545,0.06954745203256607,-0.11888186633586884,0.03201236575841904,},{-0.23631912469863892,-0.13291515409946442,0.14771470427513123,0.10531198978424072,0.060002390295267105,-0.08783254772424698,-0.28290727734565735,-0.19372673332691193,-0.2816466987133026,0.2638552486896515,-0.12748543918132782,-0.25320470333099365,-0.15164223313331604,-0.32216838002204895,-0.07919029891490936,0.1316535919904709,-0.09863308072090149,-0.31126323342323303,0.3171277344226837,0.33043885231018066,0.01837751641869545,0.06954745203256607,-0.11888186633586884,0.03201236575841904,},{-0.23631912469863892,-0.13291515409946442,0.14771470427513123,0.10531198978424072,0.060002390295267105,-0.08783254772424698,-0.28290727734565735,-0.19372673332691193,-0.2816466987133026,0.2638552486896515,-0.12748543918132782,-0.25320470333099365,-0.15164223313331604,-0.32216838002204895,-0.07919029891490936,0.1316535919904709,-0.09863308072090149,-0.31126323342323303,0.3171277344226837,0.33043885231018066,0.01837751641869545,0.06954745203256607,-0.11888186633586884,0.03201236575841904,},{-0.23631912469863892,-0.13291515409946442,0.14771470427513123,0.10531198978424072,0.060002390295267105,-0.08783254772424698,-0.28290727734565735,-0.19372673332691193,-0.2816466987133026,0.2638552486896515,-0.12748543918132782,-0.25320470333099365,-0.15164223313331604,-0.32216838002204895,-0.07919029891490936,0.1316535919904709,-0.09863308072090149,-0.31126323342323303,0.3171277344226837,0.33043885231018066,0.01837751641869545,0.06954745203256607,-0.11888186633586884,0.03201236575841904,},{-0.23631912469863892,-0.13291515409946442,0.14771470427513123,0.10531198978424072,0.060002390295267105,-0.08783254772424698,-0.28290727734565735,-0.19372673332691193,-0.2816466987133026,0.2638552486896515,-0.12748543918132782,-0.25320470333099365,-0.15164223313331604,-0.32216838002204895,-0.07919029891490936,0.1316535919904709,-0.09863308072090149,-0.31126323342323303,0.3171277344226837,0.33043885231018066,0.01837751641869545,0.06954745203256607,-0.11888186633586884,0.03201236575841904,},{-0.23631912469863892,-0.13291515409946442,0.14771470427513123,0.10531198978424072,0.060002390295267105,-0.08783254772424698,-0.28290727734565735,-0.19372673332691193,-0.2816466987133026,0.2638552486896515,-0.12748543918132782,-0.25320470333099365,-0.15164223313331604,-0.32216838002204895,-0.07919029891490936,0.1316535919904709,-0.09863308072090149,-0.31126323342323303,0.3171277344226837,0.33043885231018066,0.01837751641869545,0.06954745203256607,-0.11888186633586884,0.03201236575841904,},{-0.23631912469863892,-0.13291515409946442,0.14771470427513123,0.10531198978424072,0.060002390295267105,-0.08783254772424698,-0.28290727734565735,-0.19372673332691193,-0.2816466987133026,0.2638552486896515,-0.12748543918132782,-0.25320470333099365,-0.15164223313331604,-0.32216838002204895,-0.07919029891490936,0.1316535919904709,-0.09863308072090149,-0.31126323342323303,0.3171277344226837,0.33043885231018066,0.01837751641869545,0.06954745203256607,-0.11888186633586884,0.03201236575841904,},{-0.23631912469863892,-0.13291515409946442,0.14771470427513123,0.10531198978424072,0.060002390295267105,-0.08783254772424698,-0.28290727734565735,-0.19372673332691193,-0.2816466987133026,0.2638552486896515,-0.12748543918132782,-0.25320470333099365,-0.15164223313331604,-0.32216838002204895,-0.07919029891490936,0.1316535919904709,-0.09863308072090149,-0.31126323342323303,0.3171277344226837,0.33043885231018066,0.01837751641869545,0.06954745203256607,-0.11888186633586884,0.03201236575841904,},{-0.23631912469863892,-0.13291515409946442,0.14771470427513123,0.10531198978424072,0.060002390295267105,-0.08783254772424698,-0.28290727734565735,-0.19372673332691193,-0.2816466987133026,0.2638552486896515,-0.12748543918132782,-0.25320470333099365,-0.15164223313331604,-0.32216838002204895,-0.07919029891490936,0.1316535919904709,-0.09863308072090149,-0.31126323342323303,0.3171277344226837,0.33043885231018066,0.01837751641869545,0.06954745203256607,-0.11888186633586884,0.03201236575841904,},{-0.23631912469863892,-0.13291515409946442,0.14771470427513123,0.10531198978424072,0.060002390295267105,-0.08783254772424698,-0.28290727734565735,-0.19372673332691193,-0.2816466987133026,0.2638552486896515,-0.12748543918132782,-0.25320470333099365,-0.15164223313331604,-0.32216838002204895,-0.07919029891490936,0.1316535919904709,-0.09863308072090149,-0.31126323342323303,0.3171277344226837,0.33043885231018066,0.01837751641869545,0.06954745203256607,-0.11888186633586884,0.03201236575841904,},{-0.23631912469863892,-0.13291515409946442,0.14771470427513123,0.10531198978424072,0.060002390295267105,-0.08783254772424698,-0.28290727734565735,-0.19372673332691193,-0.2816466987133026,0.2638552486896515,-0.12748543918132782,-0.25320470333099365,-0.15164223313331604,-0.32216838002204895,-0.07919029891490936,0.1316535919904709,-0.09863308072090149,-0.31126323342323303,0.3171277344226837,0.33043885231018066,0.01837751641869545,0.06954745203256607,-0.11888186633586884,0.03201236575841904,},{-0.23631912469863892,-0.13291515409946442,0.14771470427513123,0.10531198978424072,0.060002390295267105,-0.08783254772424698,-0.28290727734565735,-0.19372673332691193,-0.2816466987133026,0.2638552486896515,-0.12748543918132782,-0.25320470333099365,-0.15164223313331604,-0.32216838002204895,-0.07919029891490936,0.1316535919904709,-0.09863308072090149,-0.31126323342323303,0.3171277344226837,0.33043885231018066,0.01837751641869545,0.06954745203256607,-0.11888186633586884,0.03201236575841904,},{-0.23631912469863892,-0.13291515409946442,0.14771470427513123,0.10531198978424072,0.060002390295267105,-0.08783254772424698,-0.28290727734565735,-0.19372673332691193,-0.2816466987133026,0.2638552486896515,-0.12748543918132782,-0.25320470333099365,-0.15164223313331604,-0.32216838002204895,-0.07919029891490936,0.1316535919904709,-0.09863308072090149,-0.31126323342323303,0.3171277344226837,0.33043885231018066,0.01837751641869545,0.06954745203256607,-0.11888186633586884,0.03201236575841904,},{-0.23631912469863892,-0.13291515409946442,0.14771470427513123,0.10531198978424072,0.060002390295267105,-0.08783254772424698,-0.28290727734565735,-0.19372673332691193,-0.2816466987133026,0.2638552486896515,-0.12748543918132782,-0.25320470333099365,-0.15164223313331604,-0.32216838002204895,-0.07919029891490936,0.1316535919904709,-0.09863308072090149,-0.31126323342323303,0.3171277344226837,0.33043885231018066,0.01837751641869545,0.06954745203256607,-0.11888186633586884,0.03201236575841904,},{-0.23631912469863892,-0.13291515409946442,0.14771470427513123,0.10531198978424072,0.060002390295267105,-0.08783254772424698,-0.28290727734565735,-0.19372673332691193,-0.2816466987133026,0.2638552486896515,-0.12748543918132782,-0.25320470333099365,-0.15164223313331604,-0.32216838002204895,-0.07919029891490936,0.1316535919904709,-0.09863308072090149,-0.31126323342323303,0.3171277344226837,0.33043885231018066,0.01837751641869545,0.06954745203256607,-0.11888186633586884,0.03201236575841904,},{-0.23631912469863892,-0.13291515409946442,0.14771470427513123,0.10531198978424072,0.060002390295267105,-0.08783254772424698,-0.28290727734565735,-0.19372673332691193,-0.2816466987133026,0.2638552486896515,-0.12748543918132782,-0.25320470333099365,-0.15164223313331604,-0.32216838002204895,-0.07919029891490936,0.1316535919904709,-0.09863308072090149,-0.31126323342323303,0.3171277344226837,0.33043885231018066,0.01837751641869545,0.06954745203256607,-0.11888186633586884,0.03201236575841904,},{-0.23631912469863892,-0.13291515409946442,0.14771470427513123,0.10531198978424072,0.060002390295267105,-0.08783254772424698,-0.28290727734565735,-0.19372673332691193,-0.2816466987133026,0.2638552486896515,-0.12748543918132782,-0.25320470333099365,-0.15164223313331604,-0.32216838002204895,-0.07919029891490936,0.1316535919904709,-0.09863308072090149,-0.31126323342323303,0.3171277344226837,0.33043885231018066,0.01837751641869545,0.06954745203256607,-0.11888186633586884,0.03201236575841904,},{-0.23631912469863892,-0.13291515409946442,0.14771470427513123,0.10531198978424072,0.060002390295267105,-0.08783254772424698,-0.28290727734565735,-0.19372673332691193,-0.2816466987133026,0.2638552486896515,-0.12748543918132782,-0.25320470333099365,-0.15164223313331604,-0.32216838002204895,-0.07919029891490936,0.1316535919904709,-0.09863308072090149,-0.31126323342323303,0.3171277344226837,0.33043885231018066,0.01837751641869545,0.06954745203256607,-0.11888186633586884,0.03201236575841904,},}}{{0.21312512457370758,0.09288632124662399,0.09044938534498215,0.18791061639785767,-0.04316816106438637,0.11938341706991196,-0.08406493067741394,-0.26365208625793457,0.048698991537094116,0.23570311069488525,0.3582669496536255,-0.009630674496293068,-0.1662226766347885,0.020981833338737488,-0.12433114647865295,-0.18676182627677917,-0.15876272320747375,0.16002020239830017,0.06343286484479904,-0.15334473550319672,0.30990228056907654,-0.2141912281513214,0.057084184139966965,0.4238254427909851,},{0.21312512457370758,0.09288632124662399,0.09044938534498215,0.18791061639785767,-0.04316816106438637,0.11938341706991196,-0.08406493067741394,-0.26365208625793457,0.048698991537094116,0.23570311069488525,0.3582669496536255,-0.009630674496293068,-0.1662226766347885,0.020981833338737488,-0.12433114647865295,-0.18676182627677917,-0.15876272320747375,0.16002020239830017,0.06343286484479904,-0.15334473550319672,0.30990228056907654,-0.2141912281513214,0.057084184139966965,0.4238254427909851,},{0.21312512457370758,0.09288632124662399,0.09044938534498215,0.18791061639785767,-0.04316816106438637,0.11938341706991196,-0.08406493067741394,-0.26365208625793457,0.048698991537094116,0.23570311069488525,0.3582669496536255,-0.009630674496293068,-0.1662226766347885,0.020981833338737488,-0.12433114647865295,-0.18676182627677917,-0.15876272320747375,0.16002020239830017,0.06343286484479904,-0.15334473550319672,0.30990228056907654,-0.2141912281513214,0.057084184139966965,0.4238254427909851,},{0.21312512457370758,0.09288632124662399,0.09044938534498215,0.18791061639785767,-0.04316816106438637,0.11938341706991196,-0.08406493067741394,-0.26365208625793457,0.048698991537094116,0.23570311069488525,0.3582669496536255,-0.009630674496293068,-0.1662226766347885,0.020981833338737488,-0.12433114647865295,-0.18676182627677917,-0.15876272320747375,0.16002020239830017,0.06343286484479904,-0.15334473550319672,0.30990228056907654,-0.2141912281513214,0.057084184139966965,0.4238254427909851,},{0.21312512457370758,0.09288632124662399,0.09044938534498215,0.18791061639785767,-0.04316816106438637,0.11938341706991196,-0.08406493067741394,-0.26365208625793457,0.048698991537094116,0.23570311069488525,0.3582669496536255,-0.009630674496293068,-0.1662226766347885,0.020981833338737488,-0.12433114647865295,-0.18676182627677917,-0.15876272320747375,0.16002020239830017,0.06343286484479904,-0.15334473550319672,0.30990228056907654,-0.2141912281513214,0.057084184139966965,0.4238254427909851,},{0.21312512457370758,0.09288632124662399,0.09044938534498215,0.18791061639785767,-0.04316816106438637,0.11938341706991196,-0.08406493067741394,-0.26365208625793457,0.048698991537094116,0.23570311069488525,0.3582669496536255,-0.009630674496293068,-0.1662226766347885,0.020981833338737488,-0.12433114647865295,-0.18676182627677917,-0.15876272320747375,0.16002020239830017,0.06343286484479904,-0.15334473550319672,0.30990228056907654,-0.2141912281513214,0.057084184139966965,0.4238254427909851,},{0.21312512457370758,0.09288632124662399,0.09044938534498215,0.18791061639785767,-0.04316816106438637,0.11938341706991196,-0.08406493067741394,-0.26365208625793457,0.048698991537094116,0.23570311069488525,0.3582669496536255,-0.009630674496293068,-0.1662226766347885,0.020981833338737488,-0.12433114647865295,-0.18676182627677917,-0.15876272320747375,0.16002020239830017,0.06343286484479904,-0.15334473550319672,0.30990228056907654,-0.2141912281513214,0.057084184139966965,0.4238254427909851,},{0.21312512457370758,0.09288632124662399,0.09044938534498215,0.18791061639785767,-0.04316816106438637,0.11938341706991196,-0.08406493067741394,-0.26365208625793457,0.048698991537094116,0.23570311069488525,0.3582669496536255,-0.009630674496293068,-0.1662226766347885,0.020981833338737488,-0.12433114647865295,-0.18676182627677917,-0.15876272320747375,0.16002020239830017,0.06343286484479904,-0.15334473550319672,0.30990228056907654,-0.2141912281513214,0.057084184139966965,0.4238254427909851,},{0.21312512457370758,0.09288632124662399,0.09044938534498215,0.18791061639785767,-0.04316816106438637,0.11938341706991196,-0.08406493067741394,-0.26365208625793457,0.048698991537094116,0.23570311069488525,0.3582669496536255,-0.009630674496293068,-0.1662226766347885,0.020981833338737488,-0.12433114647865295,-0.18676182627677917,-0.15876272320747375,0.16002020239830017,0.06343286484479904,-0.15334473550319672,0.30990228056907654,-0.2141912281513214,0.057084184139966965,0.4238254427909851,},{0.21312512457370758,0.09288632124662399,0.09044938534498215,0.18791061639785767,-0.04316816106438637,0.11938341706991196,-0.08406493067741394,-0.26365208625793457,0.048698991537094116,0.23570311069488525,0.3582669496536255,-0.009630674496293068,-0.1662226766347885,0.020981833338737488,-0.12433114647865295,-0.18676182627677917,-0.15876272320747375,0.16002020239830017,0.06343286484479904,-0.15334473550319672,0.30990228056907654,-0.2141912281513214,0.057084184139966965,0.4238254427909851,},{0.21312512457370758,0.09288632124662399,0.09044938534498215,0.18791061639785767,-0.04316816106438637,0.11938341706991196,-0.08406493067741394,-0.26365208625793457,0.048698991537094116,0.23570311069488525,0.3582669496536255,-0.009630674496293068,-0.1662226766347885,0.020981833338737488,-0.12433114647865295,-0.18676182627677917,-0.15876272320747375,0.16002020239830017,0.06343286484479904,-0.15334473550319672,0.30990228056907654,-0.2141912281513214,0.057084184139966965,0.4238254427909851,},{0.21312512457370758,0.09288632124662399,0.09044938534498215,0.18791061639785767,-0.04316816106438637,0.11938341706991196,-0.08406493067741394,-0.26365208625793457,0.048698991537094116,0.23570311069488525,0.3582669496536255,-0.009630674496293068,-0.1662226766347885,0.020981833338737488,-0.12433114647865295,-0.18676182627677917,-0.15876272320747375,0.16002020239830017,0.06343286484479904,-0.15334473550319672,0.30990228056907654,-0.2141912281513214,0.057084184139966965,0.4238254427909851,},{0.21312512457370758,0.09288632124662399,0.09044938534498215,0.18791061639785767,-0.04316816106438637,0.11938341706991196,-0.08406493067741394,-0.26365208625793457,0.048698991537094116,0.23570311069488525,0.3582669496536255,-0.009630674496293068,-0.1662226766347885,0.020981833338737488,-0.12433114647865295,-0.18676182627677917,-0.15876272320747375,0.16002020239830017,0.06343286484479904,-0.15334473550319672,0.30990228056907654,-0.2141912281513214,0.057084184139966965,0.4238254427909851,},{0.21312512457370758,0.09288632124662399,0.09044938534498215,0.18791061639785767,-0.04316816106438637,0.11938341706991196,-0.08406493067741394,-0.26365208625793457,0.048698991537094116,0.23570311069488525,0.3582669496536255,-0.009630674496293068,-0.1662226766347885,0.020981833338737488,-0.12433114647865295,-0.18676182627677917,-0.15876272320747375,0.16002020239830017,0.06343286484479904,-0.15334473550319672,0.30990228056907654,-0.2141912281513214,0.057084184139966965,0.4238254427909851,},{0.21312512457370758,0.09288632124662399,0.09044938534498215,0.18791061639785767,-0.04316816106438637,0.11938341706991196,-0.08406493067741394,-0.26365208625793457,0.048698991537094116,0.23570311069488525,0.3582669496536255,-0.009630674496293068,-0.1662226766347885,0.020981833338737488,-0.12433114647865295,-0.18676182627677917,-0.15876272320747375,0.16002020239830017,0.06343286484479904,-0.15334473550319672,0.30990228056907654,-0.2141912281513214,0.057084184139966965,0.4238254427909851,},{0.21312512457370758,0.09288632124662399,0.09044938534498215,0.18791061639785767,-0.04316816106438637,0.11938341706991196,-0.08406493067741394,-0.26365208625793457,0.048698991537094116,0.23570311069488525,0.3582669496536255,-0.009630674496293068,-0.1662226766347885,0.020981833338737488,-0.12433114647865295,-0.18676182627677917,-0.15876272320747375,0.16002020239830017,0.06343286484479904,-0.15334473550319672,0.30990228056907654,-0.2141912281513214,0.057084184139966965,0.4238254427909851,},{0.21312512457370758,0.09288632124662399,0.09044938534498215,0.18791061639785767,-0.04316816106438637,0.11938341706991196,-0.08406493067741394,-0.26365208625793457,0.048698991537094116,0.23570311069488525,0.3582669496536255,-0.009630674496293068,-0.1662226766347885,0.020981833338737488,-0.12433114647865295,-0.18676182627677917,-0.15876272320747375,0.16002020239830017,0.06343286484479904,-0.15334473550319672,0.30990228056907654,-0.2141912281513214,0.057084184139966965,0.4238254427909851,},{0.21312512457370758,0.09288632124662399,0.09044938534498215,0.18791061639785767,-0.04316816106438637,0.11938341706991196,-0.08406493067741394,-0.26365208625793457,0.048698991537094116,0.23570311069488525,0.3582669496536255,-0.009630674496293068,-0.1662226766347885,0.020981833338737488,-0.12433114647865295,-0.18676182627677917,-0.15876272320747375,0.16002020239830017,0.06343286484479904,-0.15334473550319672,0.30990228056907654,-0.2141912281513214,0.057084184139966965,0.4238254427909851,},{0.21312512457370758,0.09288632124662399,0.09044938534498215,0.18791061639785767,-0.04316816106438637,0.11938341706991196,-0.08406493067741394,-0.26365208625793457,0.048698991537094116,0.23570311069488525,0.3582669496536255,-0.009630674496293068,-0.1662226766347885,0.020981833338737488,-0.12433114647865295,-0.18676182627677917,-0.15876272320747375,0.16002020239830017,0.06343286484479904,-0.15334473550319672,0.30990228056907654,-0.2141912281513214,0.057084184139966965,0.4238254427909851,},{0.21312512457370758,0.09288632124662399,0.09044938534498215,0.18791061639785767,-0.04316816106438637,0.11938341706991196,-0.08406493067741394,-0.26365208625793457,0.048698991537094116,0.23570311069488525,0.3582669496536255,-0.009630674496293068,-0.1662226766347885,0.020981833338737488,-0.12433114647865295,-0.18676182627677917,-0.15876272320747375,0.16002020239830017,0.06343286484479904,-0.15334473550319672,0.30990228056907654,-0.2141912281513214,0.057084184139966965,0.4238254427909851,},{0.21312512457370758,0.09288632124662399,0.09044938534498215,0.18791061639785767,-0.04316816106438637,0.11938341706991196,-0.08406493067741394,-0.26365208625793457,0.048698991537094116,0.23570311069488525,0.3582669496536255,-0.009630674496293068,-0.1662226766347885,0.020981833338737488,-0.12433114647865295,-0.18676182627677917,-0.15876272320747375,0.16002020239830017,0.06343286484479904,-0.15334473550319672,0.30990228056907654,-0.2141912281513214,0.057084184139966965,0.4238254427909851,},{0.21312512457370758,0.09288632124662399,0.09044938534498215,0.18791061639785767,-0.04316816106438637,0.11938341706991196,-0.08406493067741394,-0.26365208625793457,0.048698991537094116,0.23570311069488525,0.3582669496536255,-0.009630674496293068,-0.1662226766347885,0.020981833338737488,-0.12433114647865295,-0.18676182627677917,-0.15876272320747375,0.16002020239830017,0.06343286484479904,-0.15334473550319672,0.30990228056907654,-0.2141912281513214,0.057084184139966965,0.4238254427909851,},{0.21312512457370758,0.09288632124662399,0.09044938534498215,0.18791061639785767,-0.04316816106438637,0.11938341706991196,-0.08406493067741394,-0.26365208625793457,0.048698991537094116,0.23570311069488525,0.3582669496536255,-0.009630674496293068,-0.1662226766347885,0.020981833338737488,-0.12433114647865295,-0.18676182627677917,-0.15876272320747375,0.16002020239830017,0.06343286484479904,-0.15334473550319672,0.30990228056907654,-0.2141912281513214,0.057084184139966965,0.4238254427909851,},{0.21312512457370758,0.09288632124662399,0.09044938534498215,0.18791061639785767,-0.04316816106438637,0.11938341706991196,-0.08406493067741394,-0.26365208625793457,0.048698991537094116,0.23570311069488525,0.3582669496536255,-0.009630674496293068,-0.1662226766347885,0.020981833338737488,-0.12433114647865295,-0.18676182627677917,-0.15876272320747375,0.16002020239830017,0.06343286484479904,-0.15334473550319672,0.30990228056907654,-0.2141912281513214,0.057084184139966965,0.4238254427909851,},}}{{-0.2379702627658844,0.23571524024009705,-0.013970360159873962,-0.15675322711467743,-0.04389746114611626,-0.021440932527184486,0.14071276783943176,0.18889258801937103,0.054042309522628784,0.12726713716983795,-0.0855683833360672,-0.2623545229434967,-0.21493877470493317,-0.03276894614100456,-0.18728165328502655,-0.15755239129066467,0.22060666978359222,0.011430139653384686,0.3069489300251007,-0.08410585671663284,0.20738570392131805,-0.02472369372844696,-0.02386196330189705,-0.2859008014202118,},{-0.2379702627658844,0.23571524024009705,-0.013970360159873962,-0.15675322711467743,-0.04389746114611626,-0.021440932527184486,0.14071276783943176,0.18889258801937103,0.054042309522628784,0.12726713716983795,-0.0855683833360672,-0.2623545229434967,-0.21493877470493317,-0.03276894614100456,-0.18728165328502655,-0.15755239129066467,0.22060666978359222,0.011430139653384686,0.3069489300251007,-0.08410585671663284,0.20738570392131805,-0.02472369372844696,-0.02386196330189705,-0.2859008014202118,},{-0.2379702627658844,0.23571524024009705,-0.013970360159873962,-0.15675322711467743,-0.04389746114611626,-0.021440932527184486,0.14071276783943176,0.18889258801937103,0.054042309522628784,0.12726713716983795,-0.0855683833360672,-0.2623545229434967,-0.21493877470493317,-0.03276894614100456,-0.18728165328502655,-0.15755239129066467,0.22060666978359222,0.011430139653384686,0.3069489300251007,-0.08410585671663284,0.20738570392131805,-0.02472369372844696,-0.02386196330189705,-0.2859008014202118,},{-0.2379702627658844,0.23571524024009705,-0.013970360159873962,-0.15675322711467743,-0.04389746114611626,-0.021440932527184486,0.14071276783943176,0.18889258801937103,0.054042309522628784,0.12726713716983795,-0.0855683833360672,-0.2623545229434967,-0.21493877470493317,-0.03276894614100456,-0.18728165328502655,-0.15755239129066467,0.22060666978359222,0.011430139653384686,0.3069489300251007,-0.08410585671663284,0.20738570392131805,-0.02472369372844696,-0.02386196330189705,-0.2859008014202118,},{-0.2379702627658844,0.23571524024009705,-0.013970360159873962,-0.15675322711467743,-0.04389746114611626,-0.021440932527184486,0.14071276783943176,0.18889258801937103,0.054042309522628784,0.12726713716983795,-0.0855683833360672,-0.2623545229434967,-0.21493877470493317,-0.03276894614100456,-0.18728165328502655,-0.15755239129066467,0.22060666978359222,0.011430139653384686,0.3069489300251007,-0.08410585671663284,0.20738570392131805,-0.02472369372844696,-0.02386196330189705,-0.2859008014202118,},{-0.2379702627658844,0.23571524024009705,-0.013970360159873962,-0.15675322711467743,-0.04389746114611626,-0.021440932527184486,0.14071276783943176,0.18889258801937103,0.054042309522628784,0.12726713716983795,-0.0855683833360672,-0.2623545229434967,-0.21493877470493317,-0.03276894614100456,-0.18728165328502655,-0.15755239129066467,0.22060666978359222,0.011430139653384686,0.3069489300251007,-0.08410585671663284,0.20738570392131805,-0.02472369372844696,-0.02386196330189705,-0.2859008014202118,},{-0.2379702627658844,0.23571524024009705,-0.013970360159873962,-0.15675322711467743,-0.04389746114611626,-0.021440932527184486,0.14071276783943176,0.18889258801937103,0.054042309522628784,0.12726713716983795,-0.0855683833360672,-0.2623545229434967,-0.21493877470493317,-0.03276894614100456,-0.18728165328502655,-0.15755239129066467,0.22060666978359222,0.011430139653384686,0.3069489300251007,-0.08410585671663284,0.20738570392131805,-0.02472369372844696,-0.02386196330189705,-0.2859008014202118,},{-0.2379702627658844,0.23571524024009705,-0.013970360159873962,-0.15675322711467743,-0.04389746114611626,-0.021440932527184486,0.14071276783943176,0.18889258801937103,0.054042309522628784,0.12726713716983795,-0.0855683833360672,-0.2623545229434967,-0.21493877470493317,-0.03276894614100456,-0.18728165328502655,-0.15755239129066467,0.22060666978359222,0.011430139653384686,0.3069489300251007,-0.08410585671663284,0.20738570392131805,-0.02472369372844696,-0.02386196330189705,-0.2859008014202118,},{-0.2379702627658844,0.23571524024009705,-0.013970360159873962,-0.15675322711467743,-0.04389746114611626,-0.021440932527184486,0.14071276783943176,0.18889258801937103,0.054042309522628784,0.12726713716983795,-0.0855683833360672,-0.2623545229434967,-0.21493877470493317,-0.03276894614100456,-0.18728165328502655,-0.15755239129066467,0.22060666978359222,0.011430139653384686,0.3069489300251007,-0.08410585671663284,0.20738570392131805,-0.02472369372844696,-0.02386196330189705,-0.2859008014202118,},{-0.2379702627658844,0.23571524024009705,-0.013970360159873962,-0.15675322711467743,-0.04389746114611626,-0.021440932527184486,0.14071276783943176,0.18889258801937103,0.054042309522628784,0.12726713716983795,-0.0855683833360672,-0.2623545229434967,-0.21493877470493317,-0.03276894614100456,-0.18728165328502655,-0.15755239129066467,0.22060666978359222,0.011430139653384686,0.3069489300251007,-0.08410585671663284,0.20738570392131805,-0.02472369372844696,-0.02386196330189705,-0.2859008014202118,},{-0.2379702627658844,0.23571524024009705,-0.013970360159873962,-0.15675322711467743,-0.04389746114611626,-0.021440932527184486,0.14071276783943176,0.18889258801937103,0.054042309522628784,0.12726713716983795,-0.0855683833360672,-0.2623545229434967,-0.21493877470493317,-0.03276894614100456,-0.18728165328502655,-0.15755239129066467,0.22060666978359222,0.011430139653384686,0.3069489300251007,-0.08410585671663284,0.20738570392131805,-0.02472369372844696,-0.02386196330189705,-0.2859008014202118,},{-0.2379702627658844,0.23571524024009705,-0.013970360159873962,-0.15675322711467743,-0.04389746114611626,-0.021440932527184486,0.14071276783943176,0.18889258801937103,0.054042309522628784,0.12726713716983795,-0.0855683833360672,-0.2623545229434967,-0.21493877470493317,-0.03276894614100456,-0.18728165328502655,-0.15755239129066467,0.22060666978359222,0.011430139653384686,0.3069489300251007,-0.08410585671663284,0.20738570392131805,-0.02472369372844696,-0.02386196330189705,-0.2859008014202118,},{-0.2379702627658844,0.23571524024009705,-0.013970360159873962,-0.15675322711467743,-0.04389746114611626,-0.021440932527184486,0.14071276783943176,0.18889258801937103,0.054042309522628784,0.12726713716983795,-0.0855683833360672,-0.2623545229434967,-0.21493877470493317,-0.03276894614100456,-0.18728165328502655,-0.15755239129066467,0.22060666978359222,0.011430139653384686,0.3069489300251007,-0.08410585671663284,0.20738570392131805,-0.02472369372844696,-0.02386196330189705,-0.2859008014202118,},{-0.2379702627658844,0.23571524024009705,-0.013970360159873962,-0.15675322711467743,-0.04389746114611626,-0.021440932527184486,0.14071276783943176,0.18889258801937103,0.054042309522628784,0.12726713716983795,-0.0855683833360672,-0.2623545229434967,-0.21493877470493317,-0.03276894614100456,-0.18728165328502655,-0.15755239129066467,0.22060666978359222,0.011430139653384686,0.3069489300251007,-0.08410585671663284,0.20738570392131805,-0.02472369372844696,-0.02386196330189705,-0.2859008014202118,},{-0.2379702627658844,0.23571524024009705,-0.013970360159873962,-0.15675322711467743,-0.04389746114611626,-0.021440932527184486,0.14071276783943176,0.18889258801937103,0.054042309522628784,0.12726713716983795,-0.0855683833360672,-0.2623545229434967,-0.21493877470493317,-0.03276894614100456,-0.18728165328502655,-0.15755239129066467,0.22060666978359222,0.011430139653384686,0.3069489300251007,-0.08410585671663284,0.20738570392131805,-0.02472369372844696,-0.02386196330189705,-0.2859008014202118,},{-0.2379702627658844,0.23571524024009705,-0.013970360159873962,-0.15675322711467743,-0.04389746114611626,-0.021440932527184486,0.14071276783943176,0.18889258801937103,0.054042309522628784,0.12726713716983795,-0.0855683833360672,-0.2623545229434967,-0.21493877470493317,-0.03276894614100456,-0.18728165328502655,-0.15755239129066467,0.22060666978359222,0.011430139653384686,0.3069489300251007,-0.08410585671663284,0.20738570392131805,-0.02472369372844696,-0.02386196330189705,-0.2859008014202118,},{-0.2379702627658844,0.23571524024009705,-0.013970360159873962,-0.15675322711467743,-0.04389746114611626,-0.021440932527184486,0.14071276783943176,0.18889258801937103,0.054042309522628784,0.12726713716983795,-0.0855683833360672,-0.2623545229434967,-0.21493877470493317,-0.03276894614100456,-0.18728165328502655,-0.15755239129066467,0.22060666978359222,0.011430139653384686,0.3069489300251007,-0.08410585671663284,0.20738570392131805,-0.02472369372844696,-0.02386196330189705,-0.2859008014202118,},{-0.2379702627658844,0.23571524024009705,-0.013970360159873962,-0.15675322711467743,-0.04389746114611626,-0.021440932527184486,0.14071276783943176,0.18889258801937103,0.054042309522628784,0.12726713716983795,-0.0855683833360672,-0.2623545229434967,-0.21493877470493317,-0.03276894614100456,-0.18728165328502655,-0.15755239129066467,0.22060666978359222,0.011430139653384686,0.3069489300251007,-0.08410585671663284,0.20738570392131805,-0.02472369372844696,-0.02386196330189705,-0.2859008014202118,},{-0.2379702627658844,0.23571524024009705,-0.013970360159873962,-0.15675322711467743,-0.04389746114611626,-0.021440932527184486,0.14071276783943176,0.18889258801937103,0.054042309522628784,0.12726713716983795,-0.0855683833360672,-0.2623545229434967,-0.21493877470493317,-0.03276894614100456,-0.18728165328502655,-0.15755239129066467,0.22060666978359222,0.011430139653384686,0.3069489300251007,-0.08410585671663284,0.20738570392131805,-0.02472369372844696,-0.02386196330189705,-0.2859008014202118,},{-0.2379702627658844,0.23571524024009705,-0.013970360159873962,-0.15675322711467743,-0.04389746114611626,-0.021440932527184486,0.14071276783943176,0.18889258801937103,0.054042309522628784,0.12726713716983795,-0.0855683833360672,-0.2623545229434967,-0.21493877470493317,-0.03276894614100456,-0.18728165328502655,-0.15755239129066467,0.22060666978359222,0.011430139653384686,0.3069489300251007,-0.08410585671663284,0.20738570392131805,-0.02472369372844696,-0.02386196330189705,-0.2859008014202118,},{-0.2379702627658844,0.23571524024009705,-0.013970360159873962,-0.15675322711467743,-0.04389746114611626,-0.021440932527184486,0.14071276783943176,0.18889258801937103,0.054042309522628784,0.12726713716983795,-0.0855683833360672,-0.2623545229434967,-0.21493877470493317,-0.03276894614100456,-0.18728165328502655,-0.15755239129066467,0.22060666978359222,0.011430139653384686,0.3069489300251007,-0.08410585671663284,0.20738570392131805,-0.02472369372844696,-0.02386196330189705,-0.2859008014202118,},{-0.2379702627658844,0.23571524024009705,-0.013970360159873962,-0.15675322711467743,-0.04389746114611626,-0.021440932527184486,0.14071276783943176,0.18889258801937103,0.054042309522628784,0.12726713716983795,-0.0855683833360672,-0.2623545229434967,-0.21493877470493317,-0.03276894614100456,-0.18728165328502655,-0.15755239129066467,0.22060666978359222,0.011430139653384686,0.3069489300251007,-0.08410585671663284,0.20738570392131805,-0.02472369372844696,-0.02386196330189705,-0.2859008014202118,},{-0.2379702627658844,0.23571524024009705,-0.013970360159873962,-0.15675322711467743,-0.04389746114611626,-0.021440932527184486,0.14071276783943176,0.18889258801937103,0.054042309522628784,0.12726713716983795,-0.0855683833360672,-0.2623545229434967,-0.21493877470493317,-0.03276894614100456,-0.18728165328502655,-0.15755239129066467,0.22060666978359222,0.011430139653384686,0.3069489300251007,-0.08410585671663284,0.20738570392131805,-0.02472369372844696,-0.02386196330189705,-0.2859008014202118,},{-0.2379702627658844,0.23571524024009705,-0.013970360159873962,-0.15675322711467743,-0.04389746114611626,-0.021440932527184486,0.14071276783943176,0.18889258801937103,0.054042309522628784,0.12726713716983795,-0.0855683833360672,-0.2623545229434967,-0.21493877470493317,-0.03276894614100456,-0.18728165328502655,-0.15755239129066467,0.22060666978359222,0.011430139653384686,0.3069489300251007,-0.08410585671663284,0.20738570392131805,-0.02472369372844696,-0.02386196330189705,-0.2859008014202118,},}}{{-0.3746764361858368,0.0041859825141727924,-0.20315103232860565,0.07159461826086044,-0.030740562826395035,-0.19404903054237366,-0.19796790182590485,-0.0942307710647583,0.17609742283821106,0.055410124361515045,-0.1091870367527008,-0.02639242634177208,-0.19532594084739685,0.02335311658680439,0.17970244586467743,0.07531353086233139,-0.2760976254940033,-0.0934373140335083,-0.1931871920824051,0.06749165058135986,-0.527178168296814,0.1442713439464569,-0.24706338346004486,0.16540966928005219,},{-0.3746764361858368,0.0041859825141727924,-0.20315103232860565,0.07159461826086044,-0.030740562826395035,-0.19404903054237366,-0.19796790182590485,-0.0942307710647583,0.17609742283821106,0.055410124361515045,-0.1091870367527008,-0.02639242634177208,-0.19532594084739685,0.02335311658680439,0.17970244586467743,0.07531353086233139,-0.2760976254940033,-0.0934373140335083,-0.1931871920824051,0.06749165058135986,-0.527178168296814,0.1442713439464569,-0.24706338346004486,0.16540966928005219,},{-0.3746764361858368,0.0041859825141727924,-0.20315103232860565,0.07159461826086044,-0.030740562826395035,-0.19404903054237366,-0.19796790182590485,-0.0942307710647583,0.17609742283821106,0.055410124361515045,-0.1091870367527008,-0.02639242634177208,-0.19532594084739685,0.02335311658680439,0.17970244586467743,0.07531353086233139,-0.2760976254940033,-0.0934373140335083,-0.1931871920824051,0.06749165058135986,-0.527178168296814,0.1442713439464569,-0.24706338346004486,0.16540966928005219,},{-0.3746764361858368,0.0041859825141727924,-0.20315103232860565,0.07159461826086044,-0.030740562826395035,-0.19404903054237366,-0.19796790182590485,-0.0942307710647583,0.17609742283821106,0.055410124361515045,-0.1091870367527008,-0.02639242634177208,-0.19532594084739685,0.02335311658680439,0.17970244586467743,0.07531353086233139,-0.2760976254940033,-0.0934373140335083,-0.1931871920824051,0.06749165058135986,-0.527178168296814,0.1442713439464569,-0.24706338346004486,0.16540966928005219,},{-0.3746764361858368,0.0041859825141727924,-0.20315103232860565,0.07159461826086044,-0.030740562826395035,-0.19404903054237366,-0.19796790182590485,-0.0942307710647583,0.17609742283821106,0.055410124361515045,-0.1091870367527008,-0.02639242634177208,-0.19532594084739685,0.02335311658680439,0.17970244586467743,0.07531353086233139,-0.2760976254940033,-0.0934373140335083,-0.1931871920824051,0.06749165058135986,-0.527178168296814,0.1442713439464569,-0.24706338346004486,0.16540966928005219,},{-0.3746764361858368,0.0041859825141727924,-0.20315103232860565,0.07159461826086044,-0.030740562826395035,-0.19404903054237366,-0.19796790182590485,-0.0942307710647583,0.17609742283821106,0.055410124361515045,-0.1091870367527008,-0.02639242634177208,-0.19532594084739685,0.02335311658680439,0.17970244586467743,0.07531353086233139,-0.2760976254940033,-0.0934373140335083,-0.1931871920824051,0.06749165058135986,-0.527178168296814,0.1442713439464569,-0.24706338346004486,0.16540966928005219,},{-0.3746764361858368,0.0041859825141727924,-0.20315103232860565,0.07159461826086044,-0.030740562826395035,-0.19404903054237366,-0.19796790182590485,-0.0942307710647583,0.17609742283821106,0.055410124361515045,-0.1091870367527008,-0.02639242634177208,-0.19532594084739685,0.02335311658680439,0.17970244586467743,0.07531353086233139,-0.2760976254940033,-0.0934373140335083,-0.1931871920824051,0.06749165058135986,-0.527178168296814,0.1442713439464569,-0.24706338346004486,0.16540966928005219,},{-0.3746764361858368,0.0041859825141727924,-0.20315103232860565,0.07159461826086044,-0.030740562826395035,-0.19404903054237366,-0.19796790182590485,-0.0942307710647583,0.17609742283821106,0.055410124361515045,-0.1091870367527008,-0.02639242634177208,-0.19532594084739685,0.02335311658680439,0.17970244586467743,0.07531353086233139,-0.2760976254940033,-0.0934373140335083,-0.1931871920824051,0.06749165058135986,-0.527178168296814,0.1442713439464569,-0.24706338346004486,0.16540966928005219,},{-0.3746764361858368,0.0041859825141727924,-0.20315103232860565,0.07159461826086044,-0.030740562826395035,-0.19404903054237366,-0.19796790182590485,-0.0942307710647583,0.17609742283821106,0.055410124361515045,-0.1091870367527008,-0.02639242634177208,-0.19532594084739685,0.02335311658680439,0.17970244586467743,0.07531353086233139,-0.2760976254940033,-0.0934373140335083,-0.1931871920824051,0.06749165058135986,-0.527178168296814,0.1442713439464569,-0.24706338346004486,0.16540966928005219,},{-0.3746764361858368,0.0041859825141727924,-0.20315103232860565,0.07159461826086044,-0.030740562826395035,-0.19404903054237366,-0.19796790182590485,-0.0942307710647583,0.17609742283821106,0.055410124361515045,-0.1091870367527008,-0.02639242634177208,-0.19532594084739685,0.02335311658680439,0.17970244586467743,0.07531353086233139,-0.2760976254940033,-0.0934373140335083,-0.1931871920824051,0.06749165058135986,-0.527178168296814,0.1442713439464569,-0.24706338346004486,0.16540966928005219,},{-0.3746764361858368,0.0041859825141727924,-0.20315103232860565,0.07159461826086044,-0.030740562826395035,-0.19404903054237366,-0.19796790182590485,-0.0942307710647583,0.17609742283821106,0.055410124361515045,-0.1091870367527008,-0.02639242634177208,-0.19532594084739685,0.02335311658680439,0.17970244586467743,0.07531353086233139,-0.2760976254940033,-0.0934373140335083,-0.1931871920824051,0.06749165058135986,-0.527178168296814,0.1442713439464569,-0.24706338346004486,0.16540966928005219,},{-0.3746764361858368,0.0041859825141727924,-0.20315103232860565,0.07159461826086044,-0.030740562826395035,-0.19404903054237366,-0.19796790182590485,-0.0942307710647583,0.17609742283821106,0.055410124361515045,-0.1091870367527008,-0.02639242634177208,-0.19532594084739685,0.02335311658680439,0.17970244586467743,0.07531353086233139,-0.2760976254940033,-0.0934373140335083,-0.1931871920824051,0.06749165058135986,-0.527178168296814,0.1442713439464569,-0.24706338346004486,0.16540966928005219,},{-0.3746764361858368,0.0041859825141727924,-0.20315103232860565,0.07159461826086044,-0.030740562826395035,-0.19404903054237366,-0.19796790182590485,-0.0942307710647583,0.17609742283821106,0.055410124361515045,-0.1091870367527008,-0.02639242634177208,-0.19532594084739685,0.02335311658680439,0.17970244586467743,0.07531353086233139,-0.2760976254940033,-0.0934373140335083,-0.1931871920824051,0.06749165058135986,-0.527178168296814,0.1442713439464569,-0.24706338346004486,0.16540966928005219,},{-0.3746764361858368,0.0041859825141727924,-0.20315103232860565,0.07159461826086044,-0.030740562826395035,-0.19404903054237366,-0.19796790182590485,-0.0942307710647583,0.17609742283821106,0.055410124361515045,-0.1091870367527008,-0.02639242634177208,-0.19532594084739685,0.02335311658680439,0.17970244586467743,0.07531353086233139,-0.2760976254940033,-0.0934373140335083,-0.1931871920824051,0.06749165058135986,-0.527178168296814,0.1442713439464569,-0.24706338346004486,0.16540966928005219,},{-0.3746764361858368,0.0041859825141727924,-0.20315103232860565,0.07159461826086044,-0.030740562826395035,-0.19404903054237366,-0.19796790182590485,-0.0942307710647583,0.17609742283821106,0.055410124361515045,-0.1091870367527008,-0.02639242634177208,-0.19532594084739685,0.02335311658680439,0.17970244586467743,0.07531353086233139,-0.2760976254940033,-0.0934373140335083,-0.1931871920824051,0.06749165058135986,-0.527178168296814,0.1442713439464569,-0.24706338346004486,0.16540966928005219,},{-0.3746764361858368,0.0041859825141727924,-0.20315103232860565,0.07159461826086044,-0.030740562826395035,-0.19404903054237366,-0.19796790182590485,-0.0942307710647583,0.17609742283821106,0.055410124361515045,-0.1091870367527008,-0.02639242634177208,-0.19532594084739685,0.02335311658680439,0.17970244586467743,0.07531353086233139,-0.2760976254940033,-0.0934373140335083,-0.1931871920824051,0.06749165058135986,-0.527178168296814,0.1442713439464569,-0.24706338346004486,0.16540966928005219,},{-0.3746764361858368,0.0041859825141727924,-0.20315103232860565,0.07159461826086044,-0.030740562826395035,-0.19404903054237366,-0.19796790182590485,-0.0942307710647583,0.17609742283821106,0.055410124361515045,-0.1091870367527008,-0.02639242634177208,-0.19532594084739685,0.02335311658680439,0.17970244586467743,0.07531353086233139,-0.2760976254940033,-0.0934373140335083,-0.1931871920824051,0.06749165058135986,-0.527178168296814,0.1442713439464569,-0.24706338346004486,0.16540966928005219,},{-0.3746764361858368,0.0041859825141727924,-0.20315103232860565,0.07159461826086044,-0.030740562826395035,-0.19404903054237366,-0.19796790182590485,-0.0942307710647583,0.17609742283821106,0.055410124361515045,-0.1091870367527008,-0.02639242634177208,-0.19532594084739685,0.02335311658680439,0.17970244586467743,0.07531353086233139,-0.2760976254940033,-0.0934373140335083,-0.1931871920824051,0.06749165058135986,-0.527178168296814,0.1442713439464569,-0.24706338346004486,0.16540966928005219,},{-0.3746764361858368,0.0041859825141727924,-0.20315103232860565,0.07159461826086044,-0.030740562826395035,-0.19404903054237366,-0.19796790182590485,-0.0942307710647583,0.17609742283821106,0.055410124361515045,-0.1091870367527008,-0.02639242634177208,-0.19532594084739685,0.02335311658680439,0.17970244586467743,0.07531353086233139,-0.2760976254940033,-0.0934373140335083,-0.1931871920824051,0.06749165058135986,-0.527178168296814,0.1442713439464569,-0.24706338346004486,0.16540966928005219,},{-0.3746764361858368,0.0041859825141727924,-0.20315103232860565,0.07159461826086044,-0.030740562826395035,-0.19404903054237366,-0.19796790182590485,-0.0942307710647583,0.17609742283821106,0.055410124361515045,-0.1091870367527008,-0.02639242634177208,-0.19532594084739685,0.02335311658680439,0.17970244586467743,0.07531353086233139,-0.2760976254940033,-0.0934373140335083,-0.1931871920824051,0.06749165058135986,-0.527178168296814,0.1442713439464569,-0.24706338346004486,0.16540966928005219,},{-0.3746764361858368,0.0041859825141727924,-0.20315103232860565,0.07159461826086044,-0.030740562826395035,-0.19404903054237366,-0.19796790182590485,-0.0942307710647583,0.17609742283821106,0.055410124361515045,-0.1091870367527008,-0.02639242634177208,-0.19532594084739685,0.02335311658680439,0.17970244586467743,0.07531353086233139,-0.2760976254940033,-0.0934373140335083,-0.1931871920824051,0.06749165058135986,-0.527178168296814,0.1442713439464569,-0.24706338346004486,0.16540966928005219,},{-0.3746764361858368,0.0041859825141727924,-0.20315103232860565,0.07159461826086044,-0.030740562826395035,-0.19404903054237366,-0.19796790182590485,-0.0942307710647583,0.17609742283821106,0.055410124361515045,-0.1091870367527008,-0.02639242634177208,-0.19532594084739685,0.02335311658680439,0.17970244586467743,0.07531353086233139,-0.2760976254940033,-0.0934373140335083,-0.1931871920824051,0.06749165058135986,-0.527178168296814,0.1442713439464569,-0.24706338346004486,0.16540966928005219,},{-0.3746764361858368,0.0041859825141727924,-0.20315103232860565,0.07159461826086044,-0.030740562826395035,-0.19404903054237366,-0.19796790182590485,-0.0942307710647583,0.17609742283821106,0.055410124361515045,-0.1091870367527008,-0.02639242634177208,-0.19532594084739685,0.02335311658680439,0.17970244586467743,0.07531353086233139,-0.2760976254940033,-0.0934373140335083,-0.1931871920824051,0.06749165058135986,-0.527178168296814,0.1442713439464569,-0.24706338346004486,0.16540966928005219,},{-0.3746764361858368,0.0041859825141727924,-0.20315103232860565,0.07159461826086044,-0.030740562826395035,-0.19404903054237366,-0.19796790182590485,-0.0942307710647583,0.17609742283821106,0.055410124361515045,-0.1091870367527008,-0.02639242634177208,-0.19532594084739685,0.02335311658680439,0.17970244586467743,0.07531353086233139,-0.2760976254940033,-0.0934373140335083,-0.1931871920824051,0.06749165058135986,-0.527178168296814,0.1442713439464569,-0.24706338346004486,0.16540966928005219,},}}{{0.017803266644477844,0.27670881152153015,0.06126618757843971,0.10641895234584808,0.02914002351462841,0.14223602414131165,-0.3867577016353607,0.02944754809141159,-0.11006930470466614,0.028861088678240776,-0.23298101127147675,-0.3154835104942322,0.17639806866645813,-0.20888061821460724,-0.10458343476057053,-0.1453597992658615,0.06981731206178665,0.07119660079479218,-0.026547368615865707,0.28032755851745605,0.25359493494033813,0.18388570845127106,0.3937646150588989,-0.1356380730867386,},{0.017803266644477844,0.27670881152153015,0.06126618757843971,0.10641895234584808,0.02914002351462841,0.14223602414131165,-0.3867577016353607,0.02944754809141159,-0.11006930470466614,0.028861088678240776,-0.23298101127147675,-0.3154835104942322,0.17639806866645813,-0.20888061821460724,-0.10458343476057053,-0.1453597992658615,0.06981731206178665,0.07119660079479218,-0.026547368615865707,0.28032755851745605,0.25359493494033813,0.18388570845127106,0.3937646150588989,-0.1356380730867386,},{0.017803266644477844,0.27670881152153015,0.06126618757843971,0.10641895234584808,0.02914002351462841,0.14223602414131165,-0.3867577016353607,0.02944754809141159,-0.11006930470466614,0.028861088678240776,-0.23298101127147675,-0.3154835104942322,0.17639806866645813,-0.20888061821460724,-0.10458343476057053,-0.1453597992658615,0.06981731206178665,0.07119660079479218,-0.026547368615865707,0.28032755851745605,0.25359493494033813,0.18388570845127106,0.3937646150588989,-0.1356380730867386,},{0.017803266644477844,0.27670881152153015,0.06126618757843971,0.10641895234584808,0.02914002351462841,0.14223602414131165,-0.3867577016353607,0.02944754809141159,-0.11006930470466614,0.028861088678240776,-0.23298101127147675,-0.3154835104942322,0.17639806866645813,-0.20888061821460724,-0.10458343476057053,-0.1453597992658615,0.06981731206178665,0.07119660079479218,-0.026547368615865707,0.28032755851745605,0.25359493494033813,0.18388570845127106,0.3937646150588989,-0.1356380730867386,},{0.017803266644477844,0.27670881152153015,0.06126618757843971,0.10641895234584808,0.02914002351462841,0.14223602414131165,-0.3867577016353607,0.02944754809141159,-0.11006930470466614,0.028861088678240776,-0.23298101127147675,-0.3154835104942322,0.17639806866645813,-0.20888061821460724,-0.10458343476057053,-0.1453597992658615,0.06981731206178665,0.07119660079479218,-0.026547368615865707,0.28032755851745605,0.25359493494033813,0.18388570845127106,0.3937646150588989,-0.1356380730867386,},{0.017803266644477844,0.27670881152153015,0.06126618757843971,0.10641895234584808,0.02914002351462841,0.14223602414131165,-0.3867577016353607,0.02944754809141159,-0.11006930470466614,0.028861088678240776,-0.23298101127147675,-0.3154835104942322,0.17639806866645813,-0.20888061821460724,-0.10458343476057053,-0.1453597992658615,0.06981731206178665,0.07119660079479218,-0.026547368615865707,0.28032755851745605,0.25359493494033813,0.18388570845127106,0.3937646150588989,-0.1356380730867386,},{0.017803266644477844,0.27670881152153015,0.06126618757843971,0.10641895234584808,0.02914002351462841,0.14223602414131165,-0.3867577016353607,0.02944754809141159,-0.11006930470466614,0.028861088678240776,-0.23298101127147675,-0.3154835104942322,0.17639806866645813,-0.20888061821460724,-0.10458343476057053,-0.1453597992658615,0.06981731206178665,0.07119660079479218,-0.026547368615865707,0.28032755851745605,0.25359493494033813,0.18388570845127106,0.3937646150588989,-0.1356380730867386,},{0.017803266644477844,0.27670881152153015,0.06126618757843971,0.10641895234584808,0.02914002351462841,0.14223602414131165,-0.3867577016353607,0.02944754809141159,-0.11006930470466614,0.028861088678240776,-0.23298101127147675,-0.3154835104942322,0.17639806866645813,-0.20888061821460724,-0.10458343476057053,-0.1453597992658615,0.06981731206178665,0.07119660079479218,-0.026547368615865707,0.28032755851745605,0.25359493494033813,0.18388570845127106,0.3937646150588989,-0.1356380730867386,},{0.017803266644477844,0.27670881152153015,0.06126618757843971,0.10641895234584808,0.02914002351462841,0.14223602414131165,-0.3867577016353607,0.02944754809141159,-0.11006930470466614,0.028861088678240776,-0.23298101127147675,-0.3154835104942322,0.17639806866645813,-0.20888061821460724,-0.10458343476057053,-0.1453597992658615,0.06981731206178665,0.07119660079479218,-0.026547368615865707,0.28032755851745605,0.25359493494033813,0.18388570845127106,0.3937646150588989,-0.1356380730867386,},{0.017803266644477844,0.27670881152153015,0.06126618757843971,0.10641895234584808,0.02914002351462841,0.14223602414131165,-0.3867577016353607,0.02944754809141159,-0.11006930470466614,0.028861088678240776,-0.23298101127147675,-0.3154835104942322,0.17639806866645813,-0.20888061821460724,-0.10458343476057053,-0.1453597992658615,0.06981731206178665,0.07119660079479218,-0.026547368615865707,0.28032755851745605,0.25359493494033813,0.18388570845127106,0.3937646150588989,-0.1356380730867386,},{0.017803266644477844,0.27670881152153015,0.06126618757843971,0.10641895234584808,0.02914002351462841,0.14223602414131165,-0.3867577016353607,0.02944754809141159,-0.11006930470466614,0.028861088678240776,-0.23298101127147675,-0.3154835104942322,0.17639806866645813,-0.20888061821460724,-0.10458343476057053,-0.1453597992658615,0.06981731206178665,0.07119660079479218,-0.026547368615865707,0.28032755851745605,0.25359493494033813,0.18388570845127106,0.3937646150588989,-0.1356380730867386,},{0.017803266644477844,0.27670881152153015,0.06126618757843971,0.10641895234584808,0.02914002351462841,0.14223602414131165,-0.3867577016353607,0.02944754809141159,-0.11006930470466614,0.028861088678240776,-0.23298101127147675,-0.3154835104942322,0.17639806866645813,-0.20888061821460724,-0.10458343476057053,-0.1453597992658615,0.06981731206178665,0.07119660079479218,-0.026547368615865707,0.28032755851745605,0.25359493494033813,0.18388570845127106,0.3937646150588989,-0.1356380730867386,},{0.017803266644477844,0.27670881152153015,0.06126618757843971,0.10641895234584808,0.02914002351462841,0.14223602414131165,-0.3867577016353607,0.02944754809141159,-0.11006930470466614,0.028861088678240776,-0.23298101127147675,-0.3154835104942322,0.17639806866645813,-0.20888061821460724,-0.10458343476057053,-0.1453597992658615,0.06981731206178665,0.07119660079479218,-0.026547368615865707,0.28032755851745605,0.25359493494033813,0.18388570845127106,0.3937646150588989,-0.1356380730867386,},{0.017803266644477844,0.27670881152153015,0.06126618757843971,0.10641895234584808,0.02914002351462841,0.14223602414131165,-0.3867577016353607,0.02944754809141159,-0.11006930470466614,0.028861088678240776,-0.23298101127147675,-0.3154835104942322,0.17639806866645813,-0.20888061821460724,-0.10458343476057053,-0.1453597992658615,0.06981731206178665,0.07119660079479218,-0.026547368615865707,0.28032755851745605,0.25359493494033813,0.18388570845127106,0.3937646150588989,-0.1356380730867386,},{0.017803266644477844,0.27670881152153015,0.06126618757843971,0.10641895234584808,0.02914002351462841,0.14223602414131165,-0.3867577016353607,0.02944754809141159,-0.11006930470466614,0.028861088678240776,-0.23298101127147675,-0.3154835104942322,0.17639806866645813,-0.20888061821460724,-0.10458343476057053,-0.1453597992658615,0.06981731206178665,0.07119660079479218,-0.026547368615865707,0.28032755851745605,0.25359493494033813,0.18388570845127106,0.3937646150588989,-0.1356380730867386,},{0.017803266644477844,0.27670881152153015,0.06126618757843971,0.10641895234584808,0.02914002351462841,0.14223602414131165,-0.3867577016353607,0.02944754809141159,-0.11006930470466614,0.028861088678240776,-0.23298101127147675,-0.3154835104942322,0.17639806866645813,-0.20888061821460724,-0.10458343476057053,-0.1453597992658615,0.06981731206178665,0.07119660079479218,-0.026547368615865707,0.28032755851745605,0.25359493494033813,0.18388570845127106,0.3937646150588989,-0.1356380730867386,},{0.017803266644477844,0.27670881152153015,0.06126618757843971,0.10641895234584808,0.02914002351462841,0.14223602414131165,-0.3867577016353607,0.02944754809141159,-0.11006930470466614,0.028861088678240776,-0.23298101127147675,-0.3154835104942322,0.17639806866645813,-0.20888061821460724,-0.10458343476057053,-0.1453597992658615,0.06981731206178665,0.07119660079479218,-0.026547368615865707,0.28032755851745605,0.25359493494033813,0.18388570845127106,0.3937646150588989,-0.1356380730867386,},{0.017803266644477844,0.27670881152153015,0.06126618757843971,0.10641895234584808,0.02914002351462841,0.14223602414131165,-0.3867577016353607,0.02944754809141159,-0.11006930470466614,0.028861088678240776,-0.23298101127147675,-0.3154835104942322,0.17639806866645813,-0.20888061821460724,-0.10458343476057053,-0.1453597992658615,0.06981731206178665,0.07119660079479218,-0.026547368615865707,0.28032755851745605,0.25359493494033813,0.18388570845127106,0.3937646150588989,-0.1356380730867386,},{0.017803266644477844,0.27670881152153015,0.06126618757843971,0.10641895234584808,0.02914002351462841,0.14223602414131165,-0.3867577016353607,0.02944754809141159,-0.11006930470466614,0.028861088678240776,-0.23298101127147675,-0.3154835104942322,0.17639806866645813,-0.20888061821460724,-0.10458343476057053,-0.1453597992658615,0.06981731206178665,0.07119660079479218,-0.026547368615865707,0.28032755851745605,0.25359493494033813,0.18388570845127106,0.3937646150588989,-0.1356380730867386,},{0.017803266644477844,0.27670881152153015,0.06126618757843971,0.10641895234584808,0.02914002351462841,0.14223602414131165,-0.3867577016353607,0.02944754809141159,-0.11006930470466614,0.028861088678240776,-0.23298101127147675,-0.3154835104942322,0.17639806866645813,-0.20888061821460724,-0.10458343476057053,-0.1453597992658615,0.06981731206178665,0.07119660079479218,-0.026547368615865707,0.28032755851745605,0.25359493494033813,0.18388570845127106,0.3937646150588989,-0.1356380730867386,},{0.017803266644477844,0.27670881152153015,0.06126618757843971,0.10641895234584808,0.02914002351462841,0.14223602414131165,-0.3867577016353607,0.02944754809141159,-0.11006930470466614,0.028861088678240776,-0.23298101127147675,-0.3154835104942322,0.17639806866645813,-0.20888061821460724,-0.10458343476057053,-0.1453597992658615,0.06981731206178665,0.07119660079479218,-0.026547368615865707,0.28032755851745605,0.25359493494033813,0.18388570845127106,0.3937646150588989,-0.1356380730867386,},{0.017803266644477844,0.27670881152153015,0.06126618757843971,0.10641895234584808,0.02914002351462841,0.14223602414131165,-0.3867577016353607,0.02944754809141159,-0.11006930470466614,0.028861088678240776,-0.23298101127147675,-0.3154835104942322,0.17639806866645813,-0.20888061821460724,-0.10458343476057053,-0.1453597992658615,0.06981731206178665,0.07119660079479218,-0.026547368615865707,0.28032755851745605,0.25359493494033813,0.18388570845127106,0.3937646150588989,-0.1356380730867386,},{0.017803266644477844,0.27670881152153015,0.06126618757843971,0.10641895234584808,0.02914002351462841,0.14223602414131165,-0.3867577016353607,0.02944754809141159,-0.11006930470466614,0.028861088678240776,-0.23298101127147675,-0.3154835104942322,0.17639806866645813,-0.20888061821460724,-0.10458343476057053,-0.1453597992658615,0.06981731206178665,0.07119660079479218,-0.026547368615865707,0.28032755851745605,0.25359493494033813,0.18388570845127106,0.3937646150588989,-0.1356380730867386,},{0.017803266644477844,0.27670881152153015,0.06126618757843971,0.10641895234584808,0.02914002351462841,0.14223602414131165,-0.3867577016353607,0.02944754809141159,-0.11006930470466614,0.028861088678240776,-0.23298101127147675,-0.3154835104942322,0.17639806866645813,-0.20888061821460724,-0.10458343476057053,-0.1453597992658615,0.06981731206178665,0.07119660079479218,-0.026547368615865707,0.28032755851745605,0.25359493494033813,0.18388570845127106,0.3937646150588989,-0.1356380730867386,},}}{{0.1526615023612976,-0.08091887086629868,0.17207372188568115,-0.195829838514328,0.36124497652053833,0.33781519532203674,-0.28770962357521057,-0.250315397977829,-0.21024665236473083,0.13084010779857635,0.04558853805065155,-0.06773027032613754,0.23745670914649963,-0.08451756089925766,0.2594837248325348,-0.3648797571659088,0.1940504014492035,0.03505312651395798,-0.18528461456298828,0.1156252920627594,-0.2643004357814789,-0.09447739273309708,-0.18059350550174713,-0.06772587448358536,},{0.1526615023612976,-0.08091887086629868,0.17207372188568115,-0.195829838514328,0.36124497652053833,0.33781519532203674,-0.28770962357521057,-0.250315397977829,-0.21024665236473083,0.13084010779857635,0.04558853805065155,-0.06773027032613754,0.23745670914649963,-0.08451756089925766,0.2594837248325348,-0.3648797571659088,0.1940504014492035,0.03505312651395798,-0.18528461456298828,0.1156252920627594,-0.2643004357814789,-0.09447739273309708,-0.18059350550174713,-0.06772587448358536,},{0.1526615023612976,-0.08091887086629868,0.17207372188568115,-0.195829838514328,0.36124497652053833,0.33781519532203674,-0.28770962357521057,-0.250315397977829,-0.21024665236473083,0.13084010779857635,0.04558853805065155,-0.06773027032613754,0.23745670914649963,-0.08451756089925766,0.2594837248325348,-0.3648797571659088,0.1940504014492035,0.03505312651395798,-0.18528461456298828,0.1156252920627594,-0.2643004357814789,-0.09447739273309708,-0.18059350550174713,-0.06772587448358536,},{0.1526615023612976,-0.08091887086629868,0.17207372188568115,-0.195829838514328,0.36124497652053833,0.33781519532203674,-0.28770962357521057,-0.250315397977829,-0.21024665236473083,0.13084010779857635,0.04558853805065155,-0.06773027032613754,0.23745670914649963,-0.08451756089925766,0.2594837248325348,-0.3648797571659088,0.1940504014492035,0.03505312651395798,-0.18528461456298828,0.1156252920627594,-0.2643004357814789,-0.09447739273309708,-0.18059350550174713,-0.06772587448358536,},{0.1526615023612976,-0.08091887086629868,0.17207372188568115,-0.195829838514328,0.36124497652053833,0.33781519532203674,-0.28770962357521057,-0.250315397977829,-0.21024665236473083,0.13084010779857635,0.04558853805065155,-0.06773027032613754,0.23745670914649963,-0.08451756089925766,0.2594837248325348,-0.3648797571659088,0.1940504014492035,0.03505312651395798,-0.18528461456298828,0.1156252920627594,-0.2643004357814789,-0.09447739273309708,-0.18059350550174713,-0.06772587448358536,},{0.1526615023612976,-0.08091887086629868,0.17207372188568115,-0.195829838514328,0.36124497652053833,0.33781519532203674,-0.28770962357521057,-0.250315397977829,-0.21024665236473083,0.13084010779857635,0.04558853805065155,-0.06773027032613754,0.23745670914649963,-0.08451756089925766,0.2594837248325348,-0.3648797571659088,0.1940504014492035,0.03505312651395798,-0.18528461456298828,0.1156252920627594,-0.2643004357814789,-0.09447739273309708,-0.18059350550174713,-0.06772587448358536,},{0.1526615023612976,-0.08091887086629868,0.17207372188568115,-0.195829838514328,0.36124497652053833,0.33781519532203674,-0.28770962357521057,-0.250315397977829,-0.21024665236473083,0.13084010779857635,0.04558853805065155,-0.06773027032613754,0.23745670914649963,-0.08451756089925766,0.2594837248325348,-0.3648797571659088,0.1940504014492035,0.03505312651395798,-0.18528461456298828,0.1156252920627594,-0.2643004357814789,-0.09447739273309708,-0.18059350550174713,-0.06772587448358536,},{0.1526615023612976,-0.08091887086629868,0.17207372188568115,-0.195829838514328,0.36124497652053833,0.33781519532203674,-0.28770962357521057,-0.250315397977829,-0.21024665236473083,0.13084010779857635,0.04558853805065155,-0.06773027032613754,0.23745670914649963,-0.08451756089925766,0.2594837248325348,-0.3648797571659088,0.1940504014492035,0.03505312651395798,-0.18528461456298828,0.1156252920627594,-0.2643004357814789,-0.09447739273309708,-0.18059350550174713,-0.06772587448358536,},{0.1526615023612976,-0.08091887086629868,0.17207372188568115,-0.195829838514328,0.36124497652053833,0.33781519532203674,-0.28770962357521057,-0.250315397977829,-0.21024665236473083,0.13084010779857635,0.04558853805065155,-0.06773027032613754,0.23745670914649963,-0.08451756089925766,0.2594837248325348,-0.3648797571659088,0.1940504014492035,0.03505312651395798,-0.18528461456298828,0.1156252920627594,-0.2643004357814789,-0.09447739273309708,-0.18059350550174713,-0.06772587448358536,},{0.1526615023612976,-0.08091887086629868,0.17207372188568115,-0.195829838514328,0.36124497652053833,0.33781519532203674,-0.28770962357521057,-0.250315397977829,-0.21024665236473083,0.13084010779857635,0.04558853805065155,-0.06773027032613754,0.23745670914649963,-0.08451756089925766,0.2594837248325348,-0.3648797571659088,0.1940504014492035,0.03505312651395798,-0.18528461456298828,0.1156252920627594,-0.2643004357814789,-0.09447739273309708,-0.18059350550174713,-0.06772587448358536,},{0.1526615023612976,-0.08091887086629868,0.17207372188568115,-0.195829838514328,0.36124497652053833,0.33781519532203674,-0.28770962357521057,-0.250315397977829,-0.21024665236473083,0.13084010779857635,0.04558853805065155,-0.06773027032613754,0.23745670914649963,-0.08451756089925766,0.2594837248325348,-0.3648797571659088,0.1940504014492035,0.03505312651395798,-0.18528461456298828,0.1156252920627594,-0.2643004357814789,-0.09447739273309708,-0.18059350550174713,-0.06772587448358536,},{0.1526615023612976,-0.08091887086629868,0.17207372188568115,-0.195829838514328,0.36124497652053833,0.33781519532203674,-0.28770962357521057,-0.250315397977829,-0.21024665236473083,0.13084010779857635,0.04558853805065155,-0.06773027032613754,0.23745670914649963,-0.08451756089925766,0.2594837248325348,-0.3648797571659088,0.1940504014492035,0.03505312651395798,-0.18528461456298828,0.1156252920627594,-0.2643004357814789,-0.09447739273309708,-0.18059350550174713,-0.06772587448358536,},{0.1526615023612976,-0.08091887086629868,0.17207372188568115,-0.195829838514328,0.36124497652053833,0.33781519532203674,-0.28770962357521057,-0.250315397977829,-0.21024665236473083,0.13084010779857635,0.04558853805065155,-0.06773027032613754,0.23745670914649963,-0.08451756089925766,0.2594837248325348,-0.3648797571659088,0.1940504014492035,0.03505312651395798,-0.18528461456298828,0.1156252920627594,-0.2643004357814789,-0.09447739273309708,-0.18059350550174713,-0.06772587448358536,},{0.1526615023612976,-0.08091887086629868,0.17207372188568115,-0.195829838514328,0.36124497652053833,0.33781519532203674,-0.28770962357521057,-0.250315397977829,-0.21024665236473083,0.13084010779857635,0.04558853805065155,-0.06773027032613754,0.23745670914649963,-0.08451756089925766,0.2594837248325348,-0.3648797571659088,0.1940504014492035,0.03505312651395798,-0.18528461456298828,0.1156252920627594,-0.2643004357814789,-0.09447739273309708,-0.18059350550174713,-0.06772587448358536,},{0.1526615023612976,-0.08091887086629868,0.17207372188568115,-0.195829838514328,0.36124497652053833,0.33781519532203674,-0.28770962357521057,-0.250315397977829,-0.21024665236473083,0.13084010779857635,0.04558853805065155,-0.06773027032613754,0.23745670914649963,-0.08451756089925766,0.2594837248325348,-0.3648797571659088,0.1940504014492035,0.03505312651395798,-0.18528461456298828,0.1156252920627594,-0.2643004357814789,-0.09447739273309708,-0.18059350550174713,-0.06772587448358536,},{0.1526615023612976,-0.08091887086629868,0.17207372188568115,-0.195829838514328,0.36124497652053833,0.33781519532203674,-0.28770962357521057,-0.250315397977829,-0.21024665236473083,0.13084010779857635,0.04558853805065155,-0.06773027032613754,0.23745670914649963,-0.08451756089925766,0.2594837248325348,-0.3648797571659088,0.1940504014492035,0.03505312651395798,-0.18528461456298828,0.1156252920627594,-0.2643004357814789,-0.09447739273309708,-0.18059350550174713,-0.06772587448358536,},{0.1526615023612976,-0.08091887086629868,0.17207372188568115,-0.195829838514328,0.36124497652053833,0.33781519532203674,-0.28770962357521057,-0.250315397977829,-0.21024665236473083,0.13084010779857635,0.04558853805065155,-0.06773027032613754,0.23745670914649963,-0.08451756089925766,0.2594837248325348,-0.3648797571659088,0.1940504014492035,0.03505312651395798,-0.18528461456298828,0.1156252920627594,-0.2643004357814789,-0.09447739273309708,-0.18059350550174713,-0.06772587448358536,},{0.1526615023612976,-0.08091887086629868,0.17207372188568115,-0.195829838514328,0.36124497652053833,0.33781519532203674,-0.28770962357521057,-0.250315397977829,-0.21024665236473083,0.13084010779857635,0.04558853805065155,-0.06773027032613754,0.23745670914649963,-0.08451756089925766,0.2594837248325348,-0.3648797571659088,0.1940504014492035,0.03505312651395798,-0.18528461456298828,0.1156252920627594,-0.2643004357814789,-0.09447739273309708,-0.18059350550174713,-0.06772587448358536,},{0.1526615023612976,-0.08091887086629868,0.17207372188568115,-0.195829838514328,0.36124497652053833,0.33781519532203674,-0.28770962357521057,-0.250315397977829,-0.21024665236473083,0.13084010779857635,0.04558853805065155,-0.06773027032613754,0.23745670914649963,-0.08451756089925766,0.2594837248325348,-0.3648797571659088,0.1940504014492035,0.03505312651395798,-0.18528461456298828,0.1156252920627594,-0.2643004357814789,-0.09447739273309708,-0.18059350550174713,-0.06772587448358536,},{0.1526615023612976,-0.08091887086629868,0.17207372188568115,-0.195829838514328,0.36124497652053833,0.33781519532203674,-0.28770962357521057,-0.250315397977829,-0.21024665236473083,0.13084010779857635,0.04558853805065155,-0.06773027032613754,0.23745670914649963,-0.08451756089925766,0.2594837248325348,-0.3648797571659088,0.1940504014492035,0.03505312651395798,-0.18528461456298828,0.1156252920627594,-0.2643004357814789,-0.09447739273309708,-0.18059350550174713,-0.06772587448358536,},{0.1526615023612976,-0.08091887086629868,0.17207372188568115,-0.195829838514328,0.36124497652053833,0.33781519532203674,-0.28770962357521057,-0.250315397977829,-0.21024665236473083,0.13084010779857635,0.04558853805065155,-0.06773027032613754,0.23745670914649963,-0.08451756089925766,0.2594837248325348,-0.3648797571659088,0.1940504014492035,0.03505312651395798,-0.18528461456298828,0.1156252920627594,-0.2643004357814789,-0.09447739273309708,-0.18059350550174713,-0.06772587448358536,},{0.1526615023612976,-0.08091887086629868,0.17207372188568115,-0.195829838514328,0.36124497652053833,0.33781519532203674,-0.28770962357521057,-0.250315397977829,-0.21024665236473083,0.13084010779857635,0.04558853805065155,-0.06773027032613754,0.23745670914649963,-0.08451756089925766,0.2594837248325348,-0.3648797571659088,0.1940504014492035,0.03505312651395798,-0.18528461456298828,0.1156252920627594,-0.2643004357814789,-0.09447739273309708,-0.18059350550174713,-0.06772587448358536,},{0.1526615023612976,-0.08091887086629868,0.17207372188568115,-0.195829838514328,0.36124497652053833,0.33781519532203674,-0.28770962357521057,-0.250315397977829,-0.21024665236473083,0.13084010779857635,0.04558853805065155,-0.06773027032613754,0.23745670914649963,-0.08451756089925766,0.2594837248325348,-0.3648797571659088,0.1940504014492035,0.03505312651395798,-0.18528461456298828,0.1156252920627594,-0.2643004357814789,-0.09447739273309708,-0.18059350550174713,-0.06772587448358536,},{0.1526615023612976,-0.08091887086629868,0.17207372188568115,-0.195829838514328,0.36124497652053833,0.33781519532203674,-0.28770962357521057,-0.250315397977829,-0.21024665236473083,0.13084010779857635,0.04558853805065155,-0.06773027032613754,0.23745670914649963,-0.08451756089925766,0.2594837248325348,-0.3648797571659088,0.1940504014492035,0.03505312651395798,-0.18528461456298828,0.1156252920627594,-0.2643004357814789,-0.09447739273309708,-0.18059350550174713,-0.06772587448358536,},}}{{-0.10093284398317337,-0.15310613811016083,-0.2645092308521271,-0.32522448897361755,0.24888256192207336,0.025487149134278297,0.11337779462337494,-0.17938105762004852,-0.04656465724110603,-0.15130092203617096,0.11099307239055634,-0.06259571015834808,-0.07703482359647751,0.17474818229675293,-0.3014770746231079,-0.035174667835235596,-0.02794964611530304,-0.1591726541519165,0.22034747898578644,0.3728794753551483,-0.1528109610080719,0.1214015856385231,0.012470829300582409,0.05842346325516701,},{-0.10093284398317337,-0.15310613811016083,-0.2645092308521271,-0.32522448897361755,0.24888256192207336,0.025487149134278297,0.11337779462337494,-0.17938105762004852,-0.04656465724110603,-0.15130092203617096,0.11099307239055634,-0.06259571015834808,-0.07703482359647751,0.17474818229675293,-0.3014770746231079,-0.035174667835235596,-0.02794964611530304,-0.1591726541519165,0.22034747898578644,0.3728794753551483,-0.1528109610080719,0.1214015856385231,0.012470829300582409,0.05842346325516701,},{-0.10093284398317337,-0.15310613811016083,-0.2645092308521271,-0.32522448897361755,0.24888256192207336,0.025487149134278297,0.11337779462337494,-0.17938105762004852,-0.04656465724110603,-0.15130092203617096,0.11099307239055634,-0.06259571015834808,-0.07703482359647751,0.17474818229675293,-0.3014770746231079,-0.035174667835235596,-0.02794964611530304,-0.1591726541519165,0.22034747898578644,0.3728794753551483,-0.1528109610080719,0.1214015856385231,0.012470829300582409,0.05842346325516701,},{-0.10093284398317337,-0.15310613811016083,-0.2645092308521271,-0.32522448897361755,0.24888256192207336,0.025487149134278297,0.11337779462337494,-0.17938105762004852,-0.04656465724110603,-0.15130092203617096,0.11099307239055634,-0.06259571015834808,-0.07703482359647751,0.17474818229675293,-0.3014770746231079,-0.035174667835235596,-0.02794964611530304,-0.1591726541519165,0.22034747898578644,0.3728794753551483,-0.1528109610080719,0.1214015856385231,0.012470829300582409,0.05842346325516701,},{-0.10093284398317337,-0.15310613811016083,-0.2645092308521271,-0.32522448897361755,0.24888256192207336,0.025487149134278297,0.11337779462337494,-0.17938105762004852,-0.04656465724110603,-0.15130092203617096,0.11099307239055634,-0.06259571015834808,-0.07703482359647751,0.17474818229675293,-0.3014770746231079,-0.035174667835235596,-0.02794964611530304,-0.1591726541519165,0.22034747898578644,0.3728794753551483,-0.1528109610080719,0.1214015856385231,0.012470829300582409,0.05842346325516701,},{-0.10093284398317337,-0.15310613811016083,-0.2645092308521271,-0.32522448897361755,0.24888256192207336,0.025487149134278297,0.11337779462337494,-0.17938105762004852,-0.04656465724110603,-0.15130092203617096,0.11099307239055634,-0.06259571015834808,-0.07703482359647751,0.17474818229675293,-0.3014770746231079,-0.035174667835235596,-0.02794964611530304,-0.1591726541519165,0.22034747898578644,0.3728794753551483,-0.1528109610080719,0.1214015856385231,0.012470829300582409,0.05842346325516701,},{-0.10093284398317337,-0.15310613811016083,-0.2645092308521271,-0.32522448897361755,0.24888256192207336,0.025487149134278297,0.11337779462337494,-0.17938105762004852,-0.04656465724110603,-0.15130092203617096,0.11099307239055634,-0.06259571015834808,-0.07703482359647751,0.17474818229675293,-0.3014770746231079,-0.035174667835235596,-0.02794964611530304,-0.1591726541519165,0.22034747898578644,0.3728794753551483,-0.1528109610080719,0.1214015856385231,0.012470829300582409,0.05842346325516701,},{-0.10093284398317337,-0.15310613811016083,-0.2645092308521271,-0.32522448897361755,0.24888256192207336,0.025487149134278297,0.11337779462337494,-0.17938105762004852,-0.04656465724110603,-0.15130092203617096,0.11099307239055634,-0.06259571015834808,-0.07703482359647751,0.17474818229675293,-0.3014770746231079,-0.035174667835235596,-0.02794964611530304,-0.1591726541519165,0.22034747898578644,0.3728794753551483,-0.1528109610080719,0.1214015856385231,0.012470829300582409,0.05842346325516701,},{-0.10093284398317337,-0.15310613811016083,-0.2645092308521271,-0.32522448897361755,0.24888256192207336,0.025487149134278297,0.11337779462337494,-0.17938105762004852,-0.04656465724110603,-0.15130092203617096,0.11099307239055634,-0.06259571015834808,-0.07703482359647751,0.17474818229675293,-0.3014770746231079,-0.035174667835235596,-0.02794964611530304,-0.1591726541519165,0.22034747898578644,0.3728794753551483,-0.1528109610080719,0.1214015856385231,0.012470829300582409,0.05842346325516701,},{-0.10093284398317337,-0.15310613811016083,-0.2645092308521271,-0.32522448897361755,0.24888256192207336,0.025487149134278297,0.11337779462337494,-0.17938105762004852,-0.04656465724110603,-0.15130092203617096,0.11099307239055634,-0.06259571015834808,-0.07703482359647751,0.17474818229675293,-0.3014770746231079,-0.035174667835235596,-0.02794964611530304,-0.1591726541519165,0.22034747898578644,0.3728794753551483,-0.1528109610080719,0.1214015856385231,0.012470829300582409,0.05842346325516701,},{-0.10093284398317337,-0.15310613811016083,-0.2645092308521271,-0.32522448897361755,0.24888256192207336,0.025487149134278297,0.11337779462337494,-0.17938105762004852,-0.04656465724110603,-0.15130092203617096,0.11099307239055634,-0.06259571015834808,-0.07703482359647751,0.17474818229675293,-0.3014770746231079,-0.035174667835235596,-0.02794964611530304,-0.1591726541519165,0.22034747898578644,0.3728794753551483,-0.1528109610080719,0.1214015856385231,0.012470829300582409,0.05842346325516701,},{-0.10093284398317337,-0.15310613811016083,-0.2645092308521271,-0.32522448897361755,0.24888256192207336,0.025487149134278297,0.11337779462337494,-0.17938105762004852,-0.04656465724110603,-0.15130092203617096,0.11099307239055634,-0.06259571015834808,