{{0.3360321521759033,0.3174908459186554,0.09101241827011108,-0.23393428325653076,-0.039914775639772415,-0.34360751509666443,-0.11561903357505798,0.15375936031341553,0.5663315057754517,-0.37362954020500183,-0.23094777762889862,-0.29979947209358215,0.6827247142791748,-0.4462173283100128,-0.2554505467414856,-0.13840411603450775,-0.16583044826984406,-0.29768189787864685,},{0.3360321521759033,0.3174908459186554,0.09101241827011108,-0.23393428325653076,-0.039914775639772415,-0.34360751509666443,-0.11561903357505798,0.15375936031341553,0.5663315057754517,-0.37362954020500183,-0.23094777762889862,-0.29979947209358215,0.6827247142791748,-0.4462173283100128,-0.2554505467414856,-0.13840411603450775,-0.16583044826984406,-0.29768189787864685,},{0.3360321521759033,0.3174908459186554,0.09101241827011108,-0.23393428325653076,-0.039914775639772415,-0.34360751509666443,-0.11561903357505798,0.15375936031341553,0.5663315057754517,-0.37362954020500183,-0.23094777762889862,-0.29979947209358215,0.6827247142791748,-0.4462173283100128,-0.2554505467414856,-0.13840411603450775,-0.16583044826984406,-0.29768189787864685,},{0.3360321521759033,0.3174908459186554,0.09101241827011108,-0.23393428325653076,-0.039914775639772415,-0.34360751509666443,-0.11561903357505798,0.15375936031341553,0.5663315057754517,-0.37362954020500183,-0.23094777762889862,-0.29979947209358215,0.6827247142791748,-0.4462173283100128,-0.2554505467414856,-0.13840411603450775,-0.16583044826984406,-0.29768189787864685,},{0.3360321521759033,0.3174908459186554,0.09101241827011108,-0.23393428325653076,-0.039914775639772415,-0.34360751509666443,-0.11561903357505798,0.15375936031341553,0.5663315057754517,-0.37362954020500183,-0.23094777762889862,-0.29979947209358215,0.6827247142791748,-0.4462173283100128,-0.2554505467414856,-0.13840411603450775,-0.16583044826984406,-0.29768189787864685,},{0.3360321521759033,0.3174908459186554,0.09101241827011108,-0.23393428325653076,-0.039914775639772415,-0.34360751509666443,-0.11561903357505798,0.15375936031341553,0.5663315057754517,-0.37362954020500183,-0.23094777762889862,-0.29979947209358215,0.6827247142791748,-0.4462173283100128,-0.2554505467414856,-0.13840411603450775,-0.16583044826984406,-0.29768189787864685,},{0.3360321521759033,0.3174908459186554,0.09101241827011108,-0.23393428325653076,-0.039914775639772415,-0.34360751509666443,-0.11561903357505798,0.15375936031341553,0.5663315057754517,-0.37362954020500183,-0.23094777762889862,-0.29979947209358215,0.6827247142791748,-0.4462173283100128,-0.2554505467414856,-0.13840411603450775,-0.16583044826984406,-0.29768189787864685,},{0.3360321521759033,0.3174908459186554,0.09101241827011108,-0.23393428325653076,-0.039914775639772415,-0.34360751509666443,-0.11561903357505798,0.15375936031341553,0.5663315057754517,-0.37362954020500183,-0.23094777762889862,-0.29979947209358215,0.6827247142791748,-0.4462173283100128,-0.2554505467414856,-0.13840411603450775,-0.16583044826984406,-0.29768189787864685,},{0.3360321521759033,0.3174908459186554,0.09101241827011108,-0.23393428325653076,-0.039914775639772415,-0.34360751509666443,-0.11561903357505798,0.15375936031341553,0.5663315057754517,-0.37362954020500183,-0.23094777762889862,-0.29979947209358215,0.6827247142791748,-0.4462173283100128,-0.2554505467414856,-0.13840411603450775,-0.16583044826984406,-0.29768189787864685,},{0.3360321521759033,0.3174908459186554,0.09101241827011108,-0.23393428325653076,-0.039914775639772415,-0.34360751509666443,-0.11561903357505798,0.15375936031341553,0.5663315057754517,-0.37362954020500183,-0.23094777762889862,-0.29979947209358215,0.6827247142791748,-0.4462173283100128,-0.2554505467414856,-0.13840411603450775,-0.16583044826984406,-0.29768189787864685,},{0.3360321521759033,0.3174908459186554,0.09101241827011108,-0.23393428325653076,-0.039914775639772415,-0.34360751509666443,-0.11561903357505798,0.15375936031341553,0.5663315057754517,-0.37362954020500183,-0.23094777762889862,-0.29979947209358215,0.6827247142791748,-0.4462173283100128,-0.2554505467414856,-0.13840411603450775,-0.16583044826984406,-0.29768189787864685,},{0.3360321521759033,0.3174908459186554,0.09101241827011108,-0.23393428325653076,-0.039914775639772415,-0.34360751509666443,-0.11561903357505798,0.15375936031341553,0.5663315057754517,-0.37362954020500183,-0.23094777762889862,-0.29979947209358215,0.6827247142791748,-0.4462173283100128,-0.2554505467414856,-0.13840411603450775,-0.16583044826984406,-0.29768189787864685,},{0.3360321521759033,0.3174908459186554,0.09101241827011108,-0.23393428325653076,-0.039914775639772415,-0.34360751509666443,-0.11561903357505798,0.15375936031341553,0.5663315057754517,-0.37362954020500183,-0.23094777762889862,-0.29979947209358215,0.6827247142791748,-0.4462173283100128,-0.2554505467414856,-0.13840411603450775,-0.16583044826984406,-0.29768189787864685,},{0.3360321521759033,0.3174908459186554,0.09101241827011108,-0.23393428325653076,-0.039914775639772415,-0.34360751509666443,-0.11561903357505798,0.15375936031341553,0.5663315057754517,-0.37362954020500183,-0.23094777762889862,-0.29979947209358215,0.6827247142791748,-0.4462173283100128,-0.2554505467414856,-0.13840411603450775,-0.16583044826984406,-0.29768189787864685,},{0.3360321521759033,0.3174908459186554,0.09101241827011108,-0.23393428325653076,-0.039914775639772415,-0.34360751509666443,-0.11561903357505798,0.15375936031341553,0.5663315057754517,-0.37362954020500183,-0.23094777762889862,-0.29979947209358215,0.6827247142791748,-0.4462173283100128,-0.2554505467414856,-0.13840411603450775,-0.16583044826984406,-0.29768189787864685,},{0.3360321521759033,0.3174908459186554,0.09101241827011108,-0.23393428325653076,-0.039914775639772415,-0.34360751509666443,-0.11561903357505798,0.15375936031341553,0.5663315057754517,-0.37362954020500183,-0.23094777762889862,-0.29979947209358215,0.6827247142791748,-0.4462173283100128,-0.2554505467414856,-0.13840411603450775,-0.16583044826984406,-0.29768189787864685,},{0.3360321521759033,0.3174908459186554,0.09101241827011108,-0.23393428325653076,-0.039914775639772415,-0.34360751509666443,-0.11561903357505798,0.15375936031341553,0.5663315057754517,-0.37362954020500183,-0.23094777762889862,-0.29979947209358215,0.6827247142791748,-0.4462173283100128,-0.2554505467414856,-0.13840411603450775,-0.16583044826984406,-0.29768189787864685,},{0.3360321521759033,0.3174908459186554,0.09101241827011108,-0.23393428325653076,-0.039914775639772415,-0.34360751509666443,-0.11561903357505798,0.15375936031341553,0.5663315057754517,-0.37362954020500183,-0.23094777762889862,-0.29979947209358215,0.6827247142791748,-0.4462173283100128,-0.2554505467414856,-0.13840411603450775,-0.16583044826984406,-0.29768189787864685,},}}{{0.11686140298843384,0.3288634121417999,-0.13268975913524628,0.14519454538822174,0.2281813770532608,-0.19232334196567535,-0.42164039611816406,-0.28707361221313477,0.4332018196582794,0.07987366616725922,-0.29136452078819275,0.4606221914291382,0.15798866748809814,0.3213966488838196,0.31561383605003357,0.09486008435487747,0.19590453803539276,0.14369811117649078,},{0.11686140298843384,0.3288634121417999,-0.13268975913524628,0.14519454538822174,0.2281813770532608,-0.19232334196567535,-0.42164039611816406,-0.28707361221313477,0.4332018196582794,0.07987366616725922,-0.29136452078819275,0.4606221914291382,0.15798866748809814,0.3213966488838196,0.31561383605003357,0.09486008435487747,0.19590453803539276,0.14369811117649078,},{0.11686140298843384,0.3288634121417999,-0.13268975913524628,0.14519454538822174,0.2281813770532608,-0.19232334196567535,-0.42164039611816406,-0.28707361221313477,0.4332018196582794,0.07987366616725922,-0.29136452078819275,0.4606221914291382,0.15798866748809814,0.3213966488838196,0.31561383605003357,0.09486008435487747,0.19590453803539276,0.14369811117649078,},{0.11686140298843384,0.3288634121417999,-0.13268975913524628,0.14519454538822174,0.2281813770532608,-0.19232334196567535,-0.42164039611816406,-0.28707361221313477,0.4332018196582794,0.07987366616725922,-0.29136452078819275,0.4606221914291382,0.15798866748809814,0.3213966488838196,0.31561383605003357,0.09486008435487747,0.19590453803539276,0.14369811117649078,},{0.11686140298843384,0.3288634121417999,-0.13268975913524628,0.14519454538822174,0.2281813770532608,-0.19232334196567535,-0.42164039611816406,-0.28707361221313477,0.4332018196582794,0.07987366616725922,-0.29136452078819275,0.4606221914291382,0.15798866748809814,0.3213966488838196,0.31561383605003357,0.09486008435487747,0.19590453803539276,0.14369811117649078,},{0.11686140298843384,0.3288634121417999,-0.13268975913524628,0.14519454538822174,0.2281813770532608,-0.19232334196567535,-0.42164039611816406,-0.28707361221313477,0.4332018196582794,0.07987366616725922,-0.29136452078819275,0.4606221914291382,0.15798866748809814,0.3213966488838196,0.31561383605003357,0.09486008435487747,0.19590453803539276,0.14369811117649078,},{0.11686140298843384,0.3288634121417999,-0.13268975913524628,0.14519454538822174,0.2281813770532608,-0.19232334196567535,-0.42164039611816406,-0.28707361221313477,0.4332018196582794,0.07987366616725922,-0.29136452078819275,0.4606221914291382,0.15798866748809814,0.3213966488838196,0.31561383605003357,0.09486008435487747,0.19590453803539276,0.14369811117649078,},{0.11686140298843384,0.3288634121417999,-0.13268975913524628,0.14519454538822174,0.2281813770532608,-0.19232334196567535,-0.42164039611816406,-0.28707361221313477,0.4332018196582794,0.07987366616725922,-0.29136452078819275,0.4606221914291382,0.15798866748809814,0.3213966488838196,0.31561383605003357,0.09486008435487747,0.19590453803539276,0.14369811117649078,},{0.11686140298843384,0.3288634121417999,-0.13268975913524628,0.14519454538822174,0.2281813770532608,-0.19232334196567535,-0.42164039611816406,-0.28707361221313477,0.4332018196582794,0.07987366616725922,-0.29136452078819275,0.4606221914291382,0.15798866748809814,0.3213966488838196,0.31561383605003357,0.09486008435487747,0.19590453803539276,0.14369811117649078,},{0.11686140298843384,0.3288634121417999,-0.13268975913524628,0.14519454538822174,0.2281813770532608,-0.19232334196567535,-0.42164039611816406,-0.28707361221313477,0.4332018196582794,0.07987366616725922,-0.29136452078819275,0.4606221914291382,0.15798866748809814,0.3213966488838196,0.31561383605003357,0.09486008435487747,0.19590453803539276,0.14369811117649078,},{0.11686140298843384,0.3288634121417999,-0.13268975913524628,0.14519454538822174,0.2281813770532608,-0.19232334196567535,-0.42164039611816406,-0.28707361221313477,0.4332018196582794,0.07987366616725922,-0.29136452078819275,0.4606221914291382,0.15798866748809814,0.3213966488838196,0.31561383605003357,0.09486008435487747,0.19590453803539276,0.14369811117649078,},{0.11686140298843384,0.3288634121417999,-0.13268975913524628,0.14519454538822174,0.2281813770532608,-0.19232334196567535,-0.42164039611816406,-0.28707361221313477,0.4332018196582794,0.07987366616725922,-0.29136452078819275,0.4606221914291382,0.15798866748809814,0.3213966488838196,0.31561383605003357,0.09486008435487747,0.19590453803539276,0.14369811117649078,},{0.11686140298843384,0.3288634121417999,-0.13268975913524628,0.14519454538822174,0.2281813770532608,-0.19232334196567535,-0.42164039611816406,-0.28707361221313477,0.4332018196582794,0.07987366616725922,-0.29136452078819275,0.4606221914291382,0.15798866748809814,0.3213966488838196,0.31561383605003357,0.09486008435487747,0.19590453803539276,0.14369811117649078,},{0.11686140298843384,0.3288634121417999,-0.13268975913524628,0.14519454538822174,0.2281813770532608,-0.19232334196567535,-0.42164039611816406,-0.28707361221313477,0.4332018196582794,0.07987366616725922,-0.29136452078819275,0.4606221914291382,0.15798866748809814,0.3213966488838196,0.31561383605003357,0.09486008435487747,0.19590453803539276,0.14369811117649078,},{0.11686140298843384,0.3288634121417999,-0.13268975913524628,0.14519454538822174,0.2281813770532608,-0.19232334196567535,-0.42164039611816406,-0.28707361221313477,0.4332018196582794,0.07987366616725922,-0.29136452078819275,0.4606221914291382,0.15798866748809814,0.3213966488838196,0.31561383605003357,0.09486008435487747,0.19590453803539276,0.14369811117649078,},{0.11686140298843384,0.3288634121417999,-0.13268975913524628,0.14519454538822174,0.2281813770532608,-0.19232334196567535,-0.42164039611816406,-0.28707361221313477,0.4332018196582794,0.07987366616725922,-0.29136452078819275,0.4606221914291382,0.15798866748809814,0.3213966488838196,0.31561383605003357,0.09486008435487747,0.19590453803539276,0.14369811117649078,},{0.11686140298843384,0.3288634121417999,-0.13268975913524628,0.14519454538822174,0.2281813770532608,-0.19232334196567535,-0.42164039611816406,-0.28707361221313477,0.4332018196582794,0.07987366616725922,-0.29136452078819275,0.4606221914291382,0.15798866748809814,0.3213966488838196,0.31561383605003357,0.09486008435487747,0.19590453803539276,0.14369811117649078,},{0.11686140298843384,0.3288634121417999,-0.13268975913524628,0.14519454538822174,0.2281813770532608,-0.19232334196567535,-0.42164039611816406,-0.28707361221313477,0.4332018196582794,0.07987366616725922,-0.29136452078819275,0.4606221914291382,0.15798866748809814,0.3213966488838196,0.31561383605003357,0.09486008435487747,0.19590453803539276,0.14369811117649078,},}}{{0.3957783281803131,-0.1111733466386795,-0.2830151617527008,0.2397213727235794,-0.10492546856403351,0.2235911786556244,-0.1388418823480606,0.05491608753800392,0.2206813395023346,0.005942841060459614,-0.07208564877510071,-0.04538944363594055,0.14064715802669525,0.7327346205711365,0.4135330617427826,0.02021580934524536,-0.36853015422821045,-0.2852248549461365,},{0.3957783281803131,-0.1111733466386795,-0.2830151617527008,0.2397213727235794,-0.10492546856403351,0.2235911786556244,-0.1388418823480606,0.05491608753800392,0.2206813395023346,0.005942841060459614,-0.07208564877510071,-0.04538944363594055,0.14064715802669525,0.7327346205711365,0.4135330617427826,0.02021580934524536,-0.36853015422821045,-0.2852248549461365,},{0.3957783281803131,-0.1111733466386795,-0.2830151617527008,0.2397213727235794,-0.10492546856403351,0.2235911786556244,-0.1388418823480606,0.05491608753800392,0.2206813395023346,0.005942841060459614,-0.07208564877510071,-0.04538944363594055,0.14064715802669525,0.7327346205711365,0.4135330617427826,0.02021580934524536,-0.36853015422821045,-0.2852248549461365,},{0.3957783281803131,-0.1111733466386795,-0.2830151617527008,0.2397213727235794,-0.10492546856403351,0.2235911786556244,-0.1388418823480606,0.05491608753800392,0.2206813395023346,0.005942841060459614,-0.07208564877510071,-0.04538944363594055,0.14064715802669525,0.7327346205711365,0.4135330617427826,0.02021580934524536,-0.36853015422821045,-0.2852248549461365,},{0.3957783281803131,-0.1111733466386795,-0.2830151617527008,0.2397213727235794,-0.10492546856403351,0.2235911786556244,-0.1388418823480606,0.05491608753800392,0.2206813395023346,0.005942841060459614,-0.07208564877510071,-0.04538944363594055,0.14064715802669525,0.7327346205711365,0.4135330617427826,0.02021580934524536,-0.36853015422821045,-0.2852248549461365,},{0.3957783281803131,-0.1111733466386795,-0.2830151617527008,0.2397213727235794,-0.10492546856403351,0.2235911786556244,-0.1388418823480606,0.05491608753800392,0.2206813395023346,0.005942841060459614,-0.07208564877510071,-0.04538944363594055,0.14064715802669525,0.7327346205711365,0.4135330617427826,0.02021580934524536,-0.36853015422821045,-0.2852248549461365,},{0.3957783281803131,-0.1111733466386795,-0.2830151617527008,0.2397213727235794,-0.10492546856403351,0.2235911786556244,-0.1388418823480606,0.05491608753800392,0.2206813395023346,0.005942841060459614,-0.07208564877510071,-0.04538944363594055,0.14064715802669525,0.7327346205711365,0.4135330617427826,0.02021580934524536,-0.36853015422821045,-0.2852248549461365,},{0.3957783281803131,-0.1111733466386795,-0.2830151617527008,0.2397213727235794,-0.10492546856403351,0.2235911786556244,-0.1388418823480606,0.05491608753800392,0.2206813395023346,0.005942841060459614,-0.07208564877510071,-0.04538944363594055,0.14064715802669525,0.7327346205711365,0.4135330617427826,0.02021580934524536,-0.36853015422821045,-0.2852248549461365,},{0.3957783281803131,-0.1111733466386795,-0.2830151617527008,0.2397213727235794,-0.10492546856403351,0.2235911786556244,-0.1388418823480606,0.05491608753800392,0.2206813395023346,0.005942841060459614,-0.07208564877510071,-0.04538944363594055,0.14064715802669525,0.7327346205711365,0.4135330617427826,0.02021580934524536,-0.36853015422821045,-0.2852248549461365,},{0.3957783281803131,-0.1111733466386795,-0.2830151617527008,0.2397213727235794,-0.10492546856403351,0.2235911786556244,-0.1388418823480606,0.05491608753800392,0.2206813395023346,0.005942841060459614,-0.07208564877510071,-0.04538944363594055,0.14064715802669525,0.7327346205711365,0.4135330617427826,0.02021580934524536,-0.36853015422821045,-0.2852248549461365,},{0.3957783281803131,-0.1111733466386795,-0.2830151617527008,0.2397213727235794,-0.10492546856403351,0.2235911786556244,-0.1388418823480606,0.05491608753800392,0.2206813395023346,0.005942841060459614,-0.07208564877510071,-0.04538944363594055,0.14064715802669525,0.7327346205711365,0.4135330617427826,0.02021580934524536,-0.36853015422821045,-0.2852248549461365,},{0.3957783281803131,-0.1111733466386795,-0.2830151617527008,0.2397213727235794,-0.10492546856403351,0.2235911786556244,-0.1388418823480606,0.05491608753800392,0.2206813395023346,0.005942841060459614,-0.07208564877510071,-0.04538944363594055,0.14064715802669525,0.7327346205711365,0.4135330617427826,0.02021580934524536,-0.36853015422821045,-0.2852248549461365,},{0.3957783281803131,-0.1111733466386795,-0.2830151617527008,0.2397213727235794,-0.10492546856403351,0.2235911786556244,-0.1388418823480606,0.05491608753800392,0.2206813395023346,0.005942841060459614,-0.07208564877510071,-0.04538944363594055,0.14064715802669525,0.7327346205711365,0.4135330617427826,0.02021580934524536,-0.36853015422821045,-0.2852248549461365,},{0.3957783281803131,-0.1111733466386795,-0.2830151617527008,0.2397213727235794,-0.10492546856403351,0.2235911786556244,-0.1388418823480606,0.05491608753800392,0.2206813395023346,0.005942841060459614,-0.07208564877510071,-0.04538944363594055,0.14064715802669525,0.7327346205711365,0.4135330617427826,0.02021580934524536,-0.36853015422821045,-0.2852248549461365,},{0.3957783281803131,-0.1111733466386795,-0.2830151617527008,0.2397213727235794,-0.10492546856403351,0.2235911786556244,-0.1388418823480606,0.05491608753800392,0.2206813395023346,0.005942841060459614,-0.07208564877510071,-0.04538944363594055,0.14064715802669525,0.7327346205711365,0.4135330617427826,0.02021580934524536,-0.36853015422821045,-0.2852248549461365,},{0.3957783281803131,-0.1111733466386795,-0.2830151617527008,0.2397213727235794,-0.10492546856403351,0.2235911786556244,-0.1388418823480606,0.05491608753800392,0.2206813395023346,0.005942841060459614,-0.07208564877510071,-0.04538944363594055,0.14064715802669525,0.7327346205711365,0.4135330617427826,0.02021580934524536,-0.36853015422821045,-0.2852248549461365,},{0.3957783281803131,-0.1111733466386795,-0.2830151617527008,0.2397213727235794,-0.10492546856403351,0.2235911786556244,-0.1388418823480606,0.05491608753800392,0.2206813395023346,0.005942841060459614,-0.07208564877510071,-0.04538944363594055,0.14064715802669525,0.7327346205711365,0.4135330617427826,0.02021580934524536,-0.36853015422821045,-0.2852248549461365,},{0.3957783281803131,-0.1111733466386795,-0.2830151617527008,0.2397213727235794,-0.10492546856403351,0.2235911786556244,-0.1388418823480606,0.05491608753800392,0.2206813395023346,0.005942841060459614,-0.07208564877510071,-0.04538944363594055,0.14064715802669525,0.7327346205711365,0.4135330617427826,0.02021580934524536,-0.36853015422821045,-0.2852248549461365,},}}{{-0.40301164984703064,-0.1587112545967102,-0.0034422108437865973,-0.3695080280303955,0.0787159651517868,0.330150306224823,-0.2497907280921936,0.2715764343738556,-0.3287798762321472,0.025876276195049286,-0.07621486485004425,0.16415919363498688,-0.9521430134773254,-0.44810354709625244,0.35257643461227417,-0.26166030764579773,0.16599750518798828,-0.23096291720867157,},{-0.40301164984703064,-0.1587112545967102,-0.0034422108437865973,-0.3695080280303955,0.0787159651517868,0.330150306224823,-0.2497907280921936,0.2715764343738556,-0.3287798762321472,0.025876276195049286,-0.07621486485004425,0.16415919363498688,-0.9521430134773254,-0.44810354709625244,0.35257643461227417,-0.26166030764579773,0.16599750518798828,-0.23096291720867157,},{-0.40301164984703064,-0.1587112545967102,-0.0034422108437865973,-0.3695080280303955,0.0787159651517868,0.330150306224823,-0.2497907280921936,0.2715764343738556,-0.3287798762321472,0.025876276195049286,-0.07621486485004425,0.16415919363498688,-0.9521430134773254,-0.44810354709625244,0.35257643461227417,-0.26166030764579773,0.16599750518798828,-0.23096291720867157,},{-0.40301164984703064,-0.1587112545967102,-0.0034422108437865973,-0.3695080280303955,0.0787159651517868,0.330150306224823,-0.2497907280921936,0.2715764343738556,-0.3287798762321472,0.025876276195049286,-0.07621486485004425,0.16415919363498688,-0.9521430134773254,-0.44810354709625244,0.35257643461227417,-0.26166030764579773,0.16599750518798828,-0.23096291720867157,},{-0.40301164984703064,-0.1587112545967102,-0.0034422108437865973,-0.3695080280303955,0.0787159651517868,0.330150306224823,-0.2497907280921936,0.2715764343738556,-0.3287798762321472,0.025876276195049286,-0.07621486485004425,0.16415919363498688,-0.9521430134773254,-0.44810354709625244,0.35257643461227417,-0.26166030764579773,0.16599750518798828,-0.23096291720867157,},{-0.40301164984703064,-0.1587112545967102,-0.0034422108437865973,-0.3695080280303955,0.0787159651517868,0.330150306224823,-0.2497907280921936,0.2715764343738556,-0.3287798762321472,0.025876276195049286,-0.07621486485004425,0.16415919363498688,-0.9521430134773254,-0.44810354709625244,0.35257643461227417,-0.26166030764579773,0.16599750518798828,-0.23096291720867157,},{-0.40301164984703064,-0.1587112545967102,-0.0034422108437865973,-0.3695080280303955,0.0787159651517868,0.330150306224823,-0.2497907280921936,0.2715764343738556,-0.3287798762321472,0.025876276195049286,-0.07621486485004425,0.16415919363498688,-0.9521430134773254,-0.44810354709625244,0.35257643461227417,-0.26166030764579773,0.16599750518798828,-0.23096291720867157,},{-0.40301164984703064,-0.1587112545967102,-0.0034422108437865973,-0.3695080280303955,0.0787159651517868,0.330150306224823,-0.2497907280921936,0.2715764343738556,-0.3287798762321472,0.025876276195049286,-0.07621486485004425,0.16415919363498688,-0.9521430134773254,-0.44810354709625244,0.35257643461227417,-0.26166030764579773,0.16599750518798828,-0.23096291720867157,},{-0.40301164984703064,-0.1587112545967102,-0.0034422108437865973,-0.3695080280303955,0.0787159651517868,0.330150306224823,-0.2497907280921936,0.2715764343738556,-0.3287798762321472,0.025876276195049286,-0.07621486485004425,0.16415919363498688,-0.9521430134773254,-0.44810354709625244,0.35257643461227417,-0.26166030764579773,0.16599750518798828,-0.23096291720867157,},{-0.40301164984703064,-0.1587112545967102,-0.0034422108437865973,-0.3695080280303955,0.0787159651517868,0.330150306224823,-0.2497907280921936,0.2715764343738556,-0.3287798762321472,0.025876276195049286,-0.07621486485004425,0.16415919363498688,-0.9521430134773254,-0.44810354709625244,0.35257643461227417,-0.26166030764579773,0.16599750518798828,-0.23096291720867157,},{-0.40301164984703064,-0.1587112545967102,-0.0034422108437865973,-0.3695080280303955,0.0787159651517868,0.330150306224823,-0.2497907280921936,0.2715764343738556,-0.3287798762321472,0.025876276195049286,-0.07621486485004425,0.16415919363498688,-0.9521430134773254,-0.44810354709625244,0.35257643461227417,-0.26166030764579773,0.16599750518798828,-0.23096291720867157,},{-0.40301164984703064,-0.1587112545967102,-0.0034422108437865973,-0.3695080280303955,0.0787159651517868,0.330150306224823,-0.2497907280921936,0.2715764343738556,-0.3287798762321472,0.025876276195049286,-0.07621486485004425,0.16415919363498688,-0.9521430134773254,-0.44810354709625244,0.35257643461227417,-0.26166030764579773,0.16599750518798828,-0.23096291720867157,},{-0.40301164984703064,-0.1587112545967102,-0.0034422108437865973,-0.3695080280303955,0.0787159651517868,0.330150306224823,-0.2497907280921936,0.2715764343738556,-0.3287798762321472,0.025876276195049286,-0.07621486485004425,0.16415919363498688,-0.9521430134773254,-0.44810354709625244,0.35257643461227417,-0.26166030764579773,0.16599750518798828,-0.23096291720867157,},{-0.40301164984703064,-0.1587112545967102,-0.0034422108437865973,-0.3695080280303955,0.0787159651517868,0.330150306224823,-0.2497907280921936,0.2715764343738556,-0.3287798762321472,0.025876276195049286,-0.07621486485004425,0.16415919363498688,-0.9521430134773254,-0.44810354709625244,0.35257643461227417,-0.26166030764579773,0.16599750518798828,-0.23096291720867157,},{-0.40301164984703064,-0.1587112545967102,-0.0034422108437865973,-0.3695080280303955,0.0787159651517868,0.330150306224823,-0.2497907280921936,0.2715764343738556,-0.3287798762321472,0.025876276195049286,-0.07621486485004425,0.16415919363498688,-0.9521430134773254,-0.44810354709625244,0.35257643461227417,-0.26166030764579773,0.16599750518798828,-0.23096291720867157,},{-0.40301164984703064,-0.1587112545967102,-0.0034422108437865973,-0.3695080280303955,0.0787159651517868,0.330150306224823,-0.2497907280921936,0.2715764343738556,-0.3287798762321472,0.025876276195049286,-0.07621486485004425,0.16415919363498688,-0.9521430134773254,-0.44810354709625244,0.35257643461227417,-0.26166030764579773,0.16599750518798828,-0.23096291720867157,},{-0.40301164984703064,-0.1587112545967102,-0.0034422108437865973,-0.3695080280303955,0.0787159651517868,0.330150306224823,-0.2497907280921936,0.2715764343738556,-0.3287798762321472,0.025876276195049286,-0.07621486485004425,0.16415919363498688,-0.9521430134773254,-0.44810354709625244,0.35257643461227417,-0.26166030764579773,0.16599750518798828,-0.23096291720867157,},{-0.40301164984703064,-0.1587112545967102,-0.0034422108437865973,-0.3695080280303955,0.0787159651517868,0.330150306224823,-0.2497907280921936,0.2715764343738556,-0.3287798762321472,0.025876276195049286,-0.07621486485004425,0.16415919363498688,-0.9521430134773254,-0.44810354709625244,0.35257643461227417,-0.26166030764579773,0.16599750518798828,-0.23096291720867157,},}}{{-0.13328427076339722,0.4725113809108734,0.20510482788085938,-0.09938617050647736,0.19443845748901367,0.0372622013092041,0.09944169223308563,0.16692151129245758,-0.36532360315322876,0.4044525623321533,0.43619558215141296,0.19297875463962555,-0.2068866640329361,0.16086943447589874,0.2484108805656433,-0.1128300353884697,0.16369184851646423,-0.3000054955482483,},{-0.13328427076339722,0.4725113809108734,0.20510482788085938,-0.09938617050647736,0.19443845748901367,0.0372622013092041,0.09944169223308563,0.16692151129245758,-0.36532360315322876,0.4044525623321533,0.43619558215141296,0.19297875463962555,-0.2068866640329361,0.16086943447589874,0.2484108805656433,-0.1128300353884697,0.16369184851646423,-0.3000054955482483,},{-0.13328427076339722,0.4725113809108734,0.20510482788085938,-0.09938617050647736,0.19443845748901367,0.0372622013092041,0.09944169223308563,0.16692151129245758,-0.36532360315322876,0.4044525623321533,0.43619558215141296,0.19297875463962555,-0.2068866640329361,0.16086943447589874,0.2484108805656433,-0.1128300353884697,0.16369184851646423,-0.3000054955482483,},{-0.13328427076339722,0.4725113809108734,0.20510482788085938,-0.09938617050647736,0.19443845748901367,0.0372622013092041,0.09944169223308563,0.16692151129245758,-0.36532360315322876,0.4044525623321533,0.43619558215141296,0.19297875463962555,-0.2068866640329361,0.16086943447589874,0.2484108805656433,-0.1128300353884697,0.16369184851646423,-0.3000054955482483,},{-0.13328427076339722,0.4725113809108734,0.20510482788085938,-0.09938617050647736,0.19443845748901367,0.0372622013092041,0.09944169223308563,0.16692151129245758,-0.36532360315322876,0.4044525623321533,0.43619558215141296,0.19297875463962555,-0.2068866640329361,0.16086943447589874,0.2484108805656433,-0.1128300353884697,0.16369184851646423,-0.3000054955482483,},{-0.13328427076339722,0.4725113809108734,0.20510482788085938,-0.09938617050647736,0.19443845748901367,0.0372622013092041,0.09944169223308563,0.16692151129245758,-0.36532360315322876,0.4044525623321533,0.43619558215141296,0.19297875463962555,-0.2068866640329361,0.16086943447589874,0.2484108805656433,-0.1128300353884697,0.16369184851646423,-0.3000054955482483,},{-0.13328427076339722,0.4725113809108734,0.20510482788085938,-0.09938617050647736,0.19443845748901367,0.0372622013092041,0.09944169223308563,0.16692151129245758,-0.36532360315322876,0.4044525623321533,0.43619558215141296,0.19297875463962555,-0.2068866640329361,0.16086943447589874,0.2484108805656433,-0.1128300353884697,0.16369184851646423,-0.3000054955482483,},{-0.13328427076339722,0.4725113809108734,0.20510482788085938,-0.09938617050647736,0.19443845748901367,0.0372622013092041,0.09944169223308563,0.16692151129245758,-0.36532360315322876,0.4044525623321533,0.43619558215141296,0.19297875463962555,-0.2068866640329361,0.16086943447589874,0.2484108805656433,-0.1128300353884697,0.16369184851646423,-0.3000054955482483,},{-0.13328427076339722,0.4725113809108734,0.20510482788085938,-0.09938617050647736,0.19443845748901367,0.0372622013092041,0.09944169223308563,0.16692151129245758,-0.36532360315322876,0.4044525623321533,0.43619558215141296,0.19297875463962555,-0.2068866640329361,0.16086943447589874,0.2484108805656433,-0.1128300353884697,0.16369184851646423,-0.3000054955482483,},{-0.13328427076339722,0.4725113809108734,0.20510482788085938,-0.09938617050647736,0.19443845748901367,0.0372622013092041,0.09944169223308563,0.16692151129245758,-0.36532360315322876,0.4044525623321533,0.43619558215141296,0.19297875463962555,-0.2068866640329361,0.16086943447589874,0.2484108805656433,-0.1128300353884697,0.16369184851646423,-0.3000054955482483,},{-0.13328427076339722,0.4725113809108734,0.20510482788085938,-0.09938617050647736,0.19443845748901367,0.0372622013092041,0.09944169223308563,0.16692151129245758,-0.36532360315322876,0.4044525623321533,0.43619558215141296,0.19297875463962555,-0.2068866640329361,0.16086943447589874,0.2484108805656433,-0.1128300353884697,0.16369184851646423,-0.3000054955482483,},{-0.13328427076339722,0.4725113809108734,0.20510482788085938,-0.09938617050647736,0.19443845748901367,0.0372622013092041,0.09944169223308563,0.16692151129245758,-0.36532360315322876,0.4044525623321533,0.43619558215141296,0.19297875463962555,-0.2068866640329361,0.16086943447589874,0.2484108805656433,-0.1128300353884697,0.16369184851646423,-0.3000054955482483,},{-0.13328427076339722,0.4725113809108734,0.20510482788085938,-0.09938617050647736,0.19443845748901367,0.0372622013092041,0.09944169223308563,0.16692151129245758,-0.36532360315322876,0.4044525623321533,0.43619558215141296,0.19297875463962555,-0.2068866640329361,0.16086943447589874,0.2484108805656433,-0.1128300353884697,0.16369184851646423,-0.3000054955482483,},{-0.13328427076339722,0.4725113809108734,0.20510482788085938,-0.09938617050647736,0.19443845748901367,0.0372622013092041,0.09944169223308563,0.16692151129245758,-0.36532360315322876,0.4044525623321533,0.43619558215141296,0.19297875463962555,-0.2068866640329361,0.16086943447589874,0.2484108805656433,-0.1128300353884697,0.16369184851646423,-0.3000054955482483,},{-0.13328427076339722,0.4725113809108734,0.20510482788085938,-0.09938617050647736,0.19443845748901367,0.0372622013092041,0.09944169223308563,0.16692151129245758,-0.36532360315322876,0.4044525623321533,0.43619558215141296,0.19297875463962555,-0.2068866640329361,0.16086943447589874,0.2484108805656433,-0.1128300353884697,0.16369184851646423,-0.3000054955482483,},{-0.13328427076339722,0.4725113809108734,0.20510482788085938,-0.09938617050647736,0.19443845748901367,0.0372622013092041,0.09944169223308563,0.16692151129245758,-0.36532360315322876,0.4044525623321533,0.43619558215141296,0.19297875463962555,-0.2068866640329361,0.16086943447589874,0.2484108805656433,-0.1128300353884697,0.16369184851646423,-0.3000054955482483,},{-0.13328427076339722,0.4725113809108734,0.20510482788085938,-0.09938617050647736,0.19443845748901367,0.0372622013092041,0.09944169223308563,0.16692151129245758,-0.36532360315322876,0.4044525623321533,0.43619558215141296,0.19297875463962555,-0.2068866640329361,0.16086943447589874,0.2484108805656433,-0.1128300353884697,0.16369184851646423,-0.3000054955482483,},{-0.13328427076339722,0.4725113809108734,0.20510482788085938,-0.09938617050647736,0.19443845748901367,0.0372622013092041,0.09944169223308563,0.16692151129245758,-0.36532360315322876,0.4044525623321533,0.43619558215141296,0.19297875463962555,-0.2068866640329361,0.16086943447589874,0.2484108805656433,-0.1128300353884697,0.16369184851646423,-0.3000054955482483,},}}{{0.05008835345506668,0.13159383833408356,-0.12366245687007904,-0.001934097963385284,0.07654768228530884,0.26442500948905945,0.6317946314811707,0.7155816555023193,0.15411336719989777,-0.20843249559402466,0.5538075566291809,0.1990029662847519,-0.47877073287963867,0.15107464790344238,0.0621936097741127,0.33507734537124634,0.17442788183689117,0.19483359158039093,},{0.05008835345506668,0.13159383833408356,-0.12366245687007904,-0.001934097963385284,0.07654768228530884,0.26442500948905945,0.6317946314811707,0.7155816555023193,0.15411336719989777,-0.20843249559402466,0.5538075566291809,0.1990029662847519,-0.47877073287963867,0.15107464790344238,0.0621936097741127,0.33507734537124634,0.17442788183689117,0.19483359158039093,},{0.05008835345506668,0.13159383833408356,-0.12366245687007904,-0.001934097963385284,0.07654768228530884,0.26442500948905945,0.6317946314811707,0.7155816555023193,0.15411336719989777,-0.20843249559402466,0.5538075566291809,0.1990029662847519,-0.47877073287963867,0.15107464790344238,0.0621936097741127,0.33507734537124634,0.17442788183689117,0.19483359158039093,},{0.05008835345506668,0.13159383833408356,-0.12366245687007904,-0.001934097963385284,0.07654768228530884,0.26442500948905945,0.6317946314811707,0.7155816555023193,0.15411336719989777,-0.20843249559402466,0.5538075566291809,0.1990029662847519,-0.47877073287963867,0.15107464790344238,0.0621936097741127,0.33507734537124634,0.17442788183689117,0.19483359158039093,},{0.05008835345506668,0.13159383833408356,-0.12366245687007904,-0.001934097963385284,0.07654768228530884,0.26442500948905945,0.6317946314811707,0.7155816555023193,0.15411336719989777,-0.20843249559402466,0.5538075566291809,0.1990029662847519,-0.47877073287963867,0.15107464790344238,0.0621936097741127,0.33507734537124634,0.17442788183689117,0.19483359158039093,},{0.05008835345506668,0.13159383833408356,-0.12366245687007904,-0.001934097963385284,0.07654768228530884,0.26442500948905945,0.6317946314811707,0.7155816555023193,0.15411336719989777,-0.20843249559402466,0.5538075566291809,0.1990029662847519,-0.47877073287963867,0.15107464790344238,0.0621936097741127,0.33507734537124634,0.17442788183689117,0.19483359158039093,},{0.05008835345506668,0.13159383833408356,-0.12366245687007904,-0.001934097963385284,0.07654768228530884,0.26442500948905945,0.6317946314811707,0.7155816555023193,0.15411336719989777,-0.20843249559402466,0.5538075566291809,0.1990029662847519,-0.47877073287963867,0.15107464790344238,0.0621936097741127,0.33507734537124634,0.17442788183689117,0.19483359158039093,},{0.05008835345506668,0.13159383833408356,-0.12366245687007904,-0.001934097963385284,0.07654768228530884,0.26442500948905945,0.6317946314811707,0.7155816555023193,0.15411336719989777,-0.20843249559402466,0.5538075566291809,0.1990029662847519,-0.47877073287963867,0.15107464790344238,0.0621936097741127,0.33507734537124634,0.17442788183689117,0.19483359158039093,},{0.05008835345506668,0.13159383833408356,-0.12366245687007904,-0.001934097963385284,0.07654768228530884,0.26442500948905945,0.6317946314811707,0.7155816555023193,0.15411336719989777,-0.20843249559402466,0.5538075566291809,0.1990029662847519,-0.47877073287963867,0.15107464790344238,0.0621936097741127,0.33507734537124634,0.17442788183689117,0.19483359158039093,},{0.05008835345506668,0.13159383833408356,-0.12366245687007904,-0.001934097963385284,0.07654768228530884,0.26442500948905945,0.6317946314811707,0.7155816555023193,0.15411336719989777,-0.20843249559402466,0.5538075566291809,0.1990029662847519,-0.47877073287963867,0.15107464790344238,0.0621936097741127,0.33507734537124634,0.17442788183689117,0.19483359158039093,},{0.05008835345506668,0.13159383833408356,-0.12366245687007904,-0.001934097963385284,0.07654768228530884,0.26442500948905945,0.6317946314811707,0.7155816555023193,0.15411336719989777,-0.20843249559402466,0.5538075566291809,0.1990029662847519,-0.47877073287963867,0.15107464790344238,0.0621936097741127,0.33507734537124634,0.17442788183689117,0.19483359158039093,},{0.05008835345506668,0.13159383833408356,-0.12366245687007904,-0.001934097963385284,0.07654768228530884,0.26442500948905945,0.6317946314811707,0.7155816555023193,0.15411336719989777,-0.20843249559402466,0.5538075566291809,0.1990029662847519,-0.47877073287963867,0.15107464790344238,0.0621936097741127,0.33507734537124634,0.17442788183689117,0.19483359158039093,},{0.05008835345506668,0.13159383833408356,-0.12366245687007904,-0.001934097963385284,0.07654768228530884,0.26442500948905945,0.6317946314811707,0.7155816555023193,0.15411336719989777,-0.20843249559402466,0.5538075566291809,0.1990029662847519,-0.47877073287963867,0.15107464790344238,0.0621936097741127,0.33507734537124634,0.17442788183689117,0.19483359158039093,},{0.05008835345506668,0.13159383833408356,-0.12366245687007904,-0.001934097963385284,0.07654768228530884,0.26442500948905945,0.6317946314811707,0.7155816555023193,0.15411336719989777,-0.20843249559402466,0.5538075566291809,0.1990029662847519,-0.47877073287963867,0.15107464790344238,0.0621936097741127,0.33507734537124634,0.17442788183689117,0.19483359158039093,},{0.05008835345506668,0.13159383833408356,-0.12366245687007904,-0.001934097963385284,0.07654768228530884,0.26442500948905945,0.6317946314811707,0.7155816555023193,0.15411336719989777,-0.20843249559402466,0.5538075566291809,0.1990029662847519,-0.47877073287963867,0.15107464790344238,0.0621936097741127,0.33507734537124634,0.17442788183689117,0.19483359158039093,},{0.05008835345506668,0.13159383833408356,-0.12366245687007904,-0.001934097963385284,0.07654768228530884,0.26442500948905945,0.6317946314811707,0.7155816555023193,0.15411336719989777,-0.20843249559402466,0.5538075566291809,0.1990029662847519,-0.47877073287963867,0.15107464790344238,0.0621936097741127,0.33507734537124634,0.17442788183689117,0.19483359158039093,},{0.05008835345506668,0.13159383833408356,-0.12366245687007904,-0.001934097963385284,0.07654768228530884,0.26442500948905945,0.6317946314811707,0.7155816555023193,0.15411336719989777,-0.20843249559402466,0.5538075566291809,0.1990029662847519,-0.47877073287963867,0.15107464790344238,0.0621936097741127,0.33507734537124634,0.17442788183689117,0.19483359158039093,},{0.05008835345506668,0.13159383833408356,-0.12366245687007904,-0.001934097963385284,0.07654768228530884,0.26442500948905945,0.6317946314811707,0.7155816555023193,0.15411336719989777,-0.20843249559402466,0.5538075566291809,0.1990029662847519,-0.47877073287963867,0.15107464790344238,0.0621936097741127,0.33507734537124634,0.17442788183689117,0.19483359158039093,},}}{{-0.3523779809474945,-0.348007470369339,0.2573077082633972,-0.24648815393447876,0.09547632187604904,0.11829201877117157,-0.3186901807785034,-0.24569958448410034,-0.31162962317466736,0.1171998381614685,-0.12894517183303833,0.2364998757839203,-0.08194757252931595,-0.21705253422260284,0.1498715728521347,-0.3645821809768677,0.04631417244672775,0.28628164529800415,},{-0.3523779809474945,-0.348007470369339,0.2573077082633972,-0.24648815393447876,0.09547632187604904,0.11829201877117157,-0.3186901807785034,-0.24569958448410034,-0.31162962317466736,0.1171998381614685,-0.12894517183303833,0.2364998757839203,-0.08194757252931595,-0.21705253422260284,0.1498715728521347,-0.3645821809768677,0.04631417244672775,0.28628164529800415,},{-0.3523779809474945,-0.348007470369339,0.2573077082633972,-0.24648815393447876,0.09547632187604904,0.11829201877117157,-0.3186901807785034,-0.24569958448410034,-0.31162962317466736,0.1171998381614685,-0.12894517183303833,0.2364998757839203,-0.08194757252931595,-0.21705253422260284,0.1498715728521347,-0.3645821809768677,0.04631417244672775,0.28628164529800415,},{-0.3523779809474945,-0.348007470369339,0.2573077082633972,-0.24648815393447876,0.09547632187604904,0.11829201877117157,-0.3186901807785034,-0.24569958448410034,-0.31162962317466736,0.1171998381614685,-0.12894517183303833,0.2364998757839203,-0.08194757252931595,-0.21705253422260284,0.1498715728521347,-0.3645821809768677,0.04631417244672775,0.28628164529800415,},{-0.3523779809474945,-0.348007470369339,0.2573077082633972,-0.24648815393447876,0.09547632187604904,0.11829201877117157,-0.3186901807785034,-0.24569958448410034,-0.31162962317466736,0.1171998381614685,-0.12894517183303833,0.2364998757839203,-0.08194757252931595,-0.21705253422260284,0.1498715728521347,-0.3645821809768677,0.04631417244672775,0.28628164529800415,},{-0.3523779809474945,-0.348007470369339,0.2573077082633972,-0.24648815393447876,0.09547632187604904,0.11829201877117157,-0.3186901807785034,-0.24569958448410034,-0.31162962317466736,0.1171998381614685,-0.12894517183303833,0.2364998757839203,-0.08194757252931595,-0.21705253422260284,0.1498715728521347,-0.3645821809768677,0.04631417244672775,0.28628164529800415,},{-0.3523779809474945,-0.348007470369339,0.2573077082633972,-0.24648815393447876,0.09547632187604904,0.11829201877117157,-0.3186901807785034,-0.24569958448410034,-0.31162962317466736,0.1171998381614685,-0.12894517183303833,0.2364998757839203,-0.08194757252931595,-0.21705253422260284,0.1498715728521347,-0.3645821809768677,0.04631417244672775,0.28628164529800415,},{-0.3523779809474945,-0.348007470369339,0.2573077082633972,-0.24648815393447876,0.09547632187604904,0.11829201877117157,-0.3186901807785034,-0.24569958448410034,-0.31162962317466736,0.1171998381614685,-0.12894517183303833,0.2364998757839203,-0.08194757252931595,-0.21705253422260284,0.1498715728521347,-0.3645821809768677,0.04631417244672775,0.28628164529800415,},{-0.3523779809474945,-0.348007470369339,0.2573077082633972,-0.24648815393447876,0.09547632187604904,0.11829201877117157,-0.3186901807785034,-0.24569958448410034,-0.31162962317466736,0.1171998381614685,-0.12894517183303833,0.2364998757839203,-0.08194757252931595,-0.21705253422260284,0.1498715728521347,-0.3645821809768677,0.04631417244672775,0.28628164529800415,},{-0.3523779809474945,-0.348007470369339,0.2573077082633972,-0.24648815393447876,0.09547632187604904,0.11829201877117157,-0.3186901807785034,-0.24569958448410034,-0.31162962317466736,0.1171998381614685,-0.12894517183303833,0.2364998757839203,-0.08194757252931595,-0.21705253422260284,0.1498715728521347,-0.3645821809768677,0.04631417244672775,0.28628164529800415,},{-0.3523779809474945,-0.348007470369339,0.2573077082633972,-0.24648815393447876,0.09547632187604904,0.11829201877117157,-0.3186901807785034,-0.24569958448410034,-0.31162962317466736,0.1171998381614685,-0.12894517183303833,0.2364998757839203,-0.08194757252931595,-0.21705253422260284,0.1498715728521347,-0.3645821809768677,0.04631417244672775,0.28628164529800415,},{-0.3523779809474945,-0.348007470369339,0.2573077082633972,-0.24648815393447876,0.09547632187604904,0.11829201877117157,-0.3186901807785034,-0.24569958448410034,-0.31162962317466736,0.1171998381614685,-0.12894517183303833,0.2364998757839203,-0.08194757252931595,-0.21705253422260284,0.1498715728521347,-0.3645821809768677,0.04631417244672775,0.28628164529800415,},{-0.3523779809474945,-0.348007470369339,0.2573077082633972,-0.24648815393447876,0.09547632187604904,0.11829201877117157,-0.3186901807785034,-0.24569958448410034,-0.31162962317466736,0.1171998381614685,-0.12894517183303833,0.2364998757839203,-0.08194757252931595,-0.21705253422260284,0.1498715728521347,-0.3645821809768677,0.04631417244672775,0.28628164529800415,},{-0.3523779809474945,-0.348007470369339,0.2573077082633972,-0.24648815393447876,0.09547632187604904,0.11829201877117157,-0.3186901807785034,-0.24569958448410034,-0.31162962317466736,0.1171998381614685,-0.12894517183303833,0.2364998757839203,-0.08194757252931595,-0.21705253422260284,0.1498715728521347,-0.3645821809768677,0.04631417244672775,0.28628164529800415,},{-0.3523779809474945,-0.348007470369339,0.2573077082633972,-0.24648815393447876,0.09547632187604904,0.11829201877117157,-0.3186901807785034,-0.24569958448410034,-0.31162962317466736,0.1171998381614685,-0.12894517183303833,0.2364998757839203,-0.08194757252931595,-0.21705253422260284,0.1498715728521347,-0.3645821809768677,0.04631417244672775,0.28628164529800415,},{-0.3523779809474945,-0.348007470369339,0.2573077082633972,-0.24648815393447876,0.09547632187604904,0.11829201877117157,-0.3186901807785034,-0.24569958448410034,-0.31162962317466736,0.1171998381614685,-0.12894517183303833,0.2364998757839203,-0.08194757252931595,-0.21705253422260284,0.1498715728521347,-0.3645821809768677,0.04631417244672775,0.28628164529800415,},{-0.3523779809474945,-0.348007470369339,0.2573077082633972,-0.24648815393447876,0.09547632187604904,0.11829201877117157,-0.3186901807785034,-0.24569958448410034,-0.31162962317466736,0.1171998381614685,-0.12894517183303833,0.2364998757839203,-0.08194757252931595,-0.21705253422260284,0.1498715728521347,-0.3645821809768677,0.04631417244672775,0.28628164529800415,},{-0.3523779809474945,-0.348007470369339,0.2573077082633972,-0.24648815393447876,0.09547632187604904,0.11829201877117157,-0.3186901807785034,-0.24569958448410034,-0.31162962317466736,0.1171998381614685,-0.12894517183303833,0.2364998757839203,-0.08194757252931595,-0.21705253422260284,0.1498715728521347,-0.3645821809768677,0.04631417244672775,0.28628164529800415,},}}{{0.09580668807029724,-0.22918209433555603,0.3597027063369751,-0.261140376329422,-0.1382879912853241,-0.12670403718948364,0.016146214678883553,-0.012031282298266888,0.32968461513519287,0.13139550387859344,0.07670379430055618,-0.17838521301746368,0.20194797217845917,0.4050777852535248,-0.03998176008462906,-0.2923230826854706,-0.2641695439815521,0.3954271674156189,},{0.09580668807029724,-0.22918209433555603,0.3597027063369751,-0.261140376329422,-0.1382879912853241,-0.12670403718948364,0.016146214678883553,-0.012031282298266888,0.32968461513519287,0.13139550387859344,0.07670379430055618,-0.17838521301746368,0.20194797217845917,0.4050777852535248,-0.03998176008462906,-0.2923230826854706,-0.2641695439815521,0.3954271674156189,},{0.09580668807029724,-0.22918209433555603,0.3597027063369751,-0.261140376329422,-0.1382879912853241,-0.12670403718948364,0.016146214678883553,-0.012031282298266888,0.32968461513519287,0.13139550387859344,0.07670379430055618,-0.17838521301746368,0.20194797217845917,0.4050777852535248,-0.03998176008462906,-0.2923230826854706,-0.2641695439815521,0.3954271674156189,},{0.09580668807029724,-0.22918209433555603,0.3597027063369751,-0.261140376329422,-0.1382879912853241,-0.12670403718948364,0.016146214678883553,-0.012031282298266888,0.32968461513519287,0.13139550387859344,0.07670379430055618,-0.17838521301746368,0.20194797217845917,0.4050777852535248,-0.03998176008462906,-0.2923230826854706,-0.2641695439815521,0.3954271674156189,},{0.09580668807029724,-0.22918209433555603,0.3597027063369751,-0.261140376329422,-0.1382879912853241,-0.12670403718948364,0.016146214678883553,-0.012031282298266888,0.32968461513519287,0.13139550387859344,0.07670379430055618,-0.17838521301746368,0.20194797217845917,0.4050777852535248,-0.03998176008462906,-0.2923230826854706,-0.2641695439815521,0.3954271674156189,},{0.09580668807029724,-0.22918209433555603,0.3597027063369751,-0.261140376329422,-0.1382879912853241,-0.12670403718948364,0.016146214678883553,-0.012031282298266888,0.32968461513519287,0.13139550387859344,0.07670379430055618,-0.17838521301746368,0.20194797217845917,0.4050777852535248,-0.03998176008462906,-0.2923230826854706,-0.2641695439815521,0.3954271674156189,},{0.09580668807029724,-0.22918209433555603,0.3597027063369751,-0.261140376329422,-0.1382879912853241,-0.12670403718948364,0.016146214678883553,-0.012031282298266888,0.32968461513519287,0.13139550387859344,0.07670379430055618,-0.17838521301746368,0.20194797217845917,0.4050777852535248,-0.03998176008462906,-0.2923230826854706,-0.2641695439815521,0.3954271674156189,},{0.09580668807029724,-0.22918209433555603,0.3597027063369751,-0.261140376329422,-0.1382879912853241,-0.12670403718948364,0.016146214678883553,-0.012031282298266888,0.32968461513519287,0.13139550387859344,0.07670379430055618,-0.17838521301746368,0.20194797217845917,0.4050777852535248,-0.03998176008462906,-0.2923230826854706,-0.2641695439815521,0.3954271674156189,},{0.09580668807029724,-0.22918209433555603,0.3597027063369751,-0.261140376329422,-0.1382879912853241,-0.12670403718948364,0.016146214678883553,-0.012031282298266888,0.32968461513519287,0.13139550387859344,0.07670379430055618,-0.17838521301746368,0.20194797217845917,0.4050777852535248,-0.03998176008462906,-0.2923230826854706,-0.2641695439815521,0.3954271674156189,},{0.09580668807029724,-0.22918209433555603,0.3597027063369751,-0.261140376329422,-0.1382879912853241,-0.12670403718948364,0.016146214678883553,-0.012031282298266888,0.32968461513519287,0.13139550387859344,0.07670379430055618,-0.17838521301746368,0.20194797217845917,0.4050777852535248,-0.03998176008462906,-0.2923230826854706,-0.2641695439815521,0.3954271674156189,},{0.09580668807029724,-0.22918209433555603,0.3597027063369751,-0.261140376329422,-0.1382879912853241,-0.12670403718948364,0.016146214678883553,-0.012031282298266888,0.32968461513519287,0.13139550387859344,0.07670379430055618,-0.17838521301746368,0.20194797217845917,0.4050777852535248,-0.03998176008462906,-0.2923230826854706,-0.2641695439815521,0.3954271674156189,},{0.09580668807029724,-0.22918209433555603,0.3597027063369751,-0.261140376329422,-0.1382879912853241,-0.12670403718948364,0.016146214678883553,-0.012031282298266888,0.32968461513519287,0.13139550387859344,0.07670379430055618,-0.17838521301746368,0.20194797217845917,0.4050777852535248,-0.03998176008462906,-0.2923230826854706,-0.2641695439815521,0.3954271674156189,},{0.09580668807029724,-0.22918209433555603,0.3597027063369751,-0.261140376329422,-0.1382879912853241,-0.12670403718948364,0.016146214678883553,-0.012031282298266888,0.32968461513519287,0.13139550387859344,0.07670379430055618,-0.17838521301746368,0.20194797217845917,0.4050777852535248,-0.03998176008462906,-0.2923230826854706,-0.2641695439815521,0.3954271674156189,},{0.09580668807029724,-0.22918209433555603,0.3597027063369751,-0.261140376329422,-0.1382879912853241,-0.12670403718948364,0.016146214678883553,-0.012031282298266888,0.32968461513519287,0.13139550387859344,0.07670379430055618,-0.17838521301746368,0.20194797217845917,0.4050777852535248,-0.03998176008462906,-0.2923230826854706,-0.2641695439815521,0.3954271674156189,},{0.09580668807029724,-0.22918209433555603,0.3597027063369751,-0.261140376329422,-0.1382879912853241,-0.12670403718948364,0.016146214678883553,-0.012031282298266888,0.32968461513519287,0.13139550387859344,0.07670379430055618,-0.17838521301746368,0.20194797217845917,0.4050777852535248,-0.03998176008462906,-0.2923230826854706,-0.2641695439815521,0.3954271674156189,},{0.09580668807029724,-0.22918209433555603,0.3597027063369751,-0.261140376329422,-0.1382879912853241,-0.12670403718948364,0.016146214678883553,-0.012031282298266888,0.32968461513519287,0.13139550387859344,0.07670379430055618,-0.17838521301746368,0.20194797217845917,0.4050777852535248,-0.03998176008462906,-0.2923230826854706,-0.2641695439815521,0.3954271674156189,},{0.09580668807029724,-0.22918209433555603,0.3597027063369751,-0.261140376329422,-0.1382879912853241,-0.12670403718948364,0.016146214678883553,-0.012031282298266888,0.32968461513519287,0.13139550387859344,0.07670379430055618,-0.17838521301746368,0.20194797217845917,0.4050777852535248,-0.03998176008462906,-0.2923230826854706,-0.2641695439815521,0.3954271674156189,},{0.09580668807029724,-0.22918209433555603,0.3597027063369751,-0.261140376329422,-0.1382879912853241,-0.12670403718948364,0.016146214678883553,-0.012031282298266888,0.32968461513519287,0.13139550387859344,0.07670379430055618,-0.17838521301746368,0.20194797217845917,0.4050777852535248,-0.03998176008462906,-0.2923230826854706,-0.2641695439815521,0.3954271674156189,},}}{{-0.25106775760650635,0.301352858543396,-0.6056452393531799,0.13817007839679718,0.20148524641990662,-0.26517120003700256,0.2858065664768219,-0.2732311189174652,-0.4986274242401123,-0.05259913206100464,-0.16641086339950562,-0.7110562920570374,-0.053269509226083755,-0.06909005343914032,0.354184091091156,-0.2030317783355713,-0.15923796594142914,0.06628479808568954,},{-0.25106775760650635,0.301352858543396,-0.6056452393531799,0.13817007839679718,0.20148524641990662,-0.26517120003700256,0.2858065664768219,-0.2732311189174652,-0.4986274242401123,-0.05259913206100464,-0.16641086339950562,-0.7110562920570374,-0.053269509226083755,-0.06909005343914032,0.354184091091156,-0.2030317783355713,-0.15923796594142914,0.06628479808568954,},{-0.25106775760650635,0.301352858543396,-0.6056452393531799,0.13817007839679718,0.20148524641990662,-0.26517120003700256,0.2858065664768219,-0.2732311189174652,-0.4986274242401123,-0.05259913206100464,-0.16641086339950562,-0.7110562920570374,-0.053269509226083755,-0.06909005343914032,0.354184091091156,-0.2030317783355713,-0.15923796594142914,0.06628479808568954,},{-0.25106775760650635,0.301352858543396,-0.6056452393531799,0.13817007839679718,0.20148524641990662,-0.26517120003700256,0.2858065664768219,-0.2732311189174652,-0.4986274242401123,-0.05259913206100464,-0.16641086339950562,-0.7110562920570374,-0.053269509226083755,-0.06909005343914032,0.354184091091156,-0.2030317783355713,-0.15923796594142914,0.06628479808568954,},{-0.25106775760650635,0.301352858543396,-0.6056452393531799,0.13817007839679718,0.20148524641990662,-0.26517120003700256,0.2858065664768219,-0.2732311189174652,-0.4986274242401123,-0.05259913206100464,-0.16641086339950562,-0.7110562920570374,-0.053269509226083755,-0.06909005343914032,0.354184091091156,-0.2030317783355713,-0.15923796594142914,0.06628479808568954,},{-0.25106775760650635,0.301352858543396,-0.6056452393531799,0.13817007839679718,0.20148524641990662,-0.26517120003700256,0.2858065664768219,-0.2732311189174652,-0.4986274242401123,-0.05259913206100464,-0.16641086339950562,-0.7110562920570374,-0.053269509226083755,-0.06909005343914032,0.354184091091156,-0.2030317783355713,-0.15923796594142914,0.06628479808568954,},{-0.25106775760650635,0.301352858543396,-0.6056452393531799,0.13817007839679718,0.20148524641990662,-0.26517120003700256,0.2858065664768219,-0.2732311189174652,-0.4986274242401123,-0.05259913206100464,-0.16641086339950562,-0.7110562920570374,-0.053269509226083755,-0.06909005343914032,0.354184091091156,-0.2030317783355713,-0.15923796594142914,0.06628479808568954,},{-0.25106775760650635,0.301352858543396,-0.6056452393531799,0.13817007839679718,0.20148524641990662,-0.26517120003700256,0.2858065664768219,-0.2732311189174652,-0.4986274242401123,-0.05259913206100464,-0.16641086339950562,-0.7110562920570374,-0.053269509226083755,-0.06909005343914032,0.354184091091156,-0.2030317783355713,-0.15923796594142914,0.06628479808568954,},{-0.25106775760650635,0.301352858543396,-0.6056452393531799,0.13817007839679718,0.20148524641990662,-0.26517120003700256,0.2858065664768219,-0.2732311189174652,-0.4986274242401123,-0.05259913206100464,-0.16641086339950562,-0.7110562920570374,-0.053269509226083755,-0.06909005343914032,0.354184091091156,-0.2030317783355713,-0.15923796594142914,0.06628479808568954,},{-0.25106775760650635,0.301352858543396,-0.6056452393531799,0.13817007839679718,0.20148524641990662,-0.26517120003700256,0.2858065664768219,-0.2732311189174652,-0.4986274242401123,-0.05259913206100464,-0.16641086339950562,-0.7110562920570374,-0.053269509226083755,-0.06909005343914032,0.354184091091156,-0.2030317783355713,-0.15923796594142914,0.06628479808568954,},{-0.25106775760650635,0.301352858543396,-0.6056452393531799,0.13817007839679718,0.20148524641990662,-0.26517120003700256,0.2858065664768219,-0.2732311189174652,-0.4986274242401123,-0.05259913206100464,-0.16641086339950562,-0.7110562920570374,-0.053269509226083755,-0.06909005343914032,0.354184091091156,-0.2030317783355713,-0.15923796594142914,0.06628479808568954,},{-0.25106775760650635,0.301352858543396,-0.6056452393531799,0.13817007839679718,0.20148524641990662,-0.26517120003700256,0.2858065664768219,-0.2732311189174652,-0.4986274242401123,-0.05259913206100464,-0.16641086339950562,-0.7110562920570374,-0.053269509226083755,-0.06909005343914032,0.354184091091156,-0.2030317783355713,-0.15923796594142914,0.06628479808568954,},{-0.25106775760650635,0.301352858543396,-0.6056452393531799,0.13817007839679718,0.20148524641990662,-0.26517120003700256,0.2858065664768219,-0.2732311189174652,-0.4986274242401123,-0.05259913206100464,-0.16641086339950562,-0.7110562920570374,-0.053269509226083755,-0.06909005343914032,0.354184091091156,-0.2030317783355713,-0.15923796594142914,0.06628479808568954,},{-0.25106775760650635,0.301352858543396,-0.6056452393531799,0.13817007839679718,0.20148524641990662,-0.26517120003700256,0.2858065664768219,-0.2732311189174652,-0.4986274242401123,-0.05259913206100464,-0.16641086339950562,-0.7110562920570374,-0.053269509226083755,-0.06909005343914032,0.354184091091156,-0.2030317783355713,-0.15923796594142914,0.06628479808568954,},{-0.25106775760650635,0.301352858543396,-0.6056452393531799,0.13817007839679718,0.20148524641990662,-0.26517120003700256,0.2858065664768219,-0.2732311189174652,-0.4986274242401123,-0.05259913206100464,-0.16641086339950562,-0.7110562920570374,-0.053269509226083755,-0.06909005343914032,0.354184091091156,-0.2030317783355713,-0.15923796594142914,0.06628479808568954,},{-0.25106775760650635,0.301352858543396,-0.6056452393531799,0.13817007839679718,0.20148524641990662,-0.26517120003700256,0.2858065664768219,-0.2732311189174652,-0.4986274242401123,-0.05259913206100464,-0.16641086339950562,-0.7110562920570374,-0.053269509226083755,-0.06909005343914032,0.354184091091156,-0.2030317783355713,-0.15923796594142914,0.06628479808568954,},{-0.25106775760650635,0.301352858543396,-0.6056452393531799,0.13817007839679718,0.20148524641990662,-0.26517120003700256,0.2858065664768219,-0.2732311189174652,-0.4986274242401123,-0.05259913206100464,-0.16641086339950562,-0.7110562920570374,-0.053269509226083755,-0.06909005343914032,0.354184091091156,-0.2030317783355713,-0.15923796594142914,0.06628479808568954,},{-0.25106775760650635,0.301352858543396,-0.6056452393531799,0.13817007839679718,0.20148524641990662,-0.26517120003700256,0.2858065664768219,-0.2732311189174652,-0.4986274242401123,-0.05259913206100464,-0.16641086339950562,-0.7110562920570374,-0.053269509226083755,-0.06909005343914032,0.354184091091156,-0.2030317783355713,-0.15923796594142914,0.06628479808568954,},}}{{0.18759283423423767,-0.1162082627415657,0.3114252984523773,0.2337951809167862,0.11427724361419678,-0.09843967109918594,0.2790573835372925,-0.31755733489990234,0.5597434639930725,-0.08302757889032364,0.29977282881736755,-0.2754036784172058,0.2733038067817688,-0.04623270407319069,0.2846783995628357,0.17609424889087677,-0.08351501077413559,-0.34849855303764343,},{0.18759283423423767,-0.1162082627415657,0.3114252984523773,0.2337951809167862,0.11427724361419678,-0.09843967109918594,0.2790573835372925,-0.31755733489990234,0.5597434639930725,-0.08302757889032364,0.29977282881736755,-0.2754036784172058,0.2733038067817688,-0.04623270407319069,0.2846783995628357,0.17609424889087677,-0.08351501077413559,-0.34849855303764343,},{0.18759283423423767,-0.1162082627415657,0.3114252984523773,0.2337951809167862,0.11427724361419678,-0.09843967109918594,0.2790573835372925,-0.31755733489990234,0.5597434639930725,-0.08302757889032364,0.29977282881736755,-0.2754036784172058,0.2733038067817688,-0.04623270407319069,0.2846783995628357,0.17609424889087677,-0.08351501077413559,-0.34849855303764343,},{0.18759283423423767,-0.1162082627415657,0.3114252984523773,0.2337951809167862,0.11427724361419678,-0.09843967109918594,0.2790573835372925,-0.31755733489990234,0.5597434639930725,-0.08302757889032364,0.29977282881736755,-0.2754036784172058,0.2733038067817688,-0.04623270407319069,0.2846783995628357,0.17609424889087677,-0.08351501077413559,-0.34849855303764343,},{0.18759283423423767,-0.1162082627415657,0.3114252984523773,0.2337951809167862,0.11427724361419678,-0.09843967109918594,0.2790573835372925,-0.31755733489990234,0.5597434639930725,-0.08302757889032364,0.29977282881736755,-0.2754036784172058,0.2733038067817688,-0.04623270407319069,0.2846783995628357,0.17609424889087677,-0.08351501077413559,-0.34849855303764343,},{0.18759283423423767,-0.1162082627415657,0.3114252984523773,0.2337951809167862,0.11427724361419678,-0.09843967109918594,0.2790573835372925,-0.31755733489990234,0.5597434639930725,-0.08302757889032364,0.29977282881736755,-0.2754036784172058,0.2733038067817688,-0.04623270407319069,0.2846783995628357,0.17609424889087677,-0.08351501077413559,-0.34849855303764343,},{0.18759283423423767,-0.1162082627415657,0.3114252984523773,0.2337951809167862,0.11427724361419678,-0.09843967109918594,0.2790573835372925,-0.31755733489990234,0.5597434639930725,-0.08302757889032364,0.29977282881736755,-0.2754036784172058,0.2733038067817688,-0.04623270407319069,0.2846783995628357,0.17609424889087677,-0.08351501077413559,-0.34849855303764343,},{0.18759283423423767,-0.1162082627415657,0.3114252984523773,0.2337951809167862,0.11427724361419678,-0.09843967109918594,0.2790573835372925,-0.31755733489990234,0.5597434639930725,-0.08302757889032364,0.29977282881736755,-0.2754036784172058,0.2733038067817688,-0.04623270407319069,0.2846783995628357,0.17609424889087677,-0.08351501077413559,-0.34849855303764343,},{0.18759283423423767,-0.1162082627415657,0.3114252984523773,0.2337951809167862,0.11427724361419678,-0.09843967109918594,0.2790573835372925,-0.31755733489990234,0.5597434639930725,-0.08302757889032364,0.29977282881736755,-0.2754036784172058,0.2733038067817688,-0.04623270407319069,0.2846783995628357,0.17609424889087677,-0.08351501077413559,-0.34849855303764343,},{0.18759283423423767,-0.1162082627415657,0.3114252984523773,0.2337951809167862,0.11427724361419678,-0.09843967109918594,0.2790573835372925,-0.31755733489990234,0.5597434639930725,-0.08302757889032364,0.29977282881736755,-0.2754036784172058,0.2733038067817688,-0.04623270407319069,0.2846783995628357,0.17609424889087677,-0.08351501077413559,-0.34849855303764343,},{0.18759283423423767,-0.1162082627415657,0.3114252984523773,0.2337951809167862,0.11427724361419678,-0.09843967109918594,0.2790573835372925,-0.31755733489990234,0.5597434639930725,-0.08302757889032364,0.29977282881736755,-0.2754036784172058,0.2733038067817688,-0.04623270407319069,0.2846783995628357,0.17609424889087677,-0.08351501077413559,-0.34849855303764343,},{0.18759283423423767,-0.1162082627415657,0.3114252984523773,0.2337951809167862,0.11427724361419678,-0.09843967109918594,0.2790573835372925,-0.31755733489990234,0.5597434639930725,-0.08302757889032364,0.29977282881736755,-0.2754036784172058,0.2733038067817688,-0.04623270407319069,0.2846783995628357,0.17609424889087677,-0.08351501077413559,-0.34849855303764343,},{0.18759283423423767,-0.1162082627415657,0.3114252984523773,0.2337951809167862,0.11427724361419678,-0.09843967109918594,0.2790573835372925,-0.31755733489990234,0.5597434639930725,-0.08302757889032364,0.29977282881736755,-0.2754036784172058,0.2733038067817688,-0.04623270407319069,0.2846783995628357,0.17609424889087677,-0.08351501077413559,-0.34849855303764343,},{0.18759283423423767,-0.1162082627415657,0.3114252984523773,0.2337951809167862,0.11427724361419678,-0.09843967109918594,0.2790573835372925,-0.31755733489990234,0.5597434639930725,-0.08302757889032364,0.29977282881736755,-0.2754036784172058,0.2733038067817688,-0.04623270407319069,0.2846783995628357,0.17609424889087677,-0.08351501077413559,-0.34849855303764343,},{0.18759283423423767,-0.1162082627415657,0.3114252984523773,0.2337951809167862,0.11427724361419678,-0.09843967109918594,0.2790573835372925,-0.31755733489990234,0.5597434639930725,-0.08302757889032364,0.29977282881736755,-0.2754036784172058,0.2733038067817688,-0.04623270407319069,0.2846783995628357,0.17609424889087677,-0.08351501077413559,-0.34849855303764343,},{0.18759283423423767,-0.1162082627415657,0.3114252984523773,0.2337951809167862,0.11427724361419678,-0.09843967109918594,0.2790573835372925,-0.31755733489990234,0.5597434639930725,-0.08302757889032364,0.29977282881736755,-0.2754036784172058,0.2733038067817688,-0.04623270407319069,0.2846783995628357,0.17609424889087677,-0.08351501077413559,-0.34849855303764343,},{0.18759283423423767,-0.1162082627415657,0.3114252984523773,0.2337951809167862,0.11427724361419678,-0.09843967109918594,0.2790573835372925,-0.31755733489990234,0.5597434639930725,-0.08302757889032364,0.29977282881736755,-0.2754036784172058,0.2733038067817688,-0.04623270407319069,0.2846783995628357,0.17609424889087677,-0.08351501077413559,-0.34849855303764343,},{0.18759283423423767,-0.1162082627415657,0.3114252984523773,0.2337951809167862,0.11427724361419678,-0.09843967109918594,0.2790573835372925,-0.31755733489990234,0.5597434639930725,-0.08302757889032364,0.29977282881736755,-0.2754036784172058,0.2733038067817688,-0.04623270407319069,0.2846783995628357,0.17609424889087677,-0.08351501077413559,-0.34849855303764343,},}}{{-0.04053898900747299,-0.4552912712097168,0.2332720011472702,-0.014036881737411022,-0.2149815857410431,0.4231569766998291,0.309584379196167,-0.2813887894153595,-0.050954870879650116,-0.026924990117549896,-0.09491382539272308,-0.22451578080654144,0.370059996843338,0.10302053391933441,-0.06661881506443024,-0.01995142176747322,-0.28343287110328674,0.018380967900156975,},{-0.04053898900747299,-0.4552912712097168,0.2332720011472702,-0.014036881737411022,-0.2149815857410431,0.4231569766998291,0.309584379196167,-0.2813887894153595,-0.050954870879650116,-0.026924990117549896,-0.09491382539272308,-0.22451578080654144,0.370059996843338,0.10302053391933441,-0.06661881506443024,-0.01995142176747322,-0.28343287110328674,0.018380967900156975,},{-0.04053898900747299,-0.4552912712097168,0.2332720011472702,-0.014036881737411022,-0.2149815857410431,0.4231569766998291,0.309584379196167,-0.2813887894153595,-0.050954870879650116,-0.026924990117549896,-0.09491382539272308,-0.22451578080654144,0.370059996843338,0.10302053391933441,-0.06661881506443024,-0.01995142176747322,-0.28343287110328674,0.018380967900156975,},{-0.04053898900747299,-0.4552912712097168,0.2332720011472702,-0.014036881737411022,-0.2149815857410431,0.4231569766998291,0.309584379196167,-0.2813887894153595,-0.050954870879650116,-0.026924990117549896,-0.09491382539272308,-0.22451578080654144,0.370059996843338,0.10302053391933441,-0.06661881506443024,-0.01995142176747322,-0.28343287110328674,0.018380967900156975,},{-0.04053898900747299,-0.4552912712097168,0.2332720011472702,-0.014036881737411022,-0.2149815857410431,0.4231569766998291,0.309584379196167,-0.2813887894153595,-0.050954870879650116,-0.026924990117549896,-0.09491382539272308,-0.22451578080654144,0.370059996843338,0.10302053391933441,-0.06661881506443024,-0.01995142176747322,-0.28343287110328674,0.018380967900156975,},{-0.04053898900747299,-0.4552912712097168,0.2332720011472702,-0.014036881737411022,-0.2149815857410431,0.4231569766998291,0.309584379196167,-0.2813887894153595,-0.050954870879650116,-0.026924990117549896,-0.09491382539272308,-0.22451578080654144,0.370059996843338,0.10302053391933441,-0.06661881506443024,-0.01995142176747322,-0.28343287110328674,0.018380967900156975,},{-0.04053898900747299,-0.4552912712097168,0.2332720011472702,-0.014036881737411022,-0.2149815857410431,0.4231569766998291,0.309584379196167,-0.2813887894153595,-0.050954870879650116,-0.026924990117549896,-0.09491382539272308,-0.22451578080654144,0.370059996843338,0.10302053391933441,-0.06661881506443024,-0.01995142176747322,-0.28343287110328674,0.018380967900156975,},{-0.04053898900747299,-0.4552912712097168,0.2332720011472702,-0.014036881737411022,-0.2149815857410431,0.4231569766998291,0.309584379196167,-0.2813887894153595,-0.050954870879650116,-0.026924990117549896,-0.09491382539272308,-0.22451578080654144,0.370059996843338,0.10302053391933441,-0.06661881506443024,-0.01995142176747322,-0.28343287110328674,0.018380967900156975,},{-0.04053898900747299,-0.4552912712097168,0.2332720011472702,-0.014036881737411022,-0.2149815857410431,0.4231569766998291,0.309584379196167,-0.2813887894153595,-0.050954870879650116,-0.026924990117549896,-0.09491382539272308,-0.22451578080654144,0.370059996843338,0.10302053391933441,-0.06661881506443024,-0.01995142176747322,-0.28343287110328674,0.018380967900156975,},{-0.04053898900747299,-0.4552912712097168,0.2332720011472702,-0.014036881737411022,-0.2149815857410431,0.4231569766998291,0.309584379196167,-0.2813887894153595,-0.050954870879650116,-0.026924990117549896,-0.09491382539272308,-0.22451578080654144,0.370059996843338,0.10302053391933441,-0.06661881506443024,-0.01995142176747322,-0.28343287110328674,0.018380967900156975,},{-0.04053898900747299,-0.4552912712097168,0.2332720011472702,-0.014036881737411022,-0.2149815857410431,0.4231569766998291,0.309584379196167,-0.2813887894153595,-0.050954870879650116,-0.026924990117549896,-0.09491382539272308,-0.22451578080654144,0.370059996843338,0.10302053391933441,-0.06661881506443024,-0.01995142176747322,-0.28343287110328674,0.018380967900156975,},{-0.04053898900747299,-0.4552912712097168,0.2332720011472702,-0.014036881737411022,-0.2149815857410431,0.4231569766998291,0.309584379196167,-0.2813887894153595,-0.050954870879650116,-0.026924990117549896,-0.09491382539272308,-0.22451578080654144,0.370059996843338,0.10302053391933441,-0.06661881506443024,-0.01995142176747322,-0.28343287110328674,0.018380967900156975,},{-0.04053898900747299,-0.4552912712097168,0.2332720011472702,-0.014036881737411022,-0.2149815857410431,0.4231569766998291,0.309584379196167,-0.2813887894153595,-0.050954870879650116,-0.026924990117549896,-0.09491382539272308,-0.22451578080654144,0.370059996843338,0.10302053391933441,-0.06661881506443024,-0.01995142176747322,-0.28343287110328674,0.018380967900156975,},{-0.04053898900747299,-0.4552912712097168,0.2332720011472702,-0.014036881737411022,-0.2149815857410431,0.4231569766998291,0.309584379196167,-0.2813887894153595,-0.050954870879650116,-0.026924990117549896,-0.09491382539272308,-0.22451578080654144,0.370059996843338,0.10302053391933441,-0.06661881506443024,-0.01995142176747322,-0.28343287110328674,0.018380967900156975,},{-0.04053898900747299,-0.4552912712097168,0.2332720011472702,-0.014036881737411022,-0.2149815857410431,0.4231569766998291,0.309584379196167,-0.2813887894153595,-0.050954870879650116,-0.026924990117549896,-0.09491382539272308,-0.22451578080654144,0.370059996843338,0.10302053391933441,-0.06661881506443024,-0.01995142176747322,-0.28343287110328674,0.018380967900156975,},{-0.04053898900747299,-0.4552912712097168,0.2332720011472702,-0.014036881737411022,-0.2149815857410431,0.4231569766998291,0.309584379196167,-0.2813887894153595,-0.050954870879650116,-0.026924990117549896,-0.09491382539272308,-0.22451578080654144,0.370059996843338,0.10302053391933441,-0.06661881506443024,-0.01995142176747322,-0.28343287110328674,0.018380967900156975,},{-0.04053898900747299,-0.4552912712097168,0.2332720011472702,-0.014036881737411022,-0.2149815857410431,0.4231569766998291,0.309584379196167,-0.2813887894153595,-0.050954870879650116,-0.026924990117549896,-0.09491382539272308,-0.22451578080654144,0.370059996843338,0.10302053391933441,-0.06661881506443024,-0.01995142176747322,-0.28343287110328674,0.018380967900156975,},{-0.04053898900747299,-0.4552912712097168,0.2332720011472702,-0.014036881737411022,-0.2149815857410431,0.4231569766998291,0.309584379196167,-0.2813887894153595,-0.050954870879650116,-0.026924990117549896,-0.09491382539272308,-0.22451578080654144,0.370059996843338,0.10302053391933441,-0.06661881506443024,-0.01995142176747322,-0.28343287110328674,0.018380967900156975,},}}{{0.12243074178695679,0.14492584764957428,-0.059494499117136,0.24987636506557465,0.31612613797187805,-0.01918710768222809,0.348271906375885,-0.13810238242149353,0.12630875408649445,-0.05649658292531967,0.29369112849235535,0.23649974167346954,-0.6636761426925659,0.4066239595413208,-0.07144080847501755,0.12985356152057648,0.2753541171550751,-0.4517803192138672,},{0.12243074178695679,0.14492584764957428,-0.059494499117136,0.24987636506557465,0.31612613797187805,-0.01918710768222809,0.348271906375885,-0.13810238242149353,0.12630875408649445,-0.05649658292531967,0.29369112849235535,0.23649974167346954,-0.6636761426925659,0.4066239595413208,-0.07144080847501755,0.12985356152057648,0.2753541171550751,-0.4517803192138672,},{0.12243074178695679,0.14492584764957428,-0.059494499117136,0.24987636506557465,0.31612613797187805,-0.01918710768222809,0.348271906375885,-0.13810238242149353,0.12630875408649445,-0.05649658292531967,0.29369112849235535,0.23649974167346954,-0.6636761426925659,0.4066239595413208,-0.07144080847501755,0.12985356152057648,0.2753541171550751,-0.4517803192138672,},{0.12243074178695679,0.14492584764957428,-0.059494499117136,0.24987636506557465,0.31612613797187805,-0.01918710768222809,0.348271906375885,-0.13810238242149353,0.12630875408649445,-0.05649658292531967,0.29369112849235535,0.23649974167346954,-0.6636761426925659,0.4066239595413208,-0.07144080847501755,0.12985356152057648,0.2753541171550751,-0.4517803192138672,},{0.12243074178695679,0.14492584764957428,-0.059494499117136,0.24987636506557465,0.31612613797187805,-0.01918710768222809,0.348271906375885,-0.13810238242149353,0.12630875408649445,-0.05649658292531967,0.29369112849235535,0.23649974167346954,-0.6636761426925659,0.4066239595413208,-0.07144080847501755,0.12985356152057648,0.2753541171550751,-0.4517803192138672,},{0.12243074178695679,0.14492584764957428,-0.059494499117136,0.24987636506557465,0.31612613797187805,-0.01918710768222809,0.348271906375885,-0.13810238242149353,0.12630875408649445,-0.05649658292531967,0.29369112849235535,0.23649974167346954,-0.6636761426925659,0.4066239595413208,-0.07144080847501755,0.12985356152057648,0.2753541171550751,-0.4517803192138672,},{0.12243074178695679,0.14492584764957428,-0.059494499117136,0.24987636506557465,0.31612613797187805,-0.01918710768222809,0.348271906375885,-0.13810238242149353,0.12630875408649445,-0.05649658292531967,0.29369112849235535,0.23649974167346954,-0.6636761426925659,0.4066239595413208,-0.07144080847501755,0.12985356152057648,0.2753541171550751,-0.4517803192138672,},{0.12243074178695679,0.14492584764957428,-0.059494499117136,0.24987636506557465,0.31612613797187805,-0.01918710768222809,0.348271906375885,-0.13810238242149353,0.12630875408649445,-0.05649658292531967,0.29369112849235535,0.23649974167346954,-0.6636761426925659,0.4066239595413208,-0.07144080847501755,0.12985356152057648,0.2753541171550751,-0.4517803192138672,},{0.12243074178695679,0.14492584764957428,-0.059494499117136,0.24987636506557465,0.31612613797187805,-0.01918710768222809,0.348271906375885,-0.13810238242149353,0.12630875408649445,-0.05649658292531967,0.29369112849235535,0.23649974167346954,-0.6636761426925659,0.4066239595413208,-0.07144080847501755,0.12985356152057648,0.2753541171550751,-0.4517803192138672,},{0.12243074178695679,0.14492584764957428,-0.059494499117136,0.24987636506557465,0.31612613797187805,-0.01918710768222809,0.348271906375885,-0.13810238242149353,0.12630875408649445,-0.05649658292531967,0.29369112849235535,0.23649974167346954,-0.6636761426925659,0.4066239595413208,-0.07144080847501755,0.12985356152057648,0.2753541171550751,-0.4517803192138672,},{0.12243074178695679,0.14492584764957428,-0.059494499117136,0.24987636506557465,0.31612613797187805,-0.01918710768222809,0.348271906375885,-0.13810238242149353,0.12630875408649445,-0.05649658292531967,0.29369112849235535,0.23649974167346954,-0.6636761426925659,0.4066239595413208,-0.07144080847501755,0.12985356152057648,0.2753541171550751,-0.4517803192138672,},{0.12243074178695679,0.14492584764957428,-0.059494499117136,0.24987636506557465,0.31612613797187805,-0.01918710768222809,0.348271906375885,-0.13810238242149353,0.12630875408649445,-0.05649658292531967,0.29369112849235535,0.23649974167346954,-0.6636761426925659,0.4066239595413208,-0.07144080847501755,0.12985356152057648,0.2753541171550751,-0.4517803192138672,},{0.12243074178695679,0.14492584764957428,-0.059494499117136,0.24987636506557465,0.31612613797187805,-0.01918710768222809,0.348271906375885,-0.13810238242149353,0.12630875408649445,-0.05649658292531967,0.29369112849235535,0.23649974167346954,-0.6636761426925659,0.4066239595413208,-0.07144080847501755,0.12985356152057648,0.2753541171550751,-0.4517803192138672,},{0.12243074178695679,0.14492584764957428,-0.059494499117136,0.24987636506557465,0.31612613797187805,-0.01918710768222809,0.348271906375885,-0.13810238242149353,0.12630875408649445,-0.05649658292531967,0.29369112849235535,0.23649974167346954,-0.6636761426925659,0.4066239595413208,-0.07144080847501755,0.12985356152057648,0.2753541171550751,-0.4517803192138672,},{0.12243074178695679,0.14492584764957428,-0.059494499117136,0.24987636506557465,0.31612613797187805,-0.01918710768222809,0.348271906375885,-0.13810238242149353,0.12630875408649445,-0.05649658292531967,0.29369112849235535,0.23649974167346954,-0.6636761426925659,0.4066239595413208,-0.07144080847501755,0.12985356152057648,0.2753541171550751,-0.4517803192138672,},{0.12243074178695679,0.14492584764957428,-0.059494499117136,0.24987636506557465,0.31612613797187805,-0.01918710768222809,0.348271906375885,-0.13810238242149353,0.12630875408649445,-0.05649658292531967,0.29369112849235535,0.23649974167346954,-0.6636761426925659,0.4066239595413208,-0.07144080847501755,0.12985356152057648,0.2753541171550751,-0.4517803192138672,},{0.12243074178695679,0.14492584764957428,-0.059494499117136,0.24987636506557465,0.31612613797187805,-0.01918710768222809,0.348271906375885,-0.13810238242149353,0.12630875408649445,-0.05649658292531967,0.29369112849235535,0.23649974167346954,-0.6636761426925659,0.4066239595413208,-0.07144080847501755,0.12985356152057648,0.2753541171550751,-0.4517803192138672,},{0.12243074178695679,0.14492584764957428,-0.059494499117136,0.24987636506557465,0.31612613797187805,-0.01918710768222809,0.348271906375885,-0.13810238242149353,0.12630875408649445,-0.05649658292531967,0.29369112849235535,0.23649974167346954,-0.6636761426925659,0.4066239595413208,-0.07144080847501755,0.12985356152057648,0.2753541171550751,-0.4517803192138672,},}}{{0.3193783164024353,0.12083867937326431,0.019738661125302315,0.29268398880958557,0.18409527838230133,-0.05037570372223854,-0.2604893743991852,0.5681893229484558,0.0678744986653328,-0.8213744163513184,-0.061750467866659164,-0.06427888572216034,0.14536862075328827,0.04041355848312378,0.14552856981754303,-0.2833905816078186,-0.021247532218694687,-0.08448220789432526,},{0.3193783164024353,0.12083867937326431,0.019738661125302315,0.29268398880958557,0.18409527838230133,-0.05037570372223854,-0.2604893743991852,0.5681893229484558,0.0678744986653328,-0.8213744163513184,-0.061750467866659164,-0.06427888572216034,0.14536862075328827,0.04041355848312378,0.14552856981754303,-0.2833905816078186,-0.021247532218694687,-0.08448220789432526,},{0.3193783164024353,0.12083867937326431,0.019738661125302315,0.29268398880958557,0.18409527838230133,-0.05037570372223854,-0.2604893743991852,0.5681893229484558,0.0678744986653328,-0.8213744163513184,-0.061750467866659164,-0.06427888572216034,0.14536862075328827,0.04041355848312378,0.14552856981754303,-0.2833905816078186,-0.021247532218694687,-0.08448220789432526,},{0.3193783164024353,0.12083867937326431,0.019738661125302315,0.29268398880958557,0.18409527838230133,-0.05037570372223854,-0.2604893743991852,0.5681893229484558,0.0678744986653328,-0.8213744163513184,-0.061750467866659164,-0.06427888572216034,0.14536862075328827,0.04041355848312378,0.14552856981754303,-0.2833905816078186,-0.021247532218694687,-0.08448220789432526,},{0.3193783164024353,0.12083867937326431,0.019738661125302315,0.29268398880958557,0.18409527838230133,-0.05037570372223854,-0.2604893743991852,0.5681893229484558,0.0678744986653328,-0.8213744163513184,-0.061750467866659164,-0.06427888572216034,0.14536862075328827,0.04041355848312378,0.14552856981754303,-0.2833905816078186,-0.021247532218694687,-0.08448220789432526,},{0.3193783164024353,0.12083867937326431,0.019738661125302315,0.29268398880958557,0.18409527838230133,-0.05037570372223854,-0.2604893743991852,0.5681893229484558,0.0678744986653328,-0.8213744163513184,-0.061750467866659164,-0.06427888572216034,0.14536862075328827,0.04041355848312378,0.14552856981754303,-0.2833905816078186,-0.021247532218694687,-0.08448220789432526,},{0.3193783164024353,0.12083867937326431,0.019738661125302315,0.29268398880958557,0.18409527838230133,-0.05037570372223854,-0.2604893743991852,0.5681893229484558,0.0678744986653328,-0.8213744163513184,-0.061750467866659164,-0.06427888572216034,0.14536862075328827,0.04041355848312378,0.14552856981754303,-0.2833905816078186,-0.021247532218694687,-0.08448220789432526,},{0.3193783164024353,0.12083867937326431,0.019738661125302315,0.29268398880958557,0.18409527838230133,-0.05037570372223854,-0.2604893743991852,0.5681893229484558,0.0678744986653328,-0.8213744163513184,-0.061750467866659164,-0.06427888572216034,0.14536862075328827,0.04041355848312378,0.14552856981754303,-0.2833905816078186,-0.021247532218694687,-0.08448220789432526,},{0.3193783164024353,0.12083867937326431,0.019738661125302315,0.29268398880958557,0.18409527838230133,-0.05037570372223854,-0.2604893743991852,0.5681893229484558,0.0678744986653328,-0.8213744163513184,-0.061750467866659164,-0.06427888572216034,0.14536862075328827,0.04041355848312378,0.14552856981754303,-0.2833905816078186,-0.021247532218694687,-0.08448220789432526,},{0.3193783164024353,0.12083867937326431,0.019738661125302315,0.29268398880958557,0.18409527838230133,-0.05037570372223854,-0.2604893743991852,0.5681893229484558,0.0678744986653328,-0.8213744163513184,-0.061750467866659164,-0.06427888572216034,0.14536862075328827,0.04041355848312378,0.14552856981754303,-0.2833905816078186,-0.021247532218694687,-0.08448220789432526,},{0.3193783164024353,0.12083867937326431,0.019738661125302315,0.29268398880958557,0.18409527838230133,-0.05037570372223854,-0.2604893743991852,0.5681893229484558,0.0678744986653328,-0.8213744163513184,-0.061750467866659164,-0.06427888572216034,0.14536862075328827,0.04041355848312378,0.14552856981754303,-0.2833905816078186,-0.021247532218694687,-0.08448220789432526,},{0.3193783164024353,0.12083867937326431,0.019738661125302315,0.29268398880958557,0.18409527838230133,-0.05037570372223854,-0.2604893743991852,0.5681893229484558,0.0678744986653328,-0.8213744163513184,-0.061750467866659164,-0.06427888572216034,0.14536862075328827,0.04041355848312378,0.14552856981754303,-0.2833905816078186,-0.021247532218694687,-0.08448220789432526,},{0.3193783164024353,0.12083867937326431,0.019738661125302315,0.29268398880958557,0.18409527838230133,-0.05037570372223854,-0.2604893743991852,0.5681893229484558,0.0678744986653328,-0.8213744163513184,-0.061750467866659164,-0.06427888572216034,0.14536862075328827,0.04041355848312378,0.14552856981754303,-0.2833905816078186,-0.021247532218694687,-0.08448220789432526,},{0.3193783164024353,0.12083867937326431,0.019738661125302315,0.29268398880958557,0.18409527838230133,-0.05037570372223854,-0.2604893743991852,0.5681893229484558,0.0678744986653328,-0.8213744163513184,-0.061750467866659164,-0.06427888572216034,0.14536862075328827,0.04041355848312378,0.14552856981754303,-0.2833905816078186,-0.021247532218694687,-0.08448220789432526,},{0.3193783164024353,0.12083867937326431,0.019738661125302315,0.29268398880958557,0.18409527838230133,-0.05037570372223854,-0.2604893743991852,0.5681893229484558,0.0678744986653328,-0.8213744163513184,-0.061750467866659164,-0.06427888572216034,0.14536862075328827,0.04041355848312378,0.14552856981754303,-0.2833905816078186,-0.021247532218694687,-0.08448220789432526,},{0.3193783164024353,0.12083867937326431,0.019738661125302315,0.29268398880958557,0.18409527838230133,-0.05037570372223854,-0.2604893743991852,0.5681893229484558,0.0678744986653328,-0.8213744163513184,-0.061750467866659164,-0.06427888572216034,0.14536862075328827,0.04041355848312378,0.14552856981754303,-0.2833905816078186,-0.021247532218694687,-0.08448220789432526,},{0.3193783164024353,0.12083867937326431,0.019738661125302315,0.29268398880958557,0.18409527838230133,-0.05037570372223854,-0.2604893743991852,0.5681893229484558,0.0678744986653328,-0.8213744163513184,-0.061750467866659164,-0.06427888572216034,0.14536862075328827,0.04041355848312378,0.14552856981754303,-0.2833905816078186,-0.021247532218694687,-0.08448220789432526,},{0.3193783164024353,0.12083867937326431,0.019738661125302315,0.29268398880958557,0.18409527838230133,-0.05037570372223854,-0.2604893743991852,0.5681893229484558,0.0678744986653328,-0.8213744163513184,-0.061750467866659164,-0.06427888572216034,0.14536862075328827,0.04041355848312378,0.14552856981754303,-0.2833905816078186,-0.021247532218694687,-0.08448220789432526,},}}{{-0.1392611414194107,-0.4692630171775818,-0.3172107934951782,-0.16448770463466644,-0.4499179422855377,0.06716030836105347,0.22005422413349152,0.05115852877497673,0.21593421697616577,0.2041272670030594,-0.4366114139556885,-0.8090944886207581,0.11180039495229721,-0.4797337055206299,0.5141608715057373,-0.052312832325696945,-0.16634134948253632,-0.2527107000350952,},{-0.1392611414194107,-0.4692630171775818,-0.3172107934951782,-0.16448770463466644,-0.4499179422855377,0.06716030836105347,0.22005422413349152,0.05115852877497673,0.21593421697616577,0.2041272670030594,-0.4366114139556885,-0.8090944886207581,0.11180039495229721,-0.4797337055206299,0.5141608715057373,-0.052312832325696945,-0.16634134948253632,-0.2527107000350952,},{-0.1392611414194107,-0.4692630171775818,-0.3172107934951782,-0.16448770463466644,-0.4499179422855377,0.06716030836105347,0.22005422413349152,0.05115852877497673,0.21593421697616577,0.2041272670030594,-0.4366114139556885,-0.8090944886207581,0.11180039495229721,-0.4797337055206299,0.5141608715057373,-0.052312832325696945,-0.16634134948253632,-0.2527107000350952,},{-0.1392611414194107,-0.4692630171775818,-0.3172107934951782,-0.16448770463466644,-0.4499179422855377,0.06716030836105347,0.22005422413349152,0.05115852877497673,0.21593421697616577,0.2041272670030594,-0.4366114139556885,-0.8090944886207581,0.11180039495229721,-0.4797337055206299,0.5141608715057373,-0.052312832325696945,-0.16634134948253632,-0.2527107000350952,},{-0.1392611414194107,-0.4692630171775818,-0.3172107934951782,-0.16448770463466644,-0.4499179422855377,0.06716030836105347,0.22005422413349152,0.05115852877497673,0.21593421697616577,0.2041272670030594,-0.4366114139556885,-0.8090944886207581,0.11180039495229721,-0.4797337055206299,0.5141608715057373,-0.052312832325696945,-0.16634134948253632,-0.2527107000350952,},{-0.1392611414194107,-0.4692630171775818,-0.3172107934951782,-0.16448770463466644,-0.4499179422855377,0.06716030836105347,0.22005422413349152,0.05115852877497673,0.21593421697616577,0.2041272670030594,-0.4366114139556885,-0.8090944886207581,0.11180039495229721,-0.4797337055206299,0.5141608715057373,-0.052312832325696945,-0.16634134948253632,-0.2527107000350952,},{-0.1392611414194107,-0.4692630171775818,-0.3172107934951782,-0.16448770463466644,-0.4499179422855377,0.06716030836105347,0.22005422413349152,0.05115852877497673,0.21593421697616577,0.2041272670030594,-0.4366114139556885,-0.8090944886207581,0.11180039495229721,-0.4797337055206299,0.5141608715057373,-0.052312832325696945,-0.16634134948253632,-0.2527107000350952,},{-0.1392611414194107,-0.4692630171775818,-0.3172107934951782,-0.16448770463466644,-0.4499179422855377,0.06716030836105347,0.22005422413349152,0.05115852877497673,0.21593421697616577,0.2041272670030594,-0.4366114139556885,-0.8090944886207581,0.11180039495229721,-0.4797337055206299,0.5141608715057373,-0.052312832325696945,-0.16634134948253632,-0.2527107000350952,},{-0.1392611414194107,-0.4692630171775818,-0.3172107934951782,-0.16448770463466644,-0.4499179422855377,0.06716030836105347,0.22005422413349152,0.05115852877497673,0.21593421697616577,0.2041272670030594,-0.4366114139556885,-0.8090944886207581,0.11180039495229721,-0.4797337055206299,0.5141608715057373,-0.052312832325696945,-0.16634134948253632,-0.2527107000350952,},{-0.1392611414194107,-0.4692630171775818,-0.3172107934951782,-0.16448770463466644,-0.4499179422855377,0.06716030836105347,0.22005422413349152,0.05115852877497673,0.21593421697616577,0.2041272670030594,-0.4366114139556885,-0.8090944886207581,0.11180039495229721,-0.4797337055206299,0.5141608715057373,-0.052312832325696945,-0.16634134948253632,-0.2527107000350952,},{-0.1392611414194107,-0.4692630171775818,-0.3172107934951782,-0.16448770463466644,-0.4499179422855377,0.06716030836105347,0.22005422413349152,0.05115852877497673,0.21593421697616577,0.2041272670030594,-0.4366114139556885,-0.8090944886207581,0.11180039495229721,-0.4797337055206299,0.5141608715057373,-0.052312832325696945,-0.16634134948253632,-0.2527107000350952,},{-0.1392611414194107,-0.4692630171775818,-0.3172107934951782,-0.16448770463466644,-0.4499179422855377,0.06716030836105347,0.22005422413349152,0.05115852877497673,0.21593421697616577,0.2041272670030594,-0.4366114139556885,-0.8090944886207581,0.11180039495229721,-0.4797337055206299,0.5141608715057373,-0.052312832325696945,-0.16634134948253632,-0.2527107000350952,},{-0.1392611414194107,-0.4692630171775818,-0.3172107934951782,-0.16448770463466644,-0.4499179422855377,0.06716030836105347,0.22005422413349152,0.05115852877497673,0.21593421697616577,0.2041272670030594,-0.4366114139556885,-0.8090944886207581,0.11180039495229721,-0.4797337055206299,0.5141608715057373,-0.052312832325696945,-0.16634134948253632,-0.2527107000350952,},{-0.1392611414194107,-0.4692630171775818,-0.3172107934951782,-0.16448770463466644,-0.4499179422855377,0.06716030836105347,0.22005422413349152,0.05115852877497673,0.21593421697616577,0.2041272670030594,-0.4366114139556885,-0.8090944886207581,0.11180039495229721,-0.4797337055206299,0.5141608715057373,-0.052312832325696945,-0.16634134948253632,-0.2527107000350952,},{-0.1392611414194107,-0.4692630171775818,-0.3172107934951782,-0.16448770463466644,-0.4499179422855377,0.06716030836105347,0.22005422413349152,0.05115852877497673,0.21593421697616577,0.2041272670030594,-0.4366114139556885,-0.8090944886207581,0.11180039495229721,-0.4797337055206299,0.5141608715057373,-0.052312832325696945,-0.16634134948253632,-0.2527107000350952,},{-0.1392611414194107,-0.4692630171775818,-0.3172107934951782,-0.16448770463466644,-0.4499179422855377,0.06716030836105347,0.22005422413349152,0.05115852877497673,0.21593421697616577,0.2041272670030594,-0.4366114139556885,-0.8090944886207581,0.11180039495229721,-0.4797337055206299,0.5141608715057373,-0.052312832325696945,-0.16634134948253632,-0.2527107000350952,},{-0.1392611414194107,-0.4692630171775818,-0.3172107934951782,-0.16448770463466644,-0.4499179422855377,0.06716030836105347,0.22005422413349152,0.05115852877497673,0.21593421697616577,0.2041272670030594,-0.4366114139556885,-0.8090944886207581,0.11180039495229721,-0.4797337055206299,0.5141608715057373,-0.052312832325696945,-0.16634134948253632,-0.2527107000350952,},{-0.1392611414194107,-0.4692630171775818,-0.3172107934951782,-0.16448770463466644,-0.4499179422855377,0.06716030836105347,0.22005422413349152,0.05115852877497673,0.21593421697616577,0.2041272670030594,-0.4366114139556885,-0.8090944886207581,0.11180039495229721,-0.4797337055206299,0.5141608715057373,-0.052312832325696945,-0.16634134948253632,-0.2527107000350952,},}}{{0.3382265269756317,-0.2805112302303314,-0.3862980604171753,-0.21642911434173584,0.16533155739307404,-0.18053604662418365,0.2303754687309265,0.03222905099391937,0.11780098080635071,-0.021706391125917435,-0.1230473443865776,-0.30049094557762146,-0.3890734016895294,-0.37605780363082886,0.21322324872016907,-0.07371605187654495,0.27235278487205505,-0.15069159865379333,},{0.3382265269756317,-0.2805112302303314,-0.3862980604171753,-0.21642911434173584,0.16533155739307404,-0.18053604662418365,0.2303754687309265,0.03222905099391937,0.11780098080635071,-0.021706391125917435,-0.1230473443865776,-0.30049094557762146,-0.3890734016895294,-0.37605780363082886,0.21322324872016907,-0.07371605187654495,0.27235278487205505,-0.15069159865379333,},{0.3382265269756317,-0.2805112302303314,-0.3862980604171753,-0.21642911434173584,0.16533155739307404,-0.18053604662418365,0.2303754687309265,0.03222905099391937,0.11780098080635071,-0.021706391125917435,-0.1230473443865776,-0.30049094557762146,-0.3890734016895294,-0.37605780363082886,0.21322324872016907,-0.07371605187654495,0.27235278487205505,-0.15069159865379333,},{0.3382265269756317,-0.2805112302303314,-0.3862980604171753,-0.21642911434173584,0.16533155739307404,-0.18053604662418365,0.2303754687309265,0.03222905099391937,0.11780098080635071,-0.021706391125917435,-0.1230473443865776,-0.30049094557762146,-0.3890734016895294,-0.37605780363082886,0.21322324872016907,-0.07371605187654495,0.27235278487205505,-0.15069159865379333,},{0.3382265269756317,-0.2805112302303314,-0.3862980604171753,-0.21642911434173584,0.16533155739307404,-0.18053604662418365,0.2303754687309265,0.03222905099391937,0.11780098080635071,-0.021706391125917435,-0.1230473443865776,-0.30049094557762146,-0.3890734016895294,-0.37605780363082886,0.21322324872016907,-0.07371605187654495,0.27235278487205505,-0.15069159865379333,},{0.3382265269756317,-0.2805112302303314,-0.3862980604171753,-0.21642911434173584,0.16533155739307404,-0.18053604662418365,0.2303754687309265,0.03222905099391937,0.11780098080635071,-0.021706391125917435,-0.1230473443865776,-0.30049094557762146,-0.3890734016895294,-0.37605780363082886,0.21322324872016907,-0.07371605187654495,0.27235278487205505,-0.15069159865379333,},{0.3382265269756317,-0.2805112302303314,-0.3862980604171753,-0.21642911434173584,0.16533155739307404,-0.18053604662418365,0.2303754687309265,0.03222905099391937,0.11780098080635071,-0.021706391125917435,-0.1230473443865776,-0.30049094557762146,-0.3890734016895294,-0.37605780363082886,0.21322324872016907,-0.07371605187654495,0.27235278487205505,-0.15069159865379333,},{0.3382265269756317,-0.2805112302303314,-0.3862980604171753,-0.21642911434173584,0.16533155739307404,-0.18053604662418365,0.2303754687309265,0.03222905099391937,0.11780098080635071,-0.021706391125917435,-0.1230473443865776,-0.30049094557762146,-0.3890734016895294,-0.37605780363082886,0.21322324872016907,-0.07371605187654495,0.27235278487205505,-0.15069159865379333,},{0.3382265269756317,-0.2805112302303314,-0.3862980604171753,-0.21642911434173584,0.16533155739307404,-0.18053604662418365,0.2303754687309265,0.03222905099391937,0.11780098080635071,-0.021706391125917435,-0.1230473443865776,-0.30049094557762146,-0.3890734016895294,-0.37605780363082886,0.21322324872016907,-0.07371605187654495,0.27235278487205505,-0.15069159865379333,},{0.3382265269756317,-0.2805112302303314,-0.3862980604171753,-0.21642911434173584,0.16533155739307404,-0.18053604662418365,0.2303754687309265,0.03222905099391937,0.11780098080635071,-0.021706391125917435,-0.1230473443865776,-0.30049094557762146,-0.3890734016895294,-0.37605780363082886,0.21322324872016907,-0.07371605187654495,0.27235278487205505,-0.15069159865379333,},{0.3382265269756317,-0.2805112302303314,-0.3862980604171753,-0.21642911434173584,0.16533155739307404,-0.18053604662418365,0.2303754687309265,0.03222905099391937,0.11780098080635071,-0.021706391125917435,-0.1230473443865776,-0.30049094557762146,-0.3890734016895294,-0.37605780363082886,0.21322324872016907,-0.07371605187654495,0.27235278487205505,-0.15069159865379333,},{0.3382265269756317,-0.2805112302303314,-0.3862980604171753,-0.21642911434173584,0.16533155739307404,-0.18053604662418365,0.2303754687309265,0.03222905099391937,0.11780098080635071,-0.021706391125917435,-0.1230473443865776,-0.30049094557762146,-0.3890734016895294,-0.37605780363082886,0.21322324872016907,-0.07371605187654495,0.27235278487205505,-0.15069159865379333,},{0.3382265269756317,-0.2805112302303314,-0.3862980604171753,-0.21642911434173584,0.16533155739307404,-0.18053604662418365,0.2303754687309265,0.03222905099391937,0.11780098080635071,-0.021706391125917435,-0.1230473443865776,-0.30049094557762146,-0.3890734016895294,-0.37605780363082886,0.21322324872016907,-0.07371605187654495,0.27235278487205505,-0.15069159865379333,},{0.3382265269756317,-0.2805112302303314,-0.3862980604171753,-0.21642911434173584,0.16533155739307404,-0.18053604662418365,0.2303754687309265,0.03222905099391937,0.11780098080635071,-0.021706391125917435,-0.1230473443865776,-0.30049094557762146,-0.3890734016895294,-0.37605780363082886,0.21322324872016907,-0.07371605187654495,0.27235278487205505,-0.15069159865379333,},{0.3382265269756317,-0.2805112302303314,-0.3862980604171753,-0.21642911434173584,0.16533155739307404,-0.18053604662418365,0.2303754687309265,0.03222905099391937,0.11780098080635071,-0.021706391125917435,-0.1230473443865776,-0.30049094557762146,-0.3890734016895294,-0.37605780363082886,0.21322324872016907,-0.07371605187654495,0.27235278487205505,-0.15069159865379333,},{0.3382265269756317,-0.2805112302303314,-0.3862980604171753,-0.21642911434173584,0.16533155739307404,-0.18053604662418365,0.2303754687309265,0.03222905099391937,0.11780098080635071,-0.021706391125917435,-0.1230473443865776,-0.30049094557762146,-0.3890734016895294,-0.37605780363082886,0.21322324872016907,-0.07371605187654495,0.27235278487205505,-0.15069159865379333,},{0.3382265269756317,-0.2805112302303314,-0.3862980604171753,-0.21642911434173584,0.16533155739307404,-0.18053604662418365,0.2303754687309265,0.03222905099391937,0.11780098080635071,-0.021706391125917435,-0.1230473443865776,-0.30049094557762146,-0.3890734016895294,-0.37605780363082886,0.21322324872016907,-0.07371605187654495,0.27235278487205505,-0.15069159865379333,},{0.3382265269756317,-0.2805112302303314,-0.3862980604171753,-0.21642911434173584,0.16533155739307404,-0.18053604662418365,0.2303754687309265,0.03222905099391937,0.11780098080635071,-0.021706391125917435,-0.1230473443865776,-0.30049094557762146,-0.3890734016895294,-0.37605780363082886,0.21322324872016907,-0.07371605187654495,0.27235278487205505,-0.15069159865379333,},}}{{0.042782969772815704,0.060762811452150345,0.39456459879875183,-0.02350091002881527,0.14955249428749084,-0.0021735767368227243,-0.013949679210782051,-0.026029597967863083,0.029755914583802223,-0.47586995363235474,-0.21343013644218445,-0.11630609631538391,0.040876101702451706,-0.08196165412664413,-0.34020572900772095,0.25206318497657776,0.2348759025335312,0.37218010425567627,},{0.042782969772815704,0.060762811452150345,0.39456459879875183,-0.02350091002881527,0.14955249428749084,-0.0021735767368227243,-0.013949679210782051,-0.026029597967863083,0.029755914583802223,-0.47586995363235474,-0.21343013644218445,-0.11630609631538391,0.040876101702451706,-0.08196165412664413,-0.34020572900772095,0.25206318497657776,0.2348759025335312,0.37218010425567627,},{0.042782969772815704,0.060762811452150345,0.39456459879875183,-0.02350091002881527,0.14955249428749084,-0.0021735767368227243,-0.013949679210782051,-0.026029597967863083,0.029755914583802223,-0.47586995363235474,-0.21343013644218445,-0.11630609631538391,0.040876101702451706,-0.08196165412664413,-0.34020572900772095,0.25206318497657776,0.2348759025335312,0.37218010425567627,},{0.042782969772815704,0.060762811452150345,0.39456459879875183,-0.02350091002881527,0.14955249428749084,-0.0021735767368227243,-0.013949679210782051,