{{-0.3386603593826294,-0.3194352984428406,-0.44643673300743103,0.18482206761837006,0.0871550589799881,0.3861806392669678,-0.4847423732280731,-0.10921552777290344,-0.24036389589309692,-0.3308810889720917,-0.18896128237247467,0.19536150991916656,-0.3256385624408722,0.20387908816337585,-0.10745137184858322,0.35095879435539246,},{-0.3386603593826294,-0.3194352984428406,-0.44643673300743103,0.18482206761837006,0.0871550589799881,0.3861806392669678,-0.4847423732280731,-0.10921552777290344,-0.24036389589309692,-0.3308810889720917,-0.18896128237247467,0.19536150991916656,-0.3256385624408722,0.20387908816337585,-0.10745137184858322,0.35095879435539246,},{-0.3386603593826294,-0.3194352984428406,-0.44643673300743103,0.18482206761837006,0.0871550589799881,0.3861806392669678,-0.4847423732280731,-0.10921552777290344,-0.24036389589309692,-0.3308810889720917,-0.18896128237247467,0.19536150991916656,-0.3256385624408722,0.20387908816337585,-0.10745137184858322,0.35095879435539246,},{-0.3386603593826294,-0.3194352984428406,-0.44643673300743103,0.18482206761837006,0.0871550589799881,0.3861806392669678,-0.4847423732280731,-0.10921552777290344,-0.24036389589309692,-0.3308810889720917,-0.18896128237247467,0.19536150991916656,-0.3256385624408722,0.20387908816337585,-0.10745137184858322,0.35095879435539246,},{-0.3386603593826294,-0.3194352984428406,-0.44643673300743103,0.18482206761837006,0.0871550589799881,0.3861806392669678,-0.4847423732280731,-0.10921552777290344,-0.24036389589309692,-0.3308810889720917,-0.18896128237247467,0.19536150991916656,-0.3256385624408722,0.20387908816337585,-0.10745137184858322,0.35095879435539246,},{-0.3386603593826294,-0.3194352984428406,-0.44643673300743103,0.18482206761837006,0.0871550589799881,0.3861806392669678,-0.4847423732280731,-0.10921552777290344,-0.24036389589309692,-0.3308810889720917,-0.18896128237247467,0.19536150991916656,-0.3256385624408722,0.20387908816337585,-0.10745137184858322,0.35095879435539246,},{-0.3386603593826294,-0.3194352984428406,-0.44643673300743103,0.18482206761837006,0.0871550589799881,0.3861806392669678,-0.4847423732280731,-0.10921552777290344,-0.24036389589309692,-0.3308810889720917,-0.18896128237247467,0.19536150991916656,-0.3256385624408722,0.20387908816337585,-0.10745137184858322,0.35095879435539246,},{-0.3386603593826294,-0.3194352984428406,-0.44643673300743103,0.18482206761837006,0.0871550589799881,0.3861806392669678,-0.4847423732280731,-0.10921552777290344,-0.24036389589309692,-0.3308810889720917,-0.18896128237247467,0.19536150991916656,-0.3256385624408722,0.20387908816337585,-0.10745137184858322,0.35095879435539246,},{-0.3386603593826294,-0.3194352984428406,-0.44643673300743103,0.18482206761837006,0.0871550589799881,0.3861806392669678,-0.4847423732280731,-0.10921552777290344,-0.24036389589309692,-0.3308810889720917,-0.18896128237247467,0.19536150991916656,-0.3256385624408722,0.20387908816337585,-0.10745137184858322,0.35095879435539246,},{-0.3386603593826294,-0.3194352984428406,-0.44643673300743103,0.18482206761837006,0.0871550589799881,0.3861806392669678,-0.4847423732280731,-0.10921552777290344,-0.24036389589309692,-0.3308810889720917,-0.18896128237247467,0.19536150991916656,-0.3256385624408722,0.20387908816337585,-0.10745137184858322,0.35095879435539246,},{-0.3386603593826294,-0.3194352984428406,-0.44643673300743103,0.18482206761837006,0.0871550589799881,0.3861806392669678,-0.4847423732280731,-0.10921552777290344,-0.24036389589309692,-0.3308810889720917,-0.18896128237247467,0.19536150991916656,-0.3256385624408722,0.20387908816337585,-0.10745137184858322,0.35095879435539246,},{-0.3386603593826294,-0.3194352984428406,-0.44643673300743103,0.18482206761837006,0.0871550589799881,0.3861806392669678,-0.4847423732280731,-0.10921552777290344,-0.24036389589309692,-0.3308810889720917,-0.18896128237247467,0.19536150991916656,-0.3256385624408722,0.20387908816337585,-0.10745137184858322,0.35095879435539246,},{-0.3386603593826294,-0.3194352984428406,-0.44643673300743103,0.18482206761837006,0.0871550589799881,0.3861806392669678,-0.4847423732280731,-0.10921552777290344,-0.24036389589309692,-0.3308810889720917,-0.18896128237247467,0.19536150991916656,-0.3256385624408722,0.20387908816337585,-0.10745137184858322,0.35095879435539246,},{-0.3386603593826294,-0.3194352984428406,-0.44643673300743103,0.18482206761837006,0.0871550589799881,0.3861806392669678,-0.4847423732280731,-0.10921552777290344,-0.24036389589309692,-0.3308810889720917,-0.18896128237247467,0.19536150991916656,-0.3256385624408722,0.20387908816337585,-0.10745137184858322,0.35095879435539246,},{-0.3386603593826294,-0.3194352984428406,-0.44643673300743103,0.18482206761837006,0.0871550589799881,0.3861806392669678,-0.4847423732280731,-0.10921552777290344,-0.24036389589309692,-0.3308810889720917,-0.18896128237247467,0.19536150991916656,-0.3256385624408722,0.20387908816337585,-0.10745137184858322,0.35095879435539246,},{-0.3386603593826294,-0.3194352984428406,-0.44643673300743103,0.18482206761837006,0.0871550589799881,0.3861806392669678,-0.4847423732280731,-0.10921552777290344,-0.24036389589309692,-0.3308810889720917,-0.18896128237247467,0.19536150991916656,-0.3256385624408722,0.20387908816337585,-0.10745137184858322,0.35095879435539246,},}}{{-0.2687455713748932,0.3653269410133362,0.10394489020109177,0.3155362010002136,0.4189523160457611,-0.18768993020057678,0.28757598996162415,-0.17672334611415863,-0.19195564091205597,-0.20232738554477692,-0.07387658208608627,0.22989292442798615,-0.4222548305988312,-0.17465850710868835,-0.11646987497806549,0.1544644832611084,},{-0.2687455713748932,0.3653269410133362,0.10394489020109177,0.3155362010002136,0.4189523160457611,-0.18768993020057678,0.28757598996162415,-0.17672334611415863,-0.19195564091205597,-0.20232738554477692,-0.07387658208608627,0.22989292442798615,-0.4222548305988312,-0.17465850710868835,-0.11646987497806549,0.1544644832611084,},{-0.2687455713748932,0.3653269410133362,0.10394489020109177,0.3155362010002136,0.4189523160457611,-0.18768993020057678,0.28757598996162415,-0.17672334611415863,-0.19195564091205597,-0.20232738554477692,-0.07387658208608627,0.22989292442798615,-0.4222548305988312,-0.17465850710868835,-0.11646987497806549,0.1544644832611084,},{-0.2687455713748932,0.3653269410133362,0.10394489020109177,0.3155362010002136,0.4189523160457611,-0.18768993020057678,0.28757598996162415,-0.17672334611415863,-0.19195564091205597,-0.20232738554477692,-0.07387658208608627,0.22989292442798615,-0.4222548305988312,-0.17465850710868835,-0.11646987497806549,0.1544644832611084,},{-0.2687455713748932,0.3653269410133362,0.10394489020109177,0.3155362010002136,0.4189523160457611,-0.18768993020057678,0.28757598996162415,-0.17672334611415863,-0.19195564091205597,-0.20232738554477692,-0.07387658208608627,0.22989292442798615,-0.4222548305988312,-0.17465850710868835,-0.11646987497806549,0.1544644832611084,},{-0.2687455713748932,0.3653269410133362,0.10394489020109177,0.3155362010002136,0.4189523160457611,-0.18768993020057678,0.28757598996162415,-0.17672334611415863,-0.19195564091205597,-0.20232738554477692,-0.07387658208608627,0.22989292442798615,-0.4222548305988312,-0.17465850710868835,-0.11646987497806549,0.1544644832611084,},{-0.2687455713748932,0.3653269410133362,0.10394489020109177,0.3155362010002136,0.4189523160457611,-0.18768993020057678,0.28757598996162415,-0.17672334611415863,-0.19195564091205597,-0.20232738554477692,-0.07387658208608627,0.22989292442798615,-0.4222548305988312,-0.17465850710868835,-0.11646987497806549,0.1544644832611084,},{-0.2687455713748932,0.3653269410133362,0.10394489020109177,0.3155362010002136,0.4189523160457611,-0.18768993020057678,0.28757598996162415,-0.17672334611415863,-0.19195564091205597,-0.20232738554477692,-0.07387658208608627,0.22989292442798615,-0.4222548305988312,-0.17465850710868835,-0.11646987497806549,0.1544644832611084,},{-0.2687455713748932,0.3653269410133362,0.10394489020109177,0.3155362010002136,0.4189523160457611,-0.18768993020057678,0.28757598996162415,-0.17672334611415863,-0.19195564091205597,-0.20232738554477692,-0.07387658208608627,0.22989292442798615,-0.4222548305988312,-0.17465850710868835,-0.11646987497806549,0.1544644832611084,},{-0.2687455713748932,0.3653269410133362,0.10394489020109177,0.3155362010002136,0.4189523160457611,-0.18768993020057678,0.28757598996162415,-0.17672334611415863,-0.19195564091205597,-0.20232738554477692,-0.07387658208608627,0.22989292442798615,-0.4222548305988312,-0.17465850710868835,-0.11646987497806549,0.1544644832611084,},{-0.2687455713748932,0.3653269410133362,0.10394489020109177,0.3155362010002136,0.4189523160457611,-0.18768993020057678,0.28757598996162415,-0.17672334611415863,-0.19195564091205597,-0.20232738554477692,-0.07387658208608627,0.22989292442798615,-0.4222548305988312,-0.17465850710868835,-0.11646987497806549,0.1544644832611084,},{-0.2687455713748932,0.3653269410133362,0.10394489020109177,0.3155362010002136,0.4189523160457611,-0.18768993020057678,0.28757598996162415,-0.17672334611415863,-0.19195564091205597,-0.20232738554477692,-0.07387658208608627,0.22989292442798615,-0.4222548305988312,-0.17465850710868835,-0.11646987497806549,0.1544644832611084,},{-0.2687455713748932,0.3653269410133362,0.10394489020109177,0.3155362010002136,0.4189523160457611,-0.18768993020057678,0.28757598996162415,-0.17672334611415863,-0.19195564091205597,-0.20232738554477692,-0.07387658208608627,0.22989292442798615,-0.4222548305988312,-0.17465850710868835,-0.11646987497806549,0.1544644832611084,},{-0.2687455713748932,0.3653269410133362,0.10394489020109177,0.3155362010002136,0.4189523160457611,-0.18768993020057678,0.28757598996162415,-0.17672334611415863,-0.19195564091205597,-0.20232738554477692,-0.07387658208608627,0.22989292442798615,-0.4222548305988312,-0.17465850710868835,-0.11646987497806549,0.1544644832611084,},{-0.2687455713748932,0.3653269410133362,0.10394489020109177,0.3155362010002136,0.4189523160457611,-0.18768993020057678,0.28757598996162415,-0.17672334611415863,-0.19195564091205597,-0.20232738554477692,-0.07387658208608627,0.22989292442798615,-0.4222548305988312,-0.17465850710868835,-0.11646987497806549,0.1544644832611084,},{-0.2687455713748932,0.3653269410133362,0.10394489020109177,0.3155362010002136,0.4189523160457611,-0.18768993020057678,0.28757598996162415,-0.17672334611415863,-0.19195564091205597,-0.20232738554477692,-0.07387658208608627,0.22989292442798615,-0.4222548305988312,-0.17465850710868835,-0.11646987497806549,0.1544644832611084,},}}{{0.17546258866786957,0.264252632856369,0.05966490879654884,-0.20404364168643951,-0.29333916306495667,-0.3450902998447418,0.20313440263271332,-0.18735834956169128,0.1207149550318718,-0.35915669798851013,0.04497316852211952,0.03317984193563461,-0.1954599767923355,-0.05064477026462555,0.38359570503234863,3.1149800634011626e-05,},{0.17546258866786957,0.264252632856369,0.05966490879654884,-0.20404364168643951,-0.29333916306495667,-0.3450902998447418,0.20313440263271332,-0.18735834956169128,0.1207149550318718,-0.35915669798851013,0.04497316852211952,0.03317984193563461,-0.1954599767923355,-0.05064477026462555,0.38359570503234863,3.1149800634011626e-05,},{0.17546258866786957,0.264252632856369,0.05966490879654884,-0.20404364168643951,-0.29333916306495667,-0.3450902998447418,0.20313440263271332,-0.18735834956169128,0.1207149550318718,-0.35915669798851013,0.04497316852211952,0.03317984193563461,-0.1954599767923355,-0.05064477026462555,0.38359570503234863,3.1149800634011626e-05,},{0.17546258866786957,0.264252632856369,0.05966490879654884,-0.20404364168643951,-0.29333916306495667,-0.3450902998447418,0.20313440263271332,-0.18735834956169128,0.1207149550318718,-0.35915669798851013,0.04497316852211952,0.03317984193563461,-0.1954599767923355,-0.05064477026462555,0.38359570503234863,3.1149800634011626e-05,},{0.17546258866786957,0.264252632856369,0.05966490879654884,-0.20404364168643951,-0.29333916306495667,-0.3450902998447418,0.20313440263271332,-0.18735834956169128,0.1207149550318718,-0.35915669798851013,0.04497316852211952,0.03317984193563461,-0.1954599767923355,-0.05064477026462555,0.38359570503234863,3.1149800634011626e-05,},{0.17546258866786957,0.264252632856369,0.05966490879654884,-0.20404364168643951,-0.29333916306495667,-0.3450902998447418,0.20313440263271332,-0.18735834956169128,0.1207149550318718,-0.35915669798851013,0.04497316852211952,0.03317984193563461,-0.1954599767923355,-0.05064477026462555,0.38359570503234863,3.1149800634011626e-05,},{0.17546258866786957,0.264252632856369,0.05966490879654884,-0.20404364168643951,-0.29333916306495667,-0.3450902998447418,0.20313440263271332,-0.18735834956169128,0.1207149550318718,-0.35915669798851013,0.04497316852211952,0.03317984193563461,-0.1954599767923355,-0.05064477026462555,0.38359570503234863,3.1149800634011626e-05,},{0.17546258866786957,0.264252632856369,0.05966490879654884,-0.20404364168643951,-0.29333916306495667,-0.3450902998447418,0.20313440263271332,-0.18735834956169128,0.1207149550318718,-0.35915669798851013,0.04497316852211952,0.03317984193563461,-0.1954599767923355,-0.05064477026462555,0.38359570503234863,3.1149800634011626e-05,},{0.17546258866786957,0.264252632856369,0.05966490879654884,-0.20404364168643951,-0.29333916306495667,-0.3450902998447418,0.20313440263271332,-0.18735834956169128,0.1207149550318718,-0.35915669798851013,0.04497316852211952,0.03317984193563461,-0.1954599767923355,-0.05064477026462555,0.38359570503234863,3.1149800634011626e-05,},{0.17546258866786957,0.264252632856369,0.05966490879654884,-0.20404364168643951,-0.29333916306495667,-0.3450902998447418,0.20313440263271332,-0.18735834956169128,0.1207149550318718,-0.35915669798851013,0.04497316852211952,0.03317984193563461,-0.1954599767923355,-0.05064477026462555,0.38359570503234863,3.1149800634011626e-05,},{0.17546258866786957,0.264252632856369,0.05966490879654884,-0.20404364168643951,-0.29333916306495667,-0.3450902998447418,0.20313440263271332,-0.18735834956169128,0.1207149550318718,-0.35915669798851013,0.04497316852211952,0.03317984193563461,-0.1954599767923355,-0.05064477026462555,0.38359570503234863,3.1149800634011626e-05,},{0.17546258866786957,0.264252632856369,0.05966490879654884,-0.20404364168643951,-0.29333916306495667,-0.3450902998447418,0.20313440263271332,-0.18735834956169128,0.1207149550318718,-0.35915669798851013,0.04497316852211952,0.03317984193563461,-0.1954599767923355,-0.05064477026462555,0.38359570503234863,3.1149800634011626e-05,},{0.17546258866786957,0.264252632856369,0.05966490879654884,-0.20404364168643951,-0.29333916306495667,-0.3450902998447418,0.20313440263271332,-0.18735834956169128,0.1207149550318718,-0.35915669798851013,0.04497316852211952,0.03317984193563461,-0.1954599767923355,-0.05064477026462555,0.38359570503234863,3.1149800634011626e-05,},{0.17546258866786957,0.264252632856369,0.05966490879654884,-0.20404364168643951,-0.29333916306495667,-0.3450902998447418,0.20313440263271332,-0.18735834956169128,0.1207149550318718,-0.35915669798851013,0.04497316852211952,0.03317984193563461,-0.1954599767923355,-0.05064477026462555,0.38359570503234863,3.1149800634011626e-05,},{0.17546258866786957,0.264252632856369,0.05966490879654884,-0.20404364168643951,-0.29333916306495667,-0.3450902998447418,0.20313440263271332,-0.18735834956169128,0.1207149550318718,-0.35915669798851013,0.04497316852211952,0.03317984193563461,-0.1954599767923355,-0.05064477026462555,0.38359570503234863,3.1149800634011626e-05,},{0.17546258866786957,0.264252632856369,0.05966490879654884,-0.20404364168643951,-0.29333916306495667,-0.3450902998447418,0.20313440263271332,-0.18735834956169128,0.1207149550318718,-0.35915669798851013,0.04497316852211952,0.03317984193563461,-0.1954599767923355,-0.05064477026462555,0.38359570503234863,3.1149800634011626e-05,},}}{{-0.21056407690048218,0.033032529056072235,0.003217741148546338,-0.32670435309410095,0.42956554889678955,0.23053410649299622,-0.2088790386915207,-0.20772123336791992,-0.16475272178649902,0.2816410958766937,-0.23930059373378754,0.32572969794273376,-0.22580264508724213,0.006547196302562952,0.41233381628990173,-0.13183869421482086,},{-0.21056407690048218,0.033032529056072235,0.003217741148546338,-0.32670435309410095,0.42956554889678955,0.23053410649299622,-0.2088790386915207,-0.20772123336791992,-0.16475272178649902,0.2816410958766937,-0.23930059373378754,0.32572969794273376,-0.22580264508724213,0.006547196302562952,0.41233381628990173,-0.13183869421482086,},{-0.21056407690048218,0.033032529056072235,0.003217741148546338,-0.32670435309410095,0.42956554889678955,0.23053410649299622,-0.2088790386915207,-0.20772123336791992,-0.16475272178649902,0.2816410958766937,-0.23930059373378754,0.32572969794273376,-0.22580264508724213,0.006547196302562952,0.41233381628990173,-0.13183869421482086,},{-0.21056407690048218,0.033032529056072235,0.003217741148546338,-0.32670435309410095,0.42956554889678955,0.23053410649299622,-0.2088790386915207,-0.20772123336791992,-0.16475272178649902,0.2816410958766937,-0.23930059373378754,0.32572969794273376,-0.22580264508724213,0.006547196302562952,0.41233381628990173,-0.13183869421482086,},{-0.21056407690048218,0.033032529056072235,0.003217741148546338,-0.32670435309410095,0.42956554889678955,0.23053410649299622,-0.2088790386915207,-0.20772123336791992,-0.16475272178649902,0.2816410958766937,-0.23930059373378754,0.32572969794273376,-0.22580264508724213,0.006547196302562952,0.41233381628990173,-0.13183869421482086,},{-0.21056407690048218,0.033032529056072235,0.003217741148546338,-0.32670435309410095,0.42956554889678955,0.23053410649299622,-0.2088790386915207,-0.20772123336791992,-0.16475272178649902,0.2816410958766937,-0.23930059373378754,0.32572969794273376,-0.22580264508724213,0.006547196302562952,0.41233381628990173,-0.13183869421482086,},{-0.21056407690048218,0.033032529056072235,0.003217741148546338,-0.32670435309410095,0.42956554889678955,0.23053410649299622,-0.2088790386915207,-0.20772123336791992,-0.16475272178649902,0.2816410958766937,-0.23930059373378754,0.32572969794273376,-0.22580264508724213,0.006547196302562952,0.41233381628990173,-0.13183869421482086,},{-0.21056407690048218,0.033032529056072235,0.003217741148546338,-0.32670435309410095,0.42956554889678955,0.23053410649299622,-0.2088790386915207,-0.20772123336791992,-0.16475272178649902,0.2816410958766937,-0.23930059373378754,0.32572969794273376,-0.22580264508724213,0.006547196302562952,0.41233381628990173,-0.13183869421482086,},{-0.21056407690048218,0.033032529056072235,0.003217741148546338,-0.32670435309410095,0.42956554889678955,0.23053410649299622,-0.2088790386915207,-0.20772123336791992,-0.16475272178649902,0.2816410958766937,-0.23930059373378754,0.32572969794273376,-0.22580264508724213,0.006547196302562952,0.41233381628990173,-0.13183869421482086,},{-0.21056407690048218,0.033032529056072235,0.003217741148546338,-0.32670435309410095,0.42956554889678955,0.23053410649299622,-0.2088790386915207,-0.20772123336791992,-0.16475272178649902,0.2816410958766937,-0.23930059373378754,0.32572969794273376,-0.22580264508724213,0.006547196302562952,0.41233381628990173,-0.13183869421482086,},{-0.21056407690048218,0.033032529056072235,0.003217741148546338,-0.32670435309410095,0.42956554889678955,0.23053410649299622,-0.2088790386915207,-0.20772123336791992,-0.16475272178649902,0.2816410958766937,-0.23930059373378754,0.32572969794273376,-0.22580264508724213,0.006547196302562952,0.41233381628990173,-0.13183869421482086,},{-0.21056407690048218,0.033032529056072235,0.003217741148546338,-0.32670435309410095,0.42956554889678955,0.23053410649299622,-0.2088790386915207,-0.20772123336791992,-0.16475272178649902,0.2816410958766937,-0.23930059373378754,0.32572969794273376,-0.22580264508724213,0.006547196302562952,0.41233381628990173,-0.13183869421482086,},{-0.21056407690048218,0.033032529056072235,0.003217741148546338,-0.32670435309410095,0.42956554889678955,0.23053410649299622,-0.2088790386915207,-0.20772123336791992,-0.16475272178649902,0.2816410958766937,-0.23930059373378754,0.32572969794273376,-0.22580264508724213,0.006547196302562952,0.41233381628990173,-0.13183869421482086,},{-0.21056407690048218,0.033032529056072235,0.003217741148546338,-0.32670435309410095,0.42956554889678955,0.23053410649299622,-0.2088790386915207,-0.20772123336791992,-0.16475272178649902,0.2816410958766937,-0.23930059373378754,0.32572969794273376,-0.22580264508724213,0.006547196302562952,0.41233381628990173,-0.13183869421482086,},{-0.21056407690048218,0.033032529056072235,0.003217741148546338,-0.32670435309410095,0.42956554889678955,0.23053410649299622,-0.2088790386915207,-0.20772123336791992,-0.16475272178649902,0.2816410958766937,-0.23930059373378754,0.32572969794273376,-0.22580264508724213,0.006547196302562952,0.41233381628990173,-0.13183869421482086,},{-0.21056407690048218,0.033032529056072235,0.003217741148546338,-0.32670435309410095,0.42956554889678955,0.23053410649299622,-0.2088790386915207,-0.20772123336791992,-0.16475272178649902,0.2816410958766937,-0.23930059373378754,0.32572969794273376,-0.22580264508724213,0.006547196302562952,0.41233381628990173,-0.13183869421482086,},}}{{-0.2363506555557251,0.24541738629341125,-0.4541645348072052,-0.09404847770929337,-0.08126425743103027,0.19541452825069427,-0.4177475571632385,-0.2759299576282501,-0.4456881880760193,-0.06380492448806763,-0.04243503510951996,0.07241823524236679,-0.2865794003009796,0.07368875294923782,0.11038527637720108,-0.42139971256256104,},{-0.2363506555557251,0.24541738629341125,-0.4541645348072052,-0.09404847770929337,-0.08126425743103027,0.19541452825069427,-0.4177475571632385,-0.2759299576282501,-0.4456881880760193,-0.06380492448806763,-0.04243503510951996,0.07241823524236679,-0.2865794003009796,0.07368875294923782,0.11038527637720108,-0.42139971256256104,},{-0.2363506555557251,0.24541738629341125,-0.4541645348072052,-0.09404847770929337,-0.08126425743103027,0.19541452825069427,-0.4177475571632385,-0.2759299576282501,-0.4456881880760193,-0.06380492448806763,-0.04243503510951996,0.07241823524236679,-0.2865794003009796,0.07368875294923782,0.11038527637720108,-0.42139971256256104,},{-0.2363506555557251,0.24541738629341125,-0.4541645348072052,-0.09404847770929337,-0.08126425743103027,0.19541452825069427,-0.4177475571632385,-0.2759299576282501,-0.4456881880760193,-0.06380492448806763,-0.04243503510951996,0.07241823524236679,-0.2865794003009796,0.07368875294923782,0.11038527637720108,-0.42139971256256104,},{-0.2363506555557251,0.24541738629341125,-0.4541645348072052,-0.09404847770929337,-0.08126425743103027,0.19541452825069427,-0.4177475571632385,-0.2759299576282501,-0.4456881880760193,-0.06380492448806763,-0.04243503510951996,0.07241823524236679,-0.2865794003009796,0.07368875294923782,0.11038527637720108,-0.42139971256256104,},{-0.2363506555557251,0.24541738629341125,-0.4541645348072052,-0.09404847770929337,-0.08126425743103027,0.19541452825069427,-0.4177475571632385,-0.2759299576282501,-0.4456881880760193,-0.06380492448806763,-0.04243503510951996,0.07241823524236679,-0.2865794003009796,0.07368875294923782,0.11038527637720108,-0.42139971256256104,},{-0.2363506555557251,0.24541738629341125,-0.4541645348072052,-0.09404847770929337,-0.08126425743103027,0.19541452825069427,-0.4177475571632385,-0.2759299576282501,-0.4456881880760193,-0.06380492448806763,-0.04243503510951996,0.07241823524236679,-0.2865794003009796,0.07368875294923782,0.11038527637720108,-0.42139971256256104,},{-0.2363506555557251,0.24541738629341125,-0.4541645348072052,-0.09404847770929337,-0.08126425743103027,0.19541452825069427,-0.4177475571632385,-0.2759299576282501,-0.4456881880760193,-0.06380492448806763,-0.04243503510951996,0.07241823524236679,-0.2865794003009796,0.07368875294923782,0.11038527637720108,-0.42139971256256104,},{-0.2363506555557251,0.24541738629341125,-0.4541645348072052,-0.09404847770929337,-0.08126425743103027,0.19541452825069427,-0.4177475571632385,-0.2759299576282501,-0.4456881880760193,-0.06380492448806763,-0.04243503510951996,0.07241823524236679,-0.2865794003009796,0.07368875294923782,0.11038527637720108,-0.42139971256256104,},{-0.2363506555557251,0.24541738629341125,-0.4541645348072052,-0.09404847770929337,-0.08126425743103027,0.19541452825069427,-0.4177475571632385,-0.2759299576282501,-0.4456881880760193,-0.06380492448806763,-0.04243503510951996,0.07241823524236679,-0.2865794003009796,0.07368875294923782,0.11038527637720108,-0.42139971256256104,},{-0.2363506555557251,0.24541738629341125,-0.4541645348072052,-0.09404847770929337,-0.08126425743103027,0.19541452825069427,-0.4177475571632385,-0.2759299576282501,-0.4456881880760193,-0.06380492448806763,-0.04243503510951996,0.07241823524236679,-0.2865794003009796,0.07368875294923782,0.11038527637720108,-0.42139971256256104,},{-0.2363506555557251,0.24541738629341125,-0.4541645348072052,-0.09404847770929337,-0.08126425743103027,0.19541452825069427,-0.4177475571632385,-0.2759299576282501,-0.4456881880760193,-0.06380492448806763,-0.04243503510951996,0.07241823524236679,-0.2865794003009796,0.07368875294923782,0.11038527637720108,-0.42139971256256104,},{-0.2363506555557251,0.24541738629341125,-0.4541645348072052,-0.09404847770929337,-0.08126425743103027,0.19541452825069427,-0.4177475571632385,-0.2759299576282501,-0.4456881880760193,-0.06380492448806763,-0.04243503510951996,0.07241823524236679,-0.2865794003009796,0.07368875294923782,0.11038527637720108,-0.42139971256256104,},{-0.2363506555557251,0.24541738629341125,-0.4541645348072052,-0.09404847770929337,-0.08126425743103027,0.19541452825069427,-0.4177475571632385,-0.2759299576282501,-0.4456881880760193,-0.06380492448806763,-0.04243503510951996,0.07241823524236679,-0.2865794003009796,0.07368875294923782,0.11038527637720108,-0.42139971256256104,},{-0.2363506555557251,0.24541738629341125,-0.4541645348072052,-0.09404847770929337,-0.08126425743103027,0.19541452825069427,-0.4177475571632385,-0.2759299576282501,-0.4456881880760193,-0.06380492448806763,-0.04243503510951996,0.07241823524236679,-0.2865794003009796,0.07368875294923782,0.11038527637720108,-0.42139971256256104,},{-0.2363506555557251,0.24541738629341125,-0.4541645348072052,-0.09404847770929337,-0.08126425743103027,0.19541452825069427,-0.4177475571632385,-0.2759299576282501,-0.4456881880760193,-0.06380492448806763,-0.04243503510951996,0.07241823524236679,-0.2865794003009796,0.07368875294923782,0.11038527637720108,-0.42139971256256104,},}}{{-0.11925428360700607,0.32269901037216187,0.34262755513191223,-0.06897129118442535,-0.09076287597417831,-0.08145584911108017,0.13339737057685852,0.00879079382866621,-0.05261960253119469,0.02984045073390007,0.11870425939559937,-0.15722094476222992,0.19320741295814514,-0.1982702910900116,-0.2872719168663025,0.15286900103092194,},{-0.11925428360700607,0.32269901037216187,0.34262755513191223,-0.06897129118442535,-0.09076287597417831,-0.08145584911108017,0.13339737057685852,0.00879079382866621,-0.05261960253119469,0.02984045073390007,0.11870425939559937,-0.15722094476222992,0.19320741295814514,-0.1982702910900116,-0.2872719168663025,0.15286900103092194,},{-0.11925428360700607,0.32269901037216187,0.34262755513191223,-0.06897129118442535,-0.09076287597417831,-0.08145584911108017,0.13339737057685852,0.00879079382866621,-0.05261960253119469,0.02984045073390007,0.11870425939559937,-0.15722094476222992,0.19320741295814514,-0.1982702910900116,-0.2872719168663025,0.15286900103092194,},{-0.11925428360700607,0.32269901037216187,0.34262755513191223,-0.06897129118442535,-0.09076287597417831,-0.08145584911108017,0.13339737057685852,0.00879079382866621,-0.05261960253119469,0.02984045073390007,0.11870425939559937,-0.15722094476222992,0.19320741295814514,-0.1982702910900116,-0.2872719168663025,0.15286900103092194,},{-0.11925428360700607,0.32269901037216187,0.34262755513191223,-0.06897129118442535,-0.09076287597417831,-0.08145584911108017,0.13339737057685852,0.00879079382866621,-0.05261960253119469,0.02984045073390007,0.11870425939559937,-0.15722094476222992,0.19320741295814514,-0.1982702910900116,-0.2872719168663025,0.15286900103092194,},{-0.11925428360700607,0.32269901037216187,0.34262755513191223,-0.06897129118442535,-0.09076287597417831,-0.08145584911108017,0.13339737057685852,0.00879079382866621,-0.05261960253119469,0.02984045073390007,0.11870425939559937,-0.15722094476222992,0.19320741295814514,-0.1982702910900116,-0.2872719168663025,0.15286900103092194,},{-0.11925428360700607,0.32269901037216187,0.34262755513191223,-0.06897129118442535,-0.09076287597417831,-0.08145584911108017,0.13339737057685852,0.00879079382866621,-0.05261960253119469,0.02984045073390007,0.11870425939559937,-0.15722094476222992,0.19320741295814514,-0.1982702910900116,-0.2872719168663025,0.15286900103092194,},{-0.11925428360700607,0.32269901037216187,0.34262755513191223,-0.06897129118442535,-0.09076287597417831,-0.08145584911108017,0.13339737057685852,0.00879079382866621,-0.05261960253119469,0.02984045073390007,0.11870425939559937,-0.15722094476222992,0.19320741295814514,-0.1982702910900116,-0.2872719168663025,0.15286900103092194,},{-0.11925428360700607,0.32269901037216187,0.34262755513191223,-0.06897129118442535,-0.09076287597417831,-0.08145584911108017,0.13339737057685852,0.00879079382866621,-0.05261960253119469,0.02984045073390007,0.11870425939559937,-0.15722094476222992,0.19320741295814514,-0.1982702910900116,-0.2872719168663025,0.15286900103092194,},{-0.11925428360700607,0.32269901037216187,0.34262755513191223,-0.06897129118442535,-0.09076287597417831,-0.08145584911108017,0.13339737057685852,0.00879079382866621,-0.05261960253119469,0.02984045073390007,0.11870425939559937,-0.15722094476222992,0.19320741295814514,-0.1982702910900116,-0.2872719168663025,0.15286900103092194,},{-0.11925428360700607,0.32269901037216187,0.34262755513191223,-0.06897129118442535,-0.09076287597417831,-0.08145584911108017,0.13339737057685852,0.00879079382866621,-0.05261960253119469,0.02984045073390007,0.11870425939559937,-0.15722094476222992,0.19320741295814514,-0.1982702910900116,-0.2872719168663025,0.15286900103092194,},{-0.11925428360700607,0.32269901037216187,0.34262755513191223,-0.06897129118442535,-0.09076287597417831,-0.08145584911108017,0.13339737057685852,0.00879079382866621,-0.05261960253119469,0.02984045073390007,0.11870425939559937,-0.15722094476222992,0.19320741295814514,-0.1982702910900116,-0.2872719168663025,0.15286900103092194,},{-0.11925428360700607,0.32269901037216187,0.34262755513191223,-0.06897129118442535,-0.09076287597417831,-0.08145584911108017,0.13339737057685852,0.00879079382866621,-0.05261960253119469,0.02984045073390007,0.11870425939559937,-0.15722094476222992,0.19320741295814514,-0.1982702910900116,-0.2872719168663025,0.15286900103092194,},{-0.11925428360700607,0.32269901037216187,0.34262755513191223,-0.06897129118442535,-0.09076287597417831,-0.08145584911108017,0.13339737057685852,0.00879079382866621,-0.05261960253119469,0.02984045073390007,0.11870425939559937,-0.15722094476222992,0.19320741295814514,-0.1982702910900116,-0.2872719168663025,0.15286900103092194,},{-0.11925428360700607,0.32269901037216187,0.34262755513191223,-0.06897129118442535,-0.09076287597417831,-0.08145584911108017,0.13339737057685852,0.00879079382866621,-0.05261960253119469,0.02984045073390007,0.11870425939559937,-0.15722094476222992,0.19320741295814514,-0.1982702910900116,-0.2872719168663025,0.15286900103092194,},{-0.11925428360700607,0.32269901037216187,0.34262755513191223,-0.06897129118442535,-0.09076287597417831,-0.08145584911108017,0.13339737057685852,0.00879079382866621,-0.05261960253119469,0.02984045073390007,0.11870425939559937,-0.15722094476222992,0.19320741295814514,-0.1982702910900116,-0.2872719168663025,0.15286900103092194,},}}{{-0.038559697568416595,-0.18108907341957092,0.28181174397468567,-0.20502500236034393,-0.10063343495130539,0.2898949086666107,-0.22858169674873352,0.10314479470252991,-0.185984268784523,-0.19715480506420135,0.08056189119815826,-0.2986683249473572,-0.09559883922338486,-0.05347636342048645,-0.21132723987102509,0.19173428416252136,},{-0.038559697568416595,-0.18108907341957092,0.28181174397468567,-0.20502500236034393,-0.10063343495130539,0.2898949086666107,-0.22858169674873352,0.10314479470252991,-0.185984268784523,-0.19715480506420135,0.08056189119815826,-0.2986683249473572,-0.09559883922338486,-0.05347636342048645,-0.21132723987102509,0.19173428416252136,},{-0.038559697568416595,-0.18108907341957092,0.28181174397468567,-0.20502500236034393,-0.10063343495130539,0.2898949086666107,-0.22858169674873352,0.10314479470252991,-0.185984268784523,-0.19715480506420135,0.08056189119815826,-0.2986683249473572,-0.09559883922338486,-0.05347636342048645,-0.21132723987102509,0.19173428416252136,},{-0.038559697568416595,-0.18108907341957092,0.28181174397468567,-0.20502500236034393,-0.10063343495130539,0.2898949086666107,-0.22858169674873352,0.10314479470252991,-0.185984268784523,-0.19715480506420135,0.08056189119815826,-0.2986683249473572,-0.09559883922338486,-0.05347636342048645,-0.21132723987102509,0.19173428416252136,},{-0.038559697568416595,-0.18108907341957092,0.28181174397468567,-0.20502500236034393,-0.10063343495130539,0.2898949086666107,-0.22858169674873352,0.10314479470252991,-0.185984268784523,-0.19715480506420135,0.08056189119815826,-0.2986683249473572,-0.09559883922338486,-0.05347636342048645,-0.21132723987102509,0.19173428416252136,},{-0.038559697568416595,-0.18108907341957092,0.28181174397468567,-0.20502500236034393,-0.10063343495130539,0.2898949086666107,-0.22858169674873352,0.10314479470252991,-0.185984268784523,-0.19715480506420135,0.08056189119815826,-0.2986683249473572,-0.09559883922338486,-0.05347636342048645,-0.21132723987102509,0.19173428416252136,},{-0.038559697568416595,-0.18108907341957092,0.28181174397468567,-0.20502500236034393,-0.10063343495130539,0.2898949086666107,-0.22858169674873352,0.10314479470252991,-0.185984268784523,-0.19715480506420135,0.08056189119815826,-0.2986683249473572,-0.09559883922338486,-0.05347636342048645,-0.21132723987102509,0.19173428416252136,},{-0.038559697568416595,-0.18108907341957092,0.28181174397468567,-0.20502500236034393,-0.10063343495130539,0.2898949086666107,-0.22858169674873352,0.10314479470252991,-0.185984268784523,-0.19715480506420135,0.08056189119815826,-0.2986683249473572,-0.09559883922338486,-0.05347636342048645,-0.21132723987102509,0.19173428416252136,},{-0.038559697568416595,-0.18108907341957092,0.28181174397468567,-0.20502500236034393,-0.10063343495130539,0.2898949086666107,-0.22858169674873352,0.10314479470252991,-0.185984268784523,-0.19715480506420135,0.08056189119815826,-0.2986683249473572,-0.09559883922338486,-0.05347636342048645,-0.21132723987102509,0.19173428416252136,},{-0.038559697568416595,-0.18108907341957092,0.28181174397468567,-0.20502500236034393,-0.10063343495130539,0.2898949086666107,-0.22858169674873352,0.10314479470252991,-0.185984268784523,-0.19715480506420135,0.08056189119815826,-0.2986683249473572,-0.09559883922338486,-0.05347636342048645,-0.21132723987102509,0.19173428416252136,},{-0.038559697568416595,-0.18108907341957092,0.28181174397468567,-0.20502500236034393,-0.10063343495130539,0.2898949086666107,-0.22858169674873352,0.10314479470252991,-0.185984268784523,-0.19715480506420135,0.08056189119815826,-0.2986683249473572,-0.09559883922338486,-0.05347636342048645,-0.21132723987102509,0.19173428416252136,},{-0.038559697568416595,-0.18108907341957092,0.28181174397468567,-0.20502500236034393,-0.10063343495130539,0.2898949086666107,-0.22858169674873352,0.10314479470252991,-0.185984268784523,-0.19715480506420135,0.08056189119815826,-0.2986683249473572,-0.09559883922338486,-0.05347636342048645,-0.21132723987102509,0.19173428416252136,},{-0.038559697568416595,-0.18108907341957092,0.28181174397468567,-0.20502500236034393,-0.10063343495130539,0.2898949086666107,-0.22858169674873352,0.10314479470252991,-0.185984268784523,-0.19715480506420135,0.08056189119815826,-0.2986683249473572,-0.09559883922338486,-0.05347636342048645,-0.21132723987102509,0.19173428416252136,},{-0.038559697568416595,-0.18108907341957092,0.28181174397468567,-0.20502500236034393,-0.10063343495130539,0.2898949086666107,-0.22858169674873352,0.10314479470252991,-0.185984268784523,-0.19715480506420135,0.08056189119815826,-0.2986683249473572,-0.09559883922338486,-0.05347636342048645,-0.21132723987102509,0.19173428416252136,},{-0.038559697568416595,-0.18108907341957092,0.28181174397468567,-0.20502500236034393,-0.10063343495130539,0.2898949086666107,-0.22858169674873352,0.10314479470252991,-0.185984268784523,-0.19715480506420135,0.08056189119815826,-0.2986683249473572,-0.09559883922338486,-0.05347636342048645,-0.21132723987102509,0.19173428416252136,},{-0.038559697568416595,-0.18108907341957092,0.28181174397468567,-0.20502500236034393,-0.10063343495130539,0.2898949086666107,-0.22858169674873352,0.10314479470252991,-0.185984268784523,-0.19715480506420135,0.08056189119815826,-0.2986683249473572,-0.09559883922338486,-0.05347636342048645,-0.21132723987102509,0.19173428416252136,},}}{{-0.42320123314857483,0.04516448825597763,-0.4934849441051483,-0.012678686529397964,0.07421620190143585,-0.0893263891339302,0.33715856075286865,-0.4752635657787323,0.05638850852847099,-0.3051382601261139,0.037808697670698166,0.09003568440675735,-0.4484049379825592,0.3372712731361389,-0.37583300471305847,0.2825544774532318,},{-0.42320123314857483,0.04516448825597763,-0.4934849441051483,-0.012678686529397964,0.07421620190143585,-0.0893263891339302,0.33715856075286865,-0.4752635657787323,0.05638850852847099,-0.3051382601261139,0.037808697670698166,0.09003568440675735,-0.4484049379825592,0.3372712731361389,-0.37583300471305847,0.2825544774532318,},{-0.42320123314857483,0.04516448825597763,-0.4934849441051483,-0.012678686529397964,0.07421620190143585,-0.0893263891339302,0.33715856075286865,-0.4752635657787323,0.05638850852847099,-0.3051382601261139,0.037808697670698166,0.09003568440675735,-0.4484049379825592,0.3372712731361389,-0.37583300471305847,0.2825544774532318,},{-0.42320123314857483,0.04516448825597763,-0.4934849441051483,-0.012678686529397964,0.07421620190143585,-0.0893263891339302,0.33715856075286865,-0.4752635657787323,0.05638850852847099,-0.3051382601261139,0.037808697670698166,0.09003568440675735,-0.4484049379825592,0.3372712731361389,-0.37583300471305847,0.2825544774532318,},{-0.42320123314857483,0.04516448825597763,-0.4934849441051483,-0.012678686529397964,0.07421620190143585,-0.0893263891339302,0.33715856075286865,-0.4752635657787323,0.05638850852847099,-0.3051382601261139,0.037808697670698166,0.09003568440675735,-0.4484049379825592,0.3372712731361389,-0.37583300471305847,0.2825544774532318,},{-0.42320123314857483,0.04516448825597763,-0.4934849441051483,-0.012678686529397964,0.07421620190143585,-0.0893263891339302,0.33715856075286865,-0.4752635657787323,0.05638850852847099,-0.3051382601261139,0.037808697670698166,0.09003568440675735,-0.4484049379825592,0.3372712731361389,-0.37583300471305847,0.2825544774532318,},{-0.42320123314857483,0.04516448825597763,-0.4934849441051483,-0.012678686529397964,0.07421620190143585,-0.0893263891339302,0.33715856075286865,-0.4752635657787323,0.05638850852847099,-0.3051382601261139,0.037808697670698166,0.09003568440675735,-0.4484049379825592,0.3372712731361389,-0.37583300471305847,0.2825544774532318,},{-0.42320123314857483,0.04516448825597763,-0.4934849441051483,-0.012678686529397964,0.07421620190143585,-0.0893263891339302,0.33715856075286865,-0.4752635657787323,0.05638850852847099,-0.3051382601261139,0.037808697670698166,0.09003568440675735,-0.4484049379825592,0.3372712731361389,-0.37583300471305847,0.2825544774532318,},{-0.42320123314857483,0.04516448825597763,-0.4934849441051483,-0.012678686529397964,0.07421620190143585,-0.0893263891339302,0.33715856075286865,-0.4752635657787323,0.05638850852847099,-0.3051382601261139,0.037808697670698166,0.09003568440675735,-0.4484049379825592,0.3372712731361389,-0.37583300471305847,0.2825544774532318,},{-0.42320123314857483,0.04516448825597763,-0.4934849441051483,-0.012678686529397964,0.07421620190143585,-0.0893263891339302,0.33715856075286865,-0.4752635657787323,0.05638850852847099,-0.3051382601261139,0.037808697670698166,0.09003568440675735,-0.4484049379825592,0.3372712731361389,-0.37583300471305847,0.2825544774532318,},{-0.42320123314857483,0.04516448825597763,-0.4934849441051483,-0.012678686529397964,0.07421620190143585,-0.0893263891339302,0.33715856075286865,-0.4752635657787323,0.05638850852847099,-0.3051382601261139,0.037808697670698166,0.09003568440675735,-0.4484049379825592,0.3372712731361389,-0.37583300471305847,0.2825544774532318,},{-0.42320123314857483,0.04516448825597763,-0.4934849441051483,-0.012678686529397964,0.07421620190143585,-0.0893263891339302,0.33715856075286865,-0.4752635657787323,0.05638850852847099,-0.3051382601261139,0.037808697670698166,0.09003568440675735,-0.4484049379825592,0.3372712731361389,-0.37583300471305847,0.2825544774532318,},{-0.42320123314857483,0.04516448825597763,-0.4934849441051483,-0.012678686529397964,0.07421620190143585,-0.0893263891339302,0.33715856075286865,-0.4752635657787323,0.05638850852847099,-0.3051382601261139,0.037808697670698166,0.09003568440675735,-0.4484049379825592,0.3372712731361389,-0.37583300471305847,0.2825544774532318,},{-0.42320123314857483,0.04516448825597763,-0.4934849441051483,-0.012678686529397964,0.07421620190143585,-0.0893263891339302,0.33715856075286865,-0.4752635657787323,0.05638850852847099,-0.3051382601261139,0.037808697670698166,0.09003568440675735,-0.4484049379825592,0.3372712731361389,-0.37583300471305847,0.2825544774532318,},{-0.42320123314857483,0.04516448825597763,-0.4934849441051483,-0.012678686529397964,0.07421620190143585,-0.0893263891339302,0.33715856075286865,-0.4752635657787323,0.05638850852847099,-0.3051382601261139,0.037808697670698166,0.09003568440675735,-0.4484049379825592,0.3372712731361389,-0.37583300471305847,0.2825544774532318,},{-0.42320123314857483,0.04516448825597763,-0.4934849441051483,-0.012678686529397964,0.07421620190143585,-0.0893263891339302,0.33715856075286865,-0.4752635657787323,0.05638850852847099,-0.3051382601261139,0.037808697670698166,0.09003568440675735,-0.4484049379825592,0.3372712731361389,-0.37583300471305847,0.2825544774532318,},}}{{-0.04650378227233887,-0.3334382474422455,-0.19123896956443787,-0.11632847040891647,-0.040601469576358795,-0.4376269578933716,0.3668450713157654,-0.05586569383740425,0.02075866051018238,0.19390852749347687,0.2004455327987671,-0.10292518138885498,0.22341777384281158,0.5448794960975647,-0.02775021269917488,0.27543649077415466,},{-0.04650378227233887,-0.3334382474422455,-0.19123896956443787,-0.11632847040891647,-0.040601469576358795,-0.4376269578933716,0.3668450713157654,-0.05586569383740425,0.02075866051018238,0.19390852749347687,0.2004455327987671,-0.10292518138885498,0.22341777384281158,0.5448794960975647,-0.02775021269917488,0.27543649077415466,},{-0.04650378227233887,-0.3334382474422455,-0.19123896956443787,-0.11632847040891647,-0.040601469576358795,-0.4376269578933716,0.3668450713157654,-0.05586569383740425,0.02075866051018238,0.19390852749347687,0.2004455327987671,-0.10292518138885498,0.22341777384281158,0.5448794960975647,-0.02775021269917488,0.27543649077415466,},{-0.04650378227233887,-0.3334382474422455,-0.19123896956443787,-0.11632847040891647,-0.040601469576358795,-0.4376269578933716,0.3668450713157654,-0.05586569383740425,0.02075866051018238,0.19390852749347687,0.2004455327987671,-0.10292518138885498,0.22341777384281158,0.5448794960975647,-0.02775021269917488,0.27543649077415466,},{-0.04650378227233887,-0.3334382474422455,-0.19123896956443787,-0.11632847040891647,-0.040601469576358795,-0.4376269578933716,0.3668450713157654,-0.05586569383740425,0.02075866051018238,0.19390852749347687,0.2004455327987671,-0.10292518138885498,0.22341777384281158,0.5448794960975647,-0.02775021269917488,0.27543649077415466,},{-0.04650378227233887,-0.3334382474422455,-0.19123896956443787,-0.11632847040891647,-0.040601469576358795,-0.4376269578933716,0.3668450713157654,-0.05586569383740425,0.02075866051018238,0.19390852749347687,0.2004455327987671,-0.10292518138885498,0.22341777384281158,0.5448794960975647,-0.02775021269917488,0.27543649077415466,},{-0.04650378227233887,-0.3334382474422455,-0.19123896956443787,-0.11632847040891647,-0.040601469576358795,-0.4376269578933716,0.3668450713157654,-0.05586569383740425,0.02075866051018238,0.19390852749347687,0.2004455327987671,-0.10292518138885498,0.22341777384281158,0.5448794960975647,-0.02775021269917488,0.27543649077415466,},{-0.04650378227233887,-0.3334382474422455,-0.19123896956443787,-0.11632847040891647,-0.040601469576358795,-0.4376269578933716,0.3668450713157654,-0.05586569383740425,0.02075866051018238,0.19390852749347687,0.2004455327987671,-0.10292518138885498,0.22341777384281158,0.5448794960975647,-0.02775021269917488,0.27543649077415466,},{-0.04650378227233887,-0.3334382474422455,-0.19123896956443787,-0.11632847040891647,-0.040601469576358795,-0.4376269578933716,0.3668450713157654,-0.05586569383740425,0.02075866051018238,0.19390852749347687,0.2004455327987671,-0.10292518138885498,0.22341777384281158,0.5448794960975647,-0.02775021269917488,0.27543649077415466,},{-0.04650378227233887,-0.3334382474422455,-0.19123896956443787,-0.11632847040891647,-0.040601469576358795,-0.4376269578933716,0.3668450713157654,-0.05586569383740425,0.02075866051018238,0.19390852749347687,0.2004455327987671,-0.10292518138885498,0.22341777384281158,0.5448794960975647,-0.02775021269917488,0.27543649077415466,},{-0.04650378227233887,-0.3334382474422455,-0.19123896956443787,-0.11632847040891647,-0.040601469576358795,-0.4376269578933716,0.3668450713157654,-0.05586569383740425,0.02075866051018238,0.19390852749347687,0.2004455327987671,-0.10292518138885498,0.22341777384281158,0.5448794960975647,-0.02775021269917488,0.27543649077415466,},{-0.04650378227233887,-0.3334382474422455,-0.19123896956443787,-0.11632847040891647,-0.040601469576358795,-0.4376269578933716,0.3668450713157654,-0.05586569383740425,0.02075866051018238,0.19390852749347687,0.2004455327987671,-0.10292518138885498,0.22341777384281158,0.5448794960975647,-0.02775021269917488,0.27543649077415466,},{-0.04650378227233887,-0.3334382474422455,-0.19123896956443787,-0.11632847040891647,-0.040601469576358795,-0.4376269578933716,0.3668450713157654,-0.05586569383740425,0.02075866051018238,0.19390852749347687,0.2004455327987671,-0.10292518138885498,0.22341777384281158,0.5448794960975647,-0.02775021269917488,0.27543649077415466,},{-0.04650378227233887,-0.3334382474422455,-0.19123896956443787,-0.11632847040891647,-0.040601469576358795,-0.4376269578933716,0.3668450713157654,-0.05586569383740425,0.02075866051018238,0.19390852749347687,0.2004455327987671,-0.10292518138885498,0.22341777384281158,0.5448794960975647,-0.02775021269917488,0.27543649077415466,},{-0.04650378227233887,-0.3334382474422455,-0.19123896956443787,-0.11632847040891647,-0.040601469576358795,-0.4376269578933716,0.3668450713157654,-0.05586569383740425,0.02075866051018238,0.19390852749347687,0.2004455327987671,-0.10292518138885498,0.22341777384281158,0.5448794960975647,-0.02775021269917488,0.27543649077415466,},{-0.04650378227233887,-0.3334382474422455,-0.19123896956443787,-0.11632847040891647,-0.040601469576358795,-0.4376269578933716,0.3668450713157654,-0.05586569383740425,0.02075866051018238,0.19390852749347687,0.2004455327987671,-0.10292518138885498,0.22341777384281158,0.5448794960975647,-0.02775021269917488,0.27543649077415466,},}}{{0.011121336370706558,0.336725652217865,-0.6356049180030823,-0.18105266988277435,-0.388467937707901,0.2701665163040161,-0.08781497180461884,-0.37745893001556396,-0.21592655777931213,-0.02091572806239128,0.054161492735147476,-0.06993252784013748,-0.21461495757102966,-0.6186392307281494,0.19908781349658966,0.036647818982601166,},{0.011121336370706558,0.336725652217865,-0.6356049180030823,-0.18105266988277435,-0.388467937707901,0.2701665163040161,-0.08781497180461884,-0.37745893001556396,-0.21592655777931213,-0.02091572806239128,0.054161492735147476,-0.06993252784013748,-0.21461495757102966,-0.6186392307281494,0.19908781349658966,0.036647818982601166,},{0.011121336370706558,0.336725652217865,-0.6356049180030823,-0.18105266988277435,-0.388467937707901,0.2701665163040161,-0.08781497180461884,-0.37745893001556396,-0.21592655777931213,-0.02091572806239128,0.054161492735147476,-0.06993252784013748,-0.21461495757102966,-0.6186392307281494,0.19908781349658966,0.036647818982601166,},{0.011121336370706558,0.336725652217865,-0.6356049180030823,-0.18105266988277435,-0.388467937707901,0.2701665163040161,-0.08781497180461884,-0.37745893001556396,-0.21592655777931213,-0.02091572806239128,0.054161492735147476,-0.06993252784013748,-0.21461495757102966,-0.6186392307281494,0.19908781349658966,0.036647818982601166,},{0.011121336370706558,0.336725652217865,-0.6356049180030823,-0.18105266988277435,-0.388467937707901,0.2701665163040161,-0.08781497180461884,-0.37745893001556396,-0.21592655777931213,-0.02091572806239128,0.054161492735147476,-0.06993252784013748,-0.21461495757102966,-0.6186392307281494,0.19908781349658966,0.036647818982601166,},{0.011121336370706558,0.336725652217865,-0.6356049180030823,-0.18105266988277435,-0.388467937707901,0.2701665163040161,-0.08781497180461884,-0.37745893001556396,-0.21592655777931213,-0.02091572806239128,0.054161492735147476,-0.06993252784013748,-0.21461495757102966,-0.6186392307281494,0.19908781349658966,0.036647818982601166,},{0.011121336370706558,0.336725652217865,-0.6356049180030823,-0.18105266988277435,-0.388467937707901,0.2701665163040161,-0.08781497180461884,-0.37745893001556396,-0.21592655777931213,-0.02091572806239128,0.054161492735147476,-0.06993252784013748,-0.21461495757102966,-0.6186392307281494,0.19908781349658966,0.036647818982601166,},{0.011121336370706558,0.336725652217865,-0.6356049180030823,-0.18105266988277435,-0.388467937707901,0.2701665163040161,-0.08781497180461884,-0.37745893001556396,-0.21592655777931213,-0.02091572806239128,0.054161492735147476,-0.06993252784013748,-0.21461495757102966,-0.6186392307281494,0.19908781349658966,0.036647818982601166,},{0.011121336370706558,0.336725652217865,-0.6356049180030823,-0.18105266988277435,-0.388467937707901,0.2701665163040161,-0.08781497180461884,-0.37745893001556396,-0.21592655777931213,-0.02091572806239128,0.054161492735147476,-0.06993252784013748,-0.21461495757102966,-0.6186392307281494,0.19908781349658966,0.036647818982601166,},{0.011121336370706558,0.336725652217865,-0.6356049180030823,-0.18105266988277435,-0.388467937707901,0.2701665163040161,-0.08781497180461884,-0.37745893001556396,-0.21592655777931213,-0.02091572806239128,0.054161492735147476,-0.06993252784013748,-0.21461495757102966,-0.6186392307281494,0.19908781349658966,0.036647818982601166,},{0.011121336370706558,0.336725652217865,-0.6356049180030823,-0.18105266988277435,-0.388467937707901,0.2701665163040161,-0.08781497180461884,-0.37745893001556396,-0.21592655777931213,-0.02091572806239128,0.054161492735147476,-0.06993252784013748,-0.21461495757102966,-0.6186392307281494,0.19908781349658966,0.036647818982601166,},{0.011121336370706558,0.336725652217865,-0.6356049180030823,-0.18105266988277435,-0.388467937707901,0.2701665163040161,-0.08781497180461884,-0.37745893001556396,-0.21592655777931213,-0.02091572806239128,0.054161492735147476,-0.06993252784013748,-0.21461495757102966,-0.6186392307281494,0.19908781349658966,0.036647818982601166,},{0.011121336370706558,0.336725652217865,-0.6356049180030823,-0.18105266988277435,-0.388467937707901,0.2701665163040161,-0.08781497180461884,-0.37745893001556396,-0.21592655777931213,-0.02091572806239128,0.054161492735147476,-0.06993252784013748,-0.21461495757102966,-0.6186392307281494,0.19908781349658966,0.036647818982601166,},{0.011121336370706558,0.336725652217865,-0.6356049180030823,-0.18105266988277435,-0.388467937707901,0.2701665163040161,-0.08781497180461884,-0.37745893001556396,-0.21592655777931213,-0.02091572806239128,0.054161492735147476,-0.06993252784013748,-0.21461495757102966,-0.6186392307281494,0.19908781349658966,0.036647818982601166,},{0.011121336370706558,0.336725652217865,-0.6356049180030823,-0.18105266988277435,-0.388467937707901,0.2701665163040161,-0.08781497180461884,-0.37745893001556396,-0.21592655777931213,-0.02091572806239128,0.054161492735147476,-0.06993252784013748,-0.21461495757102966,-0.6186392307281494,0.19908781349658966,0.036647818982601166,},{0.011121336370706558,0.336725652217865,-0.6356049180030823,-0.18105266988277435,-0.388467937707901,0.2701665163040161,-0.08781497180461884,-0.37745893001556396,-0.21592655777931213,-0.02091572806239128,0.054161492735147476,-0.06993252784013748,-0.21461495757102966,-0.6186392307281494,0.19908781349658966,0.036647818982601166,},}}{{-0.29022449254989624,0.47521597146987915,0.277500718832016,-0.33401843905448914,-0.2882027328014374,-0.049063269048929214,-0.40620988607406616,-0.11612582951784134,0.39868563413619995,-0.2591013014316559,-0.4373471736907959,-0.27086341381073,-0.42089658975601196,0.20240941643714905,-0.012566495686769485,-0.006494740955531597,},{-0.29022449254989624,0.47521597146987915,0.277500718832016,-0.33401843905448914,-0.2882027328014374,-0.049063269048929214,-0.40620988607406616,-0.11612582951784134,0.39868563413619995,-0.2591013014316559,-0.4373471736907959,-0.27086341381073,-0.42089658975601196,0.20240941643714905,-0.012566495686769485,-0.006494740955531597,},{-0.29022449254989624,0.47521597146987915,0.277500718832016,-0.33401843905448914,-0.2882027328014374,-0.049063269048929214,-0.40620988607406616,-0.11612582951784134,0.39868563413619995,-0.2591013014316559,-0.4373471736907959,-0.27086341381073,-0.42089658975601196,0.20240941643714905,-0.012566495686769485,-0.006494740955531597,},{-0.29022449254989624,0.47521597146987915,0.277500718832016,-0.33401843905448914,-0.2882027328014374,-0.049063269048929214,-0.40620988607406616,-0.11612582951784134,0.39868563413619995,-0.2591013014316559,-0.4373471736907959,-0.27086341381073,-0.42089658975601196,0.20240941643714905,-0.012566495686769485,-0.006494740955531597,},{-0.29022449254989624,0.47521597146987915,0.277500718832016,-0.33401843905448914,-0.2882027328014374,-0.049063269048929214,-0.40620988607406616,-0.11612582951784134,0.39868563413619995,-0.2591013014316559,-0.4373471736907959,-0.27086341381073,-0.42089658975601196,0.20240941643714905,-0.012566495686769485,-0.006494740955531597,},{-0.29022449254989624,0.47521597146987915,0.277500718832016,-0.33401843905448914,-0.2882027328014374,-0.049063269048929214,-0.40620988607406616,-0.11612582951784134,0.39868563413619995,-0.2591013014316559,-0.4373471736907959,-0.27086341381073,-0.42089658975601196,0.20240941643714905,-0.012566495686769485,-0.006494740955531597,},{-0.29022449254989624,0.47521597146987915,0.277500718832016,-0.33401843905448914,-0.2882027328014374,-0.049063269048929214,-0.40620988607406616,-0.11612582951784134,0.39868563413619995,-0.2591013014316559,-0.4373471736907959,-0.27086341381073,-0.42089658975601196,0.20240941643714905,-0.012566495686769485,-0.006494740955531597,},{-0.29022449254989624,0.47521597146987915,0.277500718832016,-0.33401843905448914,-0.2882027328014374,-0.049063269048929214,-0.40620988607406616,-0.11612582951784134,0.39868563413619995,-0.2591013014316559,-0.4373471736907959,-0.27086341381073,-0.42089658975601196,0.20240941643714905,-0.012566495686769485,-0.006494740955531597,},{-0.29022449254989624,0.47521597146987915,0.277500718832016,-0.33401843905448914,-0.2882027328014374,-0.049063269048929214,-0.40620988607406616,-0.11612582951784134,0.39868563413619995,-0.2591013014316559,-0.4373471736907959,-0.27086341381073,-0.42089658975601196,0.20240941643714905,-0.012566495686769485,-0.006494740955531597,},{-0.29022449254989624,0.47521597146987915,0.277500718832016,-0.33401843905448914,-0.2882027328014374,-0.049063269048929214,-0.40620988607406616,-0.11612582951784134,0.39868563413619995,-0.2591013014316559,-0.4373471736907959,-0.27086341381073,-0.42089658975601196,0.20240941643714905,-0.012566495686769485,-0.006494740955531597,},{-0.29022449254989624,0.47521597146987915,0.277500718832016,-0.33401843905448914,-0.2882027328014374,-0.049063269048929214,-0.40620988607406616,-0.11612582951784134,0.39868563413619995,-0.2591013014316559,-0.4373471736907959,-0.27086341381073,-0.42089658975601196,0.20240941643714905,-0.012566495686769485,-0.006494740955531597,},{-0.29022449254989624,0.47521597146987915,0.277500718832016,-0.33401843905448914,-0.2882027328014374,-0.049063269048929214,-0.40620988607406616,-0.11612582951784134,0.39868563413619995,-0.2591013014316559,-0.4373471736907959,-0.27086341381073,-0.42089658975601196,0.20240941643714905,-0.012566495686769485,-0.006494740955531597,},{-0.29022449254989624,0.47521597146987915,0.277500718832016,-0.33401843905448914,-0.2882027328014374,-0.049063269048929214,-0.40620988607406616,-0.11612582951784134,0.39868563413619995,-0.2591013014316559,-0.4373471736907959,-0.27086341381073,-0.42089658975601196,0.20240941643714905,-0.012566495686769485,-0.006494740955531597,},{-0.29022449254989624,0.47521597146987915,0.277500718832016,-0.33401843905448914,-0.2882027328014374,-0.049063269048929214,-0.40620988607406616,-0.11612582951784134,0.39868563413619995,-0.2591013014316559,-0.4373471736907959,-0.27086341381073,-0.42089658975601196,0.20240941643714905,-0.012566495686769485,-0.006494740955531597,},{-0.29022449254989624,0.47521597146987915,0.277500718832016,-0.33401843905448914,-0.2882027328014374,-0.049063269048929214,-0.40620988607406616,-0.11612582951784134,0.39868563413619995,-0.2591013014316559,-0.4373471736907959,-0.27086341381073,-0.42089658975601196,0.20240941643714905,-0.012566495686769485,-0.006494740955531597,},{-0.29022449254989624,0.47521597146987915,0.277500718832016,-0.33401843905448914,-0.2882027328014374,-0.049063269048929214,-0.40620988607406616,-0.11612582951784134,0.39868563413619995,-0.2591013014316559,-0.4373471736907959,-0.27086341381073,-0.42089658975601196,0.20240941643714905,-0.012566495686769485,-0.006494740955531597,},}}{{0.40272969007492065,-0.3915141224861145,0.21153222024440765,-0.05771670490503311,0.2552573084831238,0.2910902798175812,-0.3647473156452179,0.14349061250686646,0.35210734605789185,0.045001547783613205,0.06362827122211456,-0.2704751491546631,0.14688542485237122,0.35254335403442383,-0.17577381432056427,0.3918275535106659,},{0.40272969007492065,-0.3915141224861145,0.21153222024440765,-0.05771670490503311,0.2552573084831238,0.2910902798175812,-0.3647473156452179,0.14349061250686646,0.35210734605789185,0.045001547783613205,0.06362827122211456,-0.2704751491546631,0.14688542485237122,0.35254335403442383,-0.17577381432056427,0.3918275535106659,},{0.40272969007492065,-0.3915141224861145,0.21153222024440765,-0.05771670490503311,0.2552573084831238,0.2910902798175812,-0.3647473156452179,0.14349061250686646,0.35210734605789185,0.045001547783613205,0.06362827122211456,-0.2704751491546631,0.14688542485237122,0.35254335403442383,-0.17577381432056427,0.3918275535106659,},{0.40272969007492065,-0.3915141224861145,0.21153222024440765,-0.05771670490503311,0.2552573084831238,0.2910902798175812,-0.3647473156452179,0.14349061250686646,0.35210734605789185,0.045001547783613205,0.06362827122211456,-0.2704751491546631,0.14688542485237122,0.35254335403442383,-0.17577381432056427,0.3918275535106659,},{0.40272969007492065,-0.3915141224861145,0.21153222024440765,-0.05771670490503311,0.2552573084831238,0.2910902798175812,-0.3647473156452179,0.14349061250686646,0.35210734605789185,0.045001547783613205,0.06362827122211456,-0.2704751491546631,0.14688542485237122,0.35254335403442383,-0.17577381432056427,0.3918275535106659,},{0.40272969007492065,-0.3915141224861145,0.21153222024440765,-0.05771670490503311,0.2552573084831238,0.2910902798175812,-0.3647473156452179,0.14349061250686646,0.35210734605789185,0.045001547783613205,0.06362827122211456,-0.2704751491546631,0.14688542485237122,0.35254335403442383,-0.17577381432056427,0.3918275535106659,},{0.40272969007492065,-0.3915141224861145,0.21153222024440765,-0.05771670490503311,0.2552573084831238,0.2910902798175812,-0.3647473156452179,0.14349061250686646,0.35210734605789185,0.045001547783613205,0.06362827122211456,-0.2704751491546631,0.14688542485237122,0.35254335403442383,-0.17577381432056427,0.3918275535106659,},{0.40272969007492065,-0.3915141224861145,0.21153222024440765,-0.05771670490503311,0.2552573084831238,0.2910902798175812,-0.3647473156452179,0.14349061250686646,0.35210734605789185,0.045001547783613205,0.06362827122211456,-0.2704751491546631,0.14688542485237122,0.35254335403442383,-0.17577381432056427,0.3918275535106659,},{0.40272969007492065,-0.3915141224861145,0.21153222024440765,-0.05771670490503311,0.2552573084831238,0.2910902798175812,-0.3647473156452179,0.14349061250686646,0.35210734605789185,0.045001547783613205,0.06362827122211456,-0.2704751491546631,0.14688542485237122,0.35254335403442383,-0.17577381432056427,0.3918275535106659,},{0.40272969007492065,-0.3915141224861145,0.21153222024440765,-0.05771670490503311,0.2552573084831238,0.2910902798175812,-0.3647473156452179,0.14349061250686646,0.35210734605789185,0.045001547783613205,0.06362827122211456,-0.2704751491546631,0.14688542485237122,0.35254335403442383,-0.17577381432056427,0.3918275535106659,},{0.40272969007492065,-0.3915141224861145,0.21153222024440765,-0.05771670490503311,0.2552573084831238,0.2910902798175812,-0.3647473156452179,0.14349061250686646,0.35210734605789185,0.045001547783613205,0.06362827122211456,-0.2704751491546631,0.14688542485237122,0.35254335403442383,-0.17577381432056427,0.3918275535106659,},{0.40272969007492065,-0.3915141224861145,0.21153222024440765,-0.05771670490503311,0.2552573084831238,0.2910902798175812,-0.3647473156452179,0.14349061250686646,0.35210734605789185,0.045001547783613205,0.06362827122211456,-0.2704751491546631,0.14688542485237122,0.35254335403442383,-0.17577381432056427,0.3918275535106659,},{0.40272969007492065,-0.3915141224861145,0.21153222024440765,-0.05771670490503311,0.2552573084831238,0.2910902798175812,-0.3647473156452179,0.14349061250686646,0.35210734605789185,0.045001547783613205,0.06362827122211456,-0.2704751491546631,0.14688542485237122,0.35254335403442383,-0.17577381432056427,0.3918275535106659,},{0.40272969007492065,-0.3915141224861145,0.21153222024440765,-0.05771670490503311,0.2552573084831238,0.2910902798175812,-0.3647473156452179,0.14349061250686646,0.35210734605789185,0.045001547783613205,0.06362827122211456,-0.2704751491546631,0.14688542485237122,0.35254335403442383,-0.17577381432056427,0.3918275535106659,},{0.40272969007492065,-0.3915141224861145,0.21153222024440765,-0.05771670490503311,0.2552573084831238,0.2910902798175812,-0.3647473156452179,0.14349061250686646,0.35210734605789185,0.045001547783613205,0.06362827122211456,-0.2704751491546631,0.14688542485237122,0.35254335403442383,-0.17577381432056427,0.3918275535106659,},{0.40272969007492065,-0.3915141224861145,0.21153222024440765,-0.05771670490503311,0.2552573084831238,0.2910902798175812,-0.3647473156452179,0.14349061250686646,0.35210734605789185,0.045001547783613205,0.06362827122211456,-0.2704751491546631,0.14688542485237122,0.35254335403442383,-0.17577381432056427,0.3918275535106659,},}}{{-0.37494465708732605,0.030835529789328575,0.2917257845401764,-0.18846575915813446,0.13698546588420868,0.15499843657016754,-0.2678714096546173,-0.3104342520236969,-0.17883922159671783,-0.08481549471616745,0.2915283739566803,0.023964175954461098,-0.3609272539615631,-0.39843130111694336,-0.024052858352661133,0.11450926959514618,},{-0.37494465708732605,0.030835529789328575,0.2917257845401764,-0.18846575915813446,0.13698546588420868,0.15499843657016754,-0.2678714096546173,-0.3104342520236969,-0.17883922159671783,-0.08481549471616745,0.2915283739566803,0.023964175954461098,-0.3609272539615631,-0.39843130111694336,-0.024052858352661133,0.11450926959514618,},{-0.37494465708732605,0.030835529789328575,0.2917257845401764,-0.18846575915813446,0.13698546588420868,0.15499843657016754,-0.2678714096546173,-0.3104342520236969,-0.17883922159671783,-0.08481549471616745,0.2915283739566803,0.023964175954461098,-0.3609272539615631,-0.39843130111694336,-0.024052858352661133,0.11450926959514618,},{-0.37494465708732605,0.030835529789328575,0.2917257845401764,-0.18846575915813446,0.13698546588420868,0.15499843657016754,-0.2678714096546173,-0.3104342520236969,-0.17883922159671783,-0.08481549471616745,0.2915283739566803,0.023964175954461098,-0.3609272539615631,-0.39843130111694336,-0.024052858352661133,0.11450926959514618,},{-0.37494465708732605,0.030835529789328575,0.2917257845401764,-0.18846575915813446,0.13698546588420868,0.15499843657016754,-0.2678714096546173,-0.3104342520236969,-0.17883922159671783,-0.08481549471616745,0.2915283739566803,0.023964175954461098,-0.3609272539615631,-0.39843130111694336,-0.024052858352661133,0.11450926959514618,},{-0.37494465708732605,0.030835529789328575,0.2917257845401764,-0.18846575915813446,0.13698546588420868,0.15499843657016754,-0.2678714096546173,-0.3104342520236969,-0.17883922159671783,-0.08481549471616745,0.2915283739566803,0.023964175954461098,-0.3609272539615631,-0.39843130111694336,-0.024052858352661133,0.11450926959514618,},{-0.37494465708732605,0.030835529789328575,0.2917257845401764,-0.18846575915813446,0.13698546588420868,0.15499843657016754,-0.2678714096546173,-0.3104342520236969,-0.17883922159671783,-0.08481549471616745,0.2915283739566803,0.023964175954461098,-0.3609272539615631,-0.39843130111694336,-0.024052858352661133,0.11450926959514618,},{-0.37494465708732605,0.030835529789328575,0.2917257845401764,-0.18846575915813446,0.13698546588420868,0.15499843657016754,-0.2678714096546173,-0.3104342520236969,-0.17883922159671783,-0.08481549471616745,0.2915283739566803,0.023964175954461098,-0.3609272539615631,-0.39843130111694336,-0.024052858352661133,0.11450926959514618,},{-0.37494465708732605,0.030835529789328575,0.2917257845401764,-0.18846575915813446,0.13698546588420868,0.15499843657016754,-0.2678714096546173,-0.3104342520236969,-0.17883922159671783,-0.08481549471616745,0.2915283739566803,0.023964175954461098,-0.3609272539615631,-0.39843130111694336,-0.024052858352661133,0.11450926959514618,},{-0.37494465708732605,0.030835529789328575,0.2917257845401764,-0.18846575915813446,0.13698546588420868,0.15499843657016754,-0.2678714096546173,-0.3104342520236969,-0.17883922159671783,-0.08481549471616745,0.2915283739566803,0.023964175954461098,-0.3609272539615631,-0.39843130111694336,-0.024052858352661133,0.11450926959514618,},{-0.37494465708732605,0.030835529789328575,0.2917257845401764,-0.18846575915813446,0.13698546588420868,0.15499843657016754,-0.2678714096546173,-0.3104342520236969,-0.17883922159671783,-0.08481549471616745,0.2915283739566803,0.023964175954461098,-0.3609272539615631,-0.39843130111694336,-0.024052858352661133,0.11450926959514618,},{-0.37494465708732605,0.030835529789328575,0.2917257845401764,-0.18846575915813446,0.13698546588420868,0.15499843657016754,-0.2678714096546173,-0.3104342520236969,-0.17883922159671783,-0.08481549471616745,0.2915283739566803,0.023964175954461098,-0.3609272539615631,-0.39843130111694336,-0.024052858352661133,0.11450926959514618,},{-0.37494465708732605,0.030835529789328575,0.2917257845401764,-0.18846575915813446,0.13698546588420868,0.15499843657016754,-0.2678714096546173,-0.3104342520236969,-0.17883922159671783,-0.08481549471616745,0.2915283739566803,0.023964175954461098,-0.3609272539615631,-0.39843130111694336,-0.024052858352661133,0.11450926959514618,},{-0.37494465708732605,0.030835529789328575,0.2917257845401764,-0.18846575915813446,0.13698546588420868,0.15499843657016754,-0.2678714096546173,-0.3104342520236969,-0.17883922159671783,-0.08481549471616745,0.2915283739566803,0.023964175954461098,-0.3609272539615631,-0.39843130111694336,-0.024052858352661133,0.11450926959514618,},{-0.37494465708732605,0.030835529789328575,0.2917257845401764,-0.18846575915813446,0.13698546588420868,0.15499843657016754,-0.2678714096546173,-0.3104342520236969,-0.17883922159671783,-0.08481549471616745,0.2915283739566803,0.023964175954461098,-0.3609272539615631,-0.39843130111694336,-0.024052858352661133,0.11450926959514618,},{-0.37494465708732605,0.030835529789328575,0.2917257845401764,-0.18846575915813446,0.13698546588420868,0.15499843657016754,-0.2678714096546173,-0.3104342520236969,-0.17883922159671783,-0.08481549471616745,0.2915283739566803,0.023964175954461098,-0.3609272539615631,-0.39843130111694336,-0.024052858352661133,0.11450926959514618,},}}{{-0.025936780497431755,0.001306467573158443,0.398275226354599,-0.46665507555007935,-0.15491226315498352,0.01007024198770523,0.2648341953754425,0.38894930481910706,-0.21064968407154083,0.4447125196456909,0.2594473361968994,0.21946123242378235,0.03446848317980766,0.39280617237091064,-0.16955989599227905,0.313768208026886,},{-0.025936780497431755,0.001306467573158443,0.398275226354599,-0.46665507555007935,-0.15491226315498352,0.01007024198770523,0.2648341953754425,0.38894930481910706,-0.21064968407154083,0.4447125196456909,0.2594473361968994,0.21946123242378235,0.03446848317980766,0.39280617237091064,-0.16955989599227905,0.313768208026886,},{-0.025936780497431755,0.001306467573158443,0.398275226354599,-0.46665507555007935,-0.15491226315498352,0.01007024198770523,0.2648341953754425,0.38894930481910706,-0.21064968407154083,0.4447125196456909,0.2594473361968994,0.21946123242378235,0.03446848317980766,0.39280617237091064,-0.16955989599227905,0.313768208026886,},{-0.025936780497431755,0.001306467573158443,0.398275226354599,-0.46665507555007935,-0.15491226315498352,0.01007024198770523,0.2648341953754425,0.38894930481910706,-0.21064968407154083,0.4447125196456909,0.2594473361968994,0.21946123242378235,0.03446848317980766,0.39280617237091064,-0.16955989599227905,0.313768208026886,},{-0.025936780497431755,0.001306467573158443,0.398275226354599,-0.46665507555007935,-0.15491226315498352,0.01007024198770523,0.2648341953754425,0.38894930481910706,-0.21064968407154083,0.4447125196456909,0.2594473361968994,0.21946123242378235,0.03446848317980766,0.39280617237091064,-0.16955989599227905,0.313768208026886,},{-0.025936780497431755,0.001306467573158443,0.398275226354599,-0.46665507555007935,-0.15491226315498352,0.01007024198770523,0.2648341953754425,0.38894930481910706,-0.21064968407154083,0.4447125196456909,0.2594473361968994,0.21946123242378235,0.03446848317980766,0.39280617237091064,-0.16955989599227905,0.313768208026886,},{-0.025936780497431755,0.001306467573158443,0.398275226354599,-0.46665507555007935,-0.15491226315498352,0.01007024198770523,0.2648341953754425,0.38894930481910706,-0.21064968407154083,0.4447125196456909,0.2594473361968994,0.21946123242378235,0.03446848317980766,0.39280617237091064,-0.16955989599227905,0.313768208026886,},{-0.025936780497431755,0.001306467573158443,0.398275226354599,-0.46665507555007935,-0.15491226315498352,0.01007024198770523,0.2648341953754425,0.38894930481910706,-0.21064968407154083,0.4447125196456909,0.2594473361968994,0.21946123242378235,0.03446848317980766,0.39280617237091064,-0.16955989599227905,0.313768208026886,},{-0.025936780497431755,0.001306467573158443,0.398275226354599,-0.46665507555007935,-0.15491226315498352,0.01007024198770523,0.2648341953754425,0.38894930481910706,-0.21064968407154083,0.4447125196456909,0.2594473361968994,0.21946123242378235,0.03446848317980766,0.39280617237091064,-0.16955989599227905,0.313768208026886,},{-0.025936780497431755,0.001306467573158443,0.398275226354599,-0.46665507555007935,-0.15491226315498352,0.01007024198770523,0.2648341953754425,0.38894930481910706,-0.21064968407154083,0.4447125196456909,0.2594473361968994,0.21946123242378235,0.03446848317980766,0.39280617237091064,-0.16955989599227905,0.313768208026886,},{-0.025936780497431755,0.001306467573158443,0.398275226354599,-0.46665507555007935,-0.15491226315498352,0.01007024198770523,0.2648341953754425,0.38894930481910706,-0.21064968407154083,0.4447125196456909,0.2594473361968994,0.21946123242378235,0.03446848317980766,0.39280617237091064,-0.16955989599227905,0.313768208026886,},{-0.025936780497431755,0.001306467573158443,0.398275226354599,-0.46665507555007935,-0.15491226315498352,0.01007024198770523,0.2648341953754425,0.38894930481910706,-0.21064968407154083,0.4447125196456909,0.2594473361968994,0.21946123242378235,0.03446848317980766,0.39280617237091064,-0.16955989599227905,0.313768208026886,},{-0.025936780497431755,0.001306467573158443,0.398275226354599,-0.46665507555007935,-0.15491226315498352,0.01007024198770523,0.2648341953754425,0.38894930481910706,-0.21064968407154083,0.4447125196456909,0.2594473361968994,0.21946123242378235,0.03446848317980766,0.39280617237091064,-0.16955989599227905,0.313768208026886,},{-0.025936780497431755,0.001306467573158443,0.398275226354599,-0.46665507555007935,-0.15491226315498352,0.01007024198770523,0.2648341953754425,0.38894930481910706,-0.21064968407154083,0.4447125196456909,0.2594473361968994,0.21946123242378235,0.03446848317980766,0.39280617237091064,-0.16955989599227905,0.313768208026886,},{-0.025936780497431755,0.001306467573158443,0.398275226354599,-0.46665507555007935,-0.15491226315498352,0.01007024198770523,0.2648341953754425,0.38894930481910706,-0.21064968407154083,0.4447125196456909,0.2594473361968994,0.21946123242378235,0.03446848317980766,0.39280617237091064,-0.16955989599227905,0.313768208026886,},{-0.025936780497431755,0.001306467573158443,0.398275226354599,-0.46665507555007935,-0.15491226315498352,0.01007024198770523,0.2648341953754425,0.38894930481910706,-0.21064968407154083,0.4447125196456909,0.2594473361968994,0.21946123242378235,0.03446848317980766,0.39280617237091064,-0.16955989599227905,0.313768208026886,},}}{{-0.4242756962776184,0.0896666869521141,-0.2969619333744049,0.3483425974845886,0.19323742389678955,-0.2163257598876953,0.27458712458610535,-0.1261136829853058,0.3531472086906433,0.0006758255767636001,-0.12911686301231384,0.17973452806472778,-0.010330836288630962,0.13832397758960724,0.044396959245204926,0.0009028530330397189,},{-0.4242756962776184,0.0896666869521141,-0.2969619333744049,0.3483425974845886,0.19323742389678955,-0.2163257598876953,0.27458712458610535,-0.1261136829853058,0.3531472086906433,0.0006758255767636001,-0.12911686301231384,0.17973452806472778,-0.010330836288630962,0.13832397758960724,0.044396959245204926,0.0009028530330397189,},{-0.4242756962776184,0.0896666869521141,-0.2969619333744049,0.3483425974845886,0.19323742389678955,-0.2163257598876953,0.27458712458610535,-0.1261136829853058,0.3531472086906433,0.0006758255767636001,-0.12911686301231384,0.17973452806472778,-0.010330836288630962,0.13832397758960724,0.044396959245204926,0.0009028530330397189,},{-0.4242756962776184,0.0896666869521141,-0.2969619333744049,0.3483425974845886,0.19323742389678955,-0.2163257598876953,0.27458712458610535,-0.1261136829853058,0.3531472086906433,0.0006758255767636001,-0.12911686301231384,0.17973452806472778,-0.010330836288630962,0.13832397758960724,0.044396959245204926,0.0009028530330397189,},{-0.4242756962776184,0.0896666869521141,-0.2969619333744049,0.3483425974845886,0.19323742389678955,-0.2163257598876953,0.27458712458610535,-0.1261136829853058,0.3531472086906433,0.0006758255767636001,-0.12911686301231384,0.17973452806472778,-0.010330836288630962,0.13832397758960724,0.044396959245204926,0.0009028530330397189,},{-0.4242756962776184,0.0896666869521141,-0.2969619333744049,0.3483425974845886,0.19323742389678955,-0.2163257598876953,0.27458712458610535,-0.1261136829853058,0.3531472086906433,0.0006758255767636001,-0.12911686301231384,0.17973452806472778,-0.010330836288630962,0.13832397758960724,0.044396959245204926,0.0009028530330397189,},{-0.4242756962776184,0.0896666869521141,-0.2969619333744049,0.3483425974845886,0.19323742389678955,-0.2163257598876953,0.27458712458610535,-0.1261136829853058,0.3531472086906433,0.0006758255767636001,-0.12911686301231384,0.17973452806472778,-0.010330836288630962,0.13832397758960724,0.044396959245204926,0.0009028530330397189,},{-0.4242756962776184,0.0896666869521141,-0.2969619333744049,0.3483425974845886,0.19323742389678955,-0.2163257598876953,0.27458712458610535,-0.1261136829853058,0.3531472086906433,0.0006758255767636001,-0.12911686301231384,0.17973452806472778,-0.010330836288630962,0.13832397758960724,0.044396959245204926,0.0009028530330397189,},{-0.4242756962776184,0.0896666869521141,-0.2969619333744049,0.3483425974845886,0.19323742389678955,-0.2163257598876953,0.27458712458610535,-0.1261136829853058,0.3531472086906433,0.0006758255767636001,-0.12911686301231384,0.17973452806472778,-0.010330836288630962,0.13832397758960724,0.044396959245204926,0.0009028530330397189,},{-0.4242756962776184,0.0896666869521141,-0.2969619333744049,0.3483425974845886,0.19323742389678955,-0.2163257598876953,0.27458712458610535,-0.1261136829853058,0.3531472086906433,0.0006758255767636001,-0.12911686301231384,0.17973452806472778,-0.010330836288630962,0.13832397758960724,0.044396959245204926,0.0009028530330397189,},{-0.4242756962776184,0.0896666869521141,-0.2969619333744049,0.3483425974845886,0.19323742389678955,-0.2163257598876953,0.27458712458610535,-0.1261136829853058,0.3531472086906433,0.0006758255767636001,-0.12911686301231384,0.17973452806472778,-0.010330836288630962,0.13832397758960724,0.044396959245204926,0.0009028530330397189,},{-0.4242756962776184,0.0896666869521141,-0.2969619333744049,0.3483425974845886,0.19323742389678955,-0.2163257598876953,0.27458712458610535,-0.1261136829853058,0.3531472086906433,0.0006758255767636001,-0.12911686301231384,0.17973452806472778,-0.010330836288630962,0.13832397758960724,0.044396959245204926,0.0009028530330397189,},{-0.4242756962776184,0.0896666869521141,-0.2969619333744049,0.3483425974845886,0.19323742389678955,-0.2163257598876953,0.27458712458610535,-0.1261136829853058,0.3531472086906433,0.0006758255767636001,-0.12911686301231384,0.17973452806472778,-0.010330836288630962,0.13832397758960724,0.044396959245204926,0.0009028530330397189,},{-0.4242756962776184,0.0896666869521141,-0.2969619333744049,0.3483425974845886,0.19323742389678955,-0.2163257598876953,0.27458712458610535,-0.1261136829853058,0.3531472086906433,0.0006758255767636001,-0.12911686301231384,0.17973452806472778,-0.010330836288630962,0.13832397758960724,0.044396959245204926,0.0009028530330397189,},{-0.4242756962776184,0.0896666869521141,-0.2969619333744049,0.3483425974845886,0.19323742389678955,-0.2163257598876953,0.27458712458610535,-0.1261136829853058,0.3531472086906433,0.0006758255767636001,-0.12911686301231384,0.17973452806472778,-0.010330836288630962,0.13832397758960724,0.044396959245204926,0.0009028530330397189,},{-0.4242756962776184,0.0896666869521141,-0.2969619333744049,0.3483425974845886,0.19323742389678955,-0.2163257598876953,0.27458712458610535,-0.1261136829853058,0.3531472086906433,0.0006758255767636001,-0.12911686301231384,0.17973452806472778,-0.010330836288630962,0.13832397758960724,0.044396959245204926,0.0009028530330397189,},}}{{-0.09916440397500992,-0.408191978931427,-0.14846746623516083,-0.02721191570162773,0.3102979063987732,0.4393896758556366,-0.1307716965675354,-0.1565704643726349,0.10758107155561447,0.1312631517648697,0.09212523698806763,-0.4376876652240753,0.4349513351917267,-0.43151313066482544,0.047934640198946,0.23722146451473236,},{-0.09916440397500992,-0.408191978931427,-0.14846746623516083,-0.02721191570162773,0.3102979063987732,0.4393896758556366,-0.1307716965675354,-0.1565704643726349,0.10758107155561447,0.1312631517648697,0.09212523698806763,-0.4376876652240753,0.4349513351917267,-0.43151313066482544,0.047934640198946,0.23722146451473236,},{-0.09916440397500992,-0.408191978931427,-0.14846746623516083,-0.02721191570162773,0.3102979063987732,0.4393896758556366,-0.1307716965675354,-0.1565704643726349,0.10758107155561447,0.1312631517648697,0.09212523698806763,-0.4376876652240753,0.4349513351917267,-0.43151313066482544,0.047934640198946,0.23722146451473236,},{-0.09916440397500992,-0.408191978931427,-0.14846746623516083,-0.02721191570162773,0.3102979063987732,0.4393896758556366,-0.1307716965675354,-0.1565704643726349,0.10758107155561447,0.1312631517648697,0.09212523698806763,-0.4376876652240753,0.4349513351917267,-0.43151313066482544,0.047934640198946,0.23722146451473236,},{-0.09916440397500992,-0.408191978931427,-0.14846746623516083,-0.02721191570162773,0.3102979063987732,0.4393896758556366,-0.1307716965675354,-0.1565704643726349,0.10758107155561447,0.1312631517648697,0.09212523698806763,-0.4376876652240753,0.4349513351917267,-0.43151313066482544,0.047934640198946,0.23722146451473236,},{-0.09916440397500992,-0.408191978931427,-0.14846746623516083,-0.02721191570162773,0.3102979063987732,0.4393896758556366,-0.1307716965675354,-0.1565704643726349,0.10758107155561447,0.1312631517648697,0.09212523698806763,-0.4376876652240753,0.4349513351917267,-0.43151313066482544,0.047934640198946,0.23722146451473236,},{-0.09916440397500992,-0.408191978931427,-0.14846746623516083,-0.02721191570162773,0.3102979063987732,0.4393896758556366,-0.1307716965675354,-0.1565704643726349,0.10758107155561447,0.1312631517648697,0.09212523698806763,-0.4376876652240753,0.4349513351917267,-0.43151313066482544,0.047934640198946,0.23722146451473236,},{-0.09916440397500992,-0.408191978931427,-0.14846746623516083,-0.02721191570162773,0.3102979063987732,0.4393896758556366,-0.1307716965675354,-0.1565704643726349,0.10758107155561447,0.1312631517648697,0.09212523698806763,-0.4376876652240753,0.4349513351917267,-0.43151313066482544,0.047934640198946,0.23722146451473236,},{-0.09916440397500992,-0.408191978931427,-0.14846746623516083,-0.02721191570162773,0.3102979063987732,0.4393896758556366,-0.1307716965675354,-0.1565704643726349,0.10758107155561447,0.1312631517648697,0.09212523698806763,-0.4376876652240753,0.4349513351917267,-0.43151313066482544,0.047934640198946,0.23722146451473236,},{-0.09916440397500992,-0.408191978931427,-0.14846746623516083,-0.02721191570162773,0.3102979063987732,0.4393896758556366,-0.1307716965675354,-0.1565704643726349,0.10758107155561447,0.1312631517648697,0.09212523698806763,-0.4376876652240753,0.4349513351917267,-0.43151313066482544,0.047934640198946,0.23722146451473236,},{-0.09916440397500992,-0.408191978931427,-0.14846746623516083,-0.02721191570162773,0.3102979063987732,0.4393896758556366,-0.1307716965675354,-0.1565704643726349,0.10758107155561447,0.1312631517648697,0.09212523698806763,-0.4376876652240753,0.4349513351917267,-0.43151313066482544,0.047934640198946,0.23722146451473236,},{-0.09916440397500992,-0.408191978931427,-0.14846746623516083,-0.02721191570162773,0.3102979063987732,0.4393896758556366,-0.1307716965675354,-0.1565704643726349,0.10758107155561447,0.1312631517648697,0.09212523698806763,-0.4376876652240753,0.4349513351917267,-0.43151313066482544,0.047934640198946,0.23722146451473236,},{-0.09916440397500992,-0.408191978931427,-0.14846746623516083,-0.02721191570162773,0.3102979063987732,0.4393896758556366,-0.1307716965675354,-0.1565704643726349,0.10758107155561447,0.1312631517648697,0.09212523698806763,-0.4376876652240753,0.4349513351917267,-0.43151313066482544,0.047934640198946,0.23722146451473236,},{-0.09916440397500992,-0.408191978931427,-0.14846746623516083,-0.02721191570162773,0.3102979063987732,0.4393896758556366,-0.1307716965675354,-0.1565704643726349,0.10758107155561447,0.1312631517648697,0.09212523698806763,-0.4376876652240753,0.4349513351917267,-0.43151313066482544,0.047934640198946,0.23722146451473236,},{-0.09916440397500992,-0.408191978931427,-0.14846746623516083,-0.02721191570162773,0.3102979063987732,0.4393896758556366,-0.1307716965675354,-0.1565704643726349,0.10758107155561447,0.1312631517648697,0.09212523698806763,-0.4376876652240753,0.4349513351917267,-0.43151313066482544,0.047934640198946,0.23722146451473236,},{-0.09916440397500992,-0.408191978931427,-0.14846746623516083,-0.02721191570162773,0.3102979063987732,0.4393896758556366,-0.1307716965675354,-0.1565704643726349,0.10758107155561447,0.1312631517648697,0.09212523698806763,-0.4376876652240753,0.4349513351917267,-0.43151313066482544,0.047934640198946,0.23722146451473236,},}}