{{0.2278594821691513,0.5661036372184753,-0.28092435002326965,-0.07558805495500565,-0.12530182301998138,0.480975866317749,},{0.2278594821691513,0.5661036372184753,-0.28092435002326965,-0.07558805495500565,-0.12530182301998138,0.480975866317749,},{0.2278594821691513,0.5661036372184753,-0.28092435002326965,-0.07558805495500565,-0.12530182301998138,0.480975866317749,},{0.2278594821691513,0.5661036372184753,-0.28092435002326965,-0.07558805495500565,-0.12530182301998138,0.480975866317749,},{0.2278594821691513,0.5661036372184753,-0.28092435002326965,-0.07558805495500565,-0.12530182301998138,0.480975866317749,},{0.2278594821691513,0.5661036372184753,-0.28092435002326965,-0.07558805495500565,-0.12530182301998138,0.480975866317749,},}}{{-0.48664748668670654,-0.18540042638778687,0.07402081042528152,-0.16065451502799988,-0.43818071484565735,0.20837846398353577,},{-0.48664748668670654,-0.18540042638778687,0.07402081042528152,-0.16065451502799988,-0.43818071484565735,0.20837846398353577,},{-0.48664748668670654,-0.18540042638778687,0.07402081042528152,-0.16065451502799988,-0.43818071484565735,0.20837846398353577,},{-0.48664748668670654,-0.18540042638778687,0.07402081042528152,-0.16065451502799988,-0.43818071484565735,0.20837846398353577,},{-0.48664748668670654,-0.18540042638778687,0.07402081042528152,-0.16065451502799988,-0.43818071484565735,0.20837846398353577,},{-0.48664748668670654,-0.18540042638778687,0.07402081042528152,-0.16065451502799988,-0.43818071484565735,0.20837846398353577,},}}{{-0.26994696259498596,-0.40868091583251953,0.43353262543678284,0.5488845705986023,0.41393420100212097,0.2476312667131424,},{-0.26994696259498596,-0.40868091583251953,0.43353262543678284,0.5488845705986023,0.41393420100212097,0.2476312667131424,},{-0.26994696259498596,-0.40868091583251953,0.43353262543678284,0.5488845705986023,0.41393420100212097,0.2476312667131424,},{-0.26994696259498596,-0.40868091583251953,0.43353262543678284,0.5488845705986023,0.41393420100212097,0.2476312667131424,},{-0.26994696259498596,-0.40868091583251953,0.43353262543678284,0.5488845705986023,0.41393420100212097,0.2476312667131424,},{-0.26994696259498596,-0.40868091583251953,0.43353262543678284,0.5488845705986023,0.41393420100212097,0.2476312667131424,},}}{{-0.4692339301109314,0.8818020224571228,0.305392861366272,-0.2710818946361542,0.28967636823654175,-0.0007103247917257249,},{-0.4692339301109314,0.8818020224571228,0.305392861366272,-0.2710818946361542,0.28967636823654175,-0.0007103247917257249,},{-0.4692339301109314,0.8818020224571228,0.305392861366272,-0.2710818946361542,0.28967636823654175,-0.0007103247917257249,},{-0.4692339301109314,0.8818020224571228,0.305392861366272,-0.2710818946361542,0.28967636823654175,-0.0007103247917257249,},{-0.4692339301109314,0.8818020224571228,0.305392861366272,-0.2710818946361542,0.28967636823654175,-0.0007103247917257249,},{-0.4692339301109314,0.8818020224571228,0.305392861366272,-0.2710818946361542,0.28967636823654175,-0.0007103247917257249,},}}{{-0.06544171273708344,0.8550704717636108,-0.0746738612651825,-0.2898523807525635,0.020868247374892235,0.1802128702402115,},{-0.06544171273708344,0.8550704717636108,-0.0746738612651825,-0.2898523807525635,0.020868247374892235,0.1802128702402115,},{-0.06544171273708344,0.8550704717636108,-0.0746738612651825,-0.2898523807525635,0.020868247374892235,0.1802128702402115,},{-0.06544171273708344,0.8550704717636108,-0.0746738612651825,-0.2898523807525635,0.020868247374892235,0.1802128702402115,},{-0.06544171273708344,0.8550704717636108,-0.0746738612651825,-0.2898523807525635,0.020868247374892235,0.1802128702402115,},{-0.06544171273708344,0.8550704717636108,-0.0746738612651825,-0.2898523807525635,0.020868247374892235,0.1802128702402115,},}}{{-0.4035162627696991,-0.3425311744213104,0.6220729947090149,-0.036658283323049545,-0.6022493243217468,-0.313199907541275,},{-0.4035162627696991,-0.3425311744213104,0.6220729947090149,-0.036658283323049545,-0.6022493243217468,-0.313199907541275,},{-0.4035162627696991,-0.3425311744213104,0.6220729947090149,-0.036658283323049545,-0.6022493243217468,-0.313199907541275,},{-0.4035162627696991,-0.3425311744213104,0.6220729947090149,-0.036658283323049545,-0.6022493243217468,-0.313199907541275,},{-0.4035162627696991,-0.3425311744213104,0.6220729947090149,-0.036658283323049545,-0.6022493243217468,-0.313199907541275,},{-0.4035162627696991,-0.3425311744213104,0.6220729947090149,-0.036658283323049545,-0.6022493243217468,-0.313199907541275,},}}{{-0.02598080411553383,0.030372537672519684,0.3501971364021301,0.021480832248926163,0.3027782142162323,0.1597612500190735,},{-0.02598080411553383,0.030372537672519684,0.3501971364021301,0.021480832248926163,0.3027782142162323,0.1597612500190735,},{-0.02598080411553383,0.030372537672519684,0.3501971364021301,0.021480832248926163,0.3027782142162323,0.1597612500190735,},{-0.02598080411553383,0.030372537672519684,0.3501971364021301,0.021480832248926163,0.3027782142162323,0.1597612500190735,},{-0.02598080411553383,0.030372537672519684,0.3501971364021301,0.021480832248926163,0.3027782142162323,0.1597612500190735,},{-0.02598080411553383,0.030372537672519684,0.3501971364021301,0.021480832248926163,0.3027782142162323,0.1597612500190735,},}}{{0.7683204412460327,0.31215739250183105,0.15825501084327698,-0.03319355845451355,-0.1705080270767212,-0.204290509223938,},{0.7683204412460327,0.31215739250183105,0.15825501084327698,-0.03319355845451355,-0.1705080270767212,-0.204290509223938,},{0.7683204412460327,0.31215739250183105,0.15825501084327698,-0.03319355845451355,-0.1705080270767212,-0.204290509223938,},{0.7683204412460327,0.31215739250183105,0.15825501084327698,-0.03319355845451355,-0.1705080270767212,-0.204290509223938,},{0.7683204412460327,0.31215739250183105,0.15825501084327698,-0.03319355845451355,-0.1705080270767212,-0.204290509223938,},{0.7683204412460327,0.31215739250183105,0.15825501084327698,-0.03319355845451355,-0.1705080270767212,-0.204290509223938,},}}