{{-0.5350388288497925,-0.20617221295833588,0.5751007199287415,-0.4913645088672638,0.36880308389663696,0.17796090245246887,-0.2783149778842926,-0.018377037718892097,},{-0.5350388288497925,-0.20617221295833588,0.5751007199287415,-0.4913645088672638,0.36880308389663696,0.17796090245246887,-0.2783149778842926,-0.018377037718892097,},{-0.5350388288497925,-0.20617221295833588,0.5751007199287415,-0.4913645088672638,0.36880308389663696,0.17796090245246887,-0.2783149778842926,-0.018377037718892097,},{-0.5350388288497925,-0.20617221295833588,0.5751007199287415,-0.4913645088672638,0.36880308389663696,0.17796090245246887,-0.2783149778842926,-0.018377037718892097,},{-0.5350388288497925,-0.20617221295833588,0.5751007199287415,-0.4913645088672638,0.36880308389663696,0.17796090245246887,-0.2783149778842926,-0.018377037718892097,},{-0.5350388288497925,-0.20617221295833588,0.5751007199287415,-0.4913645088672638,0.36880308389663696,0.17796090245246887,-0.2783149778842926,-0.018377037718892097,},{-0.5350388288497925,-0.20617221295833588,0.5751007199287415,-0.4913645088672638,0.36880308389663696,0.17796090245246887,-0.2783149778842926,-0.018377037718892097,},{-0.5350388288497925,-0.20617221295833588,0.5751007199287415,-0.4913645088672638,0.36880308389663696,0.17796090245246887,-0.2783149778842926,-0.018377037718892097,},}}{{0.08442120254039764,-0.617917001247406,-0.42616453766822815,-0.296673446893692,0.06817614287137985,-0.5618600845336914,0.6403915286064148,0.2839128375053406,},{0.08442120254039764,-0.617917001247406,-0.42616453766822815,-0.296673446893692,0.06817614287137985,-0.5618600845336914,0.6403915286064148,0.2839128375053406,},{0.08442120254039764,-0.617917001247406,-0.42616453766822815,-0.296673446893692,0.06817614287137985,-0.5618600845336914,0.6403915286064148,0.2839128375053406,},{0.08442120254039764,-0.617917001247406,-0.42616453766822815,-0.296673446893692,0.06817614287137985,-0.5618600845336914,0.6403915286064148,0.2839128375053406,},{0.08442120254039764,-0.617917001247406,-0.42616453766822815,-0.296673446893692,0.06817614287137985,-0.5618600845336914,0.6403915286064148,0.2839128375053406,},{0.08442120254039764,-0.617917001247406,-0.42616453766822815,-0.296673446893692,0.06817614287137985,-0.5618600845336914,0.6403915286064148,0.2839128375053406,},{0.08442120254039764,-0.617917001247406,-0.42616453766822815,-0.296673446893692,0.06817614287137985,-0.5618600845336914,0.6403915286064148,0.2839128375053406,},{0.08442120254039764,-0.617917001247406,-0.42616453766822815,-0.296673446893692,0.06817614287137985,-0.5618600845336914,0.6403915286064148,0.2839128375053406,},}}{{-0.04803645610809326,0.19416950643062592,0.3112605810165405,0.033039212226867676,0.16005496680736542,-0.5210490226745605,0.09461645781993866,-0.5590764880180359,},{-0.04803645610809326,0.19416950643062592,0.3112605810165405,0.033039212226867676,0.16005496680736542,-0.5210490226745605,0.09461645781993866,-0.5590764880180359,},{-0.04803645610809326,0.19416950643062592,0.3112605810165405,0.033039212226867676,0.16005496680736542,-0.5210490226745605,0.09461645781993866,-0.5590764880180359,},{-0.04803645610809326,0.19416950643062592,0.3112605810165405,0.033039212226867676,0.16005496680736542,-0.5210490226745605,0.09461645781993866,-0.5590764880180359,},{-0.04803645610809326,0.19416950643062592,0.3112605810165405,0.033039212226867676,0.16005496680736542,-0.5210490226745605,0.09461645781993866,-0.5590764880180359,},{-0.04803645610809326,0.19416950643062592,0.3112605810165405,0.033039212226867676,0.16005496680736542,-0.5210490226745605,0.09461645781993866,-0.5590764880180359,},{-0.04803645610809326,0.19416950643062592,0.3112605810165405,0.033039212226867676,0.16005496680736542,-0.5210490226745605,0.09461645781993866,-0.5590764880180359,},{-0.04803645610809326,0.19416950643062592,0.3112605810165405,0.033039212226867676,0.16005496680736542,-0.5210490226745605,0.09461645781993866,-0.5590764880180359,},}}{{-0.12274134159088135,0.24319389462471008,0.3849463164806366,-0.0898902639746666,0.45690709352493286,-0.2917958199977875,0.011468075215816498,-0.365842342376709,},{-0.12274134159088135,0.24319389462471008,0.3849463164806366,-0.0898902639746666,0.45690709352493286,-0.2917958199977875,0.011468075215816498,-0.365842342376709,},{-0.12274134159088135,0.24319389462471008,0.3849463164806366,-0.0898902639746666,0.45690709352493286,-0.2917958199977875,0.011468075215816498,-0.365842342376709,},{-0.12274134159088135,0.24319389462471008,0.3849463164806366,-0.0898902639746666,0.45690709352493286,-0.2917958199977875,0.011468075215816498,-0.365842342376709,},{-0.12274134159088135,0.24319389462471008,0.3849463164806366,-0.0898902639746666,0.45690709352493286,-0.2917958199977875,0.011468075215816498,-0.365842342376709,},{-0.12274134159088135,0.24319389462471008,0.3849463164806366,-0.0898902639746666,0.45690709352493286,-0.2917958199977875,0.011468075215816498,-0.365842342376709,},{-0.12274134159088135,0.24319389462471008,0.3849463164806366,-0.0898902639746666,0.45690709352493286,-0.2917958199977875,0.011468075215816498,-0.365842342376709,},{-0.12274134159088135,0.24319389462471008,0.3849463164806366,-0.0898902639746666,0.45690709352493286,-0.2917958199977875,0.011468075215816498,-0.365842342376709,},}}{{0.12700778245925903,0.06530448794364929,0.18067646026611328,0.4683384299278259,-0.554963231086731,0.17076483368873596,-0.3624538779258728,-0.501425564289093,},{0.12700778245925903,0.06530448794364929,0.18067646026611328,0.4683384299278259,-0.554963231086731,0.17076483368873596,-0.3624538779258728,-0.501425564289093,},{0.12700778245925903,0.06530448794364929,0.18067646026611328,0.4683384299278259,-0.554963231086731,0.17076483368873596,-0.3624538779258728,-0.501425564289093,},{0.12700778245925903,0.06530448794364929,0.18067646026611328,0.4683384299278259,-0.554963231086731,0.17076483368873596,-0.3624538779258728,-0.501425564289093,},{0.12700778245925903,0.06530448794364929,0.18067646026611328,0.4683384299278259,-0.554963231086731,0.17076483368873596,-0.3624538779258728,-0.501425564289093,},{0.12700778245925903,0.06530448794364929,0.18067646026611328,0.4683384299278259,-0.554963231086731,0.17076483368873596,-0.3624538779258728,-0.501425564289093,},{0.12700778245925903,0.06530448794364929,0.18067646026611328,0.4683384299278259,-0.554963231086731,0.17076483368873596,-0.3624538779258728,-0.501425564289093,},{0.12700778245925903,0.06530448794364929,0.18067646026611328,0.4683384299278259,-0.554963231086731,0.17076483368873596,-0.3624538779258728,-0.501425564289093,},}}{{-0.381725937128067,0.236202672123909,-0.22167553007602692,0.3400302529335022,0.033590130507946014,0.32132840156555176,0.3180098235607147,-0.011167372576892376,},{-0.381725937128067,0.236202672123909,-0.22167553007602692,0.3400302529335022,0.033590130507946014,0.32132840156555176,0.3180098235607147,-0.011167372576892376,},{-0.381725937128067,0.236202672123909,-0.22167553007602692,0.3400302529335022,0.033590130507946014,0.32132840156555176,0.3180098235607147,-0.011167372576892376,},{-0.381725937128067,0.236202672123909,-0.22167553007602692,0.3400302529335022,0.033590130507946014,0.32132840156555176,0.3180098235607147,-0.011167372576892376,},{-0.381725937128067,0.236202672123909,-0.22167553007602692,0.3400302529335022,0.033590130507946014,0.32132840156555176,0.3180098235607147,-0.011167372576892376,},{-0.381725937128067,0.236202672123909,-0.22167553007602692,0.3400302529335022,0.033590130507946014,0.32132840156555176,0.3180098235607147,-0.011167372576892376,},{-0.381725937128067,0.236202672123909,-0.22167553007602692,0.3400302529335022,0.033590130507946014,0.32132840156555176,0.3180098235607147,-0.011167372576892376,},{-0.381725937128067,0.236202672123909,-0.22167553007602692,0.3400302529335022,0.033590130507946014,0.32132840156555176,0.3180098235607147,-0.011167372576892376,},}}{{0.4894072115421295,0.3486045300960541,0.0785035640001297,-0.33654195070266724,0.18745937943458557,0.17656970024108887,-0.2765621840953827,-0.5686649680137634,},{0.4894072115421295,0.3486045300960541,0.0785035640001297,-0.33654195070266724,0.18745937943458557,0.17656970024108887,-0.2765621840953827,-0.5686649680137634,},{0.4894072115421295,0.3486045300960541,0.0785035640001297,-0.33654195070266724,0.18745937943458557,0.17656970024108887,-0.2765621840953827,-0.5686649680137634,},{0.4894072115421295,0.3486045300960541,0.0785035640001297,-0.33654195070266724,0.18745937943458557,0.17656970024108887,-0.2765621840953827,-0.5686649680137634,},{0.4894072115421295,0.3486045300960541,0.0785035640001297,-0.33654195070266724,0.18745937943458557,0.17656970024108887,-0.2765621840953827,-0.5686649680137634,},{0.4894072115421295,0.3486045300960541,0.0785035640001297,-0.33654195070266724,0.18745937943458557,0.17656970024108887,-0.2765621840953827,-0.5686649680137634,},{0.4894072115421295,0.3486045300960541,0.0785035640001297,-0.33654195070266724,0.18745937943458557,0.17656970024108887,-0.2765621840953827,-0.5686649680137634,},{0.4894072115421295,0.3486045300960541,0.0785035640001297,-0.33654195070266724,0.18745937943458557,0.17656970024108887,-0.2765621840953827,-0.5686649680137634,},}}{{-0.03930766507983208,-0.14150749146938324,-0.008961226791143417,-0.7358437776565552,-0.6300675868988037,0.07634219527244568,0.41122275590896606,-0.15925320982933044,},{-0.03930766507983208,-0.14150749146938324,-0.008961226791143417,-0.7358437776565552,-0.6300675868988037,0.07634219527244568,0.41122275590896606,-0.15925320982933044,},{-0.03930766507983208,-0.14150749146938324,-0.008961226791143417,-0.7358437776565552,-0.6300675868988037,0.07634219527244568,0.41122275590896606,-0.15925320982933044,},{-0.03930766507983208,-0.14150749146938324,-0.008961226791143417,-0.7358437776565552,-0.6300675868988037,0.07634219527244568,0.41122275590896606,-0.15925320982933044,},{-0.03930766507983208,-0.14150749146938324,-0.008961226791143417,-0.7358437776565552,-0.6300675868988037,0.07634219527244568,0.41122275590896606,-0.15925320982933044,},{-0.03930766507983208,-0.14150749146938324,-0.008961226791143417,-0.7358437776565552,-0.6300675868988037,0.07634219527244568,0.41122275590896606,-0.15925320982933044,},{-0.03930766507983208,-0.14150749146938324,-0.008961226791143417,-0.7358437776565552,-0.6300675868988037,0.07634219527244568,0.41122275590896606,-0.15925320982933044,},{-0.03930766507983208,-0.14150749146938324,-0.008961226791143417,-0.7358437776565552,-0.6300675868988037,0.07634219527244568,0.41122275590896606,-0.15925320982933044,},}}