
#include <random>
#include <vector>
#include <iostream>
#include <algorithm>
#include <cstring> 


typedef struct control_t_n {
	float thrust_0;
	float thrust_1;
	float thrust_2;
	float thrust_3;
} control_t_n;

void networkEvaluate(control_t_n* control_n, const float* state_array);

static const int NEIGHBORS = 6;
static const int NBR_DIM = 6; 

static const int NUM_OBSTACLES = 2; 
static const int OBST_DIM = 9;



float linear(float num) {
	return num;
}



float sigmoid(float num) {
	return 1 / (1 + exp(-num));
}



float relu(float num) {
	if (num > 0) {
		return num;
	} else {
		return 0;
	}
}

static const int structure [11][2] = {{24, 8},{8, 8},{8, 8},{8, 8},{16, 8},{8, 8},{8, 1},{18, 16},{16, 16},{24, 32},{32, 4}};
static float output_0[8];
static float output_1[8];
static float output_2[8];
static float output_3[8];
static float output_4[8];
static float output_5[8];
static float output_6[1];
static float output_7[16];
static float output_8[16];
static float output_9[32];
static float output_10[8];
static float output_11[8];
static float output_12[8];
static float output_13[8];
static float output_14[8];
static float output_15[8];
static float output_16[1];
static float output_17[16];
static float output_18[16];
static float output_19[32];
static float output_20[1];
static float output_21[4];

static const float actor_encoder_neighbor_encoder_embedding_mlp_0_weight[24][8] = {{0.0025145101826637983,-0.002723559271544218,-0.0012141288025304675,0.00039148612995631993,-0.0028638483490794897,0.015289963223040104,0.0016937785549089313,-0.0013888207031413913},{0.0033222255297005177,-0.0011304097715765238,-0.005973688326776028,-0.003941581584513187,0.004352856893092394,-0.015555775724351406,0.0005468163290061057,0.0056491754949092865},{-0.010582473129034042,-0.0006198363844305277,-0.03156038001179695,-0.004889579489827156,-0.010892496444284916,-0.046887632459402084,-0.0014866456622257829,0.006152475252747536},{-0.004626445006579161,0.00040137622272595763,-0.004759456496685743,-0.0002475320943631232,-0.005583243910223246,-0.005023814272135496,-0.0004501396615523845,0.002618468599393964},{-0.0023984224535524845,-0.005230882205069065,-0.01921549253165722,-0.002442949451506138,-0.007653223816305399,-0.03184319660067558,-0.0015626481035724282,0.002704717218875885},{-0.015169819816946983,-0.0016100411303341389,-0.02499430999159813,-0.0032063450198620558,-0.013797368854284286,-0.019589878618717194,0.0002717429888434708,0.007297939620912075},{-0.10451991856098175,-0.2600327730178833,-0.16952840983867645,-0.0749816969037056,0.00024881947319954634,0.12395109236240387,-0.013393066823482513,-0.07942584902048111},{-0.1202542707324028,0.19681952893733978,-0.031146226450800896,-0.04110361263155937,-0.1935008317232132,0.05013681948184967,-0.009860599413514137,-0.05741911754012108},{0.037493228912353516,-0.004445588681846857,0.060007642954587936,0.013075358234345913,0.056904301047325134,0.003971036523580551,-0.0008407746790908277,0.007068483624607325},{-0.08629226684570312,0.16260789334774017,-0.05139157921075821,-0.039721690118312836,-0.15580850839614868,-0.03841029480099678,-0.006706261076033115,-0.03906979039311409},{0.0619465634226799,0.26552510261535645,0.18119345605373383,0.06622117757797241,-0.045023925602436066,-0.040067847818136215,0.010956981219351292,0.05520736426115036},{0.01735852286219597,0.010283791460096836,0.052373599261045456,0.018335305154323578,0.02135036326944828,0.11698759347200394,0.0028013326227664948,-0.023857593536376953},{-0.01118970476090908,-0.027491291984915733,-0.08704443275928497,-0.0066026197746396065,-0.004777225200086832,-0.21572105586528778,-0.0021262471564114094,0.05100928992033005},{0.06909899413585663,0.023622339591383934,0.10304407775402069,0.04479517042636871,0.05192357301712036,0.03965255618095398,-0.0024535043630748987,-0.012572900392115116},{0.24430258572101593,-0.03715674951672554,0.4118545651435852,0.06691623479127884,0.2867676615715027,0.1759941130876541,-0.011948690749704838,-0.02481803111732006},{0.003674619598314166,0.0009142447961494327,0.002858887892216444,9.99089825199917e-05,0.0010080807842314243,0.0035265935584902763,2.028303424594924e-05,0.00019893386343028396},{-0.001093254773877561,-0.00021006712631788105,-0.0001719817955745384,0.0008792161825112998,-0.00038291100645437837,0.0019309924682602286,-0.0008905677241273224,-0.0005655718850903213},{0.0017821857472881675,-0.0012522864853963256,0.003165698377415538,-5.9607020375551656e-05,-0.0006032345118001103,-0.0006940530147403479,-0.0004015661543235183,0.0009553807904012501},{-1.1699563264846802,0.8485391139984131,0.9591355919837952,0.028029466047883034,0.7104173302650452,-0.9611600637435913,1.7746797800064087,-1.2721930742263794},{-0.03993871808052063,0.03943926841020584,0.10952949523925781,-0.007826239801943302,0.06312479823827744,0.033153239637613297,0.09423176199197769,-0.21969355642795563},{0.7730579972267151,-0.10592285543680191,-0.37705060839653015,-0.3134966492652893,-0.9616092443466187,0.10424121469259262,-0.6141766905784607,-0.3957535922527313},{0.06582048535346985,-0.015337842516601086,0.24226337671279907,0.5886666774749756,0.005714515224099159,0.43891164660453796,-0.36108076572418213,0.39899879693984985},{0.19425199925899506,0.4895900785923004,-0.1811458021402359,-0.06302452832460403,0.49377599358558655,0.1453351080417633,-0.173394113779068,0.17015314102172852},{0.06575743854045868,0.2326773703098297,-0.2804308533668518,-0.2372557669878006,0.14938195049762726,-0.08646737039089203,-0.06757592409849167,-0.09041962772607803}};
static const float actor_encoder_neighbor_encoder_embedding_mlp_2_weight[8][8] = {{0.23068775236606598,0.4408237040042877,0.4174145460128784,-0.36202380061149597,0.3170546889305115,0.14196206629276276,-0.3651098906993866,-0.34255000948905945},{0.2252567559480667,-0.0520579069852829,-0.22533592581748962,-0.10427474230527878,-0.0012562490301206708,0.5952982902526855,0.19199302792549133,0.20346520841121674},{-0.4704034924507141,-0.08404950797557831,0.08924854546785355,0.13869616389274597,0.5082196593284607,0.17174659669399261,-0.44961217045783997,-0.06699889153242111},{-0.0036194806452840567,-0.4047768712043762,0.37969422340393066,0.1180177628993988,-0.23230215907096863,-0.22815580666065216,-0.0860443115234375,0.40643471479415894},{-0.29192227125167847,-0.05663272738456726,0.21305406093597412,-0.43521353602409363,0.16141313314437866,0.502024233341217,-0.3287622034549713,0.5093768835067749},{0.22144071757793427,0.07614719867706299,0.3259197771549225,-0.36957037448883057,0.2236652821302414,0.2174598127603531,0.07417301088571548,-0.07607808709144592},{0.1626870483160019,-0.6284834742546082,-0.12494692206382751,-0.46095094084739685,0.7114676237106323,-0.44498512148857117,-0.06379907578229904,0.7618641257286072},{0.5177553296089172,0.14120112359523773,0.29290083050727844,-0.06669080257415771,0.3388994336128235,0.5853954553604126,-0.4253837764263153,-0.3281431198120117}};
static const float actor_encoder_neighbor_encoder_neighbor_value_mlp_0_weight[8][8] = {{0.009029537439346313,0.25105300545692444,0.11336495727300644,-0.5198119282722473,0.06737744808197021,-0.3778001368045807,-0.36049047112464905,-0.25137564539909363},{-0.2965245842933655,0.10871367901563644,-0.5384800434112549,0.2920812666416168,-0.31466102600097656,0.10959731042385101,-0.25878873467445374,0.5032625794410706},{0.10446197539567947,-0.11943037807941437,-0.7022071480751038,-0.267866849899292,-0.10976015031337738,-0.49984505772590637,0.35200250148773193,0.04433479905128479},{0.27872851490974426,0.21679465472698212,0.004136926494538784,-0.4825408458709717,0.13086935877799988,-0.603949785232544,0.059834420680999756,0.1598559468984604},{-0.6496228575706482,-0.030584312975406647,0.15722745656967163,-0.030954880639910698,0.09802979230880737,-0.37548309564590454,-0.53537917137146,-0.6718223690986633},{-0.7059153914451599,0.03686238080263138,-0.12299643456935883,-0.7391467690467834,-0.4145410656929016,-0.3206334710121155,0.3947417736053467,-0.026352236047387123},{-0.6819831132888794,0.11216926574707031,0.2646586000919342,0.5791774392127991,-0.3999553620815277,0.501002848148346,0.30868640542030334,-0.10821102559566498},{0.23938870429992676,-0.5014255046844482,-0.23942622542381287,0.051393721252679825,-0.24357083439826965,-0.5583154559135437,-0.6972180604934692,-0.5609385371208191}};
static const float actor_encoder_neighbor_encoder_neighbor_value_mlp_2_weight[8][8] = {{0.3641529381275177,0.1498289704322815,0.1610826998949051,-0.016718462109565735,-0.1352652758359909,0.04256990924477577,-0.2728388011455536,0.2627052664756775},{0.17746670544147491,-0.3303917646408081,0.17919227480888367,0.47978273034095764,0.38362371921539307,0.09080564975738525,-0.4971632957458496,0.01963181048631668},{0.4421151876449585,-0.2375239133834839,-0.6185567378997803,5.418313594418578e-05,-0.3448220491409302,-0.5716744065284729,-0.14048223197460175,0.12965242564678192},{-0.08898233622312546,-0.3448653817176819,-0.2153259962797165,-0.10999737679958344,-0.40346774458885193,0.09153514355421066,0.05073399841785431,-0.20180591940879822},{0.5485833883285522,-0.05190611630678177,0.44143185019493103,0.3276178538799286,0.19187678396701813,0.37765470147132874,0.4000471532344818,-0.1885930746793747},{0.088142029941082,0.609988272190094,-0.05088250711560249,-0.05032266676425934,-0.14264097809791565,0.27294138073921204,-0.3794775605201721,0.4288252294063568},{-0.34219932556152344,-0.21318665146827698,0.29413729906082153,0.1961001604795456,0.10056009143590927,-0.004753130953758955,-0.6179113984107971,0.35676661133766174},{-0.24207137525081635,-0.480404257774353,0.19059860706329346,0.4182119071483612,-0.2667914927005768,0.348005473613739,0.5555405616760254,-0.5390987992286682}};
static const float actor_encoder_neighbor_encoder_attention_mlp_0_weight[16][8] = {{0.20691075921058655,0.2862361669540405,-0.16719384491443634,-0.06766261905431747,0.4913281500339508,0.09749520570039749,-0.017313601449131966,-0.26250600814819336},{0.47262826561927795,-0.2734978497028351,0.69943767786026,0.1136992797255516,0.47699981927871704,-0.11518897116184235,0.13408592343330383,0.17537802457809448},{0.3478896915912628,-0.039843011647462845,0.10580148547887802,0.2605525851249695,-0.33178335428237915,0.16488270461559296,0.053558818995952606,0.09512951970100403},{0.11246399581432343,0.2788395583629608,-0.4808688163757324,0.013250830583274364,0.13002468645572662,-0.02324845641851425,0.07785274088382721,0.01682218722999096},{0.057239118963479996,0.2544867992401123,-0.1632682979106903,0.03890375792980194,-0.2730453610420227,0.1986185759305954,-0.17694751918315887,-0.500749409198761},{-0.0937228724360466,0.4687485992908478,0.5370427370071411,0.4339578151702881,-0.6012820601463318,-0.6426036953926086,-0.06704454123973846,-0.12962573766708374},{0.23223237693309784,-0.22325526177883148,0.38795822858810425,0.2157449722290039,-0.23477695882320404,0.0004522133676800877,-0.46035557985305786,0.45310914516448975},{-0.25069186091423035,0.2638368606567383,-0.001339570851996541,-0.07357960939407349,0.15432585775852203,-0.14605309069156647,-0.26683616638183594,-0.20168869197368622},{0.36724206805229187,-0.0042378040961921215,0.15303528308868408,0.02081262320280075,0.09656450152397156,-0.4073704183101654,0.024552524089813232,0.403756707906723},{-0.029094280675053596,0.007613946218043566,-0.2786652445793152,-0.10835330188274384,0.3498171269893646,-0.10616977512836456,-0.32887136936187744,-0.36760109663009644},{-0.22868825495243073,-9.803922148421407e-05,0.1198607087135315,0.13770173490047455,0.32474055886268616,-0.4535805881023407,0.3171553909778595,-0.11175725609064102},{-0.07197105139493942,-0.3559998869895935,0.22987164556980133,0.31128832697868347,0.2331245392560959,-0.07512442022562027,-0.23094680905342102,-0.24511100351810455},{0.11039560288190842,0.06763705611228943,-0.19574056565761566,-0.20015215873718262,-0.11578745394945145,0.2996037006378174,-0.36223259568214417,0.06047354266047478},{-0.07315316051244736,-0.04545360058546066,-0.06557530164718628,0.055002689361572266,-0.5198790431022644,-0.40510252118110657,-0.37794435024261475,-0.3222067952156067},{0.21720319986343384,-0.0874677523970604,0.1167621910572052,0.3687973916530609,0.33014926314353943,0.21877899765968323,0.49627891182899475,0.38123539090156555},{0.004585334565490484,-0.04498020187020302,0.05919056013226509,0.1769147366285324,-0.017816467210650444,-0.2661166191101074,-0.09387410432100296,0.11247099936008453}};
static const float actor_encoder_neighbor_encoder_attention_mlp_2_weight[8][8] = {{-0.2848261296749115,0.320081502199173,-0.17438118159770966,0.1887781322002411,0.08390219509601593,-0.33808428049087524,-0.1087319478392601,0.4182567596435547},{0.0965951457619667,-0.5790440440177917,-0.25223812460899353,0.031649138778448105,0.05086028203368187,0.12065136432647705,0.676044225692749,0.01618114486336708},{-0.28073135018348694,0.20440499484539032,-0.33517947793006897,0.2822594940662384,-0.1299390196800232,-0.45413997769355774,-0.007409088313579559,0.283280611038208},{0.013063717633485794,-0.39368000626564026,-0.10742945224046707,-0.01983882114291191,0.5045589804649353,0.5283511281013489,0.38602781295776367,0.46274688839912415},{-0.07473646849393845,-0.04568300396203995,-0.1483219861984253,-0.29947730898857117,-0.27917593717575073,0.39966389536857605,0.16076260805130005,0.27440258860588074},{-0.5988629460334778,-0.19721682369709015,-0.20537340641021729,0.4081108868122101,-0.13499349355697632,-0.236744686961174,-0.3515009582042694,-0.4019715189933777},{-0.16988815367221832,-0.5415210723876953,0.4226832091808319,0.022200128063559532,-0.07591859251260757,0.4254736602306366,0.11956878006458282,-0.2961999177932739},{0.400558739900589,-0.551342785358429,-0.5766056180000305,0.10945025831460953,0.27286338806152344,0.14320780336856842,0.17711029946804047,-0.04356143996119499}};
static const float actor_encoder_neighbor_encoder_attention_mlp_4_weight[8][1] = {{0.3814801573753357},{0.17798477411270142},{0.427224338054657},{0.4754178822040558},{-0.45779597759246826},{0.43915972113609314},{-0.8341824412345886},{0.18494252860546112}};
static const float actor_encoder_self_encoder_0_weight[18][16] = {{0.1818140298128128,-0.13900887966156006,0.3341587781906128,0.49552929401397705,0.07752050459384918,0.03768237680196762,0.03392674773931503,0.1215573325753212,0.02344411611557007,0.36017274856567383,-0.3706536889076233,0.23870037496089935,0.3207828104496002,0.04717707261443138,0.10962492972612381,-0.12448163330554962},{0.1387590765953064,-0.19771671295166016,-0.31560081243515015,0.2020803987979889,-0.017605016008019447,0.3959824740886688,-0.39302119612693787,-0.040077194571495056,-0.1524965912103653,-0.05654933303594589,0.28231826424598694,-0.24473422765731812,-0.1739247590303421,-0.29915326833724976,0.4663271903991699,-0.09455553442239761},{-0.5820647478103638,-0.4093349277973175,0.06394799798727036,-0.03911113366484642,0.23915192484855652,0.07144904136657715,-0.1848507523536682,0.23814013600349426,0.08993850648403168,0.4137658476829529,-0.07424446195363998,0.028031669557094574,-0.20277656614780426,0.09712228178977966,0.31749778985977173,-0.6643747687339783},{0.274062842130661,0.2205185890197754,-0.16698229312896729,0.2281080186367035,0.07946649193763733,-0.4309781789779663,-0.25135302543640137,0.14077584445476532,-0.2622365951538086,-0.3251149654388428,0.151661679148674,0.16741056740283966,0.13748788833618164,0.40664923191070557,-0.1892244666814804,-0.2604410648345947},{-0.04566648229956627,0.06194247305393219,0.0015098750591278076,-0.0320192314684391,-0.12069325149059296,0.14998134970664978,-0.028942124918103218,0.009544665925204754,0.019128968939185143,0.20319829881191254,0.019487086683511734,0.03192385658621788,0.2398943305015564,-0.14498378336429596,0.41845977306365967,-0.4747738242149353},{-0.3334830701351166,-0.2237398773431778,-0.07468876987695694,-0.026270544156432152,-0.07340434193611145,-0.1948825865983963,-0.06299024075269699,-0.12955574691295624,-0.11435694247484207,-0.19342370331287384,0.1379193216562271,0.004958572331815958,-0.27557361125946045,0.35143953561782837,-0.0728422999382019,-0.2482863813638687},{0.3991676867008209,-0.5670401453971863,0.3512200713157654,0.19322803616523743,0.10434059053659439,0.3764791786670685,-0.3532830476760864,-0.35426536202430725,-0.143274188041687,-0.14857517182826996,0.1994892805814743,-0.41694414615631104,-0.009374551475048065,0.19204255938529968,-0.26131635904312134,-0.10856875032186508},{-0.006041267421096563,0.6666538119316101,0.23342832922935486,0.10146476328372955,0.5345423817634583,-0.4080038070678711,0.0015496379928663373,-0.434247761964798,0.0320458859205246,0.20248182117938995,-0.10433539748191833,-0.09273043274879456,-0.31308162212371826,0.38511425256729126,0.20053434371948242,0.3406097888946533},{0.7312588691711426,0.36824023723602295,0.06641064584255219,0.702089250087738,0.15132147073745728,-0.24660782516002655,-0.15681278705596924,0.11377551406621933,0.4572230875492096,-0.03692561760544777,-0.04126483574509621,0.539101243019104,-0.2615956664085388,-0.032529205083847046,0.15992213785648346,-0.32411929965019226},{0.1360229253768921,0.07403074949979782,0.37254688143730164,0.20710107684135437,-0.10435386747121811,0.1841014325618744,0.5731483101844788,-0.31226882338523865,-0.026782497763633728,0.2797193229198456,0.032515332102775574,-0.3361147940158844,0.1082332581281662,0.2902202010154724,0.07340210676193237,0.10366865247488022},{0.15463374555110931,-0.04754225164651871,0.2729238271713257,0.1249464824795723,0.1050097644329071,0.23851731419563293,-0.1908886581659317,0.07503969222307205,-0.15906909108161926,-0.55751633644104,0.31852954626083374,-0.5105710625648499,-0.2511674761772156,-0.3926839828491211,-0.10298210382461548,-0.06628354638814926},{0.19024942815303802,0.06076975166797638,0.07163073867559433,-0.024288605898618698,-0.5210548043251038,-0.19714446365833282,0.2813158929347992,-0.1265668123960495,-0.4080516993999481,-0.2591608464717865,0.20401640236377716,0.3043947219848633,0.7129455804824829,-0.608870804309845,0.4260353147983551,-0.8051112294197083},{-0.007451968267560005,-0.20244832336902618,-0.62789386510849,-0.21156103909015656,-0.19255976378917694,-0.01532075647264719,0.42866694927215576,-0.2007889747619629,-0.0655020996928215,-0.4232631325721741,0.4945109486579895,-0.21426868438720703,0.3986053764820099,-0.24079596996307373,0.3620211184024811,-0.1914396435022354},{-0.1374581903219223,-0.11336280405521393,-0.24743473529815674,-0.43499425053596497,0.07596079260110855,-0.1279899626970291,-0.4513351321220398,0.3457053005695343,0.17761148512363434,0.2380734384059906,-0.2855120301246643,-0.665460467338562,0.184560626745224,-0.2804658114910126,-0.44887927174568176,0.5928449630737305},{0.47322747111320496,-0.06520068645477295,0.5004111528396606,0.18536214530467987,-0.023993752896785736,-0.23913905024528503,-0.3450952470302582,-0.438784122467041,-0.5055921673774719,0.2671697437763214,-0.10613662749528885,-0.03225906193256378,0.49858829379081726,0.296112596988678,0.4289732277393341,0.13438773155212402},{-0.25568675994873047,-0.35185495018959045,0.12008260190486908,-0.025667225942015648,0.13668924570083618,0.30448007583618164,-0.061028625816106796,-0.23697420954704285,-0.16947303712368011,0.01420007087290287,-0.21105581521987915,-0.2517569661140442,0.04601944610476494,-0.1428491771221161,-0.10535713285207748,0.28009912371635437},{0.1869133710861206,-0.003674041945487261,0.30341607332229614,0.1835077852010727,0.22076912224292755,-0.012553077191114426,-0.4268212616443634,0.01231818925589323,0.1164626032114029,-0.004833790473639965,-0.09721268713474274,-0.1454649269580841,0.249156191945076,0.12942838668823242,-0.22468768060207367,0.22610166668891907},{0.38217419385910034,-0.17140913009643555,0.23863184452056885,-0.2273971289396286,-0.43366801738739014,-0.020831694826483727,-0.2036454975605011,-0.0715968981385231,0.1524055153131485,-0.16036875545978546,0.2627438008785248,-0.156976580619812,0.09502268582582474,0.3031856119632721,-0.19630233943462372,0.16037516295909882}};
static const float actor_encoder_self_encoder_2_weight[16][16] = {{-0.051289238035678864,0.004640940576791763,-0.21199725568294525,-0.21262618899345398,0.38115572929382324,-0.2729818820953369,-0.08668974786996841,-0.4786941409111023,-0.26346373558044434,-0.1221722960472107,-0.16583268344402313,0.04156224802136421,-0.05717916786670685,-0.20666128396987915,0.23299793899059296,-0.4343472719192505},{0.17416273057460785,-0.08966350555419922,-0.2702521085739136,0.19136425852775574,-0.01309389341622591,0.23576410114765167,-0.0902370736002922,0.007648452650755644,-0.3015245795249939,-0.3796434998512268,0.3425656855106354,0.3431735932826996,0.2865007519721985,-0.0763808935880661,0.16865035891532898,-0.2492571324110031},{-0.31880608201026917,-0.0561271570622921,0.0034018028527498245,0.3813284933567047,0.1070527583360672,-0.28695231676101685,0.1377510279417038,-0.10613871365785599,-0.23686876893043518,-0.132379412651062,-0.35576122999191284,0.3881288766860962,-0.031238362193107605,0.031354911625385284,0.021811526268720627,-0.06696432828903198},{0.36530017852783203,-0.20412562787532806,-0.023276424035429955,0.17445030808448792,-0.15412329137325287,-0.08268056064844131,-0.19642257690429688,-0.027502940967679024,0.16888593137264252,0.008658464066684246,0.20395393669605255,0.29234230518341064,-0.3987109959125519,-0.43377673625946045,0.11970774084329605,0.22555401921272278},{0.22410668432712555,-0.1387109011411667,0.17142684757709503,-0.21472544968128204,-0.3691713809967041,-0.2673054337501526,-0.09872455149888992,0.05453634634613991,0.40104442834854126,0.1085192859172821,-0.27722662687301636,0.2817937135696411,0.3249899446964264,-0.017976876348257065,-0.26608458161354065,0.44549980759620667},{-0.19807524979114532,0.21953316032886505,-0.21875910460948944,-0.14970853924751282,0.452446311712265,0.2558768093585968,0.3218623399734497,0.32405543327331543,-0.21106313169002533,-0.27696937322616577,-0.3480091392993927,0.05756770074367523,-0.21463651955127716,0.2992208003997803,0.23045043647289276,-0.21488159894943237},{0.1365022361278534,0.260511189699173,0.1716829240322113,-0.3074568510055542,0.16807861626148224,-0.39696061611175537,-0.48022347688674927,-0.39349961280822754,0.3809272348880768,-0.40910062193870544,0.05287324637174606,-0.39976030588150024,0.46261870861053467,0.18162234127521515,-0.04921874403953552,-0.19274500012397766},{-0.01877080276608467,-0.23885945975780487,-0.14083239436149597,-0.20953631401062012,0.03019959293305874,0.30594342947006226,0.1083497628569603,-0.3948398232460022,-0.4034808874130249,0.05724354833364487,-0.4048079252243042,-0.2874179780483246,-0.2587532103061676,0.23551809787750244,-0.05643145367503166,-0.26047375798225403},{-0.17845459282398224,-0.08455506712198257,-0.5014448165893555,-0.1438109278678894,0.09666062146425247,0.12178082019090652,-0.014970749616622925,0.29966822266578674,0.16417859494686127,0.17753197252750397,-0.08807716518640518,0.10508181899785995,-0.31405749917030334,0.36627697944641113,0.057073406875133514,0.2067335844039917},{0.47261062264442444,0.03847188875079155,-0.3151611089706421,0.25358524918556213,-0.21249352395534515,-0.10193242132663727,-0.2329244166612625,-0.06305160373449326,0.37293872237205505,-0.008607911877334118,0.33876076340675354,-0.1886870414018631,-0.3452894687652588,-0.3131355345249176,-0.3066052496433258,-0.13945449888706207},{-0.13910940289497375,0.394954651594162,-0.13609634339809418,-0.09892328828573227,0.03851383551955223,-0.09972783178091049,0.14809846878051758,-0.054525621235370636,-0.0596921369433403,0.18083235621452332,-0.21882937848567963,-0.002140615601092577,0.21976149082183838,-0.1307045966386795,-0.01867992989718914,-0.30245471000671387},{0.03715120255947113,0.3226388096809387,0.3156917989253998,-0.021262990310788155,0.194991335272789,-0.37480631470680237,-0.5137389898300171,0.20831286907196045,-0.3547969162464142,0.1610490083694458,-0.21518167853355408,0.42945072054862976,-0.36712566018104553,-0.16467033326625824,0.4392455816268921,-0.4469788372516632},{0.03674347698688507,0.372673362493515,0.333351731300354,-0.008416222408413887,0.23044659197330475,0.11872489005327225,0.34357741475105286,-0.3657330274581909,-0.07401552051305771,-0.056765154004096985,0.2466602921485901,0.09170912206172943,-0.019061872735619545,-0.30500370264053345,0.3370715081691742,0.284209668636322},{0.08931653946638107,0.04009200260043144,-0.495016485452652,-0.30313840508461,0.0028693480417132378,0.07635235786437988,0.40461742877960205,-0.2581290602684021,0.05699813365936279,-0.3541553020477295,-0.022402167320251465,0.23771275579929352,-0.35131320357322693,-0.02887139655649662,0.29972681403160095,-0.11643753200769424},{0.14098334312438965,0.46016377210617065,0.2124156951904297,-0.038153450936079025,-0.4905449151992798,0.02729245275259018,-0.16818885505199432,0.09222288429737091,-0.26741093397140503,-0.4360959231853485,0.2874152958393097,-0.009430022910237312,0.15894387662410736,-0.029666580259799957,0.2706819772720337,0.06103123351931572},{0.30131256580352783,-0.07472784072160721,0.10458596050739288,0.18004439771175385,0.4744983911514282,0.31793153285980225,0.09292211383581161,-0.15097665786743164,0.3934001922607422,-0.04679136723279953,-0.007428816519677639,0.03593216463923454,-0.038224007934331894,-0.14661875367164612,0.11741169542074203,-0.17009350657463074}};
static const float actor_encoder_feed_forward_0_weight[24][32] = {{0.2160869687795639,-0.18845239281654358,0.14985673129558563,-0.058427587151527405,0.20853759348392487,0.12681269645690918,0.24532917141914368,-0.3753315508365631,0.1830900013446808,0.41538265347480774,0.07358530163764954,-0.024583466351032257,0.29938626289367676,-0.3538103699684143,-0.22270892560482025,-0.30670973658561707,0.25041207671165466,-0.26515915989875793,0.14825408160686493,0.19637049734592438,-0.21740128099918365,0.20387175679206848,0.3699440062046051,0.1510128229856491,-0.1337367743253708,-0.20196650922298431,0.2971201539039612,0.337063193321228,0.20744198560714722,-0.24887460470199585,-0.04245080053806305,-0.028652697801589966},{0.06768067181110382,0.3546707332134247,0.09498075395822525,-0.03911516070365906,-0.1686428338289261,0.17799922823905945,0.05761000141501427,0.07262838631868362,0.2863832414150238,0.15172551572322845,0.19315947592258453,-0.37075018882751465,-0.1386490762233734,0.18676574528217316,-0.15310992300510406,-0.0512816458940506,-0.29848480224609375,0.32528671622276306,-0.19359110295772552,0.010914047248661518,0.03921858221292496,-0.38290321826934814,-0.17244715988636017,0.050792619585990906,0.2778652608394623,-0.010010484606027603,0.2369764894247055,-0.16112153232097626,0.14307580888271332,-0.0460590235888958,0.32811206579208374,-0.23525749146938324},{0.24368658661842346,0.28904497623443604,-0.16237208247184753,0.04355258494615555,-0.29002904891967773,0.2086697220802307,0.11208608746528625,-0.027545075863599777,0.20762483775615692,0.13415811955928802,-0.11441601067781448,-0.02227562852203846,0.1068044900894165,0.010411589406430721,0.16248664259910583,-0.22473423182964325,0.15620063245296478,-0.18420572578907013,-0.29607120156288147,0.13986633718013763,0.10007762908935547,-0.27239754796028137,0.13267090916633606,0.2879011332988739,-0.16388948261737823,-0.27606281638145447,-0.11538015305995941,-0.07390493154525757,0.11954233795404434,-0.014022793620824814,0.3762412369251251,0.29393476247787476},{-0.14857997000217438,-0.21619559824466705,-0.29632627964019775,0.03695310652256012,-0.011457905173301697,-0.20964738726615906,0.050936050713062286,-0.21591278910636902,-0.32565733790397644,-0.17589899897575378,0.31106454133987427,-0.13602839410305023,0.0707411915063858,-0.28331300616264343,-0.19696922600269318,0.07935009151697159,0.3339117169380188,-0.11756180971860886,-0.26041045784950256,-0.19160433113574982,0.01907907798886299,-0.2787794768810272,0.11785580962896347,0.26895901560783386,-0.30187609791755676,-0.2005881667137146,-0.2793365716934204,-0.28309011459350586,-0.258026123046875,-0.08279500901699066,-0.03501252830028534,-0.22743241488933563},{-0.11195702105760574,0.08664790540933609,0.08552952855825424,0.3978162109851837,0.04770616814494133,-0.5427114963531494,0.033297304064035416,0.2986769378185272,-0.08795621991157532,-0.016799509525299072,0.22276054322719574,0.08530320227146149,-0.09342478960752487,0.4682345390319824,0.07181958109140396,0.01902802847325802,0.31598252058029175,0.12894627451896667,0.22610212862491608,0.0173359215259552,0.1087130531668663,0.1525619924068451,0.06914030760526657,0.2553764879703522,-0.555993914604187,0.13771724700927734,-0.15732403099536896,-0.24633854627609253,0.006015914957970381,-0.06505199521780014,-0.06937609612941742,-0.03251071274280548},{0.025081530213356018,0.17514298856258392,-0.03349505364894867,-0.12865598499774933,-0.26301878690719604,0.1727224588394165,-0.19152416288852692,-0.17138627171516418,-0.33740031719207764,0.05845772102475166,-0.04365205764770508,0.33966928720474243,0.1808163821697235,0.22731418907642365,-0.020853007212281227,0.15325744450092316,-0.002647887682542205,0.1953122764825821,-0.16158427298069,0.14147807657718658,0.12074343115091324,0.021005451679229736,-0.037879325449466705,0.20918312668800354,-0.5252879858016968,-0.0014021022943779826,-0.2271517515182495,0.06107863783836365,0.12487982958555222,0.3194897472858429,-0.29818060994148254,0.045574851334095},{-0.3131974935531616,0.06524723768234253,-0.2605894207954407,0.1411598175764084,-0.1768805980682373,-0.3195836842060089,-0.16988633573055267,-0.16643667221069336,-0.18590345978736877,-0.2874862849712372,-0.25174376368522644,-0.1414147913455963,-0.3831733465194702,-0.010875591076910496,0.11734192818403244,-0.09908945858478546,0.23725196719169617,-0.04767570272088051,0.041634734719991684,-0.0954989641904831,0.028907757252454758,-0.4466457664966583,0.0069387746043503284,-0.06338303536176682,-0.058348339051008224,-0.2854610085487366,0.1057501807808876,-0.015463996678590775,0.1555653065443039,0.3010580241680145,-0.019442623481154442,-0.05458400771021843},{-0.06805666536092758,-0.22995102405548096,0.15295453369617462,-0.2955499291419983,-0.035819634795188904,-0.15446679294109344,0.2297201007604599,-0.3285946846008301,0.047649893909692764,0.24730874598026276,-0.0841919407248497,-0.1499394029378891,-0.2508845329284668,-0.07546228170394897,0.169064000248909,-0.07800272107124329,-0.02186521142721176,-0.2531886398792267,0.29842695593833923,-0.07198454439640045,-0.06537468731403351,-0.13217300176620483,0.2959372401237488,-0.1879739612340927,-0.1710398644208908,-0.27746477723121643,0.15231001377105713,-0.05058959126472473,-0.2321774661540985,-0.14690811932086945,0.24990542232990265,-0.05845664069056511},{-0.1168123185634613,-0.096419557929039,-0.21369066834449768,0.06274369359016418,-0.3201085329055786,-0.10735291987657547,-0.10115188360214233,0.0956793799996376,0.17087401449680328,-0.15160921216011047,0.2899872660636902,0.015630347654223442,0.20701071619987488,-0.15708418190479279,-0.07955172657966614,0.21589745581150055,0.0072182547301054,-0.15884758532047272,-0.06148150563240051,0.35075175762176514,-0.02106981724500656,0.14020930230617523,0.08981389552354813,0.11644770205020905,0.008086910471320152,0.1719539612531662,0.05730856582522392,0.05247735232114792,-0.22046688199043274,0.2335686832666397,-0.05174710229039192,0.09209109842777252},{0.17224512994289398,-0.04479709640145302,0.15573130548000336,0.255588173866272,-0.04726274684071541,0.17629672586917877,-0.2543458640575409,0.10603558272123337,-0.03421406447887421,0.42225760221481323,-0.06291773915290833,-0.09191764891147614,-0.2495044320821762,0.38517093658447266,-0.14222674071788788,-0.08602873235940933,0.23027028143405914,0.03702318295836449,0.01150826457887888,0.13224424421787262,0.088852159678936,0.2510818541049957,-0.05032113939523697,-0.09813150018453598,0.13673101365566254,-0.09477894008159637,0.0633024126291275,0.015061823651194572,0.06241162121295929,0.05659174919128418,-0.19114381074905396,-0.011137894354760647},{-0.11871187388896942,0.2907211184501648,0.41184768080711365,0.032919954508543015,-0.16174966096878052,-0.1708989292383194,0.17405980825424194,-0.26671767234802246,0.3597736060619354,0.08872341364622116,0.037744149565696716,-0.2813168168067932,-0.20409001410007477,0.10283114016056061,-0.3499163091182709,-0.18491928279399872,-0.3020259141921997,-0.15649692714214325,-0.1115947961807251,-0.05165809765458107,0.28965336084365845,-0.1787111759185791,-0.2593294084072113,0.21880318224430084,-0.09941314905881882,0.15845200419425964,0.3137315809726715,-0.3482634127140045,0.11100393533706665,0.1875661462545395,0.2054167240858078,0.020088443532586098},{-0.32861366868019104,0.1410771757364273,-0.010507773607969284,-0.16038356721401215,0.14669741690158844,-0.10227745771408081,0.062310438603162766,-0.17028385400772095,0.1912868171930313,0.30671167373657227,0.16446353495121002,-0.03720630705356598,-0.22687461972236633,-0.18467791378498077,0.21136978268623352,-0.15738838911056519,0.1149432584643364,0.13409623503684998,0.059324711561203,0.07520771771669388,-0.30594971776008606,-0.2776308059692383,0.28326287865638733,-0.2708773910999298,0.16743075847625732,0.2233157902956009,0.2266743779182434,-0.0311944130808115,-0.2967268228530884,-0.017743714153766632,0.17550799250602722,-0.008306917734444141},{0.3351975679397583,-0.2912423014640808,0.13985666632652283,0.20192141830921173,0.1535511612892151,-0.0857863798737526,-0.08479635417461395,0.14899972081184387,0.32932862639427185,0.3996064364910126,0.31069275736808777,0.1871909201145172,0.03699324280023575,0.19096927344799042,0.19086609780788422,-0.19687499105930328,-0.3009168207645416,0.26845717430114746,-0.05937058478593826,0.3708879351615906,0.12421566247940063,-0.17525960505008698,0.26723647117614746,-0.13873422145843506,0.0844932571053505,0.08773401379585266,-0.14157508313655853,-0.002366978209465742,0.0006335624493658543,0.09446992725133896,0.011664841324090958,0.2993941605091095},{0.22039537131786346,-0.3888830840587616,0.060404010117053986,0.014857850037515163,-0.18783721327781677,0.13754227757453918,-0.37174734473228455,0.10422918945550919,0.20762018859386444,-0.14397962391376495,0.20361654460430145,-0.07079016417264938,0.008700900711119175,0.1230274960398674,-0.08507359772920609,0.14193788170814514,0.12347089499235153,0.2702004313468933,-0.305940181016922,-0.07595410197973251,0.2765938937664032,-0.26939523220062256,0.15831266343593597,0.039421919733285904,0.2856281101703644,-0.032028693705797195,0.08900134265422821,0.08348837494850159,-0.22771194577217102,0.35004720091819763,-0.20286399126052856,0.08901188522577286},{0.04554709792137146,0.09827081114053726,0.24466639757156372,0.15368375182151794,0.29859837889671326,0.20641598105430603,0.2957642674446106,0.03421119600534439,0.17787033319473267,-0.15784955024719238,0.13991235196590424,-0.09271249175071716,0.0679091066122055,0.2693726420402527,0.10817598551511765,0.019185444340109825,0.18474756181240082,0.0446397103369236,0.02836451306939125,0.2489200085401535,-0.1085449680685997,-0.10087612271308899,-0.19610540568828583,0.1982050985097885,-0.06013192608952522,0.10731196403503418,-0.14897146821022034,0.28407949209213257,-0.21688449382781982,-0.14616148173809052,-0.1319272667169571,-0.22963285446166992},{-0.3688696622848511,0.36594152450561523,0.21683025360107422,-0.30528905987739563,0.018502624705433846,0.32550910115242004,0.07227917015552521,0.09984010457992554,0.1727398931980133,0.027555376291275024,-0.2297254353761673,-0.13467173278331757,-0.0162252988666296,0.018613796681165695,-0.09012072533369064,0.07596417516469955,0.2157992422580719,-0.05808794125914574,-0.1736733466386795,0.20897440612316132,-0.09233377873897552,0.10147592425346375,-0.25701072812080383,0.21939416229724884,-0.346265584230423,0.12982520461082458,0.27451372146606445,-0.048419129103422165,-0.14196397364139557,0.07561441510915756,0.29039376974105835,0.13033810257911682},{-0.06658811867237091,-0.225331649184227,-0.21501947939395905,-0.3066835105419159,0.22414720058441162,-0.2238476723432541,0.2144506722688675,-0.26201051473617554,0.22990304231643677,0.09629856050014496,0.26627659797668457,0.07773950695991516,0.10359302163124084,0.18390919268131256,0.28356480598449707,-0.1533389538526535,0.06113816425204277,0.11775577813386917,0.21760384738445282,0.30599281191825867,-0.2367880791425705,0.10155130922794342,-0.03666459769010544,-0.005741271656006575,-0.10084423422813416,0.04667447879910469,-0.12897402048110962,-0.11455913633108139,0.22021308541297913,-0.05280231684446335,0.20630459487438202,-0.20226125419139862},{-0.15448449552059174,0.18328119814395905,0.03967246040701866,-0.2099946141242981,0.3122594356536865,0.13652262091636658,0.09285885840654373,-0.15342794358730316,0.29440200328826904,-0.11258497089147568,-0.11571808159351349,0.04900263249874115,-0.3728313446044922,0.19487127661705017,-0.2215416431427002,0.1770850569009781,-0.015250272117555141,-0.22075624763965607,0.44297415018081665,-0.1735968291759491,0.2102811187505722,-0.291803777217865,-0.31513911485671997,-0.09182976186275482,0.15517602860927582,0.19841428101062775,0.30486276745796204,-0.09270527213811874,-0.2612338662147522,0.09662976861000061,-0.09690512716770172,0.08626009523868561},{0.4574039876461029,0.4318002164363861,0.006650402210652828,0.18773005902767181,0.5398333668708801,0.45634517073631287,0.2810993492603302,0.12118380516767502,0.22309331595897675,-0.08295462280511856,0.1889272779226303,-0.2937977910041809,-0.00019646076543722302,0.6919336318969727,0.11362084746360779,0.1556926965713501,0.46864330768585205,-0.2251572161912918,0.3252166211605072,-0.17670315504074097,-0.434613972902298,0.4237039089202881,-0.2790064513683319,-0.1499088555574417,-0.4259583055973053,0.7528554797172546,0.3705001473426819,0.3618391752243042,-0.4121384918689728,-0.1865447461605072,-0.1187673881649971,-0.24157658219337463},{0.12442746013402939,-0.10259443521499634,0.24802623689174652,-0.002692682668566704,-0.46833428740501404,-0.038236670196056366,0.10979485511779785,-0.2064199447631836,0.22447700798511505,0.006001472473144531,0.08740799874067307,-0.14366880059242249,-0.1551390439271927,-0.35241997241973877,-0.0934738740324974,-0.00927740428596735,-0.19130781292915344,0.2191300392150879,0.0019806388299912214,-0.20727132260799408,-0.11201469600200653,-0.16663014888763428,0.23020093142986298,0.035187602043151855,0.05421307310461998,-0.046385202556848526,-0.2540540397167206,-0.16759726405143738,-0.1254216432571411,0.2240971028804779,-0.2620634138584137,-0.055335596203804016},{-0.12358395010232925,-0.3920842409133911,-0.08861317485570908,-0.1628306657075882,-0.1547819823026657,0.00753751490265131,-0.23497366905212402,-0.06472108513116837,0.35774707794189453,-0.10654329508543015,0.22082941234111786,-0.1499764770269394,0.2858475148677826,0.037130698561668396,-0.11943236738443375,-0.014749949797987938,-0.40946099162101746,-0.07467895746231079,-0.055050235241651535,0.044265057891607285,0.15539367496967316,-0.004955713637173176,-0.20377866923809052,0.027303515002131462,-0.41430598497390747,0.0076886629685759544,-0.0734439268708229,0.17151854932308197,0.2923542857170105,-0.0883743092417717,0.07501503080129623,-0.17855574190616608},{0.07997764647006989,0.2506363093852997,-0.04427115619182587,0.1462702453136444,-0.27831095457077026,-0.02767295017838478,-0.15720060467720032,-0.016476700082421303,0.10936310887336731,0.06622780114412308,-0.19729603826999664,0.10844269394874573,-0.06493108719587326,-0.14014531672000885,-0.06255602836608887,-0.07475792616605759,-0.01104423962533474,0.11076048761606216,-0.049900006502866745,0.11361309140920639,0.22553078830242157,-0.044913556426763535,-0.21694110333919525,-0.04178125411272049,-0.15623995661735535,-0.12072201818227768,0.019747884944081306,0.028697676956653595,0.2579560875892639,-0.1102757528424263,0.027170099318027496,-0.29725587368011475},{0.03701332211494446,-0.17549526691436768,-0.2210727035999298,0.07941754907369614,0.0018014333909377456,-0.033377230167388916,-0.14102675020694733,0.014319868758320808,0.1123839020729065,0.2111455798149109,-0.06808914989233017,0.1739945411682129,0.157678484916687,0.2701837420463562,0.06198617070913315,0.1525060087442398,0.12703284621238708,0.06263594329357147,-0.2683279812335968,-0.19216857850551605,0.16044174134731293,0.0560666099190712,-0.35648226737976074,-0.12112372368574142,0.032738711684942245,-0.15275941789150238,0.30237916111946106,0.1733601987361908,0.2079395055770874,0.3426933288574219,-0.027066471055150032,-0.1484086811542511},{-0.11477824300527573,-0.08812154829502106,-0.01235920749604702,0.13318033516407013,-0.1508188098669052,0.03198719397187233,-0.2598106265068054,-0.06025904789566994,-0.07324785739183426,0.1614459902048111,-0.3306649327278137,0.16558939218521118,0.28280922770500183,-0.2696467936038971,-0.18294289708137512,-0.34490299224853516,-0.2739953398704529,0.06358220428228378,-0.15325766801834106,0.07150063663721085,0.04248364642262459,-0.00748498784378171,0.21680088341236115,0.057287298142910004,-0.08630068600177765,-0.354997843503952,-0.35300907492637634,-0.22274848818778992,0.20479364693164825,-0.1280573010444641,0.14878052473068237,0.3403775990009308}};
static const float action_parameterization_distribution_linear_weight[32][4] = {{-0.41782528162002563,0.2443869262933731,0.4412895143032074,0.22691144049167633},{-0.19784724712371826,-0.2460745871067047,0.3152977228164673,0.43170127272605896},{0.30289027094841003,0.24333031475543976,0.3274152874946594,-0.08910100162029266},{0.30428993701934814,0.1348356306552887,0.202961727976799,0.07098083198070526},{-0.04072321951389313,-0.0347035676240921,0.14136801660060883,0.24543152749538422},{-0.4675644040107727,-0.2900708317756653,-0.004817860201001167,0.1803310215473175},{-0.2064613550901413,0.26991984248161316,0.3664858341217041,0.08255458623170853},{0.2549489736557007,-0.10876420140266418,0.388223797082901,-0.33928346633911133},{0.10511167347431183,0.06787469238042831,0.10785556584596634,-0.12716668844223022},{-0.01926141232252121,0.2422349900007248,-0.08209073543548584,0.22566655278205872},{-0.2875448167324066,0.22667723894119263,-0.024471234530210495,0.338631808757782},{-0.006650578696280718,0.08110862225294113,-0.3296680748462677,0.1756768375635147},{0.39351382851600647,0.2816205322742462,0.16108502447605133,0.02272024005651474},{0.1378699392080307,0.1542758047580719,0.13911373913288116,0.3410303294658661},{0.11671774089336395,-0.3300820589065552,-0.21472875773906708,-0.05552251636981964},{0.1673138439655304,-0.2061476856470108,-0.06345068663358688,0.012207578867673874},{0.41201716661453247,-0.1585170030593872,0.08678559958934784,0.15880340337753296},{-0.3176383674144745,0.22326868772506714,0.2985484004020691,-0.31587979197502136},{-0.10911543667316437,-0.3103095591068268,0.23783746361732483,0.2317623645067215},{-0.1834450662136078,0.10103501379489899,-0.3547363579273224,-0.00273053883574903},{-0.30249398946762085,0.33795982599258423,0.31656014919281006,-0.28465190529823303},{-0.21102052927017212,0.2941528856754303,-0.008178750053048134,0.4077407419681549},{0.16030612587928772,0.21277137100696564,-0.46319982409477234,0.07413828372955322},{0.07689619064331055,-0.07993011921644211,-0.147743359208107,0.13775011897087097},{-0.2195054143667221,-0.46801015734672546,-0.21838892996311188,-0.1329057216644287},{0.143344908952713,-0.19801335036754608,0.22916266322135925,0.19794732332229614},{-0.4122059941291809,-0.023614151403307915,-0.0804201290011406,0.164447620511055},{-0.08034595847129822,-0.2307104468345642,-0.40558546781539917,0.17841392755508423},{0.17131905257701874,0.07238622009754181,-0.27849075198173523,-0.10544764250516891},{0.11110474169254303,0.12370290607213974,0.1484970599412918,-0.38546404242515564},{-0.281051903963089,0.04318329319357872,0.02365105412900448,-0.03685560077428818},{-0.03947025537490845,0.1731061339378357,0.21340982615947723,-0.2741571068763733}};
static const float actor_encoder_neighbor_encoder_embedding_mlp_0_bias[8] = {0.16891835629940033,-0.09261287748813629,0.15817251801490784,0.18687646090984344,0.3673321604728699,0.14553874731063843,0.18784639239311218,0.1996125727891922};
static const float actor_encoder_neighbor_encoder_embedding_mlp_2_bias[8] = {-0.3747282028198242,-0.32172831892967224,0.25701114535331726,-0.06045489013195038,-0.20467418432235718,0.27821266651153564,-0.23814703524112701,-0.0782851129770279};
static const float actor_encoder_neighbor_encoder_neighbor_value_mlp_0_bias[8] = {-0.17647498846054077,-0.12828423082828522,-0.1991664171218872,-0.4289076030254364,-0.039554059505462646,0.0,0.17679932713508606,-0.0735575333237648};
static const float actor_encoder_neighbor_encoder_neighbor_value_mlp_2_bias[8] = {-0.08741196990013123,0.0982750654220581,-0.17942340672016144,-0.01328184548765421,-0.016455302014946938,-0.15373791754245758,-0.10988619178533554,0.011675743386149406};
static const float actor_encoder_neighbor_encoder_attention_mlp_0_bias[8] = {-0.10332895070314407,0.2115902453660965,-0.0991150513291359,-0.011234958656132221,-0.07754871994256973,-0.13448618352413177,-6.535409920616075e-05,0.03977756202220917};
static const float actor_encoder_neighbor_encoder_attention_mlp_2_bias[8] = {0.27426767349243164,-0.07139425724744797,-0.0006286095594987273,-0.007052600383758545,-0.03361969813704491,0.20731589198112488,-0.061857759952545166,0.05614239722490311};
static const float actor_encoder_neighbor_encoder_attention_mlp_4_bias[1] = {-3.82168946089223e-05};
static const float actor_encoder_self_encoder_0_bias[16] = {0.15989422798156738,0.06505472958087921,0.1421046108007431,0.05455266311764717,0.03617566078901291,0.06608861684799194,0.044888854026794434,-0.23021623492240906,-0.21265961229801178,-0.06501790881156921,0.1525079905986786,0.05060182511806488,0.16435284912586212,0.2148720622062683,0.1131974533200264,0.24102750420570374};
static const float actor_encoder_self_encoder_2_bias[16] = {0.03355986624956131,0.1407027542591095,0.0671621635556221,0.11935173720121384,0.12942248582839966,0.05052216351032257,0.1576216071844101,-0.03200802579522133,0.1359858512878418,-0.09260585904121399,-0.06928635388612747,-0.05879966542124748,0.11302236467599869,0.0481056347489357,-0.020652130246162415,0.013954296708106995};
static const float actor_encoder_feed_forward_0_bias[32] = {0.03916676342487335,-0.03253258764743805,0.059324268251657486,-0.018649185076355934,0.009538134559988976,-0.03546958044171333,0.058698322623968124,-0.0127656115218997,0.12262364476919174,-0.01959007978439331,-0.01015474647283554,-0.030578266829252243,0.030668044462800026,-0.043739572167396545,-0.08744969218969345,-0.04269859194755554,-0.05395614728331566,0.03971259295940399,-0.029675710946321487,-0.027621138840913773,0.0776967778801918,-0.05945780128240585,-0.019046548753976822,-0.013237648643553257,-0.007238520309329033,-0.043456628918647766,-0.002439538948237896,-0.048893626779317856,-0.003435078775510192,0.03960186243057251,-0.002726862207055092,-0.0020067167934030294};
static const float action_parameterization_distribution_linear_bias[4] = {-0.018937645480036736,0.01955457590520382,0.011953345499932766,-0.008809100836515427};


static const float critic_encoder_neighbor_encoder_embedding_mlp_0_bias[8] = {0.23672619462013245,0.23990720510482788,0.381502628326416,0.2349666804075241,-0.10684384405612946,0.1906128227710724,0.22129543125629425,0.14066684246063232};
static const float critic_encoder_neighbor_encoder_embedding_mlp_2_bias[8] = {0.15519675612449646,0.05873064696788788,0.03725013881921768,0.06862029433250427,0.04520995914936066,0.07684293389320374,0.08439371734857559,0.2697156071662903};
static const float critic_encoder_neighbor_encoder_neighbor_value_mlp_0_bias[8] = {-0.20750536024570465,-0.02010895125567913,0.12254317104816437,-0.0899888277053833,-0.20121632516384125,0.20210149884223938,0.10233462601900101,0.2713000774383545};
static const float critic_encoder_neighbor_encoder_neighbor_value_mlp_2_bias[8] = {-0.09930373728275299,-0.18589293956756592,-0.02052588388323784,0.04290153831243515,0.12384045124053955,-0.39567628502845764,0.1657121330499649,0.049206484109163284};
static const float critic_encoder_neighbor_encoder_attention_mlp_0_bias[8] = {-0.26121312379837036,0.33608478307724,0.2888403534889221,0.10915267467498779,-0.16143852472305298,-0.0820736438035965,0.41815438866615295,0.17624729871749878};
static const float critic_encoder_neighbor_encoder_attention_mlp_2_bias[8] = {-0.33777087926864624,1.0369733572006226,0.38343366980552673,-0.5001638531684875,0.4188968241214752,0.36019131541252136,0.09371434897184372,0.2280162274837494};
static const float critic_encoder_neighbor_encoder_attention_mlp_4_bias[1] = {-3.733179619302973e-05};
static const float critic_encoder_self_encoder_0_bias[16] = {-0.042992476373910904,0.09734892845153809,-0.04644341021776199,0.21887856721878052,0.07951580733060837,0.11884298920631409,-0.12313428521156311,0.19150611758232117,0.13309209048748016,0.03969182074069977,0.08024008572101593,-0.16798771917819977,0.00023124110884964466,0.06263191998004913,0.013054615817964077,0.0840955600142479};
static const float critic_encoder_self_encoder_2_bias[16] = {-0.019402625039219856,-0.4004897177219391,-0.030877066776156425,0.12104451656341553,-0.10328904539346695,0.10800529271364212,-0.10402543842792511,-0.11391548067331314,-0.11501022428274155,-0.24377509951591492,0.029877204447984695,-0.01650838740170002,0.2828297019004822,-0.04639589786529541,-0.04665820300579071,0.007659957744181156};
static const float critic_encoder_feed_forward_0_bias[32] = {-0.01922750659286976,-0.004774818662554026,-0.03226598724722862,0.0066666570492088795,-0.0027757580392062664,0.0005784704117104411,0.010326553136110306,0.013119509443640709,-0.0046997093595564365,-0.03746085986495018,0.02842419408261776,0.00652126083150506,0.006154509726911783,-0.033574704080820084,-0.01112962793558836,0.032852672040462494,-0.00576187577098608,0.0952049195766449,0.027669847011566162,-0.012061833404004574,0.014945212751626968,0.007352558430284262,-0.0512910895049572,0.03473269194364548,-0.007132942788302898,-0.011219058185815811,0.03549574688076973,-0.0394180603325367,0.0064326087012887,-0.021609611809253693,-0.0506497286260128,0.002061649225652218};
static const float critic_linear_bias[1] = {-0.05470442399382591};

void networkEvaluate(struct control_t_n *control_n, const float *state_array) {
        for (int i = 0; i < structure[0][1]; i++) {
            output_0[i] = 0;
            for (int j = 0; j < structure[0][0]; j++) {
                output_0[i] += state_array[j] * actor_encoder_neighbor_encoder_embedding_mlp_0_weight[j][i];
            }
            output_0[i] += actor_encoder_neighbor_encoder_embedding_mlp_0_bias[i];
            output_0[i] = tanhf(output_0[i]);
        }
    
        for (int i = 0; i < structure[1][1]; i++) {
            output_1[i] = 0;
            for (int j = 0; j < structure[1][0]; j++) {
                output_1[i] += output_0[j] * actor_encoder_neighbor_encoder_embedding_mlp_2_weight[j][i];
            }
            output_1[i] += actor_encoder_neighbor_encoder_embedding_mlp_2_bias[i];
            output_1[i] = tanhf(output_1[i]);
        }
        
        for (int i = 0; i < structure[2][1]; i++) {
            output_2[i] = 0;
            for (int j = 0; j < structure[2][0]; j++) {
                output_2[i] += output_1[j] * actor_encoder_neighbor_encoder_neighbor_value_mlp_0_weight[j][i];
            }
            output_2[i] += actor_encoder_neighbor_encoder_neighbor_value_mlp_0_bias[i];
            output_2[i] = tanhf(output_2[i]);
        }
        
        for (int i = 0; i < structure[3][1]; i++) {
            output_3[i] = 0;
            for (int j = 0; j < structure[3][0]; j++) {
                output_3[i] += output_2[j] * actor_encoder_neighbor_encoder_neighbor_value_mlp_2_weight[j][i];
            }
            output_3[i] += actor_encoder_neighbor_encoder_neighbor_value_mlp_2_bias[i];
            output_3[i] = tanhf(output_3[i]);
        }
        
        for (int i = 0; i < structure[4][1]; i++) {
            output_4[i] = 0;
            for (int j = 0; j < structure[4][0]; j++) {
                output_4[i] += output_3[j] * actor_encoder_neighbor_encoder_attention_mlp_0_weight[j][i];
            }
            output_4[i] += actor_encoder_neighbor_encoder_attention_mlp_0_bias[i];
            output_4[i] = tanhf(output_4[i]);
        }
        
        for (int i = 0; i < structure[5][1]; i++) {
            output_5[i] = 0;
            for (int j = 0; j < structure[5][0]; j++) {
                output_5[i] += output_4[j] * actor_encoder_neighbor_encoder_attention_mlp_2_weight[j][i];
            }
            output_5[i] += actor_encoder_neighbor_encoder_attention_mlp_2_bias[i];
            output_5[i] = tanhf(output_5[i]);
        }
        
        for (int i = 0; i < structure[6][1]; i++) {
            output_6[i] = 0;
            for (int j = 0; j < structure[6][0]; j++) {
                output_6[i] += output_5[j] * actor_encoder_neighbor_encoder_attention_mlp_4_weight[j][i];
            }
            output_6[i] += actor_encoder_neighbor_encoder_attention_mlp_4_bias[i];
            output_6[i] = tanhf(output_6[i]);
        }
        
        for (int i = 0; i < structure[7][1]; i++) {
            output_7[i] = 0;
            for (int j = 0; j < structure[7][0]; j++) {
                output_7[i] += output_6[j] * actor_encoder_self_encoder_0_weight[j][i];
            }
            output_7[i] += actor_encoder_self_encoder_0_bias[i];
            output_7[i] = tanhf(output_7[i]);
        }
        
        for (int i = 0; i < structure[8][1]; i++) {
            output_8[i] = 0;
            for (int j = 0; j < structure[8][0]; j++) {
                output_8[i] += output_7[j] * actor_encoder_self_encoder_2_weight[j][i];
            }
            output_8[i] += actor_encoder_self_encoder_2_bias[i];
            output_8[i] = tanhf(output_8[i]);
        }
        
        for (int i = 0; i < structure[9][1]; i++) {
            output_9[i] = 0;
            for (int j = 0; j < structure[9][0]; j++) {
                output_9[i] += output_8[j] * actor_encoder_feed_forward_0_weight[j][i];
            }
            output_9[i] += actor_encoder_feed_forward_0_bias[i];
            output_9[i] = tanhf(output_9[i]);
        }
        
                for (int i = 0; i < structure[10][1]; i++) {
                    output_10[i] = 0;
                    for (int j = 0; j < structure[10][0]; j++) {
                        output_10[i] += output_9[j] * action_parameterization_distribution_linear_weight[j][i];
                    }
                    output_10[i] += critic_encoder_neighbor_encoder_embedding_mlp_0_bias[i];
                }
    
            control_n->thrust_0 = output_10[0];
            control_n->thrust_1 = output_10[1];
            control_n->thrust_2 = output_10[2];
            control_n->thrust_3 = output_10[3];	
    }

int main(const float *indatav, size_t size, float *outdatav)
{
    size_t i;
    control_t_n motorThrusts;
    networkEvaluate(&motorThrusts, indatav);

    outdatav[0] = motorThrusts.thrust_0;
    outdatav[1] = motorThrusts.thrust_1;
    outdatav[2] = motorThrusts.thrust_2;
    outdatav[3] = motorThrusts.thrust_3;
    return EXIT_SUCCESS;
}

