
#include <random>
#include <vector>
#include <iostream>
#include <algorithm>
#include <cstring> 


typedef struct control_t_n {
	float thrust_0;
	float thrust_1;
	float thrust_2;
	float thrust_3;
} control_t_n;

void networkEvaluate(control_t_n* control_n, const float* state_array);

static const int NEIGHBORS = 6;
static const int NBR_DIM = 6; 

static const int NUM_OBSTACLES = 2; 
static const int OBST_DIM = 9;



float linear(float num) {
	return num;
}



float sigmoid(float num) {
	return 1 / (1 + exp(-num));
}



float relu(float num) {
	if (num > 0) {
		return num;
	} else {
		return 0;
	}
}

static const int structure [6][2] = {{6, 8},{8, 8},{18, 16},{16, 16},{24, 32},{32, 4}};
static float output_0[8];
static float output_1[8];
static float output_2[16];
static float output_3[16];
static float output_4[32];
static float output_5[8];
static float output_6[8];
static float output_7[16];
static float output_8[16];
static float output_9[32];
static float output_10[1];
static float output_11[4];
static const float actor_encoder_neighbor_encoder_embedding_mlp_0_weight[6][8] = {{0.21359284222126007,-0.4538440406322479,-0.2422761619091034,-0.5552499890327454,-0.03918301314115524,-0.36220425367355347,-0.032879799604415894,0.8212265372276306},{0.5609453320503235,-0.23872090876102448,-0.40244340896606445,0.874248743057251,0.8317944407463074,-0.397484689950943,0.05349314957857132,0.2969242334365845},{-0.2041160762310028,0.16554142534732819,0.4680391550064087,0.3058367669582367,-0.12677958607673645,0.6079744100570679,0.32356739044189453,0.1230030357837677},{-0.02884783409535885,-0.11779415607452393,0.47405141592025757,-0.25106486678123474,-0.22970028221607208,0.05460777133703232,0.0032763113267719746,-0.023268748074769974},{-0.07154734432697296,-0.26773878931999207,0.4318738579750061,0.27663111686706543,0.04820935055613518,-0.5664815306663513,0.224876269698143,-0.156062051653862},{0.552703857421875,0.21211561560630798,0.22866329550743103,-0.05584863945841789,0.1783255785703659,-0.30069684982299805,0.18963570892810822,-0.18775871396064758}};
static const float actor_encoder_neighbor_encoder_embedding_mlp_2_weight[8][8] = {{-0.5495797991752625,0.08843397349119186,-0.09142577648162842,-0.1522008627653122,0.11858966946601868,-0.4249255061149597,0.47647035121917725,-0.08108936995267868},{-0.20631779730319977,-0.6059369444847107,0.14184914529323578,0.2073555290699005,-0.0045618582516908646,0.20819319784641266,0.25239837169647217,-0.19219662249088287},{0.5385321974754333,-0.4897637367248535,0.24545995891094208,0.3716098368167877,0.12931479513645172,-0.23101522028446198,0.06264469027519226,-0.04783981665968895},{-0.5686181783676147,-0.32159873843193054,0.04316963627934456,-0.10211721062660217,0.448222279548645,0.2838703989982605,-0.4258054792881012,-0.7581176161766052},{0.36119577288627625,0.0776732787489891,0.16968803107738495,0.4273620843887329,-0.5455344915390015,-0.011514242738485336,0.1261296272277832,-0.6287807822227478},{0.16812220215797424,-0.5987513065338135,-0.5506699681282043,-0.3428089916706085,0.11186440289020538,0.2874908149242401,0.1036437451839447,0.04798097535967827},{-0.32798632979393005,0.6131054162979126,0.08510614186525345,0.03984559699892998,-0.3660063147544861,0.2982746660709381,-0.24377533793449402,0.3775854706764221},{-0.13174445927143097,0.2836715877056122,-0.5421534180641174,-0.3647713363170624,-0.48485371470451355,0.006681948900222778,-0.6229231357574463,-0.15560099482536316}};
static const float actor_encoder_self_encoder_0_weight[18][16] = {{0.3534250259399414,0.07726674526929855,0.417980432510376,-0.4704107642173767,-0.12585657835006714,0.05679035559296608,-0.36289361119270325,0.0762062817811966,-0.28458666801452637,0.21932971477508545,-0.021251104772090912,0.11808915436267853,0.33391472697257996,-0.0921730026602745,0.3918190896511078,0.08977065980434418},{0.37024006247520447,0.3018256723880768,-0.10385818034410477,-0.14570274949073792,0.36486196517944336,0.07899606972932816,-0.3159993290901184,-0.22725865244865417,0.3146916329860687,-0.11718521267175674,-0.3941173553466797,0.11135893315076828,0.1506274789571762,-0.46852797269821167,-0.26415228843688965,0.09436849504709244},{0.013292369432747364,-0.16876456141471863,-0.2889740467071533,0.03231971710920334,0.22380557656288147,-0.07408387959003448,0.23471152782440186,0.359333872795105,-0.647071123123169,0.3363908529281616,0.2322816103696823,-0.020493997260928154,0.009624381549656391,-0.3000594675540924,-0.40266841650009155,0.4297749102115631},{-0.19871731102466583,0.16598393023014069,0.27001896500587463,-0.3840053379535675,-0.10266510397195816,0.024324286729097366,-0.2617097496986389,-0.18603472411632538,0.15058009326457977,0.18916288018226624,-0.024257803335785866,0.15787649154663086,0.24676325917243958,-0.17241720855236053,-0.256512314081192,-0.0038137834053486586},{-0.08001365512609482,0.214518740773201,-0.11695513129234314,0.08993449807167053,0.28871551156044006,0.06845496594905853,0.08776462078094482,-0.11941234022378922,0.1534181535243988,0.0989588126540184,-0.23234812915325165,0.39085525274276733,0.22539474070072174,-0.4548881947994232,0.046435531228780746,0.12514914572238922},{-0.2997112572193146,-0.22607704997062683,0.22639696300029755,0.3129741847515106,0.029969388619065285,0.2570953667163849,0.16354037821292877,-0.07537820190191269,-0.3102550208568573,-0.08851766586303711,0.46403440833091736,-0.07637099921703339,0.015932561829686165,0.06517067551612854,-0.12483134120702744,0.012192751280963421},{-0.043773259967565536,-0.38628560304641724,-0.09830756485462189,-0.2850930988788605,0.09269536286592484,0.6702038049697876,-0.33950334787368774,0.10630761086940765,0.3328753709793091,0.25525933504104614,0.27684226632118225,0.39873969554901123,-0.2653537690639496,0.22605262696743011,0.25265246629714966,0.0012686612317338586},{0.21413207054138184,-0.23604175448417664,0.08626111596822739,0.2871570289134979,0.14201965928077698,0.7322676777839661,-0.2417631596326828,0.029389210045337677,-0.2439723014831543,-0.34768232703208923,-0.2984673082828522,-0.11719312518835068,0.5113348960876465,0.037843745201826096,0.03822537511587143,0.005533345974981785},{0.6047992706298828,0.5136471390724182,0.18159551918506622,-0.2703622281551361,-0.4026038348674774,0.08715210855007172,-0.32022881507873535,0.2782062590122223,-0.4647549092769623,0.48093143105506897,-0.041232023388147354,0.0379103347659111,-0.014969379641115665,0.17695258557796478,0.12516158819198608,-0.04941307753324509},{-0.4279153645038605,0.031377166509628296,-0.027873843908309937,0.008757147938013077,0.4234614670276642,-0.22309470176696777,0.1135760247707367,0.08632385730743408,-0.08248553425073624,-0.054246824234724045,-0.007896700873970985,-0.07376251369714737,-0.7731735706329346,0.21417850255966187,-0.02607044018805027,-0.5163037180900574},{-0.16482242941856384,-0.24814386665821075,-0.038578275591135025,-0.1007436066865921,0.43460842967033386,0.5526248216629028,-0.1452643722295761,0.1517864316701889,-0.11206987500190735,0.2686925232410431,-0.1253616064786911,0.3147825002670288,-0.05386589840054512,-0.4286360740661621,-0.08920839428901672,-0.19434146583080292},{-0.27333641052246094,0.46354976296424866,-0.07144460827112198,0.25647348165512085,0.21419116854667664,0.21980541944503784,0.1964554488658905,-0.2624400556087494,-0.6992827653884888,-0.316272109746933,-0.26092857122421265,0.18174248933792114,-0.06656765192747116,-0.8178752660751343,-0.34097522497177124,-0.05939096212387085},{0.6763637065887451,0.15110674500465393,0.1015172079205513,-0.9188718199729919,-0.20992127060890198,-0.5509308576583862,-0.026164576411247253,0.18511687219142914,-0.024064576253294945,0.24611282348632812,0.42230087518692017,-0.5926126837730408,0.17308703064918518,0.0958852544426918,-0.38884493708610535,-0.03177782520651817},{-0.42281752824783325,0.36795201897621155,0.648375928401947,-0.37371617555618286,0.13977517187595367,0.17495188117027283,-0.25579172372817993,0.31746190786361694,-0.01612223871052265,-0.10146515816450119,0.039513472467660904,0.4191775619983673,-0.04374619945883751,-0.5443557500839233,-0.3215138912200928,-0.14023026823997498},{-0.2865420877933502,0.2845189869403839,0.3754703998565674,0.3340763449668884,0.26411694288253784,0.04195328429341316,0.14419177174568176,-0.09918195754289627,0.3281373381614685,0.31327465176582336,-0.049800507724285126,-0.1505766361951828,0.11832842975854874,0.5148211121559143,0.20689557492733002,-0.3635033071041107},{-0.13895216584205627,0.08705727010965347,-0.07646014541387558,-0.21345657110214233,-0.11257860064506531,0.33262789249420166,-0.30907297134399414,-0.33789345622062683,-0.18095549941062927,0.17954444885253906,-0.07397397607564926,0.10906399041414261,-0.29679253697395325,-0.0662384033203125,-0.06735779345035553,0.21174213290214539},{-0.14245207607746124,0.2031826674938202,-0.37740829586982727,0.16097643971443176,0.14668475091457367,0.1465432047843933,0.06152570620179176,-0.2858341932296753,-0.11733689904212952,-0.05336018279194832,-0.2731805443763733,0.2625782787799835,-0.11169824749231339,-0.19140799343585968,0.30148082971572876,0.20679698884487152},{-0.24722373485565186,0.08447127789258957,-0.23638245463371277,-0.25486236810684204,-0.29227980971336365,0.20874382555484772,0.28337496519088745,0.40186595916748047,0.08014392852783203,-0.3381381332874298,0.044775865972042084,-0.4662988483905792,-0.12199926376342773,-0.23520979285240173,-0.1595245599746704,0.37710708379745483}};
static const float actor_encoder_self_encoder_2_weight[16][16] = {{-0.3885616958141327,-0.2744065821170807,0.1980816274881363,-0.2438502460718155,-0.25967827439308167,-0.09545441716909409,-0.0024363757111132145,-0.43402352929115295,-0.10483679920434952,0.10249875485897064,-0.26287841796875,0.3811351954936981,-0.4168294668197632,-0.05034565553069115,-0.39028608798980713,-0.1172165647149086},{-0.31634700298309326,0.3380756974220276,0.25588080286979675,0.03337842598557472,0.2572733163833618,0.31165292859077454,-0.17036586999893188,0.06350328773260117,-0.32693296670913696,0.26890385150909424,0.4533606171607971,-0.42257627844810486,-0.009110450744628906,0.0003613849403336644,0.08166279643774033,-0.4257141649723053},{-0.4540056586265564,0.09978191554546356,0.046384043991565704,-0.006192916538566351,-0.45144882798194885,0.32885318994522095,0.2410029172897339,-0.4696181118488312,-0.18796280026435852,-0.6052156090736389,0.262057363986969,0.1833745688199997,0.19751760363578796,0.3988628387451172,-0.2962345480918884,-0.1986641138792038},{0.15938425064086914,0.29899677634239197,-0.200739786028862,-0.30197635293006897,-0.10934766381978989,-0.09135977923870087,-0.20752204954624176,-0.0356515571475029,-0.13711878657341003,-0.14055584371089935,-0.3138270974159241,-0.11020679026842117,-0.22524958848953247,-0.47601833939552307,0.3476177155971527,-0.08832971006631851},{0.0395568385720253,0.3979641795158386,-0.30672508478164673,0.4436046779155731,-0.13794894516468048,-0.1060829907655716,-0.09276895970106125,0.07024907320737839,-0.056439608335494995,-0.4303164780139923,-0.28581130504608154,0.20091144740581512,0.11253814399242401,-0.1548215001821518,0.1883871853351593,0.24094869196414948},{0.39224573969841003,-0.22522921860218048,-0.31985199451446533,0.22213895618915558,0.18856821954250336,-0.08251402527093887,0.286557674407959,-0.11342005431652069,-0.4376828670501709,0.20398560166358948,0.014633170329034328,0.2805575132369995,0.09931007772684097,0.012998311780393124,-0.2333219349384308,0.462505042552948},{-0.4314756989479065,0.26383551955223083,0.19337664544582367,-0.16759121417999268,-0.43949130177497864,0.10939858108758926,-0.22956666350364685,0.33666521310806274,0.36648568511009216,-0.09395009279251099,-0.4297545850276947,-0.33618423342704773,-0.32593441009521484,0.2723313570022583,0.25131452083587646,-0.15169256925582886},{-0.08215215802192688,-0.29226383566856384,-0.14536376297473907,-0.16141639649868011,-0.23494823276996613,-0.011788399890065193,0.15802615880966187,-0.4831354320049286,-0.06327017396688461,-0.3876495957374573,-0.10730694979429245,0.207676962018013,-0.36775270104408264,0.37225428223609924,-0.13123708963394165,-0.16491907835006714},{-0.31161826848983765,-0.21394199132919312,0.11643809825181961,-0.161671444773674,-0.45695748925209045,-0.055025044828653336,-0.20452089607715607,0.06387282907962799,0.029224831610918045,-0.34092220664024353,0.3951490819454193,0.34484606981277466,-0.21331840753555298,-0.19157738983631134,0.32839885354042053,0.08136077970266342},{-0.41811028122901917,-0.21046264469623566,-0.364452600479126,0.31266626715660095,-0.12052824348211288,0.012908926233649254,-0.26793333888053894,-0.30493712425231934,0.15293531119823456,-0.012073494493961334,-0.24686414003372192,0.011214877478778362,-0.1962244063615799,0.41634616255760193,0.023079795762896538,0.07075020670890808},{-0.19379331171512604,-0.09691057354211807,0.02040240913629532,-0.24099215865135193,-0.04284270852804184,0.12071165442466736,0.12769731879234314,0.01605209708213806,0.18129824101924896,0.07015062123537064,-0.4427391588687897,0.05351095274090767,0.21623383462429047,0.26290538907051086,-0.12469232827425003,0.11682100594043732},{0.12180135399103165,0.16313773393630981,0.06592673808336258,0.24838222563266754,0.005950933787971735,-0.15926577150821686,-0.3297647535800934,-0.028229113668203354,-0.15026022493839264,-0.0647910088300705,-0.21126292645931244,-0.3025228977203369,-0.006435283925384283,0.18848814070224762,0.2577943503856659,-0.5053821802139282},{-0.2653299570083618,-0.5126988291740417,-0.13214918971061707,-0.3006887435913086,-0.3330136239528656,0.20238910615444183,-0.06904324144124985,-0.4593100845813751,0.2092605084180832,-0.2223382294178009,-0.36993950605392456,0.17108987271785736,-0.4563855826854706,0.01727914623916149,-0.04825844243168831,0.4157928228378296},{0.17286276817321777,-0.19922979176044464,-0.05929545313119888,0.026038488373160362,0.0806557908654213,-0.20447225868701935,-0.11452075839042664,0.3567599356174469,0.5411444902420044,-0.7064991593360901,0.2011350393295288,0.3098343014717102,-0.4423161447048187,0.39850670099258423,0.12643969058990479,-0.3207634389400482},{-0.11049460619688034,-0.10825607180595398,0.42100790143013,0.38347405195236206,0.09984496980905533,-0.2974390685558319,-0.20513169467449188,-0.330783873796463,-0.08383559435606003,0.17500410974025726,0.033921487629413605,-0.17781127989292145,-0.05540448799729347,-0.173259437084198,0.04481162503361702,0.06644108891487122},{0.4017496705055237,0.1049027070403099,0.021925097331404686,-0.1424691379070282,-0.40738800168037415,0.15207724273204803,0.2212950587272644,0.22935320436954498,0.27554306387901306,-0.0016296695685014129,-0.012777735479176044,0.36258450150489807,0.06530029326677322,0.3024411201477051,-0.022172922268509865,0.23302680253982544}};
static const float actor_encoder_feed_forward_0_weight[24][32] = {{-0.19461052119731903,0.056877247989177704,-0.24224303662776947,0.26091188192367554,-0.22231532633304596,-0.32796964049339294,0.008964316919445992,0.19411705434322357,-0.032863616943359375,-0.11279745399951935,0.10933259129524231,-0.23642447590827942,-0.27901768684387207,0.275662362575531,-0.3781944215297699,-0.21543096005916595,0.08989056199789047,-0.2677547037601471,-0.07198852300643921,-0.20497703552246094,0.03253944590687752,0.08030612766742706,-0.04645492509007454,0.025024015456438065,0.03463730961084366,0.056614238768815994,-0.2867126166820526,0.05865861847996712,0.05579885467886925,-0.0162382610142231,-0.21879607439041138,-0.09164180606603622},{-0.09984598308801651,-0.20026984810829163,-0.14990420639514923,0.08878029137849808,0.14346739649772644,0.08860400319099426,0.26664772629737854,-0.09146999567747116,-0.12322571873664856,-0.05682675167918205,-0.13654257357120514,0.028781283646821976,0.09622664004564285,-0.06662015616893768,-0.28310516476631165,-0.19058673083782196,-0.035045988857746124,0.09583230316638947,0.11202244460582733,-0.12390211969614029,0.11439646780490875,-0.03763112053275108,-0.336473673582077,0.135341614484787,-0.3509056866168976,0.1531098186969757,0.16093769669532776,-0.13861872255802155,0.08292470127344131,-0.04531075805425644,-0.35486727952957153,0.1898549646139145},{-0.1648063361644745,-0.3503730297088623,0.11369967460632324,0.07409750670194626,-0.07024341076612473,-0.2270684540271759,0.06341268122196198,0.1814458668231964,-0.27516865730285645,-0.024797482416033745,0.20441442728042603,-0.31475716829299927,0.36231815814971924,0.5259224772453308,0.3739628195762634,0.2074117213487625,-0.3124798834323883,-0.26072219014167786,-0.04524599760770798,-0.07158614695072174,0.3293212056159973,-0.06440984457731247,0.0015230379067361355,0.19497258961200714,-0.19789256155490875,0.01790681853890419,0.16029857099056244,0.4285334050655365,-0.008951032534241676,-0.1217624768614769,0.29179203510284424,-0.3411955237388611},{-0.15768371522426605,-0.05830875039100647,0.07556614279747009,0.15583139657974243,-0.22433140873908997,0.10764829069375992,0.09593585133552551,-0.19954854249954224,-0.2924821078777313,-0.10227660834789276,-0.3143378794193268,0.15048813819885254,0.19766759872436523,0.09889410436153412,-0.2900354862213135,-0.33037254214286804,0.245106041431427,0.018151897937059402,0.23303265869617462,0.2093912959098816,0.18986837565898895,-0.0367894172668457,0.22773118317127228,0.06496896594762802,-0.31001409888267517,-0.23046725988388062,0.055308979004621506,-0.516303300857544,-0.07466351240873337,-0.1494801938533783,-0.27605530619621277,0.25218629837036133},{-0.05306254327297211,-0.05104398727416992,0.11926301568746567,-0.03750409558415413,-0.007445452269166708,-0.08115163445472717,-0.03417307883501053,0.33636385202407837,0.21504007279872894,0.23895014822483063,-0.08465056121349335,0.28234612941741943,0.04062993824481964,-0.17767301201820374,-0.042945001274347305,0.17876781523227692,0.0738745704293251,-0.10325227677822113,0.05908995121717453,-0.12916764616966248,0.27779027819633484,0.01625952124595642,0.07424505054950714,0.10913487523794174,-0.06479988992214203,-0.2819474935531616,0.17914988100528717,-0.14924608170986176,0.0047095827758312225,-0.20538654923439026,0.11283093690872192,-0.31633806228637695},{-0.11325497925281525,-0.30399468541145325,-0.09611065685749054,0.09832947701215744,-0.0959358960390091,-0.2048647403717041,0.12585128843784332,0.3162052035331726,0.0533708818256855,0.109437495470047,0.17777742445468903,-0.3917675316333771,0.31599190831184387,-0.37022387981414795,-0.10322622209787369,0.2119116634130478,-0.5441847443580627,0.1045469269156456,0.2954944968223572,-0.19696246087551117,0.06476984918117523,0.029416993260383606,0.27031001448631287,0.01644034869968891,0.05005830526351929,0.26857468485832214,0.25446397066116333,-0.10943977534770966,-0.21039411425590515,-0.06183155998587608,0.009905766695737839,0.005441408138722181},{0.04009167477488518,0.4436381459236145,-0.2277158498764038,-0.08230908960103989,0.12487833946943283,-0.14245152473449707,-0.4024001955986023,-0.3001016080379486,0.11593784391880035,0.10985561460256577,0.014932435937225819,-0.21962392330169678,-0.3343122601509094,0.29174235463142395,0.20177797973155975,-0.1572120189666748,-0.3234846293926239,0.23667676746845245,-0.04937693104147911,0.07148120552301407,-0.13744838535785675,0.40165409445762634,0.37937113642692566,-0.2135636955499649,-0.1653520166873932,-0.19623368978500366,0.08377000689506531,-0.286823034286499,0.32322970032691956,0.04472333565354347,-0.2982521951198578,0.2673443853855133},{0.272849977016449,0.06182616949081421,-0.11786273121833801,-0.22512798011302948,0.1827925592660904,-0.05392330512404442,0.042984213680028915,-0.24438026547431946,-0.08762146532535553,-0.2254742532968521,-0.03337986394762993,-0.03678378462791443,0.1959330439567566,0.11881524324417114,-0.3668193221092224,0.2824750244617462,-0.21466903388500214,0.12383738905191422,0.04743233695626259,-0.1650446504354477,-0.12951892614364624,0.14846393465995789,0.019565019756555557,-0.2679748833179474,-0.33841416239738464,0.02104545757174492,-0.4652434289455414,0.17080633342266083,0.0764058381319046,0.15316392481327057,-0.1681666076183319,0.28196170926094055},{0.10208062082529068,0.11287785321474075,-0.32243064045906067,0.056419458240270615,-0.026988014578819275,0.16072838008403778,-0.09424721449613571,-0.22576084733009338,0.004400860518217087,0.15681542456150055,-0.032774318009614944,-0.15087126195430756,0.2520895302295685,-0.09759649634361267,-0.18486015498638153,0.13320724666118622,-0.06921970844268799,-0.17267446219921112,0.20452506840229034,0.07766612619161606,-0.13561247289180756,-0.04527578502893448,-0.024781880900263786,0.27656620740890503,-0.18317483365535736,0.15241841971874237,-0.2530003786087036,0.05841534584760666,0.3085894286632538,-0.04397831857204437,0.04642275720834732,0.030164310708642006},{0.2831608057022095,0.1347329020500183,0.23103877902030945,0.21643513441085815,0.1838257908821106,0.08165993541479111,-0.02316923253238201,0.18230023980140686,-0.044431209564208984,0.10016248375177383,-0.4352608025074005,-0.31625181436538696,-0.24399550259113312,0.20968790352344513,-0.3013242781162262,-0.003179778577759862,-0.34281080961227417,-0.3854557275772095,-0.15370045602321625,-0.09753827005624771,0.01485303696244955,-0.09749197959899902,-0.12132380157709122,0.2667151689529419,-0.07884868234395981,-0.09600774943828583,-0.019537808373570442,0.0017721571493893862,0.056521572172641754,-0.2175867259502411,-0.2025488317012787,0.20348505675792694},{0.1224827691912651,0.13170874118804932,-0.10812146961688995,0.3283030688762665,-0.07807023078203201,-0.13730184733867645,-0.23137427866458893,0.05420616269111633,0.11549648642539978,0.1981012523174286,0.2146415114402771,0.30565178394317627,0.09249532222747803,0.3972783386707306,-0.2578221261501312,-0.099828340113163,0.23078963160514832,-0.17780181765556335,-0.07266586273908615,0.24272632598876953,0.18307079374790192,0.006181804463267326,0.29485756158828735,-0.018994459882378578,0.0524061843752861,-0.2282409518957138,0.21322758495807648,-0.10583138465881348,0.04441776126623154,-0.3167046904563904,0.5109444260597229,-0.022457163780927658},{0.22005271911621094,0.030378803610801697,-0.262067049741745,0.03464255481958389,-0.3036474585533142,-0.09639362245798111,-0.29820090532302856,-0.05480392649769783,-0.010265481658279896,-0.19261205196380615,-0.018681460991501808,0.06398794054985046,-0.12576942145824432,-0.1455061137676239,-0.2437625676393509,-0.08019480109214783,-0.12179265916347504,0.0036801164969801903,-0.19143570959568024,-0.0966583788394928,0.10859706997871399,0.100344717502594,-0.23968303203582764,0.19974219799041748,-0.17552517354488373,0.2900458872318268,0.19638870656490326,-0.09681309759616852,0.08388817310333252,-0.21109101176261902,0.19750341773033142,0.1323513239622116},{-0.18476112186908722,-0.2838776409626007,-0.2107222080230713,-0.16233383119106293,-0.21885012090206146,-0.18131689727306366,0.11594337224960327,0.2719374895095825,-0.04772855341434479,-0.022080300375819206,0.0031431163661181927,0.040896426886320114,0.11507648229598999,0.2793082892894745,-0.03093312308192253,0.0004258581029716879,0.14734618365764618,0.2527995705604553,-0.23888397216796875,-0.004437741357833147,0.32248517870903015,-0.08275798708200455,-0.19004924595355988,0.02949903905391693,0.3207506537437439,-0.16151395440101624,0.10246938467025757,-0.31471291184425354,-0.1216079592704773,0.3150947391986847,-0.08469383418560028,0.06584306061267853},{0.2884197235107422,0.121070496737957,-0.34443485736846924,-0.01335216499865055,-0.11826781928539276,-0.021728960797190666,-0.18864770233631134,-0.09364890307188034,0.22155550122261047,0.03867294639348984,0.01886858232319355,-0.253030925989151,-0.2511328160762787,-0.10959390550851822,0.07663438469171524,-0.06318675726652145,-0.15233229100704193,0.04332450032234192,0.3370204567909241,-0.11375899612903595,-0.13187894225120544,-0.27107366919517517,0.2972175180912018,0.25652939081192017,0.2540724575519562,0.13496997952461243,-0.1965978443622589,-0.057901781052351,0.04751688987016678,-0.23250150680541992,-0.08482175320386887,0.2865670621395111},{0.21421627700328827,-0.44724419713020325,-0.10659050196409225,-0.10843051970005035,-0.27635326981544495,0.1848239004611969,-0.09756279736757278,0.23629997670650482,-0.26666340231895447,-0.06917595118284225,-0.09926780313253403,0.3733595609664917,-0.10521595180034637,-0.002986542647704482,0.02147107571363449,-0.21427784860134125,0.13194353878498077,0.28494319319725037,-0.4027917683124542,0.23385794460773468,-0.15754421055316925,0.003153331344947219,-0.054083436727523804,-0.031558889895677567,-0.4115334749221802,0.18985821306705475,0.07217995077371597,-0.053454723209142685,-0.11546199768781662,0.03896775841712952,0.27361369132995605,-0.12110703438520432},{-0.09736993163824081,0.4374749958515167,0.11575237661600113,-0.14281922578811646,-0.12694567441940308,0.14255954325199127,-0.1478073000907898,-0.3675565719604492,0.012970583513379097,0.3239792287349701,-0.29494786262512207,0.15167967975139618,0.04323858767747879,0.044581636786460876,-0.13327009975910187,-0.2111225426197052,0.08023712038993835,-0.3092591464519501,0.1393834352493286,0.37263453006744385,0.29482582211494446,0.32975444197654724,-0.16634710133075714,-0.22434920072555542,-0.27892929315567017,0.23817148804664612,-0.356035441160202,0.11336040496826172,0.35587987303733826,0.22422552108764648,0.32114049792289734,-0.011892815120518208},{0.027175305411219597,-0.1871354579925537,-0.04182055592536926,-0.18879130482673645,0.21450357139110565,-0.3061821162700653,0.009842859581112862,0.16484011709690094,-0.08618702739477158,0.3644618093967438,-0.29477396607398987,0.27538326382637024,0.10899697989225388,-0.22918370366096497,0.23818092048168182,0.14042158424854279,-0.1441250592470169,0.0626954436302185,-0.1811639964580536,0.09115377813577652,0.028531186282634735,-0.23498991131782532,-0.06950987130403519,-0.21742279827594757,0.32026761770248413,0.31557825207710266,0.10550098121166229,-0.21420705318450928,-0.133165180683136,-0.39514586329460144,-0.01822419837117195,-0.2301657646894455},{0.2608407735824585,0.10710453987121582,-0.3830670714378357,0.16437844932079315,-0.09481792896986008,-0.08786045014858246,0.08314672112464905,0.009425905533134937,-0.1546410769224167,-0.11234217882156372,-0.34347793459892273,-0.00258095795288682,0.18346841633319855,0.18770956993103027,0.16786962747573853,0.11346480250358582,0.12699277698993683,-0.06305723637342453,-0.533643901348114,-0.6369206309318542,0.5204338431358337,0.052866287529468536,-0.07038255035877228,-0.23128823935985565,0.033275943249464035,-0.07959013432264328,-0.020714882761240005,-0.12216213345527649,-0.05946109816431999,-0.28415969014167786,-0.07231801748275757,-0.09195601940155029},{-0.05406060814857483,-0.017492733895778656,0.3066718280315399,0.048467427492141724,0.272430419921875,-0.22832264006137848,-0.026445548981428146,-0.19808970391750336,0.1632586419582367,-0.06893949210643768,-0.10598283261060715,-0.223267063498497,0.061270684003829956,0.12994210422039032,-0.21225981414318085,-0.09707599133253098,0.11051196604967117,0.15202127397060394,-0.03212489187717438,-0.19676199555397034,-0.08218906074762344,0.0008236995781771839,-0.18091389536857605,0.1651851236820221,0.2442353069782257,-0.3100966215133667,-0.07870098203420639,0.19454404711723328,-0.029026081785559654,-0.20465725660324097,0.2732033133506775,-0.1105380430817604},{-0.1251528114080429,0.10137900710105896,0.3169664144515991,-0.1478351354598999,-0.15637388825416565,0.06281770765781403,0.2636268734931946,0.10349104553461075,0.3150130808353424,-0.4536561071872711,0.2675026059150696,0.34401825070381165,-0.1895202398300171,0.15359178185462952,-0.06924524903297424,-0.026105066761374474,-0.14731107652187347,0.24275226891040802,0.04964258149266243,-0.05098668485879898,0.16415508091449738,-0.3911008834838867,0.07671841979026794,-0.016422512009739876,0.06116802245378494,-0.2729967534542084,-0.09466942399740219,0.1805967390537262,-0.07481292635202408,0.058882344514131546,0.21957577764987946,0.23994730412960052},{0.15790288150310516,-0.13163667917251587,0.014656874351203442,0.3125695586204529,0.16176246106624603,-0.556624174118042,0.2520136833190918,-0.24860505759716034,-0.1791282445192337,-0.04249386861920357,-0.28165820240974426,0.06559905409812927,0.14282670617103577,-0.07616302371025085,-0.10412314534187317,-0.1417488306760788,0.056889697909355164,-0.09326943010091782,-0.23689933121204376,0.041143257170915604,-0.015199114568531513,0.121737040579319,0.24728238582611084,0.1320130079984665,-0.053378596901893616,-0.14638057351112366,-0.17450344562530518,0.1986864060163498,0.19627419114112854,-0.41363587975502014,0.10835951566696167,0.0242310743778944},{-0.061278462409973145,0.22438175976276398,0.04732323810458183,-0.18532654643058777,-0.032266490161418915,0.1324205994606018,0.2061547487974167,-0.09459012746810913,0.14860732853412628,-0.01649726927280426,-0.1659657508134842,0.16149041056632996,-0.09562577307224274,0.06981444358825684,0.32919609546661377,0.16227522492408752,0.03468608856201172,0.363923579454422,0.031764429062604904,-0.34774070978164673,0.1503862738609314,-0.3707873225212097,0.11976567655801773,0.18007631599903107,0.11228245496749878,0.2907021641731262,-0.11685367673635483,-0.2646051049232483,-0.05963515117764473,-0.07667925953865051,0.09508496522903442,0.11103826016187668},{-0.026572518050670624,0.15120252966880798,-0.17258763313293457,0.03571747615933418,-0.04520302638411522,-0.2494121491909027,0.4080396294593811,-0.13859610259532928,-0.055179499089717865,-0.12075801938772202,0.2602895498275757,0.23212940990924835,0.056893132627010345,-0.10440827161073685,-0.030596768483519554,0.044051643460989,-0.1870688647031784,0.16234560310840607,-0.03073088452219963,0.155042827129364,0.17713786661624908,-0.38114285469055176,-0.1938813030719757,0.17897172272205353,-0.06131156161427498,0.2386707365512848,0.08541231602430344,-0.1282764971256256,0.21118539571762085,-0.04039260745048523,0.079994335770607,-0.08648014068603516},{-0.1869715005159378,-0.007084268145263195,0.10595104098320007,0.3961544930934906,-0.3482559621334076,0.22868113219738007,-0.20538298785686493,-0.06331637501716614,-0.04387231916189194,0.35067909955978394,-0.028663640841841698,0.0848531648516655,-0.2702348530292511,0.45354124903678894,0.26968592405319214,0.1742113083600998,-0.418872207403183,-0.27359122037887573,0.029170291498303413,0.060631852596998215,0.39481571316719055,0.05187555402517319,-0.023154890164732933,-0.02524305135011673,0.27518555521965027,-0.08352887630462646,-0.2677733898162842,0.27814796566963196,0.2380484640598297,-0.10350771993398666,0.13586392998695374,0.005821188446134329}};
static const float action_parameterization_distribution_linear_weight[32][4] = {{-0.14921092987060547,-0.03394647315144539,0.19828514754772186,0.307320773601532},{-0.14765729010105133,0.15853387117385864,-0.12788432836532593,-0.17580391466617584},{0.014512604102492332,-0.3806530833244324,0.12416717410087585,0.3946641683578491},{0.4023350477218628,0.2884922921657562,-0.18807318806648254,-0.3008634150028229},{-0.0030238276813179255,-0.17632868885993958,-0.15162880718708038,0.06013604253530502},{0.22126299142837524,-0.21109111607074738,-0.033881451934576035,-0.17742329835891724},{0.13899144530296326,-0.062499117106199265,0.003000435419380665,-0.10182178765535355},{0.1928045153617859,-0.3376479148864746,0.02308722957968712,-0.11754339933395386},{-0.21921290457248688,0.2026197463274002,0.038582999259233475,-0.027007130905985832},{-0.16251687705516815,0.003154387231916189,-0.3285941779613495,0.01319277286529541},{0.035902708768844604,-0.06216251850128174,0.32829833030700684,0.047110363841056824},{0.07500432431697845,-0.2200492024421692,0.09273819625377655,0.539750874042511},{-0.05007590353488922,-0.3816557228565216,0.2866973280906677,0.2762155532836914},{0.036535073071718216,0.565462052822113,0.08770762383937836,0.1439746618270874},{0.2236425131559372,-0.11226388812065125,0.19689789414405823,-0.06939513981342316},{0.15929445624351501,-0.06346026062965393,0.1965656578540802,-0.2996605634689331},{-0.0575210303068161,0.019717667251825333,-0.18579085171222687,0.28222206234931946},{0.36104851961135864,-0.39329418540000916,-0.2171604484319687,-0.2498330920934677},{-0.21093536913394928,0.033673521131277084,-0.04354952648282051,0.12500277161598206},{-0.23116084933280945,0.03588153421878815,0.3155681788921356,0.12303483486175537},{0.2933182120323181,0.3574076294898987,-0.19789202511310577,0.12692813575267792},{-0.09533217549324036,0.18021142482757568,-0.1221034824848175,-0.22038088738918304},{-0.005528343375772238,-0.133926123380661,-0.10894658416509628,-0.1653752326965332},{-0.3682636618614197,-0.05113867297768593,0.16992159187793732,0.22920067608356476},{-0.33320942521095276,0.13898205757141113,-0.27089551091194153,-0.30179110169410706},{-0.35179850459098816,0.000636366952676326,-0.17746609449386597,-0.1251995712518692},{0.2473617047071457,-0.2102666050195694,-0.12321626394987106,-0.17922504246234894},{0.13390903174877167,-0.06765355169773102,0.44224950671195984,0.07194460928440094},{-0.24823367595672607,0.10895340889692307,0.05069680139422417,-0.16247840225696564},{0.08730766177177429,0.08494550734758377,0.20056970417499542,-0.0759408101439476},{0.10697536170482635,0.34631916880607605,0.4485290050506592,0.1760244518518448},{-0.28045082092285156,0.20192381739616394,-0.41327959299087524,-0.11593469977378845}};
static const float actor_encoder_neighbor_encoder_embedding_mlp_0_bias[8] = {-0.26289618015289307,0.10508207976818085,-0.031014038249850273,0.11806268990039825,0.07627365738153458,0.3337174952030182,0.29569658637046814,0.13612361252307892};
static const float actor_encoder_neighbor_encoder_embedding_mlp_2_bias[8] = {-0.12448664754629135,0.29047200083732605,0.05008436739444733,0.19515034556388855,0.1967567801475525,-0.051993478089571,0.1853872537612915,0.1825409233570099};
static const float actor_encoder_self_encoder_0_bias[16] = {-0.10594189912080765,0.13111381232738495,0.2556964159011841,0.1076640784740448,0.21008120477199554,-0.3425554931163788,0.1663607954978943,-0.16064561903476715,0.20466238260269165,0.03853846341371536,0.1326124221086502,-0.08438795059919357,-0.11811986565589905,0.11004453152418137,-0.020522059872746468,-0.4082850217819214};
static const float actor_encoder_self_encoder_2_bias[16] = {-0.22803206741809845,0.07228226214647293,0.19140146672725677,0.11185378581285477,-0.2276783436536789,0.10936661064624786,0.18916204571723938,0.11423534154891968,0.15396837890148163,-0.5262419581413269,0.2583760917186737,-0.14349044859409332,0.08394543826580048,-0.1217927485704422,0.15729813277721405,-0.030873842537403107};
static const float actor_encoder_feed_forward_0_bias[32] = {-0.05834797024726868,-0.06533753871917725,-0.0036042402498424053,0.08131527900695801,0.02414935827255249,0.031696464866399765,-0.006771141197532415,0.1679222732782364,-0.1052170917391777,-0.043798577040433884,0.14990781247615814,0.16203279793262482,0.07361716032028198,0.09029342234134674,0.055774055421352386,0.22206465899944305,0.1207592636346817,0.12316183000802994,-0.23527278006076813,0.09810440242290497,0.03454001247882843,-0.26727840304374695,0.05736329406499863,-0.09735351800918579,0.1496526002883911,-0.031371165066957474,-0.04036497324705124,0.026664962992072105,0.18575438857078552,-0.2407248169183731,0.059190694242715836,0.12196315079927444};
static const float critic_encoder_neighbor_encoder_embedding_mlp_0_bias[8] = {-0.0033654477447271347,-0.009183517657220364,-0.020070470869541168,-0.010700593702495098,0.01886921189725399,-0.01822364144027233,-0.026601845398545265,0.009246681816875935};
static const float critic_encoder_neighbor_encoder_embedding_mlp_2_bias[8] = {0.05401954799890518,0.04907630756497383,0.11611682921648026,-0.036815010011196136,0.060442663729190826,-0.2745424807071686,-0.1799929141998291,0.6895084381103516};
static const float critic_encoder_self_encoder_0_bias[16] = {0.028791531920433044,0.09769295901060104,0.0119142085313797,-0.24770937860012054,-0.0903472825884819,-0.023127691820263863,0.12882910668849945,0.05313440412282944,-0.16964958608150482,-0.01387454941868782,0.12500716745853424,-0.03748151659965515,0.07587935030460358,0.10364378243684769,0.20833438634872437,0.22036519646644592};
static const float critic_encoder_self_encoder_2_bias[16] = {0.11335498094558716,-0.03231465816497803,0.2188355177640915,0.04814482480287552,0.08414260298013687,0.1365547925233841,0.1269238144159317,0.02126949094235897,0.009864802472293377,0.034012969583272934,0.10362948477268219,0.08669827878475189,0.059891343116760254,0.08485190570354462,-0.3795210123062134,-0.12368718534708023};
static const float critic_encoder_feed_forward_0_bias[32] = {-0.10023143887519836,0.06931964308023453,0.1137458086013794,0.15555404126644135,0.013737165369093418,0.1441793292760849,0.14279772341251373,0.047502245754003525,0.1428890973329544,0.16780725121498108,0.06932476162910461,0.12426500022411346,-0.3286316394805908,-0.025012001395225525,-0.13484308123588562,0.13647401332855225,-0.1813897043466568,0.1287444829940796,-0.025016088038682938,0.17716029286384583,0.1358409970998764,0.22521895170211792,0.15009929239749908,-0.03664601966738701,-0.1018248200416565,2.0983870854252018e-05,-0.041933026164770126,-0.14815960824489594,-0.06298599392175674,-0.19663748145103455,0.23602861166000366,0.15246230363845825};
static const float critic_linear_bias[1] = {-0.14745768904685974};
static const float action_parameterization_distribution_linear_bias[4] = {0.05374455824494362,0.0002308706025360152,-0.03583519533276558,-0.029136192053556442};
void networkEvaluate(struct control_t_n *control_n, const float *state_array) {
        for (int i = 0; i < structure[0][1]; i++) {
            output_0[i] = 0;
            for (int j = 0; j < structure[0][0]; j++) {
                output_0[i] += state_array[j] * actor_encoder_neighbor_encoder_embedding_mlp_0_weight[j][i];
            }
            output_0[i] += actor_encoder_neighbor_encoder_embedding_mlp_0_bias[i];
            output_0[i] = tanhf(output_0[i]);
        }
    
        for (int i = 0; i < structure[1][1]; i++) {
            output_1[i] = 0;
            for (int j = 0; j < structure[1][0]; j++) {
                output_1[i] += output_0[j] * actor_encoder_neighbor_encoder_embedding_mlp_2_weight[j][i];
            }
            output_1[i] += actor_encoder_neighbor_encoder_embedding_mlp_2_bias[i];
            output_1[i] = tanhf(output_1[i]);
        }
        
        for (int i = 0; i < structure[2][1]; i++) {
            output_2[i] = 0;
            for (int j = 0; j < structure[2][0]; j++) {
                output_2[i] += output_1[j] * actor_encoder_self_encoder_0_weight[j][i];
            }
            output_2[i] += actor_encoder_self_encoder_0_bias[i];
            output_2[i] = tanhf(output_2[i]);
        }
        
        for (int i = 0; i < structure[3][1]; i++) {
            output_3[i] = 0;
            for (int j = 0; j < structure[3][0]; j++) {
                output_3[i] += output_2[j] * actor_encoder_self_encoder_2_weight[j][i];
            }
            output_3[i] += actor_encoder_self_encoder_2_bias[i];
            output_3[i] = tanhf(output_3[i]);
        }
        
        for (int i = 0; i < structure[4][1]; i++) {
            output_4[i] = 0;
            for (int j = 0; j < structure[4][0]; j++) {
                output_4[i] += output_3[j] * actor_encoder_feed_forward_0_weight[j][i];
            }
            output_4[i] += actor_encoder_feed_forward_0_bias[i];
            output_4[i] = tanhf(output_4[i]);
        }
        
                for (int i = 0; i < structure[5][1]; i++) {
                    output_5[i] = 0;
                    for (int j = 0; j < structure[5][0]; j++) {
                        output_5[i] += output_4[j] * action_parameterization_distribution_linear_weight[j][i];
                    }
                    output_5[i] += critic_encoder_neighbor_encoder_embedding_mlp_0_bias[i];
                }
    
            control_n->thrust_0 = output_5[0];
            control_n->thrust_1 = output_5[1];
            control_n->thrust_2 = output_5[2];
            control_n->thrust_3 = output_5[3];	
    }

int main(const float *indatav, size_t size, float *outdatav)
{
    size_t i;
    control_t_n motorThrusts;
    networkEvaluate(&motorThrusts, indatav);

    outdatav[0] = motorThrusts.thrust_0;
    outdatav[1] = motorThrusts.thrust_1;
    outdatav[2] = motorThrusts.thrust_2;
    outdatav[3] = motorThrusts.thrust_3;
    return EXIT_SUCCESS;
}

